{"learner":{"attributes":{"best_iteration":"810","best_score":"0.9694610572626658"},"feature_names":[],"feature_types":[],"gradient_booster":{"model":{"gbtree_model_param":{"num_parallel_tree":"1","num_trees":"911"},"iteration_indptr":[0,1,2,3,4,5,6,7,8,9,10,11,12,13,14,15,16,17,18,19,20,21,22,23,24,25,26,27,28,29,30,31,32,33,34,35,36,37,38,39,40,41,42,43,44,45,46,47,48,49,50,51,52,53,54,55,56,57,58,59,60,61,62,63,64,65,66,67,68,69,70,71,72,73,74,75,76,77,78,79,80,81,82,83,84,85,86,87,88,89,90,91,92,93,94,95,96,97,98,99,100,101,102,103,104,105,106,107,108,109,110,111,112,113,114,115,116,117,118,119,120,121,122,123,124,125,126,127,128,129,130,131,132,133,134,135,136,137,138,139,140,141,142,143,144,145,146,147,148,149,150,151,152,153,154,155,156,157,158,159,160,161,162,163,164,165,166,167,168,169,170,171,172,173,174,175,176,177,178,179,180,181,182,183,184,185,186,187,188,189,190,191,192,193,194,195,196,197,198,199,200,201,202,203,204,205,206,207,208,209,210,211,212,213,214,215,216,217,218,219,220,221,222,223,224,225,226,227,228,229,230,231,232,233,234,235,236,237,238,239,240,241,242,243,244,245,246,247,248,249,250,251,252,253,254,255,256,257,258,259,260,261,262,263,264,265,266,267,268,269,270,271,272,273,274,275,276,277,278,279,280,281,282,283,284,285,286,287,288,289,290,291,292,293,294,295,296,297,298,299,300,301,302,303,304,305,306,307,308,309,310,311,312,313,314,315,316,317,318,319,320,321,322,323,324,325,326,327,328,329,330,331,332,333,334,335,336,337,338,339,340,341,342,343,344,345,346,347,348,349,350,351,352,353,354,355,356,357,358,359,360,361,362,363,364,365,366,367,368,369,370,371,372,373,374,375,376,377,378,379,380,381,382,383,384,385,386,387,388,389,390,391,392,393,394,395,396,397,398,399,400,401,402,403,404,405,406,407,408,409,410,411,412,413,414,415,416,417,418,419,420,421,422,423,424,425,426,427,428,429,430,431,432,433,434,435,436,437,438,439,440,441,442,443,444,445,446,447,448,449,450,451,452,453,454,455,456,457,458,459,460,461,462,463,464,465,466,467,468,469,470,471,472,473,474,475,476,477,478,479,480,481,482,483,484,485,486,487,488,489,490,491,492,493,494,495,496,497,498,499,500,501,502,503,504,505,506,507,508,509,510,511,512,513,514,515,516,517,518,519,520,521,522,523,524,525,526,527,528,529,530,531,532,533,534,535,536,537,538,539,540,541,542,543,544,545,546,547,548,549,550,551,552,553,554,555,556,557,558,559,560,561,562,563,564,565,566,567,568,569,570,571,572,573,574,575,576,577,578,579,580,581,582,583,584,585,586,587,588,589,590,591,592,593,594,595,596,597,598,599,600,601,602,603,604,605,606,607,608,609,610,611,612,613,614,615,616,617,618,619,620,621,622,623,624,625,626,627,628,629,630,631,632,633,634,635,636,637,638,639,640,641,642,643,644,645,646,647,648,649,650,651,652,653,654,655,656,657,658,659,660,661,662,663,664,665,666,667,668,669,670,671,672,673,674,675,676,677,678,679,680,681,682,683,684,685,686,687,688,689,690,691,692,693,694,695,696,697,698,699,700,701,702,703,704,705,706,707,708,709,710,711,712,713,714,715,716,717,718,719,720,721,722,723,724,725,726,727,728,729,730,731,732,733,734,735,736,737,738,739,740,741,742,743,744,745,746,747,748,749,750,751,752,753,754,755,756,757,758,759,760,761,762,763,764,765,766,767,768,769,770,771,772,773,774,775,776,777,778,779,780,781,782,783,784,785,786,787,788,789,790,791,792,793,794,795,796,797,798,799,800,801,802,803,804,805,806,807,808,809,810,811,812,813,814,815,816,817,818,819,820,821,822,823,824,825,826,827,828,829,830,831,832,833,834,835,836,837,838,839,840,841,842,843,844,845,846,847,848,849,850,851,852,853,854,855,856,857,858,859,860,861,862,863,864,865,866,867,868,869,870,871,872,873,874,875,876,877,878,879,880,881,882,883,884,885,886,887,888,889,890,891,892,893,894,895,896,897,898,899,900,901,902,903,904,905,906,907,908,909,910,911],"tree_info":[0,0,0,0,0,0,0,0,0,0,0,0,0,0,0,0,0,0,0,0,0,0,0,0,0,0,0,0,0,0,0,0,0,0,0,0,0,0,0,0,0,0,0,0,0,0,0,0,0,0,0,0,0,0,0,0,0,0,0,0,0,0,0,0,0,0,0,0,0,0,0,0,0,0,0,0,0,0,0,0,0,0,0,0,0,0,0,0,0,0,0,0,0,0,0,0,0,0,0,0,0,0,0,0,0,0,0,0,0,0,0,0,0,0,0,0,0,0,0,0,0,0,0,0,0,0,0,0,0,0,0,0,0,0,0,0,0,0,0,0,0,0,0,0,0,0,0,0,0,0,0,0,0,0,0,0,0,0,0,0,0,0,0,0,0,0,0,0,0,0,0,0,0,0,0,0,0,0,0,0,0,0,0,0,0,0,0,0,0,0,0,0,0,0,0,0,0,0,0,0,0,0,0,0,0,0,0,0,0,0,0,0,0,0,0,0,0,0,0,0,0,0,0,0,0,0,0,0,0,0,0,0,0,0,0,0,0,0,0,0,0,0,0,0,0,0,0,0,0,0,0,0,0,0,0,0,0,0,0,0,0,0,0,0,0,0,0,0,0,0,0,0,0,0,0,0,0,0,0,0,0,0,0,0,0,0,0,0,0,0,0,0,0,0,0,0,0,0,0,0,0,0,0,0,0,0,0,0,0,0,0,0,0,0,0,0,0,0,0,0,0,0,0,0,0,0,0,0,0,0,0,0,0,0,0,0,0,0,0,0,0,0,0,0,0,0,0,0,0,0,0,0,0,0,0,0,0,0,0,0,0,0,0,0,0,0,0,0,0,0,0,0,0,0,0,0,0,0,0,0,0,0,0,0,0,0,0,0,0,0,0,0,0,0,0,0,0,0,0,0,0,0,0,0,0,0,0,0,0,0,0,0,0,0,0,0,0,0,0,0,0,0,0,0,0,0,0,0,0,0,0,0,0,0,0,0,0,0,0,0,0,0,0,0,0,0,0,0,0,0,0,0,0,0,0,0,0,0,0,0,0,0,0,0,0,0,0,0,0,0,0,0,0,0,0,0,0,0,0,0,0,0,0,0,0,0,0,0,0,0,0,0,0,0,0,0,0,0,0,0,0,0,0,0,0,0,0,0,0,0,0,0,0,0,0,0,0,0,0,0,0,0,0,0,0,0,0,0,0,0,0,0,0,0,0,0,0,0,0,0,0,0,0,0,0,0,0,0,0,0,0,0,0,0,0,0,0,0,0,0,0,0,0,0,0,0,0,0,0,0,0,0,0,0,0,0,0,0,0,0,0,0,0,0,0,0,0,0,0,0,0,0,0,0,0,0,0,0,0,0,0,0,0,0,0,0,0,0,0,0,0,0,0,0,0,0,0,0,0,0,0,0,0,0,0,0,0,0,0,0,0,0,0,0,0,0,0,0,0,0,0,0,0,0,0,0,0,0,0,0,0,0,0,0,0,0,0,0,0,0,0,0,0,0,0,0,0,0,0,0,0,0,0,0,0,0,0,0,0,0,0,0,0,0,0,0,0,0,0,0,0,0,0,0,0,0,0,0,0,0,0,0,0,0,0,0,0,0,0,0,0,0,0,0,0,0,0,0,0,0,0,0,0,0,0,0,0,0,0,0,0,0,0,0,0,0,0,0,0,0,0,0,0,0,0,0,0,0,0,0,0,0,0,0,0,0,0,0,0,0,0,0,0,0,0,0,0,0,0,0,0,0,0,0,0,0,0,0,0,0,0,0,0,0,0,0,0,0,0,0,0,0,0,0,0,0,0,0,0,0,0,0,0,0,0,0,0,0,0,0,0,0,0,0,0,0,0,0,0,0,0,0,0,0,0,0,0,0,0,0,0,0,0,0,0,0,0,0,0,0,0,0,0,0,0,0,0,0,0,0,0,0,0,0,0,0,0,0,0,0,0,0,0,0,0,0,0,0,0,0,0,0,0,0,0,0,0,0,0,0,0,0,0,0,0,0,0,0,0,0,0,0,0,0,0,0,0,0,0,0,0,0,0,0,0,0,0,0,0,0,0],"trees":[{"base_weights":[3.0440446E-2,-1.3075204E0,1.0399709E0,-1.5533113E0,4.6989885E-1,1.2446482E0,-7.161927E-1,1.9450203E-2,-1.6152577E0,-2.2217128E-2,1.024464E0,1.3689415E0,-2.9449257E-1,4.6689388E-1,-1.1215932E0,4.7586067E-3,-1.6683893E0,1.3655127E0,-6.994387E-3,-2.2484523E-1,1.4426097E0,-2.5912346E-2,3.590797E-1,-3.4129734E-3,1.9953378E-2,-1.7112393E-2,-3.0044375E-2,-1.8909606E-3,-1.7031883E0,7.521482E-3,3.0438E-2,-2.5266027E-2,5.4594743E-1,1.50691E0,7.0893024E-3,-7.260325E-3,2.0872025E-2,8.868848E-3,-9.470555E-3,-1.7389648E0,-6.3146794E-1,-2.834594E-3,2.0668436E-2,6.984797E-2,1.5514845E0,-1.7933479E-2,1.6692724E-2,-1.594768E-2,-3.466428E-2,8.5607305E-4,-2.1539016E-2,1.5698876E-2,-1.2918072E-2,3.1058988E-2,-4.5350953E-3],"categories":[],"categories_nodes":[],"categories_segments":[],"categories_sizes":[],"default_left":[0,0,0,0,0,0,0,0,0,0,0,0,0,0,0,0,0,0,0,0,0,0,0,0,0,0,0,0,0,0,0,0,0,0,0,0,0,0,0,0,0,0,0,0,0,0,0,0,0,0,0,0,0,0,0],"id":0,"left_children":[1,3,5,7,9,11,13,-1,15,-1,17,19,21,23,25,-1,27,29,-1,31,33,-1,35,-1,-1,37,-1,-1,39,-1,-1,-1,41,43,45,-1,-1,-1,-1,47,49,-1,-1,51,53,-1,-1,-1,-1,-1,-1,-1,-1,-1,-1],"loss_changes":[2.0276259E3,2.8568713E2,3.1194708E2,9.76449E1,7.8976974E1,1.489342E2,4.695389E1,0E0,5.698706E1,0E0,3.2465622E1,8.5155396E1,4.3706886E1,1.0481428E1,3.1922958E1,0E0,2.8821777E1,6.693718E0,0E0,3.2859917E1,6.2783325E1,0E0,2.338301E1,0E0,0E0,6.389278E0,0E0,0E0,1.4847778E1,0E0,0E0,0E0,9.290659E0,4.1196045E1,3.0559877E1,0E0,0E0,0E0,0E0,7.5374756E0,8.126309E0,0E0,0E0,1.5882594E1,4.0786133E1,0E0,0E0,0E0,0E0,0E0,0E0,0E0,0E0,0E0,0E0],"parents":[2147483647,0,0,1,1,2,2,3,3,4,4,5,5,6,6,8,8,10,10,11,11,12,12,13,13,14,14,16,16,17,17,19,19,20,20,22,22,25,25,28,28,32,32,33,33,34,34,39,39,40,40,43,43,44,44],"right_children":[2,4,6,8,10,12,14,-1,16,-1,18,20,22,24,26,-1,28,30,-1,32,34,-1,36,-1,-1,38,-1,-1,40,-1,-1,-1,42,44,46,-1,-1,-1,-1,48,50,-1,-1,52,54,-1,-1,-1,-1,-1,-1,-1,-1,-1,-1],"split_conditions":[5.9662208E-2,1.1357398E-1,4.9585037E-2,-1.0966766E-1,-1.9196613E-2,5.425757E-2,-8.137323E-2,1.9450203E-2,-1.847679E-1,-2.2217128E-2,5.4723408E-2,4.8391346E-2,5.030628E-2,6.734145E-2,-2.1607919E-1,4.7586067E-3,-1.5870008E-1,4.742004E-2,-6.994387E-3,-5.2196693E-2,-6.7708716E-2,-2.5912346E-2,-7.74111E-2,-3.4129734E-3,1.9953378E-2,-7.770966E-2,-3.0044375E-2,-1.8909606E-3,2.2923711E-1,7.521482E-3,3.0438E-2,-2.5266027E-2,1.10771544E-1,-9.6692204E-2,6.2822945E-2,-7.260325E-3,2.0872025E-2,8.868848E-3,-9.470555E-3,-1.164035E-1,-2.1819027E-2,-2.834594E-3,2.0668436E-2,1.3678034E-1,6.328932E-2,-1.7933479E-2,1.6692724E-2,-1.594768E-2,-3.466428E-2,8.5607305E-4,-2.1539016E-2,1.5698876E-2,-1.2918072E-2,3.1058988E-2,-4.5350953E-3],"split_indices":[25,1080,790,1183,799,369,621,0,6,0,1093,77,711,1021,381,0,1070,240,0,1124,797,0,611,0,0,19,0,0,145,0,0,0,1231,901,619,0,0,0,0,774,11,0,0,24,1087,0,0,0,0,0,0,0,0,0,0],"split_type":[0,0,0,0,0,0,0,0,0,0,0,0,0,0,0,0,0,0,0,0,0,0,0,0,0,0,0,0,0,0,0,0,0,0,0,0,0,0,0,0,0,0,0,0,0,0,0,0,0,0,0,0,0,0,0],"sum_hessian":[1.4911605E3,6.406363E2,8.505243E2,5.6335974E2,7.727653E1,7.6304346E2,8.74808E1,1.1600693E1,5.517591E2,1.8511593E1,5.8764935E1,7.0653766E2,5.6505802E1,2.2133348E1,6.534745E1,1.48427515E1,5.369163E2,4.717761E1,1.1587327E1,3.076337E1,6.757743E2,1.996985E1,3.653595E1,1.1816544E1,1.0316806E1,1.9185184E1,4.6162262E1,1.2036618E1,5.248797E2,1.0051025E1,3.7126583E1,1.1505057E1,1.9258314E1,6.4656555E2,2.9208788E1,1.913948E1,1.739647E1,9.629157E0,9.556028E0,5.0492392E2,1.9955793E1,9.688919E0,9.569395E0,1.983627E1,6.2672925E2,1.3765573E1,1.5443214E1,2.0895857E1,4.8402805E2,1.00236025E1,9.932192E0,9.65658E0,1.017969E1,6.1534375E2,1.1385533E1],"tree_param":{"num_deleted":"0","num_feature":"1280","num_nodes":"55","size_leaf_vector":"1"}},{"base_weights":[-2.0975592E-2,8.492389E-1,-1.3969903E0,1.1289935E0,-8.8858867E-1,8.435911E-1,-1.5542918E0,-2.1985207E-1,1.3219875E0,4.51542E-1,-1.2693077E0,-5.196157E-3,2.4087325E-2,1.6509347E-3,-1.6122384E0,-9.219848E-1,7.2222227E-1,1.3885088E0,-4.7980174E-1,-1.023469E-2,1.9733714E-2,-1.5070431E0,1.0800809E-2,-1.7966688E-1,-1.6693858E0,-1.1773458E0,4.25613E-3,1.1427131E0,-7.282945E-3,1.4417328E0,-7.528954E-3,-2.3341643E-2,7.6418007E-3,-3.3915516E-2,-4.918603E-3,1.26916785E-2,-1.7751345E-2,-1.1003368E0,-1.7513273E0,-1.405957E0,-2.5955036E-3,2.820144E-2,5.98427E-3,1.50602E0,3.4726897E-1,-4.097823E-3,-1.2702934E0,-1.4440285E-2,-1.7877562E0,-3.157118E-2,-9.703399E-3,2.8099432E-3,3.0398233E-2,-1.0739409E-2,1.4039396E-2,-2.8338686E-2,-6.497411E-3,-1.2961814E-2,-3.5498228E-2],"categories":[],"categories_nodes":[],"categories_segments":[],"categories_sizes":[],"default_left":[0,0,0,0,0,0,0,0,0,0,0,0,0,0,0,0,0,0,0,0,0,0,0,0,0,0,0,0,0,0,0,0,0,0,0,0,0,0,0,0,0,0,0,0,0,0,0,0,0,0,0,0,0,0,0,0,0,0,0],"id":1,"left_children":[1,3,5,7,9,11,13,15,17,19,21,-1,-1,-1,23,25,27,29,31,-1,-1,33,-1,35,37,39,-1,41,-1,43,-1,-1,-1,-1,-1,-1,-1,45,47,49,-1,-1,-1,51,53,-1,55,-1,57,-1,-1,-1,-1,-1,-1,-1,-1,-1,-1],"loss_changes":[1.7737998E3,4.4620422E2,2.087843E2,2.0550745E2,6.847913E1,1.9142E1,5.1757324E1,7.104245E1,8.559656E1,2.0031475E1,4.806526E1,0E0,0E0,0E0,4.1064575E1,1.8978817E1,2.3517155E1,6.535388E1,1.9754091E1,0E0,0E0,2.356131E1,0E0,1.8281092E1,1.3685425E1,1.1131073E1,0E0,6.479412E0,0E0,4.2779785E1,0E0,0E0,0E0,0E0,0E0,0E0,0E0,1.0223E1,9.244995E0,3.7036133E0,0E0,0E0,0E0,3.7237427E1,1.5950066E1,0E0,8.074036E0,0E0,5.561035E0,0E0,0E0,0E0,0E0,0E0,0E0,0E0,0E0,0E0,0E0],"parents":[2147483647,0,0,1,1,2,2,3,3,4,4,5,5,6,6,7,7,8,8,9,9,10,10,14,14,15,15,16,16,17,17,18,18,21,21,23,23,24,24,25,25,27,27,29,29,37,37,38,38,39,39,43,43,44,44,46,46,48,48],"right_children":[2,4,6,8,10,12,14,16,18,20,22,-1,-1,-1,24,26,28,30,32,-1,-1,34,-1,36,38,40,-1,42,-1,44,-1,-1,-1,-1,-1,-1,-1,46,48,50,-1,-1,-1,52,54,-1,56,-1,58,-1,-1,-1,-1,-1,-1,-1,-1,-1,-1],"split_conditions":[1.3060476E-1,-6.0770687E-2,-1.8364851E-1,-2.5535278E-2,-1.4011355E-1,-1.1575593E-1,-1.4356324E-1,5.985105E-2,6.397718E-2,3.9351624E-2,9.2998184E-2,-5.196157E-3,2.4087325E-2,1.6509347E-3,-8.36993E-2,2.9067762E-2,-7.610384E-3,3.7140258E-2,2.4663512E-2,-1.023469E-2,1.9733714E-2,9.6396595E-2,1.0800809E-2,-4.2251047E-2,-3.0124824E-2,1.1974956E-1,4.25613E-3,-6.790718E-2,-7.282945E-3,-8.5734464E-2,-7.528954E-3,-2.3341643E-2,7.6418007E-3,-3.3915516E-2,-4.918603E-3,1.26916785E-2,-1.7751345E-2,-5.828848E-2,-1.1370496E-1,7.549372E-2,-2.5955036E-3,2.820144E-2,5.98427E-3,-2.8454697E-2,4.201313E-2,-4.097823E-3,-5.869439E-3,-1.4440285E-2,-1.8561438E-2,-3.157118E-2,-9.703399E-3,2.8099432E-3,3.0398233E-2,-1.0739409E-2,1.4039396E-2,-2.8338686E-2,-6.497411E-3,-1.2961814E-2,-3.5498228E-2],"split_indices":[836,503,6,41,73,738,931,1194,369,992,574,0,0,0,518,242,268,806,928,0,0,102,0,1155,1144,760,0,450,0,797,0,0,0,0,0,0,0,355,4,312,0,0,0,1189,1255,0,266,0,126,0,0,0,0,0,0,0,0,0,0],"split_type":[0,0,0,0,0,0,0,0,0,0,0,0,0,0,0,0,0,0,0,0,0,0,0,0,0,0,0,0,0,0,0,0,0,0,0,0,0,0,0,0,0,0,0,0,0,0,0,0,0,0,0,0,0,0,0,0,0,0,0],"sum_hessian":[1.4714282E3,9.0254816E2,5.6888007E2,7.78905E2,1.2364317E2,3.5893433E1,5.3298663E2,9.740977E1,6.8149524E2,2.7149754E1,9.649342E1,9.679361E0,2.621407E1,1.8127104E1,5.1485956E2,5.5873302E1,4.1536465E1,6.583321E2,2.3163143E1,9.976205E0,1.7173548E1,8.61091E1,1.0384319E1,2.0542233E1,4.9431732E2,4.5507446E1,1.0365857E1,2.98454E1,1.1691063E1,6.400486E2,1.8283535E1,1.1723947E1,1.1439197E1,7.142982E1,1.4679287E1,9.856248E0,1.0685984E1,7.126432E1,4.2305298E2,3.5925385E1,9.58206E0,1.9374418E1,1.0470982E1,6.0277026E2,3.7278313E1,1.3194885E1,5.8069435E1,1.8341475E1,4.0471152E2,2.6160133E1,9.765252E0,2.0483847E1,5.8228644E2,1.01873045E1,2.7091007E1,4.6590424E1,1.1479012E1,1.1767439E1,3.929441E2],"tree_param":{"num_deleted":"0","num_feature":"1280","num_nodes":"59","size_leaf_vector":"1"}},{"base_weights":[-2.3120172E-2,8.0657303E-1,-1.4255927E0,1.0789902E0,-9.16912E-1,4.916582E-1,-1.5689478E0,-1.0985166E-1,1.2860832E0,3.0791178E-1,-1.4194697E0,-8.529191E-3,2.1044536E-2,-6.105443E-1,-1.6501545E0,-6.52351E-1,7.8734714E-1,1.3457015E0,-4.803745E-1,-1.8808521E-2,8.5521233E-1,-9.860282E-4,-1.5785937E0,6.006775E-3,-1.0515277E0,-4.4330833E-3,-1.677372E0,8.672069E-3,-1.0085467E0,1.1497293E0,-8.156795E-3,2.259456E-1,1.4462862E0,-2.3788102E-2,7.433295E-3,-1.1556064E-3,2.5248712E-2,-3.31682E-2,-9.1271335E-3,-4.8287287E-3,-2.699178E-2,-7.0368654E-1,-1.7123468E0,-1.2372499E0,8.3060877E-4,2.6634991E-2,7.1431273E-3,-1.8364025E-2,6.8608475E-1,1.4796398E0,-9.083498E-5,3.1278626E-4,-2.3018617E-2,-1.7387366E0,-8.596942E-3,-2.7313776E-2,-7.5907065E-3,-8.268392E-3,2.1406876E-2,3.0937774E-2,1.7886456E-2,-3.443253E-2,-1.2083259E-2],"categories":[],"categories_nodes":[],"categories_segments":[],"categories_sizes":[],"default_left":[0,0,0,0,0,0,0,0,0,0,0,0,0,0,0,0,0,0,0,0,0,0,0,0,0,0,0,0,0,0,0,0,0,0,0,0,0,0,0,0,0,0,0,0,0,0,0,0,0,0,0,0,0,0,0,0,0,0,0,0,0,0,0],"id":2,"left_children":[1,3,5,7,9,11,13,15,17,19,21,-1,-1,23,25,27,29,31,33,-1,35,-1,37,-1,39,-1,41,-1,43,45,-1,47,49,-1,-1,-1,-1,-1,-1,-1,-1,51,53,55,-1,-1,-1,-1,57,59,-1,-1,-1,61,-1,-1,-1,-1,-1,-1,-1,-1,-1],"loss_changes":[1.7173827E3,4.403448E2,1.5461108E2,1.984284E2,8.1748215E1,2.501033E1,3.4799072E1,6.2781586E1,7.529016E1,3.303923E1,1.976677E1,0E0,0E0,2.0968115E1,1.6271729E1,3.336669E1,2.3709602E1,7.308264E1,1.8724613E1,0E0,1.2986973E1,0E0,6.6726227E0,0E0,7.107811E0,0E0,9.635132E0,0E0,1.5105553E1,3.9538307E0,0E0,3.564031E1,2.944397E1,0E0,0E0,0E0,0E0,0E0,0E0,0E0,0E0,8.36909E0,1.0975464E1,4.1198425E0,0E0,0E0,0E0,0E0,2.3181982E1,2.6534668E1,0E0,0E0,0E0,4.0355225E0,0E0,0E0,0E0,0E0,0E0,0E0,0E0,0E0,0E0],"parents":[2147483647,0,0,1,1,2,2,3,3,4,4,5,5,6,6,7,7,8,8,9,9,10,10,13,13,14,14,15,15,16,16,17,17,18,18,20,20,22,22,24,24,26,26,28,28,29,29,31,31,32,32,41,41,42,42,43,43,48,48,49,49,53,53],"right_children":[2,4,6,8,10,12,14,16,18,20,22,-1,-1,24,26,28,30,32,34,-1,36,-1,38,-1,40,-1,42,-1,44,46,-1,48,50,-1,-1,-1,-1,-1,-1,-1,-1,52,54,56,-1,-1,-1,-1,58,60,-1,-1,-1,62,-1,-1,-1,-1,-1,-1,-1,-1,-1],"split_conditions":[1.3661402E-1,-6.0770687E-2,-1.8937252E-1,-1.8571112E-2,-9.7059205E-2,-1.2842749E-3,-1.5261295E-1,6.1684564E-2,6.397718E-2,1.5011823E-4,-1.4149885E-1,-8.529191E-3,2.1044536E-2,-6.6116385E-2,-6.868326E-2,-1.6378254E-2,4.30017E-2,-5.861923E-3,1.3574252E-1,-1.8808521E-2,7.825628E-2,-9.860282E-4,1.0737443E-1,6.006775E-3,1.7274462E-2,-4.4330833E-3,-1.391312E-1,8.672069E-3,7.438691E-2,-1.0264916E-2,-8.156795E-3,7.814942E-2,2.6775597E-2,-2.3788102E-2,7.433295E-3,-1.1556064E-3,2.5248712E-2,-3.31682E-2,-9.1271335E-3,-4.8287287E-3,-2.699178E-2,-6.2754885E-3,1.6691582E-1,1.3202243E-1,8.3060877E-4,2.6634991E-2,7.1431273E-3,-1.8364025E-2,2.5005592E-2,8.037035E-2,-9.083498E-5,3.1278626E-4,-2.3018617E-2,2.0159917E-1,-8.596942E-3,-2.7313776E-2,-7.5907065E-3,-8.268392E-3,2.1406876E-2,3.0937774E-2,1.7886456E-2,-3.443253E-2,-1.2083259E-2],"split_indices":[836,503,605,41,1103,1162,714,1194,369,96,73,0,0,1001,1183,952,637,1189,571,0,1201,0,787,0,577,0,1075,0,711,836,0,1213,726,0,0,0,0,0,0,0,0,838,467,879,0,0,0,0,339,54,0,0,0,1231,0,0,0,0,0,0,0,0,0],"split_type":[0,0,0,0,0,0,0,0,0,0,0,0,0,0,0,0,0,0,0,0,0,0,0,0,0,0,0,0,0,0,0,0,0,0,0,0,0,0,0,0,0,0,0,0,0,0,0,0,0,0,0,0,0,0,0,0,0,0,0,0,0,0,0],"sum_hessian":[1.4659938E3,9.2241504E2,5.435787E2,7.981242E2,1.2429084E2,3.697473E1,5.0660397E2,1.1875208E2,6.7937213E2,3.6721817E1,8.756902E1,1.47600155E1,2.2214716E1,4.2885628E1,4.6371832E2,7.485144E1,4.3900642E1,6.5833923E2,2.1032917E1,9.935791E0,2.6786028E1,9.800451E0,7.776858E1,1.4415604E1,2.8470026E1,9.5686655E0,4.5414966E2,1.8072401E1,5.6779037E1,3.3915676E1,9.984968E0,5.5595078E1,6.0274414E2,1.0236549E1,1.0796367E1,1.0009948E1,1.677608E1,6.811431E1,9.654264E0,1.0744747E1,1.7725279E1,1.9394115E1,4.3475555E2,4.5906525E1,1.0872514E1,2.386831E1,1.0047363E1,1.4288693E1,4.1306385E1,5.891034E2,1.3640733E1,9.584771E0,9.809343E0,4.2414508E2,1.0610479E1,3.602931E1,9.877217E0,1.10464325E1,3.025995E1,4.929274E2,9.6176E1,4.1408E2,1.00650835E1],"tree_param":{"num_deleted":"0","num_feature":"1280","num_nodes":"63","size_leaf_vector":"1"}},{"base_weights":[1.5164816E-2,-1.1987904E0,9.290601E-1,3.197555E-1,-1.433016E0,1.1545835E0,-4.5991907E-1,1.0533915E0,-6.3940424E-1,-6.571184E-1,-1.6838598E0,1.4096069E0,5.344227E-1,5.607608E-1,-9.393188E-1,6.202279E-5,2.6680324E-2,-1.0616547E0,9.051716E-3,-9.60652E-1,5.53533E-1,-9.007362E-3,-1.7110296E0,-1.3160291E-2,1.4645013E0,7.1509314E-1,-2.2005191E-2,2.1255886E-2,-5.854141E-3,-2.8359827E-1,-2.9757235E-2,-2.6547E-2,-4.975485E-3,-1.245476E0,-2.5074685E-1,-7.547259E-3,2.2100966E-2,-1.2043643E-2,-1.7467288E0,1.5099312E0,1.3238603E-3,1.088521E0,-3.1631297E-1,8.662261E-3,-7.1302724E-1,-3.2461043E-2,-7.100109E-1,-1.7144982E-2,1.01121655E-2,-3.4559105E-2,-1.3425883E-2,1.5443692E0,-1.0041489E-3,3.339555E-1,1.389179E0,5.3984797E-1,-8.254946E-1,1.772061E-3,-2.5863094E-2,1.1498139E-3,-2.1408342E-2,7.18306E-3,3.090083E-2,1.744196E-2,-4.3797763E-3,2.909166E-2,5.586555E-3,-2.7978795E-3,1.9986479E-2,1.3555004E-3,-2.30571E-2],"categories":[],"categories_nodes":[],"categories_segments":[],"categories_sizes":[],"default_left":[0,0,0,0,0,0,0,0,0,0,0,0,0,0,0,0,0,0,0,0,0,0,0,0,0,0,0,0,0,0,0,0,0,0,0,0,0,0,0,0,0,0,0,0,0,0,0,0,0,0,0,0,0,0,0,0,0,0,0,0,0,0,0,0,0,0,0,0,0,0,0],"id":3,"left_children":[1,3,5,7,9,11,13,15,17,19,21,23,25,27,29,-1,-1,31,-1,33,35,-1,37,-1,39,41,-1,-1,-1,43,-1,-1,-1,45,47,-1,-1,-1,49,51,-1,53,55,-1,57,-1,59,-1,-1,-1,-1,61,-1,63,65,67,69,-1,-1,-1,-1,-1,-1,-1,-1,-1,-1,-1,-1,-1,-1],"loss_changes":[1.6610007E3,2.3100305E2,2.701886E2,6.6686714E1,1.0309827E2,1.1268494E2,6.274336E1,1.7142597E1,2.2029558E1,5.5747227E1,9.997437E0,6.416687E1,7.067216E1,2.0735044E1,3.0372261E1,0E0,0E0,5.870373E0,0E0,2.217334E1,1.9512852E1,0E0,1.0597778E1,0E0,3.165918E1,8.0180534E1,0E0,0E0,0E0,1.5987195E1,0E0,0E0,0E0,1.2347099E1,2.1345058E1,0E0,0E0,0E0,1.4958496E0,2.6776123E1,0E0,3.1876968E1,2.7508942E1,0E0,1.5714672E1,0E0,1.3456825E1,0E0,0E0,0E0,0E0,1.61333E1,0E0,1.6356558E1,9.192017E0,8.815912E0,1.2480846E1,0E0,0E0,0E0,0E0,0E0,0E0,0E0,0E0,0E0,0E0,0E0,0E0,0E0,0E0],"parents":[2147483647,0,0,1,1,2,2,3,3,4,4,5,5,6,6,7,7,8,8,9,9,10,10,11,11,12,12,13,13,14,14,17,17,19,19,20,20,22,22,24,24,25,25,29,29,33,33,34,34,38,38,39,39,41,41,42,42,44,44,46,46,51,51,53,53,54,54,55,55,56,56],"right_children":[2,4,6,8,10,12,14,16,18,20,22,24,26,28,30,-1,-1,32,-1,34,36,-1,38,-1,40,42,-1,-1,-1,44,-1,-1,-1,46,48,-1,-1,-1,50,52,-1,54,56,-1,58,-1,60,-1,-1,-1,-1,62,-1,64,66,68,70,-1,-1,-1,-1,-1,-1,-1,-1,-1,-1,-1,-1,-1,-1],"split_conditions":[5.9662208E-2,-1.3830999E-1,-2.2331158E-2,1.4738835E-1,-8.24709E-2,2.7294694E-2,-5.81457E-2,-7.147789E-2,6.780605E-2,1.526408E-1,-3.5099316E-2,2.5853089E-3,3.2508798E-2,-9.179758E-2,-9.699086E-2,6.202279E-5,2.6680324E-2,-9.083485E-2,9.051716E-3,2.1614851E-2,1.0908866E-1,-9.007362E-3,-1.1654638E-1,-1.3160291E-2,8.584367E-2,-8.835636E-2,-2.2005191E-2,2.1255886E-2,-5.854141E-3,5.994592E-2,-2.9757235E-2,-2.6547E-2,-4.975485E-3,2.3350555E-2,2.4107337E-2,-7.547259E-3,2.2100966E-2,-1.2043643E-2,1.462914E-1,5.919657E-2,1.3238603E-3,2.5670068E-2,-4.313564E-2,8.662261E-3,-1.2586096E-1,-3.2461043E-2,-8.102618E-2,-1.7144982E-2,1.01121655E-2,-3.4559105E-2,-1.3425883E-2,-7.907514E-2,-1.0041489E-3,-1.4178124E-1,8.861821E-2,8.729015E-4,-6.5014265E-2,1.772061E-3,-2.5863094E-2,1.1498139E-3,-2.1408342E-2,7.18306E-3,3.090083E-2,1.744196E-2,-4.3797763E-3,2.909166E-2,5.586555E-3,-2.7978795E-3,1.9986479E-2,1.3555004E-3,-2.30571E-2],"split_indices":[25,1075,162,575,931,836,621,824,1021,954,126,879,806,1031,1139,0,0,1049,0,1277,729,0,114,0,460,68,0,0,0,698,0,0,0,423,799,0,0,0,895,1028,0,1276,1131,0,503,0,868,0,0,0,0,315,0,259,97,798,550,0,0,0,0,0,0,0,0,0,0,0,0,0,0],"split_type":[0,0,0,0,0,0,0,0,0,0,0,0,0,0,0,0,0,0,0,0,0,0,0,0,0,0,0,0,0,0,0,0,0,0,0,0,0,0,0,0,0,0,0,0,0,0,0,0,0,0,0,0,0,0,0,0,0,0,0,0,0,0,0,0,0,0,0,0,0,0,0],"sum_hessian":[1.48719E3,6.380698E2,8.4912006E2,8.502328E1,5.530466E2,7.3123285E2,1.1788721E2,4.789808E1,3.7125195E1,1.395187E2,4.1352783E2,5.136642E2,2.1756871E2,3.7404644E1,8.048256E1,1.2034889E1,3.586319E1,2.6968967E1,1.0156227E1,1.1237294E2,2.7145767E1,1.0919782E1,4.0260806E2,1.1759175E1,5.01905E2,1.9874567E2,1.8823042E1,2.2416037E1,1.4988608E1,4.1265385E1,3.921718E1,1.7293524E1,9.675444E0,7.7515755E1,3.4857193E1,1.0934796E1,1.6210972E1,1.5563373E1,3.8704468E2,4.8570593E2,1.6199066E1,1.4571336E2,5.3032307E1,1.5281763E1,2.5983622E1,3.7902744E1,3.9613007E1,1.8823252E1,1.6033941E1,3.7731348E2,9.731214E0,4.7527573E2,1.043021E1,4.4511917E1,1.0120145E2,1.9665665E1,3.3366642E1,1.3014193E1,1.2969429E1,1.4581288E1,2.503172E1,1.4840899E1,4.604348E2,2.078496E1,2.3726955E1,9.14879E1,9.713545E0,9.572476E0,1.0093187E1,1.05491295E1,2.2817513E1],"tree_param":{"num_deleted":"0","num_feature":"1280","num_nodes":"71","size_leaf_vector":"1"}},{"base_weights":[2.496929E-3,-1.2017924E0,9.1824913E-1,4.1136557E-1,-1.4520086E0,1.1564882E0,-6.065489E-1,1.1330658E0,-6.698398E-1,-2.6202807E-1,-1.5987592E0,1.2779129E0,-1.111071E-2,1.6357636E-2,-9.229899E-1,2.172945E-3,2.6936041E-2,-2.2241475E-2,4.4974624E-3,-1.0184648E0,7.469346E-1,-3.990766E-3,-1.6262438E0,1.3409017E0,-5.372662E-1,7.944579E-1,-5.1632196E-1,-1.0459796E-1,-1.30866E0,-2.7251434E-2,-2.7296084E-3,-1.5435556E-3,2.2542149E-2,-1.6544323E0,-7.215951E-3,1.4084963E0,-4.173543E-2,9.105668E-3,-2.6078174E-2,3.0384734E-3,2.0655006E-2,-9.623874E-1,6.6341436E-3,-1.4795504E-2,1.0831022E-2,-1.5289852E-3,-1.5432112E0,-1.6750705E0,-8.506707E-3,1.4467326E0,-2.2654864E-3,1.4912888E-2,-1.4805224E-2,-2.4741797E-2,-2.8070214E-3,-1.2963871E-2,-3.325923E-2,-3.314396E-2,-1.0961953E-2,2.8906444E-2,-4.753572E-3],"categories":[],"categories_nodes":[],"categories_segments":[],"categories_sizes":[],"default_left":[0,0,0,0,0,0,0,0,0,0,0,0,0,0,0,0,0,0,0,0,0,0,0,0,0,0,0,0,0,0,0,0,0,0,0,0,0,0,0,0,0,0,0,0,0,0,0,0,0,0,0,0,0,0,0,0,0,0,0,0,0],"id":4,"left_children":[1,3,5,7,9,11,13,15,17,19,21,23,25,-1,27,-1,-1,-1,-1,29,31,-1,33,35,37,39,41,43,45,-1,-1,-1,-1,47,-1,49,51,-1,-1,-1,-1,53,-1,-1,-1,-1,55,57,-1,59,-1,-1,-1,-1,-1,-1,-1,-1,-1,-1,-1],"loss_changes":[1.6456824E3,2.6314972E2,3.1141803E2,7.434615E1,9.555322E1,1.04250854E2,5.7592293E1,1.3138634E1,1.7783445E1,5.518144E1,1.739563E1,7.969507E1,3.222302E1,0E0,3.0557396E1,0E0,0E0,0E0,0E0,1.2349857E1,1.104125E1,0E0,1.4210815E1,6.0550293E1,2.3689934E1,4.268074E0,2.015836E1,1.7970797E1,1.8692032E1,0E0,0E0,0E0,0E0,8.320435E0,0E0,3.6665894E1,2.2885563E1,0E0,0E0,0E0,0E0,7.292925E0,0E0,0E0,0E0,0E0,2.0431519E0,4.3377686E0,0E0,3.161023E1,0E0,0E0,0E0,0E0,0E0,0E0,0E0,0E0,0E0,0E0,0E0],"parents":[2147483647,0,0,1,1,2,2,3,3,4,4,5,5,6,6,7,7,8,8,9,9,10,10,11,11,12,12,14,14,19,19,20,20,22,22,23,23,24,24,25,25,26,26,27,27,28,28,33,33,35,35,36,36,41,41,46,46,47,47,49,49],"right_children":[2,4,6,8,10,12,14,16,18,20,22,24,26,-1,28,-1,-1,-1,-1,30,32,-1,34,36,38,40,42,44,46,-1,-1,-1,-1,48,-1,50,52,-1,-1,-1,-1,54,-1,-1,-1,-1,56,58,-1,60,-1,-1,-1,-1,-1,-1,-1,-1,-1,-1,-1],"split_conditions":[5.9662208E-2,-1.400397E-1,-2.1298328E-2,-6.517614E-2,-1.160977E-1,2.977608E-2,-7.5499885E-2,4.475059E-2,9.142222E-2,5.6583736E-2,-7.519231E-2,3.7140258E-2,-9.706784E-2,1.6357636E-2,-1.16131656E-1,2.172945E-3,2.6936041E-2,-2.2241475E-2,4.4974624E-3,-1.2197251E-2,1.3962129E-1,-3.990766E-3,1.5479517E-1,5.2028745E-2,3.1337533E-2,-7.037656E-2,1.0573768E-1,1.7370602E-4,-1.2497063E-1,-2.7251434E-2,-2.7296084E-3,-1.5435556E-3,2.2542149E-2,7.3777296E-2,-7.215951E-3,1.1834284E-1,-8.137323E-2,9.105668E-3,-2.6078174E-2,3.0384734E-3,2.0655006E-2,-2.0813169E-2,6.6341436E-3,-1.4795504E-2,1.0831022E-2,-1.5289852E-3,-6.997518E-2,1.1151361E-1,-8.506707E-3,7.153318E-2,-2.2654864E-3,1.4912888E-2,-1.4805224E-2,-2.4741797E-2,-2.8070214E-3,-1.2963871E-2,-3.325923E-2,-3.314396E-2,-1.0961953E-2,2.8906444E-2,-4.753572E-3],"split_indices":[25,1075,162,166,931,139,1001,240,348,1213,1183,806,578,0,777,0,0,0,0,199,474,0,954,790,198,892,260,1127,2,0,0,0,0,207,0,156,621,0,0,0,0,999,0,0,0,0,369,603,0,369,0,0,0,0,0,0,0,0,0,0,0],"split_type":[0,0,0,0,0,0,0,0,0,0,0,0,0,0,0,0,0,0,0,0,0,0,0,0,0,0,0,0,0,0,0,0,0,0,0,0,0,0,0,0,0,0,0,0,0,0,0,0,0,0,0,0,0,0,0,0,0,0,0,0,0],"sum_hessian":[1.4822725E3,6.395959E2,8.426765E2,8.545507E1,5.541408E2,7.29846E2,1.1283051E2,5.11043E1,3.435077E1,6.235815E1,4.9178268E2,6.606691E2,6.917689E1,1.8836407E1,9.39941E1,1.1190209E1,3.9914093E1,2.176717E1,1.2583599E1,3.5612183E1,2.6745966E1,1.03119E1,4.8147076E2,6.397694E2,2.0899681E1,2.5563866E1,4.361302E1,3.2134617E1,6.1859486E1,2.2961529E1,1.2650655E1,1.0107029E1,1.6638937E1,4.6938058E2,1.2090185E1,6.098613E2,2.9908104E1,1.0154315E1,1.0745366E1,9.697178E0,1.5866689E1,2.8251074E1,1.5361947E1,1.5777762E1,1.6356853E1,1.0965574E1,5.0893913E1,4.5974612E2,9.634455E0,5.951834E2,1.4677945E1,1.3922387E1,1.5985716E1,1.8681526E1,9.569549E0,1.1548683E1,3.934523E1,4.5011716E2,9.628983E0,5.856161E2,9.567283E0],"tree_param":{"num_deleted":"0","num_feature":"1280","num_nodes":"61","size_leaf_vector":"1"}},{"base_weights":[8.10545E-3,8.824213E-1,-1.2078452E0,1.1107515E0,-7.699163E-1,-1.5122088E0,4.18478E-2,-5.278117E-1,1.2470343E0,6.9424415E-1,-1.1538428E0,-3.8013458E-1,-1.5710633E0,-7.48552E-1,9.421673E-1,2.3810042E-1,-1.0324042E0,1.3049028E0,-2.5139055E-1,-7.273127E-4,2.3944303E-2,9.170061E-3,-1.4105093E0,1.3291657E-2,-2.0763576E-2,-6.430029E-1,-1.6110643E0,8.743626E-2,-1.2090393E0,1.2232076E0,-6.350357E-3,-1.076252E-2,1.7879004E-2,-7.6032354E-4,-2.7491905E-2,3.46777E-1,1.386387E0,1.5990794E-2,-1.9077605E-2,-3.0621111E-2,-6.105676E-3,2.4318523E-3,-2.5174014E-2,-9.8686403E-1,-1.6847664E0,-1.4041764E-2,1.297624E-2,-4.5912378E-3,-3.0222373E-2,5.1271426E-3,2.828466E-2,-1.369632E-2,7.4742466E-1,-4.4044065E-3,1.4167126E0,-2.538295E-2,-4.0695923E-3,-1.2692826E-2,-1.7019848E0,2.0618128E-2,-5.1952344E-3,8.810085E-3,2.864316E-2,-3.4173243E-2,-2.081522E-2],"categories":[],"categories_nodes":[],"categories_segments":[],"categories_sizes":[],"default_left":[0,0,0,0,0,0,0,0,0,0,0,0,0,0,0,0,0,0,0,0,0,0,0,0,0,0,0,0,0,0,0,0,0,0,0,0,0,0,0,0,0,0,0,0,0,0,0,0,0,0,0,0,0,0,0,0,0,0,0,0,0,0,0,0,0],"id":5,"left_children":[1,3,5,7,9,11,13,15,17,19,21,23,25,27,29,31,33,35,37,-1,-1,-1,39,-1,-1,41,43,45,47,49,-1,-1,-1,-1,-1,51,53,-1,-1,-1,-1,-1,-1,55,57,-1,-1,-1,-1,-1,-1,-1,59,-1,61,-1,-1,-1,63,-1,-1,-1,-1,-1,-1],"loss_changes":[1.5933374E3,3.3317578E2,2.387644E2,1.747799E2,6.514158E1,3.0623535E1,9.4331505E1,2.5367386E1,6.324341E1,1.0163644E1,3.995172E1,2.626355E1,1.2576904E1,2.7757145E1,2.3995884E1,1.7840258E1,1.3974155E1,5.1077637E1,2.7579887E1,0E0,0E0,0E0,1.0578415E1,0E0,0E0,1.4611478E1,1.263916E1,1.6141588E1,1.316835E1,9.10556E0,0E0,0E0,0E0,0E0,0E0,2.788797E1,3.2349365E1,0E0,0E0,0E0,0E0,0E0,0E0,1.3128075E1,1.6394043E0,0E0,0E0,0E0,0E0,0E0,0E0,0E0,1.5629442E1,0E0,2.422876E1,0E0,0E0,0E0,1.510498E0,0E0,0E0,0E0,0E0,0E0,0E0],"parents":[2147483647,0,0,1,1,2,2,3,3,4,4,5,5,6,6,7,7,8,8,9,9,10,10,11,11,12,12,13,13,14,14,15,15,16,16,17,17,18,18,22,22,25,25,26,26,27,27,28,28,29,29,35,35,36,36,43,43,44,44,52,52,54,54,58,58],"right_children":[2,4,6,8,10,12,14,16,18,20,22,24,26,28,30,32,34,36,38,-1,-1,-1,40,-1,-1,42,44,46,48,50,-1,-1,-1,-1,-1,52,54,-1,-1,-1,-1,-1,-1,56,58,-1,-1,-1,-1,-1,-1,-1,60,-1,62,-1,-1,-1,64,-1,-1,-1,-1,-1,-1],"split_conditions":[1.0930571E-1,-6.0770687E-2,7.992652E-2,-3.8770813E-2,-2.7534992E-2,-1.6647927E-1,1.11876555E-1,-7.333124E-2,6.678632E-2,5.230953E-2,-4.6825066E-2,-1.8192302E-2,-1.18598446E-1,-9.805458E-2,1.2861638E-2,6.614813E-2,-4.3149233E-2,-2.3470845E-3,-3.9819274E-2,-7.273127E-4,2.3944303E-2,9.170061E-3,1.1978078E-1,1.3291657E-2,-2.0763576E-2,-4.920702E-2,-3.0124824E-2,-7.264332E-2,-3.9488412E-3,1.6635609E-1,-6.350357E-3,-1.076252E-2,1.7879004E-2,-7.6032354E-4,-2.7491905E-2,-2.697583E-2,-6.863442E-2,1.5990794E-2,-1.9077605E-2,-3.0621111E-2,-6.105676E-3,2.4318523E-3,-2.5174014E-2,4.7020543E-2,-2.3000438E-2,-1.4041764E-2,1.297624E-2,-4.5912378E-3,-3.0222373E-2,5.1271426E-3,2.828466E-2,-1.369632E-2,-1.0536134E-1,-4.4044065E-3,-7.500031E-2,-2.538295E-2,-4.0695923E-3,-1.2692826E-2,9.480749E-2,2.0618128E-2,-5.1952344E-3,8.810085E-3,2.864316E-2,-3.4173243E-2,-2.081522E-2],"split_indices":[836,503,1201,41,1233,6,1151,313,369,449,1183,908,4,1103,899,821,493,1189,34,0,0,0,820,0,0,245,1144,756,806,154,0,0,0,0,0,423,24,0,0,0,0,0,0,10,950,0,0,0,0,0,0,0,622,0,315,0,0,0,909,0,0,0,0,0,0],"split_type":[0,0,0,0,0,0,0,0,0,0,0,0,0,0,0,0,0,0,0,0,0,0,0,0,0,0,0,0,0,0,0,0,0,0,0,0,0,0,0,0,0,0,0,0,0,0,0,0,0,0,0,0,0,0,0,0,0,0,0,0,0,0,0,0,0],"sum_hessian":[1.4887584E3,8.668357E2,6.219227E2,7.6302795E2,1.03807724E2,4.9927728E2,1.22645424E2,5.7491173E1,7.055368E2,2.0729149E1,8.3078575E1,2.6509302E1,4.72768E2,6.5756516E1,5.688891E1,2.3877638E1,3.3613537E1,6.7992163E2,2.561513E1,1.063765E1,1.00915E1,1.0788701E1,7.228987E1,1.0372383E1,1.6136919E1,2.304844E1,4.4971954E2,2.4788511E1,4.0968006E1,4.669651E1,1.0192399E1,1.1444815E1,1.2432823E1,1.0644772E1,2.2968763E1,5.5343323E1,6.245783E2,1.0078421E1,1.5536709E1,6.159398E1,1.0695893E1,1.233628E1,1.0712161E1,5.506002E1,3.9465952E2,9.822581E0,1.4965931E1,1.2627645E1,2.834036E1,1.0768007E1,3.59285E1,1.4296878E1,4.1046444E1,1.0947478E1,6.1363086E2,3.7044308E1,1.8015715E1,9.592629E0,3.850669E2,3.138291E1,9.663533E0,3.0302399E1,5.833284E2,3.526519E2,3.2415E1],"tree_param":{"num_deleted":"0","num_feature":"1280","num_nodes":"65","size_leaf_vector":"1"}},{"base_weights":[1.0793709E-2,9.376399E-1,-1.1155267E0,1.1494423E0,-5.377962E-1,2.1838613E-1,-1.4092805E0,1.2152392E0,-2.2664981E-2,-1.1266533E0,6.023723E-1,-5.996177E-1,9.698737E-1,1.172957E-1,-1.4881648E0,1.1045442E-1,1.3166435E0,-5.06247E-1,-2.8726224E-2,2.1471405E-2,-6.227975E-3,8.457643E-3,-1.0190846E0,-5.3238515E-3,1.2031565E0,-1.4114017E-2,1.2997357E-2,-4.2944512E-4,-1.5371397E0,4.6352726E-1,-2.3084722E-2,2.002253E-1,1.377094E0,2.354973E-3,-1.6916633E-2,3.649297E-4,-2.5394304E-2,5.7391264E-3,1.3559024E0,-1.6146507E0,-8.971762E-1,-2.6669672E-1,9.573341E-1,-1.7910752E-2,8.613945E-1,1.4172574E0,-4.25876E-4,2.974451E-2,9.474032E-3,-6.28126E-3,-1.6403548E0,2.4487907E-3,-1.1060065E0,-1.711074E-2,8.03079E-3,2.5301613E-2,1.800281E-3,2.5811376E-2,7.758826E-4,2.8361041E-2,-3.9078593E-3,-1.3374508E-2,-3.280677E-2,-6.8806885E-3,-2.5614934E-2],"categories":[],"categories_nodes":[],"categories_segments":[],"categories_sizes":[],"default_left":[0,0,0,0,0,0,0,0,0,0,0,0,0,0,0,0,0,0,0,0,0,0,0,0,0,0,0,0,0,0,0,0,0,0,0,0,0,0,0,0,0,0,0,0,0,0,0,0,0,0,0,0,0,0,0,0,0,0,0,0,0,0,0,0,0],"id":6,"left_children":[1,3,5,7,9,11,13,15,-1,17,19,21,23,25,27,29,31,33,-1,-1,-1,-1,35,-1,37,-1,-1,-1,39,41,-1,43,45,-1,-1,-1,-1,-1,47,49,51,53,55,-1,57,59,-1,-1,-1,-1,61,-1,63,-1,-1,-1,-1,-1,-1,-1,-1,-1,-1,-1,-1],"loss_changes":[1.5405928E3,2.5606073E2,2.6258453E2,1.1469586E2,7.3886696E1,7.945764E1,6.669824E1,7.682965E1,0E0,1.1288261E1,1.9477207E1,2.9326342E1,2.0983746E1,1.6795921E1,3.7183838E1,3.1688385E1,4.138745E1,7.854561E0,0E0,0E0,0E0,0E0,1.33955E1,0E0,5.9678802E0,0E0,0E0,0E0,1.775061E1,2.0573132E1,0E0,3.2208E1,3.3875E1,0E0,0E0,0E0,0E0,0E0,3.1055374E0,1.2102295E1,1.4687412E1,1.2257412E1,8.973101E0,0E0,9.742439E0,3.0723267E1,0E0,0E0,0E0,0E0,8.792847E0,0E0,6.0912094E0,0E0,0E0,0E0,0E0,0E0,0E0,0E0,0E0,0E0,0E0,0E0,0E0],"parents":[2147483647,0,0,1,1,2,2,3,3,4,4,5,5,6,6,7,7,9,9,10,10,11,11,12,12,13,13,14,14,15,15,16,16,17,17,22,22,24,24,28,28,29,29,31,31,32,32,38,38,39,39,40,40,41,41,42,42,44,44,45,45,50,50,52,52],"right_children":[2,4,6,8,10,12,14,16,-1,18,20,22,24,26,28,30,32,34,-1,-1,-1,-1,36,-1,38,-1,-1,-1,40,42,-1,44,46,-1,-1,-1,-1,-1,48,50,52,54,56,-1,58,60,-1,-1,-1,-1,62,-1,64,-1,-1,-1,-1,-1,-1,-1,-1,-1,-1,-1,-1],"split_conditions":[8.6186826E-2,-1.1908311E-2,-1.5225492E-1,-1.8862046E-2,1.9944566E-1,2.3894044E-2,-6.868326E-2,-2.5535278E-2,-2.2664981E-2,-4.4922262E-2,-3.871995E-2,-1.19456336E-1,-5.278406E-2,4.235185E-2,-1.2488395E-1,-1.0229865E-2,-2.7768815E-2,-5.4902468E-2,-2.8726224E-2,2.1471405E-2,-6.227975E-3,8.457643E-3,9.831075E-2,-5.3238515E-3,-6.0939047E-2,-1.4114017E-2,1.2997357E-2,-4.2944512E-4,1.6390748E-1,2.0796558E-2,-2.3084722E-2,9.44119E-2,5.446199E-2,2.354973E-3,-1.6916633E-2,3.649297E-4,-2.5394304E-2,5.7391264E-3,7.037746E-3,-7.722918E-2,4.566313E-2,-5.6867536E-2,2.2908645E-2,-1.7910752E-2,-1.4705956E-2,6.680835E-2,-4.25876E-4,2.974451E-2,9.474032E-3,-6.28126E-3,-1.18598446E-1,2.4487907E-3,5.0758407E-2,-1.711074E-2,8.03079E-3,2.5301613E-2,1.800281E-3,2.5811376E-2,7.758826E-4,2.8361041E-2,-3.9078593E-3,-1.3374508E-2,-3.280677E-2,-6.8806885E-3,-2.5614934E-2],"split_indices":[836,162,6,503,656,41,1183,41,0,889,341,931,932,903,1264,450,138,344,0,0,0,0,1188,0,944,0,0,0,1148,995,0,348,1028,0,0,0,0,0,324,100,858,936,714,0,280,1019,0,0,0,0,4,0,421,0,0,0,0,0,0,0,0,0,0,0,0],"split_type":[0,0,0,0,0,0,0,0,0,0,0,0,0,0,0,0,0,0,0,0,0,0,0,0,0,0,0,0,0,0,0,0,0,0,0,0,0,0,0,0,0,0,0,0,0,0,0,0,0,0,0,0,0,0,0,0,0,0,0,0,0,0,0,0,0],"sum_hessian":[1.4657996E3,8.045618E2,6.6123773E2,7.045257E2,1.00036125E2,1.19567726E2,5.4167E2,6.8727936E2,1.7246368E1,6.600558E1,3.403055E1,5.7732025E1,6.18357E1,2.64958E1,5.151742E2,5.865418E1,6.286252E2,2.7767923E1,3.8237656E1,2.1523712E1,1.2506835E1,1.6647131E1,4.1084896E1,9.649355E0,5.2186348E1,9.830491E0,1.666531E1,1.6884605E1,4.9828958E2,4.854866E1,1.010552E1,3.3392673E1,5.952325E2,1.129166E1,1.6476263E1,9.654496E0,3.14304E1,9.588856E0,4.2597492E1,4.3769293E2,6.0596645E1,2.0509766E1,2.8038893E1,1.1720526E1,2.167215E1,5.785555E2,1.6677008E1,3.277635E1,9.821143E0,9.833097E0,4.2785983E2,1.0618196E1,4.997845E1,1.0047694E1,1.046207E1,1.8448233E1,9.590661E0,1.1997202E1,9.674948E0,5.6816724E2,1.0388259E1,1.8680058E1,4.0917978E2,1.3436221E1,3.654223E1],"tree_param":{"num_deleted":"0","num_feature":"1280","num_nodes":"65","size_leaf_vector":"1"}},{"base_weights":[1.3130973E-2,9.0866035E-1,-1.0753795E0,1.0984775E0,-6.4556384E-1,-1.390111E0,2.2241712E-1,1.1916661E0,-5.814262E-1,1.5977865E-2,-1.013508E0,1.2141777E-2,-1.449953E0,-7.6865077E-1,9.3465394E-1,1.265834E0,-3.5512114E-1,1.2952698E-2,-1.0490136E0,6.816461E-3,-1.3403779E0,-5.061443E-1,-1.5014927E0,-1.1285291E0,7.7884663E-3,1.1957097E0,-1.31687615E-2,3.710386E-1,1.3516085E0,-1.9518318E-2,1.0165629E-2,-2.6305957E-2,-4.3609184E-3,-2.9803252E-2,-4.889993E-3,-2.3896432E-2,2.6372818E-3,-8.4567E-1,-1.5831264E0,-7.1547483E-3,-2.5449082E-2,5.597805E-3,2.8161652E-2,-1.488479E-2,7.107029E-1,3.0010015E-1,1.3997386E0,-1.0467621E0,2.2728182E-3,-7.9495466E-1,-1.6365145E0,1.9443307E-2,-6.4581E-3,1.5514818E-2,-1.1016615E-2,2.8388038E-2,1.1132563E-2,-2.5190704E-2,-2.9403176E-3,6.768645E-3,-2.4792314E-2,-3.2587416E-2,-1.3062402E-2],"categories":[],"categories_nodes":[],"categories_segments":[],"categories_sizes":[],"default_left":[0,0,0,0,0,0,0,0,0,0,0,0,0,0,0,0,0,0,0,0,0,0,0,0,0,0,0,0,0,0,0,0,0,0,0,0,0,0,0,0,0,0,0,0,0,0,0,0,0,0,0,0,0,0,0,0,0,0,0,0,0,0,0],"id":7,"left_children":[1,3,5,7,9,11,13,15,17,-1,19,-1,21,23,25,27,29,-1,31,-1,33,35,37,39,-1,41,-1,43,45,-1,-1,-1,-1,-1,-1,-1,-1,47,49,-1,-1,-1,-1,-1,51,53,55,57,-1,59,61,-1,-1,-1,-1,-1,-1,-1,-1,-1,-1,-1,-1],"loss_changes":[1.4723281E3,2.4798834E2,2.800144E2,1.19338806E2,5.430115E1,7.056384E1,1.00536674E2,8.288812E1,2.8010914E1,0E0,3.6492348E1,0E0,2.223999E1,2.7491608E1,3.8478767E1,4.9073364E1,2.2800615E1,0E0,6.446018E0,0E0,1.05707855E1,1.6934258E1,2.0356934E1,3.8078766E0,0E0,1.3938568E1,0E0,2.7909771E1,2.8843994E1,0E0,0E0,0E0,0E0,0E0,0E0,0E0,0E0,1.34786E1,1.2170288E1,0E0,0E0,0E0,0E0,0E0,1.720879E1,1.6270784E1,2.0101929E1,1.0973915E1,0E0,2.2489754E1,5.4553223E0,0E0,0E0,0E0,0E0,0E0,0E0,0E0,0E0,0E0,0E0,0E0,0E0],"parents":[2147483647,0,0,1,1,2,2,3,3,4,4,5,5,6,6,7,7,8,8,10,10,12,12,13,13,14,14,15,15,16,16,18,18,20,20,21,21,22,22,23,23,25,25,27,27,28,28,37,37,38,38,44,44,45,45,46,46,47,47,49,49,50,50],"right_children":[2,4,6,8,10,12,14,16,18,-1,20,-1,22,24,26,28,30,-1,32,-1,34,36,38,40,-1,42,-1,44,46,-1,-1,-1,-1,-1,-1,-1,-1,48,50,-1,-1,-1,-1,-1,52,54,56,58,-1,60,62,-1,-1,-1,-1,-1,-1,-1,-1,-1,-1,-1,-1],"split_conditions":[8.6186826E-2,-6.0770687E-2,8.538238E-2,6.397718E-2,-1.2126197E-1,-2.1222277E-1,1.4449805E-1,1.277444E-1,-3.555645E-2,1.5977865E-2,-1.7254287E-2,1.2141777E-2,-1.18598446E-1,9.8793566E-2,5.504528E-3,4.2184368E-2,1.025582E-2,1.2952698E-2,1.20967925E-1,6.816461E-3,6.617856E-2,-2.8810557E-2,-3.0124824E-2,-1.3690269E-1,7.7884663E-3,-3.0260216E-2,-1.31687615E-2,2.5377183E-3,-7.684452E-2,-1.9518318E-2,1.0165629E-2,-2.6305957E-2,-4.3609184E-3,-2.9803252E-2,-4.889993E-3,-2.3896432E-2,2.6372818E-3,9.8366E-2,-1.4643338E-1,-7.1547483E-3,-2.5449082E-2,5.597805E-3,2.8161652E-2,-1.488479E-2,1.565093E-2,-9.706784E-2,2.1944436E-1,-7.040595E-4,2.2728182E-3,-3.468901E-2,1.8168743E-1,1.9443307E-2,-6.4581E-3,1.5514818E-2,-1.1016615E-2,2.8388038E-2,1.1132563E-2,-2.5190704E-2,-2.9403176E-3,6.768645E-3,-2.4792314E-2,-3.2587416E-2,-1.3062402E-2],"split_indices":[836,503,1201,369,314,1031,474,15,34,0,1241,0,4,598,1260,909,508,0,760,0,1177,256,1144,931,0,412,0,211,315,0,0,0,0,0,0,0,0,660,1159,0,0,0,0,0,134,578,1012,864,0,438,874,0,0,0,0,0,0,0,0,0,0,0,0],"split_type":[0,0,0,0,0,0,0,0,0,0,0,0,0,0,0,0,0,0,0,0,0,0,0,0,0,0,0,0,0,0,0,0,0,0,0,0,0,0,0,0,0,0,0,0,0,0,0,0,0,0,0,0,0,0,0,0,0,0,0,0,0,0,0],"sum_hessian":[1.5004292E3,8.2363696E2,6.767923E2,7.3529565E2,8.834132E1,5.444117E2,1.3238065E2,6.980218E2,3.727385E1,1.6548151E1,7.179317E1,1.43909645E1,5.300207E2,5.5190033E1,7.7190605E1,6.669465E2,3.1075329E1,9.625143E0,2.7648708E1,1.3835813E1,5.7957355E1,3.0234863E1,4.9978583E2,4.2300198E1,1.2889834E1,6.7500854E1,9.689752E0,6.0660492E1,6.0628595E2,1.7519817E1,1.3555511E1,1.8089409E1,9.559299E0,4.799788E1,9.9594755E0,1.2169551E1,1.8065313E1,6.1585983E1,4.3819983E2,1.0604787E1,3.1695412E1,1.6483395E1,5.101746E1,1.2585213E1,4.807528E1,2.8113409E1,5.7817255E2,5.057156E1,1.1014422E1,3.281891E1,4.0538095E2,3.7997585E1,1.0077694E1,1.8159288E1,9.95412E0,5.4191266E2,3.6259884E1,3.8197685E1,1.2373876E1,9.980527E0,2.283838E1,3.9068726E2,1.4693679E1],"tree_param":{"num_deleted":"0","num_feature":"1280","num_nodes":"63","size_leaf_vector":"1"}},{"base_weights":[-3.3439426E-3,-1.0977637E0,8.353377E-1,5.0569654E-1,-1.3115704E0,1.0580995E0,-4.9850458E-1,-7.400306E-1,1.09363E0,-1.4681242E-1,-1.4227146E0,-2.0348696E-1,1.166519E0,-1.0054644E0,6.8273425E-1,-2.408159E-2,2.1959979E-3,2.6243128E-2,1.0237998E-3,7.2628385E-1,-8.4667414E-1,-6.0143E-1,-1.5039792E0,-6.5723735E-1,1.9607129E-2,1.290502E0,2.1279064E-1,8.75126E-4,-1.2451866E0,2.1490429E-2,-5.4115197E-3,-9.986071E-5,2.3384694E-2,-2.5035247E-2,-4.755581E-4,-1.1585242E0,2.4564934E-1,-4.997732E-1,-1.5447332E0,-1.1164012E0,3.8936026E-3,1.343136E0,-7.6120365E-3,6.98928E-1,-5.908406E-1,-4.794061E-3,-1.4624398E0,-2.8128931E-2,-5.8867354E-3,1.5109251E-2,-7.143067E-3,-2.039092E-2,4.8678666E-3,-1.5653044E0,-8.187868E-3,-2.708361E-2,-6.599928E-3,1.3828315E0,-8.640661E-3,1.0491841E0,-1.0390632E-2,-2.0600999E-2,3.113101E-3,-3.1183999E-2,-1.0976846E-2,-1.1064054E-2,-3.1178547E-2,-1.6543537E-3,2.7620835E-2,2.3941537E-2,7.3750946E-3],"categories":[],"categories_nodes":[],"categories_segments":[],"categories_sizes":[],"default_left":[0,0,0,0,0,0,0,0,0,0,0,0,0,0,0,0,0,0,0,0,0,0,0,0,0,0,0,0,0,0,0,0,0,0,0,0,0,0,0,0,0,0,0,0,0,0,0,0,0,0,0,0,0,0,0,0,0,0,0,0,0,0,0,0,0,0,0,0,0,0,0],"id":8,"left_children":[1,3,5,7,9,11,13,15,17,19,21,23,25,27,29,-1,-1,-1,-1,31,33,35,37,39,-1,41,43,-1,45,-1,-1,-1,-1,-1,-1,47,49,51,53,55,-1,57,-1,59,61,-1,63,-1,-1,-1,-1,-1,-1,65,-1,-1,-1,67,-1,69,-1,-1,-1,-1,-1,-1,-1,-1,-1,-1,-1],"loss_changes":[1.3508181E3,2.2219647E2,2.5019556E2,6.1680676E1,7.207092E1,9.905676E1,7.684975E1,1.245902E1,1.3894463E1,3.6516064E1,2.9866577E1,3.655086E1,7.663611E1,2.2383667E1,1.733564E1,0E0,0E0,0E0,0E0,9.28352E0,1.1452898E1,2.721454E1,1.519812E1,1.9666971E1,0E0,5.4110107E1,3.4034435E1,0E0,1.379258E1,0E0,0E0,0E0,0E0,0E0,0E0,5.9203796E0,9.683278E0,1.1626116E1,7.048828E0,4.2229767E0,0E0,4.314386E1,0E0,2.571852E1,1.2434529E1,0E0,2.3416367E0,0E0,0E0,0E0,0E0,0E0,0E0,7.2125244E0,0E0,0E0,0E0,2.3125977E1,0E0,2.73909E0,0E0,0E0,0E0,0E0,0E0,0E0,0E0,0E0,0E0,0E0,0E0],"parents":[2147483647,0,0,1,1,2,2,3,3,4,4,5,5,6,6,7,7,8,8,9,9,10,10,11,11,12,12,13,13,14,14,19,19,20,20,21,21,22,22,23,23,25,25,26,26,28,28,35,35,36,36,37,37,38,38,39,39,41,41,43,43,44,44,46,46,53,53,57,57,59,59],"right_children":[2,4,6,8,10,12,14,16,18,20,22,24,26,28,30,-1,-1,-1,-1,32,34,36,38,40,-1,42,44,-1,46,-1,-1,-1,-1,-1,-1,48,50,52,54,56,-1,58,-1,60,62,-1,64,-1,-1,-1,-1,-1,-1,66,-1,-1,-1,68,-1,70,-1,-1,-1,-1,-1,-1,-1,-1,-1,-1,-1],"split_conditions":[5.9662208E-2,-1.8095012E-1,-2.2331158E-2,3.2702327E-2,-1.3830999E-1,6.260454E-2,1.9944566E-1,1.2316704E-1,1.915963E-2,1.4662375E-1,-7.960488E-2,1.8715921E-1,2.1681994E-2,-2.1334466E-1,-1.22493856E-1,-2.408159E-2,2.1959979E-3,2.6243128E-2,1.0237998E-3,1.5058916E-2,-8.3625605E-3,7.876379E-2,-9.999839E-2,1.19552635E-1,1.9607129E-2,5.446199E-2,4.7591515E-2,8.75126E-4,-1.0423722E-1,2.1490429E-2,-5.4115197E-3,-9.986071E-5,2.3384694E-2,-2.5035247E-2,-4.755581E-4,8.701124E-2,1.03267886E-1,1.0039169E-1,1.0804228E-1,-1.5074256E-2,3.8936026E-3,3.7140258E-2,-7.6120365E-3,-4.1390456E-2,-1.1569604E-1,-4.794061E-3,5.4257635E-2,-2.8128931E-2,-5.8867354E-3,1.5109251E-2,-7.143067E-3,-2.039092E-2,4.8678666E-3,-1.6647927E-1,-8.187868E-3,-2.708361E-2,-6.599928E-3,-4.452334E-2,-8.640661E-3,5.2488197E-2,-1.0390632E-2,-2.0600999E-2,3.113101E-3,-3.1183999E-2,-1.0976846E-2,-1.1064054E-2,-3.1178547E-2,-1.6543537E-3,2.7620835E-2,2.3941537E-2,7.3750946E-3],"split_indices":[25,1031,162,1189,1075,77,656,227,1019,575,1001,154,139,381,1256,0,0,0,0,256,1277,918,344,693,0,1028,420,0,1150,0,0,0,0,0,0,186,861,597,89,300,0,806,0,782,90,0,1161,0,0,0,0,0,0,6,0,0,0,41,0,1010,0,0,0,0,0,0,0,0,0,0,0],"split_type":[0,0,0,0,0,0,0,0,0,0,0,0,0,0,0,0,0,0,0,0,0,0,0,0,0,0,0,0,0,0,0,0,0,0,0,0,0,0,0,0,0,0,0,0,0,0,0,0,0,0,0,0,0,0,0,0,0,0,0,0,0,0,0,0,0,0,0,0,0,0,0],"sum_hessian":[1.4617336E3,6.3351E2,8.282237E2,7.373444E1,5.597756E2,7.105807E2,1.1764297E2,2.32287E1,5.0505745E1,4.9768982E1,5.1000656E2,5.5888382E1,6.546923E2,8.283369E1,3.4809273E1,1.3350163E1,9.878537E0,3.968302E1,1.0822723E1,2.2060242E1,2.770874E1,4.9687084E1,4.603195E2,4.2241764E1,1.3646615E1,5.778186E2,7.687371E1,1.6147486E1,6.66862E1,2.379989E1,1.1009383E1,1.0528261E1,1.153198E1,1.6358406E1,1.1350333E1,2.8869667E1,2.0817417E1,2.0528507E1,4.39791E2,2.6509008E1,1.5732758E1,5.6122406E2,1.659454E1,4.830285E1,2.8570862E1,1.3788102E1,5.28981E1,1.9269354E1,9.600312E0,1.0476457E1,1.0340961E1,1.0779309E1,9.749198E0,4.3000034E2,9.790646E0,1.6877234E1,9.631775E0,5.5010693E2,1.1117127E1,3.8162136E1,1.0140712E1,1.6447659E1,1.2123203E1,4.2900803E1,9.997297E0,1.4118401E1,4.1588193E2,9.990612E0,5.4011633E2,2.7101418E1,1.10607195E1],"tree_param":{"num_deleted":"0","num_feature":"1280","num_nodes":"71","size_leaf_vector":"1"}},{"base_weights":[-3.0308316E-2,-1.1374437E0,8.101286E-1,5.475833E-1,-1.3381636E0,7.942369E-3,1.0977542E0,-1.7185766E-2,1.0699167E0,1.1146264E-1,-1.4034442E0,-6.7146015E-1,7.237293E-1,-1.8147368E-2,1.1633054E0,2.549062E-2,5.855532E-4,-1.28547335E-2,1.3815961E-2,1.8479461E-3,-1.4581722E0,-1.2411906E0,-5.8240596E-2,-3.4940666E-1,1.1266929E0,1.2343472E0,-5.624346E-1,-1.5182782E0,-6.83308E-1,-4.652288E-3,-1.4140753E0,-5.8838093E-1,7.7842075E-1,-1.8722344E-2,1.17145935E-2,9.81004E-4,1.3154087E0,1.2830048E0,-1.7555576E-2,3.844907E-3,-2.0729307E-2,-1.5472587E0,-7.863537E-3,4.450506E-3,-1.1425998E0,-3.0881234E-2,-9.524647E-3,-2.0773944E-2,-1.8199337E-4,3.1668223E-3,2.1360248E-2,8.188756E-3,2.8393332E-2,1.3376743E0,2.6156607E-1,-1.814226E-2,-3.1213328E-2,-2.7191855E-2,-7.706296E-3,2.6904527E-2,4.7619213E-4,-8.934311E-3,1.7346501E-2],"categories":[],"categories_nodes":[],"categories_segments":[],"categories_sizes":[],"default_left":[0,0,0,0,0,0,0,0,0,0,0,0,0,0,0,0,0,0,0,0,0,0,0,0,0,0,0,0,0,0,0,0,0,0,0,0,0,0,0,0,0,0,0,0,0,0,0,0,0,0,0,0,0,0,0,0,0,0,0,0,0,0,0],"id":9,"left_children":[1,3,5,7,9,11,13,-1,15,17,19,21,23,-1,25,-1,-1,-1,-1,-1,27,29,31,33,35,37,39,41,43,-1,45,47,49,-1,-1,-1,51,53,-1,-1,-1,55,-1,-1,57,-1,-1,-1,-1,-1,-1,-1,-1,59,61,-1,-1,-1,-1,-1,-1,-1,-1],"loss_changes":[1.361172E3,2.1713855E2,1.9185516E2,5.7322426E1,5.4291504E1,1.1160626E2,8.660657E1,0E0,1.2823456E1,1.5527054E1,4.507141E1,4.0785786E1,5.0276108E1,0E0,7.6424805E1,0E0,0E0,0E0,0E0,0E0,1.9177612E1,8.877396E0,2.9756565E1,2.2568565E1,1.6414558E1,6.5157776E1,1.1181674E1,1.2472412E1,2.081618E1,0E0,3.867958E0,1.1101468E1,4.1630497E0,0E0,0E0,0E0,5.4207535E0,2.9665833E1,0E0,0E0,0E0,6.185669E0,0E0,0E0,3.1487427E0,0E0,0E0,0E0,0E0,0E0,0E0,0E0,0E0,2.5188354E1,1.7590256E1,0E0,0E0,0E0,0E0,0E0,0E0,0E0,0E0],"parents":[2147483647,0,0,1,1,2,2,3,3,4,4,5,5,6,6,8,8,9,9,10,10,11,11,12,12,14,14,20,20,21,21,22,22,23,23,24,24,25,25,26,26,27,27,28,28,30,30,31,31,32,32,36,36,37,37,41,41,44,44,53,53,54,54],"right_children":[2,4,6,8,10,12,14,-1,16,18,20,22,24,-1,26,-1,-1,-1,-1,-1,28,30,32,34,36,38,40,42,44,-1,46,48,50,-1,-1,-1,52,54,-1,-1,-1,56,-1,-1,58,-1,-1,-1,-1,-1,-1,-1,-1,60,62,-1,-1,-1,-1,-1,-1,-1,-1],"split_conditions":[5.817487E-2,-1.302098E-1,4.9422182E-2,-3.380044E-2,-6.551267E-2,4.627265E-2,4.7275677E-2,-1.7185766E-2,-1.0652044E-1,7.0340276E-2,-1.5259793E-1,2.1177104E-2,7.064163E-2,-1.8147368E-2,6.397718E-2,2.549062E-2,5.855532E-4,-1.28547335E-2,1.3815961E-2,1.8479461E-3,1.7338087E-1,-5.7245392E-2,8.4209725E-2,1.7732976E-1,-3.4264825E-2,5.5945348E-2,-9.418493E-3,1.5776879E-1,-2.0787716E-2,-4.652288E-3,2.0506589E-1,1.4725979E-1,-2.0415054E-3,-1.8722344E-2,1.17145935E-2,9.81004E-4,4.1434344E-2,1.019247E-1,-1.7555576E-2,3.844907E-3,-2.0729307E-2,-9.7541094E-2,-7.863537E-3,4.450506E-3,-5.9646443E-3,-3.0881234E-2,-9.524647E-3,-2.0773944E-2,-1.8199337E-4,3.1668223E-3,2.1360248E-2,8.188756E-3,2.8393332E-2,5.417003E-2,1.5208073E-1,-1.814226E-2,-3.1213328E-2,-2.7191855E-2,-7.706296E-3,2.6904527E-2,4.7619213E-4,-8.934311E-3,1.7346501E-2],"split_indices":[25,463,719,944,1183,481,1171,0,110,119,931,1083,1201,0,369,0,0,0,0,0,980,1155,66,980,1126,806,727,918,538,0,937,821,1058,0,0,0,1099,526,0,0,0,4,0,0,96,0,0,0,0,0,0,0,0,1138,1171,0,0,0,0,0,0,0,0],"split_type":[0,0,0,0,0,0,0,0,0,0,0,0,0,0,0,0,0,0,0,0,0,0,0,0,0,0,0,0,0,0,0,0,0,0,0,0,0,0,0,0,0,0,0,0,0,0,0,0,0,0,0,0,0,0,0,0,0,0,0,0,0,0,0],"sum_hessian":[1.4529637E3,6.2623883E2,8.267249E2,6.574127E1,5.6049756E2,2.1954164E2,6.071832E2,1.6723572E1,4.9017704E1,2.4001226E1,5.3649634E2,1.1279169E2,1.0674996E2,1.6991777E1,5.9019147E2,3.90592E1,9.958501E0,1.02408285E1,1.3760397E1,1.8784678E1,5.177117E2,5.5825695E1,5.6965992E1,2.9322575E1,7.742738E1,5.6821814E2,2.1973356E1,4.7601016E2,4.1701515E1,9.940799E0,4.5884895E1,3.577519E1,2.1190802E1,1.7850307E1,1.1472267E1,1.2487799E1,6.493958E1,5.574697E2,1.0748361E1,9.876855E0,1.20965E1,4.6209814E2,1.3912028E1,1.48251505E1,2.6876366E1,3.6065758E1,9.819138E0,1.741984E1,1.835535E1,9.665724E0,1.1525078E1,1.1135196E1,5.380439E1,5.2768524E2,2.978452E1,3.9585358E1,4.225128E2,1.7031796E1,9.84457E0,5.13291E2,1.4394197E1,1.4477564E1,1.5306955E1],"tree_param":{"num_deleted":"0","num_feature":"1280","num_nodes":"63","size_leaf_vector":"1"}},{"base_weights":[-1.1313757E-2,-1.1177713E0,8.169268E-1,-1.3445721E0,3.7058163E-1,1.0603999E0,-3.9714667E-1,3.372075E-3,-1.3991117E0,-6.118845E-1,1.065989E0,-1.4431083E-1,1.1508858E0,-9.603741E-1,5.866427E-1,-1.4419624E0,4.717238E-3,6.7450358E-3,-2.1265058E-2,2.0524345E-3,2.5974756E-2,-6.781496E-1,2.1231793E-2,-3.0808964E-1,1.2098011E0,-2.87966E-1,-1.3505864E0,-1.2438883E-2,9.8144466E-1,-1.592859E0,-1.1102202E0,-1.0601078E0,4.1329996E-3,-2.0496752E-2,9.778752E-3,1.2653538E0,-1.848873E-1,-7.5961465E-1,9.619434E-3,-2.9686436E-2,-6.961249E-3,2.5349774E-3,2.3634167E-2,-3.1667344E-2,-1.2540756E-2,-1.2119808E0,4.2815935E-3,-6.072693E-3,-2.7205529E-2,1.3052428E0,-5.790806E-3,-1.6960077E-2,1.0624791E-2,-1.1633502E-4,-2.2828862E-2,-2.558048E-2,-1.9501577E-3,1.1780437E-2,2.7312905E-2],"categories":[],"categories_nodes":[],"categories_segments":[],"categories_sizes":[],"default_left":[0,0,0,0,0,0,0,0,0,0,0,0,0,0,0,0,0,0,0,0,0,0,0,0,0,0,0,0,0,0,0,0,0,0,0,0,0,0,0,0,0,0,0,0,0,0,0,0,0,0,0,0,0,0,0,0,0,0,0],"id":10,"left_children":[1,3,5,7,9,11,13,-1,15,17,19,21,23,25,27,29,-1,-1,-1,-1,-1,31,-1,33,35,37,39,-1,41,43,45,47,-1,-1,-1,49,51,53,-1,-1,-1,-1,-1,-1,-1,55,-1,-1,-1,57,-1,-1,-1,-1,-1,-1,-1,-1,-1],"loss_changes":[1.3421226E3,2.1411249E2,2.4969043E2,4.629413E1,6.2555687E1,7.703009E1,8.234069E1,0E0,3.8746582E1,1.9607101E1,1.2486725E1,3.8593166E1,5.7793518E1,2.2509247E1,2.9804886E1,1.692627E1,0E0,0E0,0E0,0E0,0E0,1.4765074E1,0E0,2.0033947E1,4.970691E1,1.675775E1,6.7974625E0,0E0,7.633873E0,2.74823E0,2.527481E1,4.999981E0,0E0,0E0,0E0,3.9480286E1,1.6385847E1,8.295382E0,0E0,0E0,0E0,0E0,0E0,0E0,0E0,1.6697052E1,0E0,0E0,0E0,3.2930298E1,0E0,0E0,0E0,0E0,0E0,0E0,0E0,0E0,0E0],"parents":[2147483647,0,0,1,1,2,2,3,3,4,4,5,5,6,6,8,8,9,9,10,10,11,11,12,12,13,13,14,14,15,15,21,21,23,23,24,24,25,25,26,26,28,28,29,29,30,30,31,31,35,35,36,36,37,37,45,45,49,49],"right_children":[2,4,6,8,10,12,14,-1,16,18,20,22,24,26,28,30,-1,-1,-1,-1,-1,32,-1,34,36,38,40,-1,42,44,46,48,-1,-1,-1,50,52,54,-1,-1,-1,-1,-1,-1,-1,56,-1,-1,-1,58,-1,-1,-1,-1,-1,-1,-1,-1,-1],"split_conditions":[5.9662208E-2,1.1095917E-1,-3.15237E-2,-8.178479E-2,1.3137057E-1,5.8963828E-2,1.8835647E-1,3.372075E-3,1.5860327E-1,-8.209892E-2,-3.1589556E-2,1.03432216E-1,-4.2335965E-2,-4.8835218E-2,-8.062397E-2,7.2063364E-2,4.717238E-3,6.7450358E-3,-2.1265058E-2,2.0524345E-3,2.5974756E-2,-1.0244176E-3,2.1231793E-2,1.323384E-1,4.9585037E-2,7.631441E-2,5.618939E-2,-1.2438883E-2,5.4642837E-2,1.5204379E-1,6.795295E-2,-5.1893763E-2,4.1329996E-3,-2.0496752E-2,9.778752E-3,7.3698305E-2,-2.2283971E-2,-2.8305952E-2,9.619434E-3,-2.9686436E-2,-6.961249E-3,2.5349774E-3,2.3634167E-2,-3.1667344E-2,-1.2540756E-2,-1.8379273E-2,4.2815935E-3,-6.072693E-3,-2.7205529E-2,-2.1857856E-2,-5.790806E-3,-1.6960077E-2,1.0624791E-2,-1.1633502E-4,-2.2828862E-2,-2.558048E-2,-1.9501577E-3,1.1780437E-2,2.7312905E-2],"split_indices":[25,1080,162,1183,1154,77,656,0,1015,1051,399,719,41,889,1049,792,0,0,0,0,0,458,0,288,790,95,1194,0,851,84,452,225,0,0,0,294,1105,892,0,0,0,0,0,0,0,279,0,0,0,237,0,0,0,0,0,0,0,0,0],"split_type":[0,0,0,0,0,0,0,0,0,0,0,0,0,0,0,0,0,0,0,0,0,0,0,0,0,0,0,0,0,0,0,0,0,0,0,0,0,0,0,0,0,0,0,0,0,0,0,0,0,0,0,0,0,0,0,0,0,0,0],"sum_hessian":[1.4545974E3,6.219652E2,8.3263226E2,5.40138E2,8.182721E1,6.940718E2,1.385605E2,1.8375141E1,5.217628E2,3.416179E1,4.766542E1,4.8282764E1,6.45789E2,8.818969E1,5.0370804E1,5.090632E2,1.2699638E1,1.17728615E1,2.2388926E1,1.1651042E1,3.601438E1,3.5212685E1,1.3070081E1,2.4248127E1,6.215409E2,3.5562817E1,5.2626873E1,1.156052E1,3.8810284E1,3.3689337E2,1.7216983E2,2.3962534E1,1.1250151E1,1.1893419E1,1.2354708E1,5.9817633E2,2.3364569E1,2.2231306E1,1.33315115E1,4.2891445E1,9.735429E0,9.761672E0,2.904861E1,3.2513058E2,1.1762796E1,1.6033022E2,1.1839615E1,1.0259138E1,1.3703396E1,5.8406805E2,1.4108248E1,1.1575811E1,1.1788757E1,9.554652E0,1.2676654E1,1.4699792E2,1.3332293E1,7.026391E1,5.1380414E2],"tree_param":{"num_deleted":"0","num_feature":"1280","num_nodes":"59","size_leaf_vector":"1"}},{"base_weights":[-3.3962857E-3,-1.0778317E0,8.097185E-1,5.847467E-1,-1.2744625E0,9.970447E-1,-5.094963E-1,-1.8209768E-2,1.0674901E0,1.2423326E-2,-1.3325152E0,1.1098611E0,-5.3498703E-1,3.0342227E-1,-1.1457267E0,2.591993E-2,-3.0815767E-4,-1.3919278E0,-1.1283594E-2,-4.383449E-1,1.1829143E0,1.002608E-2,-1.1148977E0,6.808526E-1,-1.6089372E-2,-1.3783871E0,4.860993E-4,-3.5289796E-3,-1.4228852E0,-1.6252385E-2,1.3390881E-2,1.2484318E-2,-2.0595584E-2,1.2524322E0,-1.379256E-1,-4.453558E-3,-2.730726E-2,1.0170206E0,-1.0399704E-3,-3.0004073E-2,-1.1634288E-2,-3.3466087E-3,-1.4452436E0,1.2938675E0,-9.797344E-3,-1.4753633E-2,1.1604578E-2,2.5946358E-2,7.0881066E-3,-2.867948E-2,-6.6862237E-3,-4.083752E-3,2.6128838E-2],"categories":[],"categories_nodes":[],"categories_segments":[],"categories_sizes":[],"default_left":[0,0,0,0,0,0,0,0,0,0,0,0,0,0,0,0,0,0,0,0,0,0,0,0,0,0,0,0,0,0,0,0,0,0,0,0,0,0,0,0,0,0,0,0,0,0,0,0,0,0,0,0,0],"id":11,"left_children":[1,3,5,7,9,11,13,-1,15,-1,17,19,21,23,25,-1,-1,27,29,31,33,-1,35,37,-1,39,-1,-1,41,-1,-1,-1,-1,43,45,-1,-1,47,-1,-1,-1,-1,49,51,-1,-1,-1,-1,-1,-1,-1,-1,-1],"loss_changes":[1.282102E3,2.1037866E2,2.0896887E2,5.6325844E1,6.702911E1,1.2967865E2,5.7158237E1,0E0,1.5532799E1,0E0,4.3233765E1,8.00014E1,3.5414795E1,2.4436241E1,1.6826546E1,0E0,0E0,1.8528198E1,1.9194588E1,2.6091684E1,6.100531E1,0E0,7.3759575E0,1.0360895E1,0E0,1.6319962E0,0E0,0E0,1.3161011E1,0E0,0E0,0E0,0E0,4.845166E1,1.8966074E1,0E0,0E0,3.320959E0,0E0,0E0,0E0,0E0,8.263306E0,3.84317E1,0E0,0E0,0E0,0E0,0E0,0E0,0E0,0E0,0E0],"parents":[2147483647,0,0,1,1,2,2,3,3,4,4,5,5,6,6,8,8,10,10,11,11,12,12,13,13,14,14,17,17,18,18,19,19,20,20,22,22,23,23,25,25,28,28,33,33,34,34,37,37,42,42,43,43],"right_children":[2,4,6,8,10,12,14,-1,16,-1,18,20,22,24,26,-1,-1,28,30,32,34,-1,36,38,-1,40,-1,-1,42,-1,-1,-1,-1,44,46,-1,-1,48,-1,-1,-1,-1,50,52,-1,-1,-1,-1,-1,-1,-1,-1,-1],"split_conditions":[5.9662208E-2,-1.302098E-1,4.1071914E-2,5.1604476E-2,-1.0020762E-1,5.659922E-2,-1.0512008E-1,-1.8209768E-2,1.4534473E-1,1.2423326E-2,1.5479517E-1,5.1194374E-2,9.548601E-2,1.3707413E-2,6.461322E-2,2.591993E-2,-3.0815767E-4,-1.106881E-1,3.0467024E-2,-9.10517E-2,4.5008637E-2,1.002608E-2,-1.8018268E-2,-9.412621E-3,-1.6089372E-2,1.9631656E-2,4.860993E-4,-3.5289796E-3,-1.244623E-1,-1.6252385E-2,1.3390881E-2,1.2484318E-2,-2.0595584E-2,4.291707E-2,5.848524E-2,-4.453558E-3,-2.730726E-2,-9.633043E-2,-1.0399704E-3,-3.0004073E-2,-1.1634288E-2,-3.3466087E-3,1.7785269E-1,-6.1793804E-2,-9.797344E-3,-1.4753633E-2,1.1604578E-2,2.5946358E-2,7.0881066E-3,-2.867948E-2,-6.6862237E-3,-4.083752E-3,2.6128838E-2],"split_indices":[25,463,790,603,1183,369,1139,0,1217,0,954,77,507,1005,189,0,0,1250,148,463,661,0,219,47,0,394,0,0,1001,0,0,0,0,806,1248,0,0,16,0,0,0,0,1013,264,0,0,0,0,0,0,0,0,0],"split_type":[0,0,0,0,0,0,0,0,0,0,0,0,0,0,0,0,0,0,0,0,0,0,0,0,0,0,0,0,0,0,0,0,0,0,0,0,0,0,0,0,0,0,0,0,0,0,0,0,0,0,0,0,0],"sum_hessian":[1.4575872E3,6.271979E2,8.3038934E2,6.529319E1,5.6190466E2,7.28202E2,1.0218732E2,1.4665656E1,5.0627537E1,1.5125102E1,5.467796E2,6.795343E2,4.866767E1,4.6007656E1,5.617966E1,4.00515E1,1.0576037E1,5.229953E2,2.3784285E1,2.9497473E1,6.5003687E2,1.75556E1,3.111207E1,3.592249E1,1.0085168E1,4.612719E1,1.0052472E1,1.387501E1,5.0912027E2,1.0477892E1,1.3306393E1,1.0639797E1,1.8857676E1,6.1777997E2,3.225691E1,9.616697E0,2.1495373E1,2.33207E1,1.2601788E1,3.4593628E1,1.153356E1,9.687732E0,4.9943256E2,6.047864E2,1.2993545E1,1.7422241E1,1.4834668E1,1.239884E1,1.0921861E1,4.892444E2,1.0188165E1,1.5308869E1,5.8947754E2],"tree_param":{"num_deleted":"0","num_feature":"1280","num_nodes":"53","size_leaf_vector":"1"}},{"base_weights":[-4.7907815E-3,7.677783E-1,-1.1114664E0,1.0199378E0,-3.6259207E-1,-1.3700895E0,1.8320137E-1,1.1728016E0,1.1438696E-1,5.812794E-1,-8.562912E-1,-3.210281E-1,-1.4314395E0,-6.1109024E-1,9.987446E-1,4.3463823E-1,1.3080819E0,-5.015413E-1,8.6578465E-1,1.0092133E0,-9.618364E-3,-2.4105433E-1,-1.4215215E0,1.2854966E-2,-1.7230917E-2,-6.0578818E-3,-1.4617834E0,-1.0733563E0,1.8828547E-1,2.5857147E-2,4.77057E-3,-1.88182E-2,6.376095E-1,-1.6580401E-4,1.3552632E0,4.098635E-1,-1.0097332E0,-1.5897681E-3,1.16687E0,6.002496E-3,2.3249453E-2,4.6957663E-1,-7.279549E-1,-3.0644525E-2,-9.763156E-3,-1.4818008E0,-7.3058745E-3,-4.643127E-3,-2.6450722E-2,1.4067841E-2,-7.7876756E-3,-1.0597059E-2,8.103493E-1,-1.5182965E-3,1.3854579E0,-5.1647243E-3,1.9840453E-2,-2.4836706E-2,-3.7755482E-3,2.6177054E-2,8.437809E-3,1.888218E-2,-3.9511137E-3,2.573261E-4,-2.2893075E-2,-1.5127604E0,-7.065684E-1,1.8974027E-2,-4.7536045E-3,2.8736448E-2,1.4335184E-2,-2.9992912E-2,-1.0685607E-2,-2.0087605E-2,-2.028841E-3],"categories":[],"categories_nodes":[],"categories_segments":[],"categories_sizes":[],"default_left":[0,0,0,0,0,0,0,0,0,0,0,0,0,0,0,0,0,0,0,0,0,0,0,0,0,0,0,0,0,0,0,0,0,0,0,0,0,0,0,0,0,0,0,0,0,0,0,0,0,0,0,0,0,0,0,0,0,0,0,0,0,0,0,0,0,0,0,0,0,0,0,0,0,0,0],"id":12,"left_children":[1,3,5,7,9,11,13,15,17,19,21,23,25,27,29,31,33,35,37,39,-1,41,43,-1,-1,-1,45,47,49,-1,-1,-1,51,-1,53,55,57,-1,59,-1,-1,61,63,-1,-1,65,-1,-1,-1,-1,-1,-1,67,-1,69,-1,-1,-1,-1,-1,-1,-1,-1,-1,-1,71,73,-1,-1,-1,-1,-1,-1,-1,-1],"loss_changes":[1.2529932E3,2.4784055E2,2.0297705E2,9.719171E1,7.7542694E1,3.0068665E1,7.086452E1,5.751422E1,5.196962E1,2.9218697E1,3.577359E1,2.1558048E1,1.3871155E1,2.1748756E1,1.1406586E1,3.1676561E1,3.1626709E1,3.0913643E1,1.4814686E1,3.6043777E0,0E0,2.1633127E1,3.4138565E0,0E0,0E0,0E0,7.26593E0,6.827503E0,9.127377E0,0E0,0E0,0E0,2.0757065E1,0E0,2.1763123E1,1.1832926E1,7.5346756E0,0E0,1.945015E0,0E0,0E0,9.751866E0,1.1889202E1,0E0,0E0,5.471863E0,0E0,0E0,0E0,0E0,0E0,0E0,1.479089E1,0E0,2.0415527E1,0E0,0E0,0E0,0E0,0E0,0E0,0E0,0E0,0E0,0E0,3.6505737E0,4.5938644E0,0E0,0E0,0E0,0E0,0E0,0E0,0E0,0E0],"parents":[2147483647,0,0,1,1,2,2,3,3,4,4,5,5,6,6,7,7,8,8,9,9,10,10,11,11,12,12,13,13,14,14,15,15,16,16,17,17,18,18,19,19,21,21,22,22,26,26,27,27,28,28,32,32,34,34,35,35,36,36,38,38,41,41,42,42,45,45,52,52,54,54,65,65,66,66],"right_children":[2,4,6,8,10,12,14,16,18,20,22,24,26,28,30,32,34,36,38,40,-1,42,44,-1,-1,-1,46,48,50,-1,-1,-1,52,-1,54,56,58,-1,60,-1,-1,62,64,-1,-1,66,-1,-1,-1,-1,-1,-1,68,-1,70,-1,-1,-1,-1,-1,-1,-1,-1,-1,-1,72,74,-1,-1,-1,-1,-1,-1,-1,-1],"split_conditions":[1.1351556E-1,-2.7338082E-2,8.598799E-2,1.8213948E-2,-4.00272E-2,-1.6647927E-1,1.14795655E-1,7.006485E-2,1.3562046E-1,-9.720294E-2,-1.1910291E-1,-2.5586434E-2,-6.868326E-2,4.0130697E-2,8.0112193E-4,4.6730842E-2,-1.13330655E-1,-3.5015546E-2,-1.24399975E-1,-6.2222686E-2,-9.618364E-3,-3.720815E-2,3.4985576E-2,1.2854966E-2,-1.7230917E-2,-6.0578818E-3,2.1935595E-2,-2.3459751E-2,4.781226E-2,2.5857147E-2,4.77057E-3,-1.88182E-2,-1.4983455E-2,-1.6580401E-4,-9.245348E-2,1.028552E-2,6.454093E-2,-1.5897681E-3,6.906976E-2,6.002496E-3,2.3249453E-2,3.805611E-2,-7.600153E-2,-3.0644525E-2,-9.763156E-3,2.2953208E-1,-7.3058745E-3,-4.643127E-3,-2.6450722E-2,1.4067841E-2,-7.7876756E-3,-1.0597059E-2,3.1982806E-2,-1.5182965E-3,1.8459868E-2,-5.1647243E-3,1.9840453E-2,-2.4836706E-2,-3.7755482E-3,2.6177054E-2,8.437809E-3,1.888218E-2,-3.9511137E-3,2.573261E-4,-2.2893075E-2,6.692056E-2,5.4781403E-2,1.8974027E-2,-4.7536045E-3,2.8736448E-2,1.4335184E-2,-2.9992912E-2,-1.0685607E-2,-2.0087605E-2,-2.028841E-3],"split_indices":[836,162,1201,139,1001,6,1151,909,1085,1031,1139,908,1183,25,420,1136,608,1203,95,352,0,807,940,0,0,0,345,1167,737,0,0,0,138,0,901,1127,102,0,541,0,0,994,22,0,0,873,0,0,0,0,0,0,773,0,785,0,0,0,0,0,0,0,0,0,0,74,679,0,0,0,0,0,0,0,0],"split_type":[0,0,0,0,0,0,0,0,0,0,0,0,0,0,0,0,0,0,0,0,0,0,0,0,0,0,0,0,0,0,0,0,0,0,0,0,0,0,0,0,0,0,0,0,0,0,0,0,0,0,0,0,0,0,0,0,0,0,0,0,0,0,0,0,0,0,0,0,0,0,0,0,0,0,0],"sum_hessian":[1.4555679E3,8.58073E2,5.9749493E2,7.019669E2,1.561061E2,4.9777017E2,9.972477E1,5.993265E2,1.0264044E2,5.330752E1,1.0279858E2,2.9216503E1,4.6855365E2,5.115305E1,4.857172E1,9.607379E1,5.0325266E2,5.7314777E1,4.5325665E1,3.8313286E1,1.4994236E1,5.2623123E1,5.017545E1,1.0311954E1,1.8904549E1,1.3804997E1,4.5474866E2,3.1329165E1,1.9823885E1,3.144727E1,1.712445E1,9.837202E0,8.623659E1,1.7552563E1,4.857001E2,2.0862646E1,3.6452133E1,1.1811931E1,3.3513733E1,1.0485267E1,2.7828018E1,2.1467909E1,3.1155216E1,4.0430824E1,9.744623E0,4.4477277E2,9.97588E0,1.0104102E1,2.1225061E1,9.8172655E0,1.00066185E1,9.664743E0,7.6571846E1,9.8632E0,4.758369E2,1.118135E1,9.681296E0,2.5597963E1,1.0854168E1,2.3925695E1,9.5880375E0,1.1109523E1,1.0358385E1,1.3427487E1,1.772773E1,4.2313696E2,2.1635803E1,6.689597E1,9.675871E0,4.1726285E2,5.8574062E1,4.121876E2,1.0949382E1,1.1862991E1,9.772812E0],"tree_param":{"num_deleted":"0","num_feature":"1280","num_nodes":"75","size_leaf_vector":"1"}},{"base_weights":[-1.5885245E-2,6.975049E-1,-1.2053043E0,9.4327646E-1,-8.125707E-1,6.0333717E-1,-1.3234462E0,-2.0040455E-1,1.1035203E0,2.707217E-1,-1.2058903E0,-7.2003175E-3,2.2692522E-2,-4.4969508E-1,-1.3992258E0,-6.848355E-1,4.9107233E-1,1.1770097E0,-1.1852037E-1,-1.7300574E-2,8.296706E-1,-1.4375912E0,-2.2775983E-3,1.7637555E-1,-9.879603E-1,-1.0439649E0,-2.9830597E-2,6.0916343E-3,-9.5918536E-1,9.432348E-1,-1.206034E-2,1.2285279E0,-1.6552924E-1,6.330541E-1,-1.7332891E-2,1.8122345E-3,2.3205029E-2,-9.718572E-3,-3.0050106E-2,1.2479169E-2,-7.7735134E-3,-2.4444226E-2,-6.6527775E-3,-1.2561862E0,-2.2796984E-1,-2.3753984E-2,1.181162E-3,2.731979E-3,2.49244E-2,1.2855548E0,3.0773404E-1,1.3759337E-2,-1.7724242E-2,1.8571056E-3,1.8317258E-2,-1.3679707E0,-3.8036602E-3,-1.8503986E-2,7.904013E-3,-2.4379012E-3,2.5795514E-2,-7.956559E-3,1.43977245E-2,-1.1795545E-2,-2.8370831E-2],"categories":[],"categories_nodes":[],"categories_segments":[],"categories_sizes":[],"default_left":[0,0,0,0,0,0,0,0,0,0,0,0,0,0,0,0,0,0,0,0,0,0,0,0,0,0,0,0,0,0,0,0,0,0,0,0,0,0,0,0,0,0,0,0,0,0,0,0,0,0,0,0,0,0,0,0,0,0,0,0,0,0,0,0,0],"id":13,"left_children":[1,3,5,7,9,11,13,15,17,19,21,-1,-1,23,25,27,29,31,33,-1,35,37,-1,39,41,43,-1,-1,45,47,-1,49,51,53,-1,-1,-1,-1,-1,-1,-1,-1,-1,55,57,-1,-1,-1,-1,59,61,-1,-1,-1,-1,63,-1,-1,-1,-1,-1,-1,-1,-1,-1],"loss_changes":[1.2420754E3,3.434337E2,1.2123767E2,1.4575415E2,5.734069E1,2.2116768E1,3.1078125E1,3.5578545E1,6.2936584E1,2.874415E1,2.3616394E1,0E0,0E0,1.7236687E1,1.2941223E1,1.8315891E1,2.5214245E1,4.6260925E1,2.8048296E1,0E0,6.9904785E0,3.4563446E0,0E0,8.310007E0,2.4228745E0,2.2525925E1,0E0,0E0,1.3178051E1,8.023609E0,0E0,3.1143799E1,2.150795E1,3.6328344E0,0E0,0E0,0E0,0E0,0E0,0E0,0E0,0E0,0E0,1.1576004E1,1.7581408E1,0E0,0E0,0E0,0E0,2.7314758E1,1.4712883E1,0E0,0E0,0E0,0E0,1.6870422E0,0E0,0E0,0E0,0E0,0E0,0E0,0E0,0E0,0E0],"parents":[2147483647,0,0,1,1,2,2,3,3,4,4,5,5,6,6,7,7,8,8,9,9,10,10,13,13,14,14,15,15,16,16,17,17,18,18,20,20,21,21,23,23,24,24,25,25,28,28,29,29,31,31,32,32,33,33,43,43,44,44,49,49,50,50,55,55],"right_children":[2,4,6,8,10,12,14,16,18,20,22,-1,-1,24,26,28,30,32,34,-1,36,38,-1,40,42,44,-1,-1,46,48,-1,50,52,54,-1,-1,-1,-1,-1,-1,-1,-1,-1,56,58,-1,-1,-1,-1,60,62,-1,-1,-1,-1,64,-1,-1,-1,-1,-1,-1,-1,-1,-1],"split_conditions":[1.3661402E-1,-6.0770687E-2,-1.8364851E-1,-2.7324311E-2,-1.0158253E-1,-4.7857042E-2,-1.8095012E-1,5.985105E-2,2.7297301E-2,-6.488526E-3,7.36895E-2,-7.2003175E-3,2.2692522E-2,-4.308179E-2,-7.564277E-2,-1.2888296E-1,4.4213034E-2,5.659922E-2,-6.683685E-2,-1.7300574E-2,9.587011E-2,-6.616155E-2,-2.2775983E-3,-5.1034237E-3,-5.7596527E-2,-2.3743799E-2,-2.9830597E-2,6.0916343E-3,7.1549684E-2,1.4881064E-2,-1.206034E-2,2.1944436E-1,-7.722628E-2,6.5238744E-2,-1.7332891E-2,1.8122345E-3,2.3205029E-2,-9.718572E-3,-3.0050106E-2,1.2479169E-2,-7.7735134E-3,-2.4444226E-2,-6.6527775E-3,1.4834294E-1,5.5641826E-2,-2.3753984E-2,1.181162E-3,2.731979E-3,2.49244E-2,-7.172861E-2,-5.2674398E-2,1.3759337E-2,-1.7724242E-2,1.8571056E-3,1.8317258E-2,-8.755169E-2,-3.8036602E-3,-1.8503986E-2,7.904013E-3,-2.4379012E-3,2.5795514E-2,-7.956559E-3,1.43977245E-2,-1.1795545E-2,-2.8370831E-2],"split_indices":[836,503,6,41,1103,944,1031,1194,806,31,142,0,0,344,774,915,637,369,372,0,1171,4,0,1029,1265,1265,0,0,711,1175,0,1012,16,227,0,0,0,0,0,0,0,0,0,1013,257,0,0,0,0,255,1051,0,0,0,0,952,0,0,0,0,0,0,0,0,0],"split_type":[0,0,0,0,0,0,0,0,0,0,0,0,0,0,0,0,0,0,0,0,0,0,0,0,0,0,0,0,0,0,0,0,0,0,0,0,0,0,0,0,0,0,0,0,0,0,0,0,0,0,0,0,0,0,0,0,0,0,0,0,0,0,0,0,0],"sum_hessian":[1.4539011E3,9.101003E2,5.4380084E2,7.8431805E2,1.2578222E2,3.2089546E1,5.1171127E2,9.6234184E1,6.880839E2,3.3917583E1,9.186463E1,1.2289725E1,1.979982E1,4.3594143E1,4.6811713E2,5.6617348E1,3.9616833E1,6.4922516E2,3.8858727E1,1.0122975E1,2.379461E1,7.444363E1,1.7421007E1,2.170103E1,2.1893112E1,1.3333385E2,3.347833E2,1.2084165E1,4.4533184E1,2.865034E1,1.0966495E1,6.256399E2,2.3585266E1,2.0059813E1,1.8798912E1,9.780825E0,1.4013784E1,9.797355E0,6.464627E1,1.1722486E1,9.978545E0,1.2331438E1,9.561673E0,1.0368222E2,2.9651619E1,3.4898567E1,9.634618E0,1.0392745E1,1.8257593E1,5.872948E2,3.8345127E1,1.0963906E1,1.2621361E1,9.568292E0,1.0491522E1,9.250935E1,1.1172865E1,1.2730351E1,1.6921267E1,1.2604119E1,5.746907E2,1.4452509E1,2.3892618E1,1.2852771E1,7.9656586E1],"tree_param":{"num_deleted":"0","num_feature":"1280","num_nodes":"65","size_leaf_vector":"1"}},{"base_weights":[-1.3532057E-2,9.160843E-1,-8.074382E-1,1.0463519E0,-4.559001E-1,1.7866927E-1,-1.2171538E0,1.2186651E0,1.8847688E-1,1.708883E-2,-8.694565E-1,-4.4855762E-1,9.371874E-1,-2.5750595E-1,-1.34673E0,1.2810264E0,-5.9831668E-2,-3.7842157E-1,7.6588094E-1,1.5468787E-3,-1.1629397E0,5.860372E-1,-7.766586E-1,1.177208E0,-1.1244995E-2,-9.724368E-1,6.043836E-1,-5.3103286E-1,-1.430233E0,-1.8738363E-3,1.3111782E0,8.766138E-3,-1.3465653E-2,1.8903184E-1,-2.1820802E-2,-6.0167867E-3,1.0261412E0,-4.249671E-3,-2.839945E-2,2.0854004E-2,-5.885511E-3,-1.6692128E-2,-1.107173E0,1.3030119E0,1.5206839E-3,-6.7925954E-4,-2.5467943E-2,2.0535167E-2,-6.949429E-3,2.7437034E-1,-1.0495591E0,-1.4671478E0,-6.4951163E-3,5.0101466E-3,1.3487564E0,-1.6261416E-2,7.7229226E-1,6.0514035E-3,2.3975855E-2,4.7675455E-1,-1.7265303E-2,-5.2271057E-3,-1.3610892E0,1.3960407E0,7.6832203E-3,-7.1522654E-3,1.5761476E-2,-7.010447E-3,-2.6588568E-2,-8.400946E-3,-1.4860852E0,2.6989453E-2,-2.1165208E-4,2.0647354E-2,4.926748E-3,1.888171E-2,-3.5307966E-3,-7.981628E-3,-2.9936602E-2,8.958835E-3,2.9360956E-2,-1.3376234E-2,-2.9569674E-2],"categories":[],"categories_nodes":[],"categories_segments":[],"categories_sizes":[],"default_left":[0,0,0,0,0,0,0,0,0,0,0,0,0,0,0,0,0,0,0,0,0,0,0,0,0,0,0,0,0,0,0,0,0,0,0,0,0,0,0,0,0,0,0,0,0,0,0,0,0,0,0,0,0,0,0,0,0,0,0,0,0,0,0,0,0,0,0,0,0,0,0,0,0,0,0,0,0,0,0,0,0,0,0],"id":14,"left_children":[1,3,5,7,9,11,13,15,17,-1,19,21,23,25,27,29,31,33,35,-1,37,39,41,43,-1,45,47,49,51,-1,53,-1,-1,55,-1,-1,57,-1,-1,-1,-1,59,61,63,-1,-1,-1,-1,-1,65,67,69,-1,-1,71,-1,73,-1,-1,75,-1,-1,77,79,-1,-1,-1,-1,-1,-1,81,-1,-1,-1,-1,-1,-1,-1,-1,-1,-1,-1,-1],"loss_changes":[1.0697765E3,1.21713745E2,3.1693848E2,8.92251E1,3.749703E1,1.13334564E2,6.70296E1,4.0896973E1,3.6841965E1,0E0,1.4179131E1,4.6854256E1,4.234404E1,4.72527E1,2.9319824E1,2.0747131E1,1.0578533E1,2.522747E1,1.6993336E1,0E0,8.750481E0,1.6226974E1,2.5495087E1,1.2547668E1,0E0,1.2461124E1,1.7061937E1,2.3589075E1,1.5335266E1,0E0,1.7107178E1,0E0,0E0,2.5163723E1,0E0,0E0,4.5965652E0,0E0,0E0,0E0,0E0,1.7429361E1,1.3320946E1,4.4183197E0,0E0,0E0,0E0,0E0,0E0,9.853687E0,4.6785927E0,5.1260986E0,0E0,0E0,1.8410217E1,0E0,2.5102415E0,0E0,0E0,9.228979E0,0E0,0E0,5.409195E0,3.8166046E0,0E0,0E0,0E0,0E0,0E0,0E0,2.793335E0,0E0,0E0,0E0,0E0,0E0,0E0,0E0,0E0,0E0,0E0,0E0,0E0],"parents":[2147483647,0,0,1,1,2,2,3,3,4,4,5,5,6,6,7,7,8,8,10,10,11,11,12,12,13,13,14,14,15,15,16,16,17,17,18,18,20,20,21,21,22,22,23,23,25,25,26,26,27,27,28,28,30,30,33,33,36,36,41,41,42,42,43,43,49,49,50,50,51,51,54,54,56,56,59,59,62,62,63,63,70,70],"right_children":[2,4,6,8,10,12,14,16,18,-1,20,22,24,26,28,30,32,34,36,-1,38,40,42,44,-1,46,48,50,52,-1,54,-1,-1,56,-1,-1,58,-1,-1,-1,-1,60,62,64,-1,-1,-1,-1,-1,66,68,70,-1,-1,72,-1,74,-1,-1,76,-1,-1,78,80,-1,-1,-1,-1,-1,-1,82,-1,-1,-1,-1,-1,-1,-1,-1,-1,-1,-1,-1],"split_conditions":[-5.7844784E-2,-1.0912965E-2,-3.6083214E-2,1.1982308E-2,-8.5375525E-2,1.4697514E-1,-1.13534406E-1,-7.2084293E-3,-6.2708E-2,1.708883E-2,-7.314287E-2,-1.2755062E-1,1.9488519E-2,1.4311832E-1,-4.7530573E-2,-9.724119E-2,-8.392792E-2,9.375568E-2,-4.2272113E-2,1.5468787E-3,-9.252785E-2,3.761352E-2,-8.397899E-2,-4.4563808E-2,-1.1244995E-2,-1.10212326E-1,1.4490038E-2,-2.2466348E-2,6.1757015E-3,-1.8738363E-3,-7.684452E-2,8.766138E-3,-1.3465653E-2,-5.6667577E-2,-2.1820802E-2,-6.0167867E-3,-2.8598987E-2,-4.249671E-3,-2.839945E-2,2.0854004E-2,-5.885511E-3,2.4818331E-2,-5.2169934E-2,6.104044E-2,1.5206839E-3,-6.7925954E-4,-2.5467943E-2,2.0535167E-2,-6.949429E-3,1.0851732E-1,-1.0254476E-1,-3.349682E-2,-6.4951163E-3,5.0101466E-3,2.8813485E-2,-1.6261416E-2,3.674403E-2,6.0514035E-3,2.3975855E-2,7.78482E-2,-1.7265303E-2,-5.2271057E-3,-1.7013538E-3,-4.3220297E-3,7.6832203E-3,-7.1522654E-3,1.5761476E-2,-7.010447E-3,-2.6588568E-2,-8.400946E-3,-1.5627451E-1,2.6989453E-2,-2.1165208E-4,2.0647354E-2,4.926748E-3,1.888171E-2,-3.5307966E-3,-7.981628E-3,-2.9936602E-2,8.958835E-3,2.9360956E-2,-1.3376234E-2,-2.9569674E-2],"split_indices":[752,162,889,139,134,1015,931,588,386,0,654,1070,806,980,1144,1122,341,1202,738,0,1150,737,532,136,0,162,289,1073,738,0,315,0,0,342,0,0,262,0,0,0,0,327,91,55,0,0,0,0,0,866,1226,126,0,0,806,0,469,0,0,945,0,0,1161,799,0,0,0,0,0,0,1159,0,0,0,0,0,0,0,0,0,0,0,0],"split_type":[0,0,0,0,0,0,0,0,0,0,0,0,0,0,0,0,0,0,0,0,0,0,0,0,0,0,0,0,0,0,0,0,0,0,0,0,0,0,0,0,0,0,0,0,0,0,0,0,0,0,0,0,0,0,0,0,0,0,0,0,0,0,0,0,0,0,0,0,0,0,0,0,0,0,0,0,0,0,0,0,0,0,0],"sum_hessian":[1.439536E3,6.627404E2,7.7679553E2,6.0635034E2,5.639007E1,2.2883684E2,5.479587E2,5.0318594E2,1.0316442E2,1.2073948E1,4.4316124E1,1.26372734E2,1.0246411E2,6.695588E1,4.810028E2,4.7977414E2,2.34118E1,5.292168E1,5.0242737E1,1.1332423E1,3.29837E1,2.9484636E1,9.688809E1,8.937256E1,1.3091556E1,3.624895E1,3.0706926E1,4.8070892E1,4.3293192E2,1.0050477E1,4.6972366E2,1.3736741E1,9.675058E0,3.196981E1,2.0951872E1,9.631165E0,4.0611572E1,9.720885E0,2.3262815E1,1.8493456E1,1.0991181E1,3.0951363E1,6.593674E1,7.9370094E1,1.0002461E1,1.0823097E1,2.5425852E1,2.0669868E1,1.0037058E1,1.9745634E1,2.8325258E1,4.172405E2,1.5691403E1,1.748783E1,4.5223584E2,1.0866635E1,2.1103174E1,1.1554084E1,2.9057487E1,2.1131504E1,9.819858E0,1.7672039E1,4.8264694E1,6.960536E1,9.764733E0,9.655636E0,1.0089999E1,1.2050645E1,1.6274612E1,9.58495E0,4.0765555E2,4.4256534E2,9.670495E0,1.0377359E1,1.0725816E1,1.0794957E1,1.0336547E1,9.772792E0,3.84919E1,9.582933E0,6.0022427E1,1.6054884E1,3.9160068E2],"tree_param":{"num_deleted":"0","num_feature":"1280","num_nodes":"83","size_leaf_vector":"1"}},{"base_weights":[-2.3482384E-2,-1.0404077E0,7.393678E-1,-7.881102E-2,-1.3176388E0,9.4579965E-1,-5.260577E-1,4.7876072E-1,-8.878757E-1,-3.8029775E-1,-1.4183106E0,3.8119754E-1,1.1451532E0,1.5954679E-2,-7.8977805E-1,8.4511554E-1,-6.2975734E-1,-1.2077036E0,-2.1647213E-3,7.853906E-3,-8.547107E-1,-3.945184E-3,-1.4504944E0,-1.5995547E-1,8.5457534E-1,-4.5258906E-1,1.2143993E0,1.4752789E-1,-1.1132752E0,1.0679624E0,-1.2356044E-3,-2.0669729E-2,-9.925938E-5,-9.1296565E-3,-2.6534379E-2,-1.7580587E-3,-2.4256751E-2,-8.652897E-3,-1.4786496E0,4.5612437E-1,-5.8609074E-1,1.0061499E0,-6.1027864E-3,-1.7970713E-2,3.8723834E-3,-6.7041097E-3,1.2566363E0,1.4561749E-2,-1.0978212E-2,-1.3678811E0,-3.183686E-1,2.368681E-2,5.6244466E-3,-2.9376877E-2,-1.1485084E-2,7.5192773E-1,-6.5992028E-3,-1.125322E0,9.3247816E-2,1.1390735E0,-1.2340316E-3,-4.0705875E-3,1.2922852E0,-1.0240399E-2,-2.911277E-2,6.721867E-3,-1.6538873E-2,2.022206E-2,1.8245949E-3,-8.431216E-3,-2.7152129E-2,1.2950888E-2,-1.129495E-2,2.4554085E-2,3.4275407E-3,4.289518E-3,2.6276726E-2],"categories":[],"categories_nodes":[],"categories_segments":[],"categories_sizes":[],"default_left":[0,0,0,0,0,0,0,0,0,0,0,0,0,0,0,0,0,0,0,0,0,0,0,0,0,0,0,0,0,0,0,0,0,0,0,0,0,0,0,0,0,0,0,0,0,0,0,0,0,0,0,0,0,0,0,0,0,0,0,0,0,0,0,0,0,0,0,0,0,0,0,0,0,0,0,0,0],"id":15,"left_children":[1,3,5,7,9,11,13,15,17,19,21,23,25,-1,27,29,31,33,-1,-1,35,-1,37,39,41,43,45,47,49,51,-1,-1,-1,-1,-1,-1,-1,-1,53,55,57,59,-1,-1,-1,-1,61,-1,-1,63,65,-1,-1,-1,-1,67,-1,69,71,73,-1,-1,75,-1,-1,-1,-1,-1,-1,-1,-1,-1,-1,-1,-1,-1,-1],"loss_changes":[1.1143156E3,1.6360052E2,2.1689719E2,6.665519E1,4.2377014E1,7.7457275E1,4.5042953E1,3.83602E1,1.428014E1,2.1397694E1,1.5361572E1,4.988614E1,6.0310547E1,0E0,3.1565105E1,1.4141933E1,6.541687E0,1.451477E0,0E0,0E0,9.621559E0,0E0,8.603638E0,2.5961891E1,1.9811447E1,8.53949E0,3.5026245E1,1.4914705E1,1.320649E1,4.3578987E0,0E0,0E0,0E0,0E0,0E0,0E0,0E0,0E0,3.3771362E0,1.0918442E1,2.1636623E1,1.3509628E1,0E0,0E0,0E0,0E0,2.6813782E1,0E0,0E0,1.7528E0,1.0119639E1,0E0,0E0,0E0,0E0,5.350212E0,0E0,2.928505E0,1.3358856E1,8.046753E0,0E0,0E0,2.3917542E1,0E0,0E0,0E0,0E0,0E0,0E0,0E0,0E0,0E0,0E0,0E0,0E0,0E0,0E0],"parents":[2147483647,0,0,1,1,2,2,3,3,4,4,5,5,6,6,7,7,8,8,9,9,10,10,11,11,12,12,14,14,15,15,16,16,17,17,20,20,22,22,23,23,24,24,25,25,26,26,27,27,28,28,29,29,38,38,39,39,40,40,41,41,46,46,49,49,50,50,55,55,57,57,58,58,59,59,62,62],"right_children":[2,4,6,8,10,12,14,16,18,20,22,24,26,-1,28,30,32,34,-1,-1,36,-1,38,40,42,44,46,48,50,52,-1,-1,-1,-1,-1,-1,-1,-1,54,56,58,60,-1,-1,-1,-1,62,-1,-1,64,66,-1,-1,-1,-1,68,-1,70,72,74,-1,-1,76,-1,-1,-1,-1,-1,-1,-1,-1,-1,-1,-1,-1,-1,-1],"split_conditions":[5.9662208E-2,-9.639761E-2,-2.2331158E-2,-9.187629E-2,-8.8570684E-2,3.45298E-2,-8.193851E-2,2.832155E-2,7.705467E-2,-9.276126E-2,-3.015633E-2,1.7088859E-3,-1.13330655E-1,1.5954679E-2,-6.521814E-2,-6.1382526E-3,-2.2731645E-2,-4.7932316E-2,-2.1647213E-3,7.853906E-3,-4.2746775E-2,-3.945184E-3,-5.2533805E-2,-2.167187E-2,9.646392E-2,1.0241286E-1,5.2152086E-2,-3.1281736E-2,2.7327895E-2,-5.086897E-3,-1.2356044E-3,-2.0669729E-2,-9.925938E-5,-9.1296565E-3,-2.6534379E-2,-1.7580587E-3,-2.4256751E-2,-8.652897E-3,3.5114966E-2,-1.325118E-2,9.676435E-2,1.9898382E-1,-6.1027864E-3,-1.7970713E-2,3.8723834E-3,-6.7041097E-3,-7.172861E-2,1.4561749E-2,-1.0978212E-2,-2.6343125E-6,-1.3720843E-2,2.368681E-2,5.6244466E-3,-2.9376877E-2,-1.1485084E-2,1.8311107E-1,-6.5992028E-3,1.50369825E-2,1.353231E-2,-5.7687875E-2,-1.2340316E-3,-4.0705875E-3,-8.5080884E-2,-1.0240399E-2,-2.911277E-2,6.721867E-3,-1.6538873E-2,2.022206E-2,1.8245949E-3,-8.431216E-3,-2.7152129E-2,1.2950888E-2,-1.129495E-2,2.4554085E-2,3.4275407E-3,4.289518E-3,2.6276726E-2],"split_indices":[25,931,162,390,923,1276,134,947,186,463,126,1221,608,0,284,773,1100,1142,0,0,1103,0,451,947,437,754,1171,1260,555,806,0,0,0,0,0,0,0,0,351,134,729,880,0,0,0,0,255,0,0,793,1203,0,0,0,0,1097,0,337,829,730,0,0,190,0,0,0,0,0,0,0,0,0,0,0,0,0,0],"split_type":[0,0,0,0,0,0,0,0,0,0,0,0,0,0,0,0,0,0,0,0,0,0,0,0,0,0,0,0,0,0,0,0,0,0,0,0,0,0,0,0,0,0,0,0,0,0,0,0,0,0,0,0,0,0,0,0,0,0,0,0,0,0,0,0,0,0,0,0,0,0,0,0,0,0,0,0,0],"sum_hessian":[1.4264976E3,6.1065106E2,8.158465E2,1.3808572E2,4.7256534E2,7.0250323E2,1.13343254E2,8.29519E1,5.513384E1,4.813917E1,4.2442615E2,1.8710173E2,5.154015E2,1.6919022E1,9.642423E1,6.3236176E1,1.9715717E1,3.7108704E1,1.8025133E1,1.8476995E1,2.9662178E1,1.1867756E1,4.1255838E2,8.883962E1,9.826211E1,2.0264494E1,4.95137E2,2.5435555E1,7.098868E1,5.007377E1,1.3162409E1,9.682197E0,1.0033522E1,9.587898E0,2.7520805E1,1.1967089E1,1.769509E1,1.3461156E1,3.9909723E2,3.6180977E1,5.2658646E1,8.756476E1,1.0697348E1,1.0621202E1,9.643291E0,1.2144277E1,4.829927E2,1.3675037E1,1.1760517E1,5.1048622E1,1.994006E1,4.006934E1,1.0004426E1,3.863827E2,1.2714556E1,2.65409E1,9.640079E0,2.7534092E1,2.5124556E1,7.759253E1,9.972229E0,1.090593E1,4.720868E2,9.608762E0,4.143986E1,9.600371E0,1.0339687E1,1.662804E1,9.912859E0,1.1127349E1,1.6406744E1,1.363142E1,1.14931345E1,6.799707E1,9.595466E0,2.2034153E1,4.5005264E2],"tree_param":{"num_deleted":"0","num_feature":"1280","num_nodes":"77","size_leaf_vector":"1"}},{"base_weights":[-3.9987196E-3,7.877453E-1,-9.69274E-1,-3.9032716E-1,9.695403E-1,-1.3065207E0,4.362504E-2,1.9319704E-1,-1.1185623E0,1.0774376E0,-4.1020533E-1,-2.712963E-1,-1.3731223E0,-5.6797594E-1,8.766123E-1,5.044145E-1,-1.709313E-2,-2.6722176E-2,-3.0758206E-3,1.1558663E0,-2.647513E-1,3.4090415E-1,-1.0250143E0,1.7793642E-2,-9.2419064E-1,-8.921408E-1,-1.456983E0,-8.884649E-1,5.7386255E-1,-8.931256E-3,1.1886727E0,8.1429857E-1,-1.10636335E-2,1.2138752E0,-4.1593096E-1,1.2370701E-2,-7.4271667E-1,1.7027669E-2,-4.2571635E-3,-2.6133467E-2,-4.6815677E-3,-2.3310782E-2,-6.3613495E-3,-1.1063603E0,-2.5721956E-3,-1.4786228E0,-8.4738E-3,6.3597057E-3,-1.1144875E0,4.2151776E-4,1.845215E-2,2.6520966E-2,4.1886833E-3,1.911718E-3,2.1826344E-2,-1.176364E-3,1.2518591E0,-2.167339E-2,7.848116E-3,-2.2587836E-2,-6.088409E-4,-1.2726544E0,-5.1734666E-3,-2.9365756E-2,-1.2020636E-2,-6.6632796E-3,-2.5979701E-2,2.5106465E-2,-1.8681007E-3,-2.7840732E-2,-8.767398E-3],"categories":[],"categories_nodes":[],"categories_segments":[],"categories_sizes":[],"default_left":[0,0,0,0,0,0,0,0,0,0,0,0,0,0,0,0,0,0,0,0,0,0,0,0,0,0,0,0,0,0,0,0,0,0,0,0,0,0,0,0,0,0,0,0,0,0,0,0,0,0,0,0,0,0,0,0,0,0,0,0,0,0,0,0,0,0,0,0,0,0,0],"id":16,"left_children":[1,3,5,7,9,11,13,15,17,19,21,23,25,27,29,31,-1,-1,-1,33,35,37,39,-1,41,43,45,47,49,-1,51,53,-1,55,57,-1,59,-1,-1,-1,-1,-1,-1,61,-1,63,-1,-1,65,-1,-1,-1,-1,-1,-1,-1,67,-1,-1,-1,-1,69,-1,-1,-1,-1,-1,-1,-1,-1,-1],"loss_changes":[1.083095E3,1.6863486E2,2.1842938E2,4.681601E1,1.0282855E2,3.1188232E1,8.619976E1,2.3427395E1,1.0433437E1,6.7661194E1,2.6044815E1,3.127997E1,1.1640198E1,3.8321342E1,3.2448643E1,1.9753822E1,0E0,0E0,0E0,5.672229E1,1.8934967E1,9.036047E0,5.754318E0,0E0,2.0812073E0,1.2235363E1,5.11499E0,2.327493E1,4.8755064E0,0E0,8.139748E0,8.690058E0,0E0,2.818097E1,1.6240795E1,0E0,7.8760977E0,0E0,0E0,0E0,0E0,0E0,0E0,6.9210052E0,0E0,2.0332031E0,0E0,0E0,8.781075E0,0E0,0E0,0E0,0E0,0E0,0E0,0E0,2.3350098E1,0E0,0E0,0E0,0E0,2.9727097E0,0E0,0E0,0E0,0E0,0E0,0E0,0E0,0E0,0E0],"parents":[2147483647,0,0,1,1,2,2,3,3,4,4,5,5,6,6,7,7,8,8,9,9,10,10,11,11,12,12,13,13,14,14,15,15,19,19,20,20,21,21,22,22,24,24,25,25,26,26,27,27,28,28,30,30,31,31,33,33,34,34,36,36,43,43,45,45,48,48,56,56,61,61],"right_children":[2,4,6,8,10,12,14,16,18,20,22,24,26,28,30,32,-1,-1,-1,34,36,38,40,-1,42,44,46,48,50,-1,52,54,-1,56,58,-1,60,-1,-1,-1,-1,-1,-1,62,-1,64,-1,-1,66,-1,-1,-1,-1,-1,-1,-1,68,-1,-1,-1,-1,70,-1,-1,-1,-1,-1,-1,-1,-1,-1],"split_conditions":[8.847204E-2,-2.7846368E-2,7.3554255E-2,-3.786074E-2,-7.576322E-2,-1.8192688E-1,1.17780484E-1,1.0893053E-1,-1.1580525E-3,3.6319472E-2,-5.7804693E-2,1.141196E-2,-8.84844E-2,7.1975045E-2,9.504676E-2,2.7911115E-2,-1.709313E-2,-2.6722176E-2,-3.0758206E-3,6.397718E-2,-8.534772E-2,-6.79289E-2,3.0224502E-2,1.7793642E-2,1.6836887E-2,3.8733404E-2,1.4126794E-1,-1.6766006E-1,3.634691E-2,-8.931256E-3,-2.0718753E-2,9.277517E-2,-1.10636335E-2,-2.8454697E-2,1.3574252E-1,1.2370701E-2,-2.5444025E-2,1.7027669E-2,-4.2571635E-3,-2.6133467E-2,-4.6815677E-3,-2.3310782E-2,-6.3613495E-3,2.409198E-2,-2.5721956E-3,2.2564219E-1,-8.4738E-3,6.3597057E-3,-1.1918163E-1,4.2151776E-4,1.845215E-2,2.6520966E-2,4.1886833E-3,1.911718E-3,2.1826344E-2,-1.176364E-3,6.825241E-2,-2.167339E-2,7.848116E-3,-2.2587836E-2,-6.088409E-4,-2.7928578E-2,-5.1734666E-3,-2.9365756E-2,-1.2020636E-2,-6.6632796E-3,-2.5979701E-2,2.5106465E-2,-1.8681007E-3,-2.7840732E-2,-8.767398E-3],"split_indices":[836,41,1201,6,797,1031,1151,373,519,134,841,230,774,25,699,139,0,0,0,369,555,806,1255,0,1008,155,895,1272,349,0,688,157,0,1189,571,0,738,0,0,0,0,0,0,482,0,154,0,0,90,0,0,0,0,0,0,0,1019,0,0,0,0,1265,0,0,0,0,0,0,0,0,0],"split_type":[0,0,0,0,0,0,0,0,0,0,0,0,0,0,0,0,0,0,0,0,0,0,0,0,0,0,0,0,0,0,0,0,0,0,0,0,0,0,0,0,0,0,0,0,0,0,0,0,0,0,0,0,0,0,0,0,0,0,0,0,0,0,0,0,0,0,0,0,0,0,0],"sum_hessian":[1.4072435E3,7.736178E2,6.3362573E2,1.0265811E2,6.7095966E2,4.7427234E2,1.5935341E2,5.902267E1,4.363544E1,6.233075E2,4.7652164E1,3.0195261E1,4.4407706E2,9.280085E1,6.655256E1,4.771649E1,1.1306179E1,3.3082077E1,1.0553366E1,5.8954944E2,3.375807E1,2.244711E1,2.5205053E1,1.00612335E1,2.0134027E1,7.453536E1,3.6954172E2,7.332509E1,1.9475761E1,1.2190969E1,5.4361588E1,3.791695E1,9.799542E0,5.696595E2,1.9889963E1,1.118235E1,2.257572E1,1.0103974E1,1.2343136E1,1.5589574E1,9.61548E0,1.0541159E1,9.592868E0,5.6394215E1,1.8141146E1,3.5973248E2,9.809221E0,1.1173431E1,6.2151653E1,9.901718E0,9.574043E0,4.4807762E1,9.553824E0,1.3144689E1,2.4772263E1,1.6409288E1,5.532502E2,9.8170595E0,1.0072903E1,1.235329E1,1.0222431E1,4.496924E1,1.1424978E1,3.4764267E2,1.2089806E1,1.6159266E1,4.599239E1,5.4134125E2,1.1908938E1,3.5035603E1,9.933635E0],"tree_param":{"num_deleted":"0","num_feature":"1280","num_nodes":"71","size_leaf_vector":"1"}},{"base_weights":[-1.4743303E-2,6.458854E-1,-1.0982441E0,-1.7257236E-1,9.823345E-1,7.103533E-1,-1.2234411E0,4.238422E-1,-1.0147898E0,3.7368182E-2,1.1209625E0,-3.802542E-3,2.069074E-2,-1.3618796E0,-5.8446574E-1,8.3490396E-1,-2.4267843E-1,3.4024066E-3,-1.1813445E0,6.270127E-1,-8.551703E-1,1.170354E0,-1.2615245E-2,-2.5020877E-3,-1.3913931E0,3.9370455E-2,-1.0179923E0,1.0008842E0,-6.873556E-3,-6.324196E-1,1.0414908E-2,-1.3873019E0,-2.6709873E-3,-6.6311564E-3,1.0057569E0,-2.464804E-2,1.8015414E-3,1.2465336E0,1.2682821E-1,-7.85463E-1,-1.4589132E0,-1.7354995E-2,4.541297E-1,-2.8768026E-3,-1.2218993E0,1.1331526E0,-8.7970996E-4,-9.4203585E-1,5.446475E-3,-6.4313426E-3,-2.9545162E-2,5.4144454E-3,2.3528945E-2,1.2807945E0,6.1739027E-4,-1.0751735E-2,7.020306E-1,4.2896206E-3,-1.0535985E0,-2.8922796E-2,-1.0672142E-2,-3.4855264E-3,2.0388665E-2,-7.936727E-3,-2.7342193E-2,2.456517E-2,6.1543942E-3,-4.383348E-3,-2.3561917E-2,7.011364E-3,2.5812529E-2,3.5706616E-3,1.9608367E-2,-2.1382237E-3,-2.6014192E-2],"categories":[],"categories_nodes":[],"categories_segments":[],"categories_sizes":[],"default_left":[0,0,0,0,0,0,0,0,0,0,0,0,0,0,0,0,0,0,0,0,0,0,0,0,0,0,0,0,0,0,0,0,0,0,0,0,0,0,0,0,0,0,0,0,0,0,0,0,0,0,0,0,0,0,0,0,0,0,0,0,0,0,0,0,0,0,0,0,0,0,0,0,0,0,0],"id":17,"left_children":[1,3,5,7,9,11,13,15,17,19,21,-1,-1,23,25,27,29,-1,31,33,35,37,-1,-1,39,41,43,45,-1,47,-1,49,-1,-1,51,-1,-1,53,55,57,59,-1,61,-1,63,65,-1,67,-1,-1,-1,-1,-1,69,-1,-1,71,-1,73,-1,-1,-1,-1,-1,-1,-1,-1,-1,-1,-1,-1,-1,-1,-1,-1],"loss_changes":[1.0124094E3,2.4281903E2,1.2562854E2,1.3285709E2,8.146655E1,1.2870752E1,4.051819E1,4.371099E1,2.266864E1,4.7359367E1,5.114319E1,0E0,0E0,1.4032227E1,2.6776505E1,2.0945969E1,2.0786884E1,0E0,1.9836304E1,2.1448101E1,1.4292833E1,4.1386475E1,0E0,0E0,1.06380005E1,1.9313036E1,9.437153E0,1.2266357E1,0E0,1.3820179E1,0E0,7.835663E0,0E0,0E0,4.063324E0,0E0,0E0,2.0356873E1,1.8106808E1,1.4843124E1,1.8318481E0,0E0,1.3698198E1,0E0,3.7960205E0,5.7133636E0,0E0,5.0861073E0,0E0,0E0,0E0,0E0,0E0,1.4203125E1,0E0,0E0,2.9295158E0,0E0,9.916603E0,0E0,0E0,0E0,0E0,0E0,0E0,0E0,0E0,0E0,0E0,0E0,0E0,0E0,0E0,0E0,0E0],"parents":[2147483647,0,0,1,1,2,2,3,3,4,4,5,5,6,6,7,7,8,8,9,9,10,10,13,13,14,14,15,15,16,16,18,18,19,19,20,20,21,21,24,24,25,25,26,26,27,27,29,29,31,31,34,34,37,37,38,38,39,39,40,40,42,42,44,44,45,45,47,47,53,53,56,56,58,58],"right_children":[2,4,6,8,10,12,14,16,18,20,22,-1,-1,24,26,28,30,-1,32,34,36,38,-1,-1,40,42,44,46,-1,48,-1,50,-1,-1,52,-1,-1,54,56,58,60,-1,62,-1,64,66,-1,68,-1,-1,-1,-1,-1,70,-1,-1,72,-1,74,-1,-1,-1,-1,-1,-1,-1,-1,-1,-1,-1,-1,-1,-1,-1,-1],"split_conditions":[1.3060476E-1,5.558962E-2,-1.847679E-1,-2.9993534E-2,1.0750368E-1,-5.5261996E-2,6.940959E-2,1.0445515E-1,-1.6689245E-1,-9.23897E-3,3.499203E-2,-3.802542E-3,2.069074E-2,-1.240152E-1,-5.5832222E-2,2.0827025E-2,-3.7712418E-2,3.4024066E-3,1.2949671E-1,2.2338713E-2,5.7755884E-2,2.1578255E-1,-1.2615245E-2,-2.5020877E-3,-9.4631016E-2,7.411081E-2,3.692225E-2,-2.7710758E-2,-6.873556E-3,7.2022244E-2,1.0414908E-2,-9.092696E-2,-2.6709873E-3,-6.6311564E-3,1.6833775E-2,-2.464804E-2,1.8015414E-3,9.4296716E-2,1.20877676E-1,-4.6712875E-2,1.2347202E-1,-1.7354995E-2,2.882724E-2,-2.8768026E-3,-5.0501257E-2,3.2342818E-2,-8.7970996E-4,4.900322E-2,5.446475E-3,-6.4313426E-3,-2.9545162E-2,5.4144454E-3,2.3528945E-2,-1.1453577E-1,6.1739027E-4,-1.0751735E-2,-1.4403622E-3,4.2896206E-3,-8.356792E0,-2.8922796E-2,-1.0672142E-2,-3.4855264E-3,2.0388665E-2,-7.936727E-3,-2.7342193E-2,2.456517E-2,6.1543942E-3,-4.383348E-3,-2.3561917E-2,7.011364E-3,2.5812529E-2,3.5706616E-3,1.9608367E-2,-2.1382237E-3,-2.6014192E-2],"split_indices":[836,851,6,1183,154,944,603,507,813,320,806,0,0,1264,768,793,251,0,416,1074,958,1012,0,0,475,792,200,114,0,657,0,361,0,0,1009,0,0,309,1081,100,218,0,452,0,812,1046,0,113,0,0,0,0,0,608,0,0,1127,0,1160,0,0,0,0,0,0,0,0,0,0,0,0,0,0,0,0],"split_type":[0,0,0,0,0,0,0,0,0,0,0,0,0,0,0,0,0,0,0,0,0,0,0,0,0,0,0,0,0,0,0,0,0,0,0,0,0,0,0,0,0,0,0,0,0,0,0,0,0,0,0,0,0,0,0,0,0,0,0,0,0,0,0,0,0,0,0,0,0,0,0,0,0,0,0],"sum_hessian":[1.4044767E3,8.7374866E2,5.30728E2,2.5524829E2,6.1850037E2,3.2853397E1,4.9787466E2,1.50878E2,1.04370285E2,7.9935684E1,5.385647E2,9.700046E0,2.315335E1,4.0458487E2,9.3289795E1,9.254496E1,5.833305E1,1.28017235E1,9.1568565E1,4.9027615E1,3.0908072E1,5.2553766E2,1.302706E1,1.0069431E1,3.9451544E2,4.0105778E1,5.3184017E1,8.1864174E1,1.0680781E1,3.9413807E1,1.8919243E1,7.512923E1,1.6439335E1,1.3960782E1,3.5066833E1,2.0525816E1,1.03822565E1,4.888796E2,3.6658043E1,4.5861233E1,3.486542E2,1.0658384E1,2.9447393E1,1.17131405E1,4.1470875E1,7.230368E1,9.5604925E0,2.9284105E1,1.0129702E1,9.629176E0,6.550005E1,9.964091E0,2.5102741E1,4.7520996E2,1.3669647E1,1.6958117E1,1.9699926E1,9.854548E0,3.6006687E1,3.38886E2,9.768218E0,1.5850065E1,1.3597329E1,1.0209949E1,3.1260927E1,6.06679E1,1.1635781E1,1.0275753E1,1.9008352E1,2.0541449E1,4.546685E2,1.0127788E1,9.572138E0,9.685324E0,2.6321362E1],"tree_param":{"num_deleted":"0","num_feature":"1280","num_nodes":"75","size_leaf_vector":"1"}},{"base_weights":[-2.9701058E-2,-1.0006137E0,6.9730276E-1,4.4923458E-1,-1.2051752E0,-4.3381238E-1,8.700332E-1,-1.7343218E-2,8.9388573E-1,2.3733781E-1,-1.2913734E0,1.7352004E-1,-1.166526E0,1.0071448E0,6.6583216E-2,-4.433501E-3,1.1497345E0,1.4441972E-2,-7.996295E-3,-1.3782183E0,-5.23107E-1,-1.4797763E-2,4.7709003E-1,6.380692E-4,-2.8364016E-2,1.0975579E0,-5.7182515E-1,-5.2921444E-1,8.8170254E-1,8.001162E-3,2.4914581E-2,-1.2129777E-3,-1.4099429E0,1.1260811E-2,-8.569592E-1,7.8935575E-1,-9.354981E-3,1.2235111E0,3.7474078E-1,2.8250888E-3,-2.2213368E-2,-8.9712733E-1,1.0994333E-2,1.1865793E-3,2.1354489E-2,-1.4391108E0,-1.0091681E-2,-8.9653983E-4,-2.1920163E-2,-7.733238E-4,2.1003382E-2,9.52534E-2,1.2828218E0,-1.6632049E-1,8.943763E-1,-1.1412901E0,2.0011126E-3,-2.9206494E-2,-1.8622661E-2,-1.5463924E-2,1.6077312E-2,-2.2181163E-3,2.582855E-2,-2.046461E-2,7.991123E-3,2.1556735E-2,1.8459957E-3,-8.357915E-3,-2.8937437E-2],"categories":[],"categories_nodes":[],"categories_segments":[],"categories_sizes":[],"default_left":[0,0,0,0,0,0,0,0,0,0,0,0,0,0,0,0,0,0,0,0,0,0,0,0,0,0,0,0,0,0,0,0,0,0,0,0,0,0,0,0,0,0,0,0,0,0,0,0,0,0,0,0,0,0,0,0,0,0,0,0,0,0,0,0,0,0,0,0,0],"id":18,"left_children":[1,3,5,7,9,11,13,-1,15,17,19,21,23,25,27,-1,29,-1,-1,31,33,-1,35,-1,-1,37,39,41,43,-1,-1,-1,45,-1,47,49,-1,51,53,-1,-1,55,-1,-1,-1,57,-1,-1,-1,-1,-1,59,61,63,65,67,-1,-1,-1,-1,-1,-1,-1,-1,-1,-1,-1,-1,-1],"loss_changes":[1.0069123E3,1.838288E2,1.612757E2,5.0917934E1,6.8244446E1,5.058226E1,7.781659E1,0E0,1.9022602E1,1.2628812E1,3.0242676E1,2.0199986E1,1.7521324E1,8.958679E1,5.5136414E1,0E0,2.0591507E0,0E0,0E0,1.8462463E1,2.427729E1,0E0,1.7451355E1,0E0,0E0,5.0024292E1,1.5346956E1,2.8966797E1,7.8640976E0,0E0,0E0,0E0,7.831543E0,0E0,9.887676E0,9.891031E0,0E0,3.198645E1,2.673016E1,0E0,0E0,1.3078796E1,0E0,0E0,0E0,3.7974243E0,0E0,0E0,0E0,0E0,0E0,2.2307068E1,2.407843E1,2.7100477E1,7.4009514E0,6.852844E0,0E0,0E0,0E0,0E0,0E0,0E0,0E0,0E0,0E0,0E0,0E0,0E0,0E0],"parents":[2147483647,0,0,1,1,2,2,3,3,4,4,5,5,6,6,8,8,9,9,10,10,11,11,12,12,13,13,14,14,16,16,19,19,20,20,22,22,25,25,26,26,27,27,28,28,32,32,34,34,35,35,37,37,38,38,41,41,45,45,51,51,52,52,53,53,54,54,55,55],"right_children":[2,4,6,8,10,12,14,-1,16,18,20,22,24,26,28,-1,30,-1,-1,32,34,-1,36,-1,-1,38,40,42,44,-1,-1,-1,46,-1,48,50,-1,52,54,-1,-1,56,-1,-1,-1,58,-1,-1,-1,-1,-1,60,62,64,66,68,-1,-1,-1,-1,-1,-1,-1,-1,-1,-1,-1,-1,-1],"split_conditions":[5.817487E-2,-1.8095012E-1,-4.223813E-3,2.1496775E-2,-6.440616E-2,-9.584963E-2,1.9565372E-2,-1.7343218E-2,1.1466277E-1,-7.286944E-2,7.932173E-2,3.4780852E-2,-8.91308E-2,2.6498597E-2,1.4458436E-1,-4.433501E-3,-1.060509E-1,1.4441972E-2,-7.996295E-3,-1.1240528E-1,9.316905E-3,-1.4797763E-2,-8.502377E-2,6.380692E-4,-2.8364016E-2,1.1990368E-2,1.1714955E-1,9.033742E-2,-3.2593846E-2,8.001162E-3,2.4914581E-2,-1.2129777E-3,8.3365045E-2,1.1260811E-2,-3.0216457E-2,7.354022E-3,-9.354981E-3,-1.9865485E-1,7.5810514E-2,2.8250888E-3,-2.2213368E-2,1.318572E-1,1.0994333E-2,1.1865793E-3,2.1354489E-2,1.7610946E-1,-1.0091681E-2,-8.9653983E-4,-2.1920163E-2,-7.733238E-4,2.1003382E-2,1.507704E-1,-3.439418E-2,7.369242E-2,9.344365E-2,7.759864E-2,2.0011126E-3,-2.9206494E-2,-1.8622661E-2,-1.5463924E-2,1.6077312E-2,-2.2181163E-3,2.582855E-2,-2.046461E-2,7.991123E-3,2.1556735E-2,1.8459957E-3,-8.357915E-3,-2.8937437E-2],"split_indices":[25,1031,569,339,1183,1139,714,0,1154,1260,603,237,463,806,701,0,249,0,0,1250,1068,0,532,0,0,1087,1033,1249,474,0,0,0,242,0,889,1037,0,1222,792,0,0,585,0,0,0,1206,0,0,0,0,0,336,1189,236,437,870,0,0,0,0,0,0,0,0,0,0,0,0,0],"split_type":[0,0,0,0,0,0,0,0,0,0,0,0,0,0,0,0,0,0,0,0,0,0,0,0,0,0,0,0,0,0,0,0,0,0,0,0,0,0,0,0,0,0,0,0,0,0,0,0,0,0,0,0,0,0,0,0,0,0,0,0,0,0,0,0,0,0,0,0,0],"sum_hessian":[1.4166079E3,6.057524E2,8.108555E2,7.416256E1,5.315898E2,1.0642313E2,7.044324E2,1.7296833E1,5.6865726E1,2.9481997E1,5.0210782E2,6.0268265E1,4.615486E1,6.0066437E2,1.0376799E2,1.0678913E1,4.6186813E1,1.6214025E1,1.3267972E1,4.4756192E2,5.4545906E1,1.3015E1,4.7253265E1,9.624162E0,3.65307E1,5.6956866E2,3.1095732E1,6.0958225E1,4.2809765E1,9.616409E0,3.6570404E1,1.0879199E1,4.366827E2,1.1877864E1,4.266804E1,3.625819E1,1.0995074E1,4.8211014E2,8.7458534E1,1.5309532E1,1.57862E1,4.6242687E1,1.4715539E1,9.98142E0,3.2828346E1,4.199592E2,1.6723522E1,1.1859065E1,3.0808979E1,1.0325329E1,2.5932861E1,2.472612E1,4.57384E2,4.4504654E1,4.2953884E1,3.659419E1,9.6485E0,3.700308E2,4.9928394E1,1.0943588E1,1.3782533E1,1.1276044E1,4.4610797E2,1.5979078E1,2.8525576E1,3.265618E1,1.0297703E1,1.5331744E1,2.1262444E1],"tree_param":{"num_deleted":"0","num_feature":"1280","num_nodes":"69","size_leaf_vector":"1"}},{"base_weights":[-6.086021E-3,-9.7762746E-1,7.184758E-1,4.4077855E-1,-1.166439E0,9.018982E-1,-4.048973E-1,-4.4862807E-1,1.0760245E0,-7.048564E-1,-1.3887084E0,1.0422254E0,1.2145654E-1,1.8179527E-2,-6.942948E-1,4.677436E-3,-1.9920833E-2,6.1337654E-3,2.4499636E-2,-1.0172753E0,2.3913358E-1,-9.2738755E-3,-1.4193826E0,-2.2003628E-1,1.1214796E0,6.439395E-1,-4.796212E-1,1.28058E-2,-8.9512527E-1,-1.1328306E0,4.2112814E-3,6.672799E-1,-1.4213787E-2,-1.4527274E0,-1.0208223E-2,1.3717864E-2,-8.57583E-1,1.1829672E0,7.0919245E-2,-8.531705E-3,8.893277E-1,-8.030891E-1,6.8275654E-3,-1.0967201E0,-2.5553454E-5,-1.2232361E0,-1.0732355E-3,2.0443683E-2,-4.9050525E-3,-2.8846262E-2,-1.0220083E-2,-2.3649141E-2,-4.378371E-3,1.2192339E0,-1.3667169E-3,1.3897734E-2,-1.5532502E-2,1.1022875E0,-8.662546E-5,3.1000224E-3,-1.1222181E0,2.2653244E-4,-1.2709714E0,-7.0658973E-3,-2.6610458E-2,2.4439773E-2,-2.4747383E-3,2.4697086E-2,8.0381455E-3,-8.485023E-3,-2.6063077E-2,-2.732952E-2,-7.586027E-3],"categories":[],"categories_nodes":[],"categories_segments":[],"categories_sizes":[],"default_left":[0,0,0,0,0,0,0,0,0,0,0,0,0,0,0,0,0,0,0,0,0,0,0,0,0,0,0,0,0,0,0,0,0,0,0,0,0,0,0,0,0,0,0,0,0,0,0,0,0,0,0,0,0,0,0,0,0,0,0,0,0,0,0,0,0,0,0,0,0,0,0,0,0],"id":19,"left_children":[1,3,5,7,9,11,13,15,17,19,21,23,25,-1,27,-1,-1,-1,-1,29,31,-1,33,35,37,39,41,-1,43,45,-1,47,-1,49,-1,-1,51,53,55,-1,57,59,-1,61,-1,63,-1,-1,-1,-1,-1,-1,-1,65,-1,-1,-1,67,-1,-1,69,-1,71,-1,-1,-1,-1,-1,-1,-1,-1,-1,-1],"loss_changes":[9.941136E2,1.6412329E2,1.6850385E2,4.44871E1,4.9887817E1,7.569739E1,4.8345936E1,1.4716513E1,4.0472107E0,5.535874E1,6.621887E0,6.0259583E1,3.6665646E1,0E0,2.971193E1,0E0,0E0,0E0,0E0,2.0991898E1,2.2939703E1,0E0,6.444702E0,2.589431E1,3.5499878E1,1.8345417E1,1.6094727E1,0E0,1.5892509E1,1.2119568E1,0E0,1.4097689E1,0E0,2.3485718E0,0E0,0E0,4.269718E0,2.4274841E1,2.269737E1,0E0,9.945595E0,1.3453396E1,0E0,1.3976639E1,0E0,1.132431E1,0E0,0E0,0E0,0E0,0E0,0E0,0E0,2.0579712E1,0E0,0E0,0E0,2.0518723E0,0E0,0E0,1.6394882E0,0E0,4.164566E0,0E0,0E0,0E0,0E0,0E0,0E0,0E0,0E0,0E0,0E0],"parents":[2147483647,0,0,1,1,2,2,3,3,4,4,5,5,6,6,7,7,8,8,9,9,10,10,11,11,12,12,14,14,19,19,20,20,22,22,23,23,24,24,25,25,26,26,28,28,29,29,31,31,33,33,36,36,37,37,38,38,40,40,41,41,43,43,45,45,53,53,57,57,60,60,62,62],"right_children":[2,4,6,8,10,12,14,16,18,20,22,24,26,-1,28,-1,-1,-1,-1,30,32,-1,34,36,38,40,42,-1,44,46,-1,48,-1,50,-1,-1,52,54,56,-1,58,60,-1,62,-1,64,-1,-1,-1,-1,-1,-1,-1,66,-1,-1,-1,68,-1,-1,70,-1,72,-1,-1,-1,-1,-1,-1,-1,-1,-1,-1],"split_conditions":[5.817487E-2,-1.8095012E-1,-2.1298328E-2,5.4882057E-2,7.053801E-2,1.7353524E-2,-1.0333226E-1,-2.1169007E-2,1.8103518E-2,1.4791992E-1,-1.168999E-1,5.373831E-2,-8.9094594E-2,1.8179527E-2,-8.4324844E-2,4.677436E-3,-1.9920833E-2,6.1337654E-3,2.4499636E-2,5.041194E-2,-1.7548713E-3,-9.2738755E-3,7.654525E-2,-2.4410479E-2,-3.84152E-2,-4.2272113E-2,4.8788223E-2,1.28058E-2,6.6045545E-2,1.9107583E-1,4.2112814E-3,-2.3409005E-2,-1.4213787E-2,1.8077694E-1,-1.0208223E-2,1.3717864E-2,9.732701E-2,1.2682624E-1,-4.8653327E-2,-8.531705E-3,-7.742987E-2,-8.250543E-3,6.8275654E-3,-7.454605E-2,-2.5553454E-5,-6.992939E-2,-1.0732355E-3,2.0443683E-2,-4.9050525E-3,-2.8846262E-2,-1.0220083E-2,-2.3649141E-2,-4.378371E-3,6.511722E-2,-1.3667169E-3,1.3897734E-2,-1.5532502E-2,-2.95203E-2,-8.662546E-5,3.1000224E-3,5.6602202E-2,2.2653244E-4,6.596793E-2,-7.0658973E-3,-2.6610458E-2,2.4439773E-2,-2.4747383E-3,2.4697086E-2,8.0381455E-3,-8.485023E-3,-2.6063077E-2,-2.732952E-2,-7.586027E-3],"split_indices":[25,1031,162,1189,200,139,889,892,528,980,931,77,33,0,134,0,0,0,0,387,1260,0,582,1167,532,738,242,0,574,123,0,688,0,1148,0,0,1231,60,291,0,881,506,0,1250,0,983,0,0,0,0,0,0,0,1019,0,0,0,644,0,0,210,0,715,0,0,0,0,0,0,0,0,0,0],"split_type":[0,0,0,0,0,0,0,0,0,0,0,0,0,0,0,0,0,0,0,0,0,0,0,0,0,0,0,0,0,0,0,0,0,0,0,0,0,0,0,0,0,0,0,0,0,0,0,0,0,0,0,0,0,0,0,0,0,0,0,0,0,0,0,0,0,0,0,0,0,0,0,0,0],"sum_hessian":[1.4022614E3,5.9829193E2,8.039695E2,6.950506E1,5.2878687E2,6.919679E2,1.12001564E2,2.9568768E1,3.993629E1,1.7862027E2,3.501666E2,5.850947E2,1.0687319E2,1.8014372E1,9.398719E1,1.4693177E1,1.4875591E1,1.0048E1,2.988829E1,1.3391405E2,4.4706223E1,1.4011528E1,3.3615506E2,3.4043736E1,5.5105096E2,5.6984604E1,4.9888584E1,1.0728456E1,8.3258736E1,1.2280109E2,1.1112957E1,3.2030876E1,1.2675346E1,3.2115558E2,1.4999479E1,1.3728779E1,2.0314955E1,5.1998926E2,3.1061724E1,9.838222E0,4.714638E1,3.5986317E1,1.39022665E1,6.7013855E1,1.6244883E1,1.1268067E2,1.0120415E1,2.222396E1,9.806914E0,3.1144672E2,9.708863E0,1.018492E1,1.0130035E1,5.0548895E2,1.4500311E1,1.8370897E1,1.2690827E1,3.713589E1,1.0010489E1,9.593809E0,2.639251E1,9.736428E0,5.7277424E1,1.7793425E1,9.488725E1,4.95244E2,1.0244969E1,2.6866444E1,1.0269449E1,9.698636E0,1.6693872E1,4.7667183E1,9.61024E0],"tree_param":{"num_deleted":"0","num_feature":"1280","num_nodes":"73","size_leaf_vector":"1"}},{"base_weights":[-7.5310385E-3,-9.469881E-1,6.972734E-1,6.125215E-1,-1.1076093E0,-4.630943E-1,8.684272E-1,-1.692431E-2,1.0383673E0,-4.7633216E-1,-1.2721704E0,-9.8275954E-1,1.8607943E-1,9.612383E-1,-8.667701E-1,2.4603294E-2,3.2938595E-3,-9.56987E-1,1.4607434E-1,-2.9032037E-1,-1.3393825E0,2.2548926E-3,-1.2453301E0,-4.653924E-1,7.3247063E-1,1.0505667E0,-7.716073E-2,9.7388704E-4,-2.3160972E-2,5.2263993E-3,-1.1814283E0,5.4702955E-1,-1.2142917E-2,1.1367687E-2,-1.5507783E-2,-5.381818E-1,-1.378125E0,-2.7894866E-2,-6.999358E-3,-1.7177971E-2,2.7640641E-3,2.0590771E-2,9.046136E-4,1.0941135E0,-7.0846067E-3,-2.1683156E-2,4.4269583E-1,-7.6959073E-3,-2.5471987E-2,9.213951E-1,-8.174005E-3,3.0787853E-3,-1.9046903E-2,-1.4097666E0,-1.2034299E-2,1.1528667E0,6.015561E-2,8.32467E-1,-8.756822E-3,5.9834477E-3,2.248805E-2,-2.7955534E-2,-1.0032169E-2,-2.218417E-3,2.3248583E-2,9.380774E-3,-1.4456856E-2,2.3967805E-3,2.2619702E-2],"categories":[],"categories_nodes":[],"categories_segments":[],"categories_sizes":[],"default_left":[0,0,0,0,0,0,0,0,0,0,0,0,0,0,0,0,0,0,0,0,0,0,0,0,0,0,0,0,0,0,0,0,0,0,0,0,0,0,0,0,0,0,0,0,0,0,0,0,0,0,0,0,0,0,0,0,0,0,0,0,0,0,0,0,0,0,0,0,0],"id":20,"left_children":[1,3,5,7,9,11,13,-1,15,17,19,21,23,25,27,-1,-1,29,31,33,35,-1,37,39,41,43,45,-1,-1,-1,47,49,-1,-1,-1,51,53,-1,-1,-1,-1,-1,-1,55,-1,-1,57,-1,-1,59,-1,-1,-1,61,-1,63,65,67,-1,-1,-1,-1,-1,-1,-1,-1,-1,-1,-1],"loss_changes":[9.305351E2,1.5426953E2,1.6147751E2,4.185929E1,5.3901123E1,3.6826614E1,1.1712311E2,0E0,8.13224E0,3.6971E1,2.6547974E1,1.7988567E1,2.0036736E1,6.2389465E1,1.1365564E1,0E0,0E0,2.0545109E1,1.9247597E1,1.7146038E1,8.803528E0,0E0,5.2241974E0,7.2473726E0,6.3164177E0,3.9836243E1,3.3271397E1,0E0,0E0,0E0,3.032837E0,1.6417564E1,0E0,0E0,0E0,8.840671E0,4.887207E0,0E0,0E0,0E0,0E0,0E0,0E0,3.6011414E1,0E0,0E0,1.6358786E1,0E0,0E0,2.514515E0,0E0,0E0,0E0,2.1454468E0,0E0,2.5290771E1,1.4280391E1,6.357191E0,0E0,0E0,0E0,0E0,0E0,0E0,0E0,0E0,0E0,0E0,0E0],"parents":[2147483647,0,0,1,1,2,2,3,3,4,4,5,5,6,6,8,8,9,9,10,10,11,11,12,12,13,13,14,14,17,17,18,18,19,19,20,20,22,22,23,23,24,24,25,25,26,26,30,30,31,31,35,35,36,36,43,43,46,46,49,49,53,53,55,55,56,56,57,57],"right_children":[2,4,6,8,10,12,14,-1,16,18,20,22,24,26,28,-1,-1,30,32,34,36,-1,38,40,42,44,46,-1,-1,-1,48,50,-1,-1,-1,52,54,-1,-1,-1,-1,-1,-1,56,-1,-1,58,-1,-1,60,-1,-1,-1,62,-1,64,66,68,-1,-1,-1,-1,-1,-1,-1,-1,-1,-1,-1],"split_conditions":[5.9662208E-2,-1.3652182E-1,-2.5535278E-2,5.1039267E-2,-8.9693695E-2,1.1388523E-1,-1.8862046E-2,-1.692431E-2,2.038503E-2,5.1897284E-2,-1.4525804E-1,-5.106912E-2,7.164862E-2,1.1714955E-1,-5.2121794E-4,2.4603294E-2,3.2938595E-3,-1.5225492E-1,1.03607304E-1,4.6398982E-2,-2.7477538E-2,2.2548926E-3,-3.5924487E-2,7.494486E-2,-1.2883376E-1,6.905214E-2,-6.8715304E-2,9.7388704E-4,-2.3160972E-2,5.2263993E-3,-5.8855265E-2,3.3431605E-2,-1.2142917E-2,1.1367687E-2,-1.5507783E-2,-3.383438E-2,8.546849E-2,-2.7894866E-2,-6.999358E-3,-1.7177971E-2,2.7640641E-3,2.0590771E-2,9.046136E-4,4.9585037E-2,-7.0846067E-3,-2.1683156E-2,-3.8111128E-2,-7.6959073E-3,-2.5471987E-2,7.6694444E-2,-8.174005E-3,3.0787853E-3,-1.9046903E-2,1.418202E-1,-1.2034299E-2,-8.135821E-2,-3.4499105E-2,-8.711452E-2,-8.756822E-3,5.9834477E-3,2.248805E-2,-2.7955534E-2,-1.0032169E-2,-2.218417E-3,2.3248583E-2,9.380774E-3,-1.4456856E-2,2.3967805E-3,2.2619702E-2],"split_indices":[25,463,41,603,931,154,503,0,802,1213,1075,472,895,1033,1269,0,0,6,485,775,493,0,41,842,503,369,5,0,0,0,140,1232,0,0,0,369,10,0,0,0,0,0,0,790,0,0,982,0,0,1042,0,0,0,1196,0,219,557,1220,0,0,0,0,0,0,0,0,0,0,0],"split_type":[0,0,0,0,0,0,0,0,0,0,0,0,0,0,0,0,0,0,0,0,0,0,0,0,0,0,0,0,0,0,0,0,0,0,0,0,0,0,0,0,0,0,0,0,0,0,0,0,0,0,0,0,0,0,0,0,0,0,0,0,0,0,0,0,0,0,0,0,0],"sum_hessian":[1.3954133E3,5.9740344E2,7.980098E2,5.4475727E1,5.4292773E2,1.0148443E2,6.9652545E2,1.1045284E1,4.3430443E1,1.1627511E2,4.2665262E2,5.4943317E1,4.6541115E1,6.6326996E2,3.325545E1,3.296114E1,1.0469306E1,6.409824E1,5.2176865E1,2.9032248E1,3.9762036E2,1.1143572E1,4.3799747E1,2.1565903E1,2.497521E1,6.10678E2,5.2591972E1,9.601584E0,2.3653864E1,9.787121E0,5.431112E1,3.5186947E1,1.6989918E1,1.0324625E1,1.8707623E1,2.176056E1,3.758598E2,3.3941612E1,9.858132E0,1.1521176E1,1.0044727E1,1.5240411E1,9.734799E0,5.9350073E2,1.7177294E1,1.5751933E1,3.684004E1,9.950224E0,4.4360897E1,2.5507917E1,9.6790285E0,9.589551E0,1.2171008E1,3.5685797E2,1.9001827E1,5.610473E2,3.2453396E1,2.5842224E1,1.0997816E1,1.0016091E1,1.5491827E1,3.4702527E2,9.832709E0,1.4518532E1,5.465288E2,2.2592295E1,9.8611E0,1.0219537E1,1.5622687E1],"tree_param":{"num_deleted":"0","num_feature":"1280","num_nodes":"69","size_leaf_vector":"1"}},{"base_weights":[-2.6464628E-2,6.420737E-1,-9.868878E-1,8.5748434E-1,-6.034399E-1,1.09621994E-1,-1.2164844E0,9.589327E-1,-3.7554663E-1,1.9965954E-1,-9.617E-1,8.2913554E-1,-4.40155E-1,-2.3420468E-1,-1.2624218E0,-1.5435953E-4,1.0577036E0,-8.889672E-1,1.791189E-2,6.393309E-1,-1.2976622E-2,-1.9542025E-3,-1.1830848E0,1.1414784E0,-3.6708426E-3,1.6724076E-2,-8.826023E-1,-1.5169804E-2,9.886197E-3,-1.4182788E-3,-1.2957988E0,-4.264676E-1,1.792209E-2,-1.8313916E-2,1.0994943E0,-2.4979534E-2,5.07649E-4,-1.211591E-3,1.913028E-2,-6.997093E-3,-1.3329672E0,2.6868852E-2,6.932535E-3,-3.1186235E-3,-2.395989E-2,-1.3352592E0,-5.772077E-1,9.483249E-3,-8.863084E-1,1.1426562E0,-1.0257341E-1,-9.566947E-3,