{"learner":{"attributes":{"best_iteration":"1984","best_score":"0.8703253869619252"},"feature_names":[],"feature_types":[],"gradient_booster":{"model":{"gbtree_model_param":{"num_parallel_tree":"1","num_trees":"2000"},"iteration_indptr":[0,1,2,3,4,5,6,7,8,9,10,11,12,13,14,15,16,17,18,19,20,21,22,23,24,25,26,27,28,29,30,31,32,33,34,35,36,37,38,39,40,41,42,43,44,45,46,47,48,49,50,51,52,53,54,55,56,57,58,59,60,61,62,63,64,65,66,67,68,69,70,71,72,73,74,75,76,77,78,79,80,81,82,83,84,85,86,87,88,89,90,91,92,93,94,95,96,97,98,99,100,101,102,103,104,105,106,107,108,109,110,111,112,113,114,115,116,117,118,119,120,121,122,123,124,125,126,127,128,129,130,131,132,133,134,135,136,137,138,139,140,141,142,143,144,145,146,147,148,149,150,151,152,153,154,155,156,157,158,159,160,161,162,163,164,165,166,167,168,169,170,171,172,173,174,175,176,177,178,179,180,181,182,183,184,185,186,187,188,189,190,191,192,193,194,195,196,197,198,199,200,201,202,203,204,205,206,207,208,209,210,211,212,213,214,215,216,217,218,219,220,221,222,223,224,225,226,227,228,229,230,231,232,233,234,235,236,237,238,239,240,241,242,243,244,245,246,247,248,249,250,251,252,253,254,255,256,257,258,259,260,261,262,263,264,265,266,267,268,269,270,271,272,273,274,275,276,277,278,279,280,281,282,283,284,285,286,287,288,289,290,291,292,293,294,295,296,297,298,299,300,301,302,303,304,305,306,307,308,309,310,311,312,313,314,315,316,317,318,319,320,321,322,323,324,325,326,327,328,329,330,331,332,333,334,335,336,337,338,339,340,341,342,343,344,345,346,347,348,349,350,351,352,353,354,355,356,357,358,359,360,361,362,363,364,365,366,367,368,369,370,371,372,373,374,375,376,377,378,379,380,381,382,383,384,385,386,387,388,389,390,391,392,393,394,395,396,397,398,399,400,401,402,403,404,405,406,407,408,409,410,411,412,413,414,415,416,417,418,419,420,421,422,423,424,425,426,427,428,429,430,431,432,433,434,435,436,437,438,439,440,441,442,443,444,445,446,447,448,449,450,451,452,453,454,455,456,457,458,459,460,461,462,463,464,465,466,467,468,469,470,471,472,473,474,475,476,477,478,479,480,481,482,483,484,485,486,487,488,489,490,491,492,493,494,495,496,497,498,499,500,501,502,503,504,505,506,507,508,509,510,511,512,513,514,515,516,517,518,519,520,521,522,523,524,525,526,527,528,529,530,531,532,533,534,535,536,537,538,539,540,541,542,543,544,545,546,547,548,549,550,551,552,553,554,555,556,557,558,559,560,561,562,563,564,565,566,567,568,569,570,571,572,573,574,575,576,577,578,579,580,581,582,583,584,585,586,587,588,589,590,591,592,593,594,595,596,597,598,599,600,601,602,603,604,605,606,607,608,609,610,611,612,613,614,615,616,617,618,619,620,621,622,623,624,625,626,627,628,629,630,631,632,633,634,635,636,637,638,639,640,641,642,643,644,645,646,647,648,649,650,651,652,653,654,655,656,657,658,659,660,661,662,663,664,665,666,667,668,669,670,671,672,673,674,675,676,677,678,679,680,681,682,683,684,685,686,687,688,689,690,691,692,693,694,695,696,697,698,699,700,701,702,703,704,705,706,707,708,709,710,711,712,713,714,715,716,717,718,719,720,721,722,723,724,725,726,727,728,729,730,731,732,733,734,735,736,737,738,739,740,741,742,743,744,745,746,747,748,749,750,751,752,753,754,755,756,757,758,759,760,761,762,763,764,765,766,767,768,769,770,771,772,773,774,775,776,777,778,779,780,781,782,783,784,785,786,787,788,789,790,791,792,793,794,795,796,797,798,799,800,801,802,803,804,805,806,807,808,809,810,811,812,813,814,815,816,817,818,819,820,821,822,823,824,825,826,827,828,829,830,831,832,833,834,835,836,837,838,839,840,841,842,843,844,845,846,847,848,849,850,851,852,853,854,855,856,857,858,859,860,861,862,863,864,865,866,867,868,869,870,871,872,873,874,875,876,877,878,879,880,881,882,883,884,885,886,887,888,889,890,891,892,893,894,895,896,897,898,899,900,901,902,903,904,905,906,907,908,909,910,911,912,913,914,915,916,917,918,919,920,921,922,923,924,925,926,927,928,929,930,931,932,933,934,935,936,937,938,939,940,941,942,943,944,945,946,947,948,949,950,951,952,953,954,955,956,957,958,959,960,961,962,963,964,965,966,967,968,969,970,971,972,973,974,975,976,977,978,979,980,981,982,983,984,985,986,987,988,989,990,991,992,993,994,995,996,997,998,999,1000,1001,1002,1003,1004,1005,1006,1007,1008,1009,1010,1011,1012,1013,1014,1015,1016,1017,1018,1019,1020,1021,1022,1023,1024,1025,1026,1027,1028,1029,1030,1031,1032,1033,1034,1035,1036,1037,1038,1039,1040,1041,1042,1043,1044,1045,1046,1047,1048,1049,1050,1051,1052,1053,1054,1055,1056,1057,1058,1059,1060,1061,1062,1063,1064,1065,1066,1067,1068,1069,1070,1071,1072,1073,1074,1075,1076,1077,1078,1079,1080,1081,1082,1083,1084,1085,1086,1087,1088,1089,1090,1091,1092,1093,1094,1095,1096,1097,1098,1099,1100,1101,1102,1103,1104,1105,1106,1107,1108,1109,1110,1111,1112,1113,1114,1115,1116,1117,1118,1119,1120,1121,1122,1123,1124,1125,1126,1127,1128,1129,1130,1131,1132,1133,1134,1135,1136,1137,1138,1139,1140,1141,1142,1143,1144,1145,1146,1147,1148,1149,1150,1151,1152,1153,1154,1155,1156,1157,1158,1159,1160,1161,1162,1163,1164,1165,1166,1167,1168,1169,1170,1171,1172,1173,1174,1175,1176,1177,1178,1179,1180,1181,1182,1183,1184,1185,1186,1187,1188,1189,1190,1191,1192,1193,1194,1195,1196,1197,1198,1199,1200,1201,1202,1203,1204,1205,1206,1207,1208,1209,1210,1211,1212,1213,1214,1215,1216,1217,1218,1219,1220,1221,1222,1223,1224,1225,1226,1227,1228,1229,1230,1231,1232,1233,1234,1235,1236,1237,1238,1239,1240,1241,1242,1243,1244,1245,1246,1247,1248,1249,1250,1251,1252,1253,1254,1255,1256,1257,1258,1259,1260,1261,1262,1263,1264,1265,1266,1267,1268,1269,1270,1271,1272,1273,1274,1275,1276,1277,1278,1279,1280,1281,1282,1283,1284,1285,1286,1287,1288,1289,1290,1291,1292,1293,1294,1295,1296,1297,1298,1299,1300,1301,1302,1303,1304,1305,1306,1307,1308,1309,1310,1311,1312,1313,1314,1315,1316,1317,1318,1319,1320,1321,1322,1323,1324,1325,1326,1327,1328,1329,1330,1331,1332,1333,1334,1335,1336,1337,1338,1339,1340,1341,1342,1343,1344,1345,1346,1347,1348,1349,1350,1351,1352,1353,1354,1355,1356,1357,1358,1359,1360,1361,1362,1363,1364,1365,1366,1367,1368,1369,1370,1371,1372,1373,1374,1375,1376,1377,1378,1379,1380,1381,1382,1383,1384,1385,1386,1387,1388,1389,1390,1391,1392,1393,1394,1395,1396,1397,1398,1399,1400,1401,1402,1403,1404,1405,1406,1407,1408,1409,1410,1411,1412,1413,1414,1415,1416,1417,1418,1419,1420,1421,1422,1423,1424,1425,1426,1427,1428,1429,1430,1431,1432,1433,1434,1435,1436,1437,1438,1439,1440,1441,1442,1443,1444,1445,1446,1447,1448,1449,1450,1451,1452,1453,1454,1455,1456,1457,1458,1459,1460,1461,1462,1463,1464,1465,1466,1467,1468,1469,1470,1471,1472,1473,1474,1475,1476,1477,1478,1479,1480,1481,1482,1483,1484,1485,1486,1487,1488,1489,1490,1491,1492,1493,1494,1495,1496,1497,1498,1499,1500,1501,1502,1503,1504,1505,1506,1507,1508,1509,1510,1511,1512,1513,1514,1515,1516,1517,1518,1519,1520,1521,1522,1523,1524,1525,1526,1527,1528,1529,1530,1531,1532,1533,1534,1535,1536,1537,1538,1539,1540,1541,1542,1543,1544,1545,1546,1547,1548,1549,1550,1551,1552,1553,1554,1555,1556,1557,1558,1559,1560,1561,1562,1563,1564,1565,1566,1567,1568,1569,1570,1571,1572,1573,1574,1575,1576,1577,1578,1579,1580,1581,1582,1583,1584,1585,1586,1587,1588,1589,1590,1591,1592,1593,1594,1595,1596,1597,1598,1599,1600,1601,1602,1603,1604,1605,1606,1607,1608,1609,1610,1611,1612,1613,1614,1615,1616,1617,1618,1619,1620,1621,1622,1623,1624,1625,1626,1627,1628,1629,1630,1631,1632,1633,1634,1635,1636,1637,1638,1639,1640,1641,1642,1643,1644,1645,1646,1647,1648,1649,1650,1651,1652,1653,1654,1655,1656,1657,1658,1659,1660,1661,1662,1663,1664,1665,1666,1667,1668,1669,1670,1671,1672,1673,1674,1675,1676,1677,1678,1679,1680,1681,1682,1683,1684,1685,1686,1687,1688,1689,1690,1691,1692,1693,1694,1695,1696,1697,1698,1699,1700,1701,1702,1703,1704,1705,1706,1707,1708,1709,1710,1711,1712,1713,1714,1715,1716,1717,1718,1719,1720,1721,1722,1723,1724,1725,1726,1727,1728,1729,1730,1731,1732,1733,1734,1735,1736,1737,1738,1739,1740,1741,1742,1743,1744,1745,1746,1747,1748,1749,1750,1751,1752,1753,1754,1755,1756,1757,1758,1759,1760,1761,1762,1763,1764,1765,1766,1767,1768,1769,1770,1771,1772,1773,1774,1775,1776,1777,1778,1779,1780,1781,1782,1783,1784,1785,1786,1787,1788,1789,1790,1791,1792,1793,1794,1795,1796,1797,1798,1799,1800,1801,1802,1803,1804,1805,1806,1807,1808,1809,1810,1811,1812,1813,1814,1815,1816,1817,1818,1819,1820,1821,1822,1823,1824,1825,1826,1827,1828,1829,1830,1831,1832,1833,1834,1835,1836,1837,1838,1839,1840,1841,1842,1843,1844,1845,1846,1847,1848,1849,1850,1851,1852,1853,1854,1855,1856,1857,1858,1859,1860,1861,1862,1863,1864,1865,1866,1867,1868,1869,1870,1871,1872,1873,1874,1875,1876,1877,1878,1879,1880,1881,1882,1883,1884,1885,1886,1887,1888,1889,1890,1891,1892,1893,1894,1895,1896,1897,1898,1899,1900,1901,1902,1903,1904,1905,1906,1907,1908,1909,1910,1911,1912,1913,1914,1915,1916,1917,1918,1919,1920,1921,1922,1923,1924,1925,1926,1927,1928,1929,1930,1931,1932,1933,1934,1935,1936,1937,1938,1939,1940,1941,1942,1943,1944,1945,1946,1947,1948,1949,1950,1951,1952,1953,1954,1955,1956,1957,1958,1959,1960,1961,1962,1963,1964,1965,1966,1967,1968,1969,1970,1971,1972,1973,1974,1975,1976,1977,1978,1979,1980,1981,1982,1983,1984,1985,1986,1987,1988,1989,1990,1991,1992,1993,1994,1995,1996,1997,1998,1999,2000],"tree_info":[0,0,0,0,0,0,0,0,0,0,0,0,0,0,0,0,0,0,0,0,0,0,0,0,0,0,0,0,0,0,0,0,0,0,0,0,0,0,0,0,0,0,0,0,0,0,0,0,0,0,0,0,0,0,0,0,0,0,0,0,0,0,0,0,0,0,0,0,0,0,0,0,0,0,0,0,0,0,0,0,0,0,0,0,0,0,0,0,0,0,0,0,0,0,0,0,0,0,0,0,0,0,0,0,0,0,0,0,0,0,0,0,0,0,0,0,0,0,0,0,0,0,0,0,0,0,0,0,0,0,0,0,0,0,0,0,0,0,0,0,0,0,0,0,0,0,0,0,0,0,0,0,0,0,0,0,0,0,0,0,0,0,0,0,0,0,0,0,0,0,0,0,0,0,0,0,0,0,0,0,0,0,0,0,0,0,0,0,0,0,0,0,0,0,0,0,0,0,0,0,0,0,0,0,0,0,0,0,0,0,0,0,0,0,0,0,0,0,0,0,0,0,0,0,0,0,0,0,0,0,0,0,0,0,0,0,0,0,0,0,0,0,0,0,0,0,0,0,0,0,0,0,0,0,0,0,0,0,0,0,0,0,0,0,0,0,0,0,0,0,0,0,0,0,0,0,0,0,0,0,0,0,0,0,0,0,0,0,0,0,0,0,0,0,0,0,0,0,0,0,0,0,0,0,0,0,0,0,0,0,0,0,0,0,0,0,0,0,0,0,0,0,0,0,0,0,0,0,0,0,0,0,0,0,0,0,0,0,0,0,0,0,0,0,0,0,0,0,0,0,0,0,0,0,0,0,0,0,0,0,0,0,0,0,0,0,0,0,0,0,0,0,0,0,0,0,0,0,0,0,0,0,0,0,0,0,0,0,0,0,0,0,0,0,0,0,0,0,0,0,0,0,0,0,0,0,0,0,0,0,0,0,0,0,0,0,0,0,0,0,0,0,0,0,0,0,0,0,0,0,0,0,0,0,0,0,0,0,0,0,0,0,0,0,0,0,0,0,0,0,0,0,0,0,0,0,0,0,0,0,0,0,0,0,0,0,0,0,0,0,0,0,0,0,0,0,0,0,0,0,0,0,0,0,0,0,0,0,0,0,0,0,0,0,0,0,0,0,0,0,0,0,0,0,0,0,0,0,0,0,0,0,0,0,0,0,0,0,0,0,0,0,0,0,0,0,0,0,0,0,0,0,0,0,0,0,0,0,0,0,0,0,0,0,0,0,0,0,0,0,0,0,0,0,0,0,0,0,0,0,0,0,0,0,0,0,0,0,0,0,0,0,0,0,0,0,0,0,0,0,0,0,0,0,0,0,0,0,0,0,0,0,0,0,0,0,0,0,0,0,0,0,0,0,0,0,0,0,0,0,0,0,0,0,0,0,0,0,0,0,0,0,0,0,0,0,0,0,0,0,0,0,0,0,0,0,0,0,0,0,0,0,0,0,0,0,0,0,0,0,0,0,0,0,0,0,0,0,0,0,0,0,0,0,0,0,0,0,0,0,0,0,0,0,0,0,0,0,0,0,0,0,0,0,0,0,0,0,0,0,0,0,0,0,0,0,0,0,0,0,0,0,0,0,0,0,0,0,0,0,0,0,0,0,0,0,0,0,0,0,0,0,0,0,0,0,0,0,0,0,0,0,0,0,0,0,0,0,0,0,0,0,0,0,0,0,0,0,0,0,0,0,0,0,0,0,0,0,0,0,0,0,0,0,0,0,0,0,0,0,0,0,0,0,0,0,0,0,0,0,0,0,0,0,0,0,0,0,0,0,0,0,0,0,0,0,0,0,0,0,0,0,0,0,0,0,0,0,0,0,0,0,0,0,0,0,0,0,0,0,0,0,0,0,0,0,0,0,0,0,0,0,0,0,0,0,0,0,0,0,0,0,0,0,0,0,0,0,0,0,0,0,0,0,0,0,0,0,0,0,0,0,0,0,0,0,0,0,0,0,0,0,0,0,0,0,0,0,0,0,0,0,0,0,0,0,0,0,0,0,0,0,0,0,0,0,0,0,0,0,0,0,0,0,0,0,0,0,0,0,0,0,0,0,0,0,0,0,0,0,0,0,0,0,0,0,0,0,0,0,0,0,0,0,0,0,0,0,0,0,0,0,0,0,0,0,0,0,0,0,0,0,0,0,0,0,0,0,0,0,0,0,0,0,0,0,0,0,0,0,0,0,0,0,0,0,0,0,0,0,0,0,0,0,0,0,0,0,0,0,0,0,0,0,0,0,0,0,0,0,0,0,0,0,0,0,0,0,0,0,0,0,0,0,0,0,0,0,0,0,0,0,0,0,0,0,0,0,0,0,0,0,0,0,0,0,0,0,0,0,0,0,0,0,0,0,0,0,0,0,0,0,0,0,0,0,0,0,0,0,0,0,0,0,0,0,0,0,0,0,0,0,0,0,0,0,0,0,0,0,0,0,0,0,0,0,0,0,0,0,0,0,0,0,0,0,0,0,0,0,0,0,0,0,0,0,0,0,0,0,0,0,0,0,0,0,0,0,0,0,0,0,0,0,0,0,0,0,0,0,0,0,0,0,0,0,0,0,0,0,0,0,0,0,0,0,0,0,0,0,0,0,0,0,0,0,0,0,0,0,0,0,0,0,0,0,0,0,0,0,0,0,0,0,0,0,0,0,0,0,0,0,0,0,0,0,0,0,0,0,0,0,0,0,0,0,0,0,0,0,0,0,0,0,0,0,0,0,0,0,0,0,0,0,0,0,0,0,0,0,0,0,0,0,0,0,0,0,0,0,0,0,0,0,0,0,0,0,0,0,0,0,0,0,0,0,0,0,0,0,0,0,0,0,0,0,0,0,0,0,0,0,0,0,0,0,0,0,0,0,0,0,0,0,0,0,0,0,0,0,0,0,0,0,0,0,0,0,0,0,0,0,0,0,0,0,0,0,0,0,0,0,0,0,0,0,0,0,0,0,0,0,0,0,0,0,0,0,0,0,0,0,0,0,0,0,0,0,0,0,0,0,0,0,0,0,0,0,0,0,0,0,0,0,0,0,0,0,0,0,0,0,0,0,0,0,0,0,0,0,0,0,0,0,0,0,0,0,0,0,0,0,0,0,0,0,0,0,0,0,0,0,0,0,0,0,0,0,0,0,0,0,0,0,0,0,0,0,0,0,0,0,0,0,0,0,0,0,0,0,0,0,0,0,0,0,0,0,0,0,0,0,0,0,0,0,0,0,0,0,0,0,0,0,0,0,0,0,0,0,0,0,0,0,0,0,0,0,0,0,0,0,0,0,0,0,0,0,0,0,0,0,0,0,0,0,0,0,0,0,0,0,0,0,0,0,0,0,0,0,0,0,0,0,0,0,0,0,0,0,0,0,0,0,0,0,0,0,0,0,0,0,0,0,0,0,0,0,0,0,0,0,0,0,0,0,0,0,0,0,0,0,0,0,0,0,0,0,0,0,0,0,0,0,0,0,0,0,0,0,0,0,0,0,0,0,0,0,0,0,0,0,0,0,0,0,0,0,0,0,0,0,0,0,0,0,0,0,0,0,0,0,0,0,0,0,0,0,0,0,0,0,0,0,0,0,0,0,0,0,0,0,0,0,0,0,0,0,0,0,0,0,0,0,0,0,0,0,0,0,0,0,0,0,0,0,0,0,0,0,0,0,0,0,0,0,0,0,0,0,0,0,0,0,0,0,0,0,0,0,0,0,0,0,0,0,0,0,0,0,0,0,0,0,0,0,0,0,0,0,0,0,0,0,0,0,0,0,0,0,0,0,0,0,0,0,0,0,0,0,0,0,0,0,0,0,0,0,0,0,0,0,0,0,0,0,0,0,0,0,0,0,0,0,0,0,0,0,0,0,0,0,0,0,0,0,0,0,0,0,0,0,0,0,0,0,0,0,0,0,0,0,0,0,0,0,0,0,0,0,0,0,0,0,0,0,0,0,0,0,0,0,0,0,0,0,0,0,0,0,0,0,0,0,0,0,0,0,0,0,0,0,0,0,0,0,0,0,0,0,0,0,0,0,0,0,0,0,0,0,0,0,0,0,0,0,0,0,0,0,0,0,0,0,0,0,0,0,0,0,0,0,0,0,0,0,0,0,0,0,0,0,0,0,0,0,0,0,0,0,0,0,0,0,0,0,0,0,0,0,0,0,0,0,0,0,0,0,0,0,0,0,0,0,0,0,0,0,0,0,0,0,0,0,0,0,0,0,0,0,0,0,0,0,0,0,0,0,0,0,0,0,0,0,0,0,0,0,0,0,0,0,0,0,0,0,0,0,0,0,0,0,0,0,0,0,0,0,0,0,0,0,0,0,0,0,0,0,0,0,0,0,0,0,0,0,0,0,0,0,0,0,0,0,0,0,0,0,0,0,0,0,0,0,0,0,0,0,0,0,0,0,0,0,0,0,0,0,0,0,0,0,0,0,0,0,0,0,0,0,0,0,0,0,0,0,0,0,0,0,0,0,0,0,0,0,0,0,0,0,0,0,0,0,0,0,0,0,0,0],"trees":[{"base_weights":[-9.457808E-3,-9.2516065E-1,4.1713166E-1,-4.1816637E-1,-1.2155161E0,1.9139166E-1,9.9911934E-1,7.438462E-3,-6.975547E-1,-1.3154359E0,-3.6317817E-4,3.8831642E-1,-2.9789877E-1,1.7055175E-1,1.2211509E0,-8.7485284E-1,2.6266726E-3,-4.6315766E-3,-1.4200631E0,-5.0035083E-1,5.421042E-1,-7.9523253E-1,2.8843665E-1,-5.363922E-3,7.6079452E-3,1.9912838E-3,1.3475981E0,-1.2673129E-3,-1.1655965E-2,-1.508818E-2,-7.5471792E-3,2.4238073E-3,-1.0708529E-2,6.770309E-3,-3.2708629E-3,-9.970759E-3,3.3623716E-4,-1.0074922E-3,9.278239E-3,6.466521E-3,1.5005137E-2],"categories":[],"categories_nodes":[],"categories_segments":[],"categories_sizes":[],"default_left":[0,0,0,0,0,0,0,0,0,0,0,0,0,0,0,0,0,0,0,0,0,0,0,0,0,0,0,0,0,0,0,0,0,0,0,0,0,0,0,0,0],"id":0,"left_children":[1,3,5,7,9,11,13,-1,15,17,-1,19,21,23,25,27,-1,-1,29,31,33,35,37,-1,-1,-1,39,-1,-1,-1,-1,-1,-1,-1,-1,-1,-1,-1,-1,-1,-1],"loss_changes":[4.0386176E2,4.663025E1,9.201462E1,4.216635E1,2.424582E1,4.9771782E1,3.5404938E1,0E0,1.8181465E1,1.4829498E1,0E0,5.1066326E1,4.4230816E1,2.0152676E1,1.9044785E1,1.8088768E1,0E0,0E0,5.2846985E0,2.4299198E1,3.660971E1,1.3406746E1,1.7802055E1,0E0,0E0,0E0,1.0705658E1,0E0,0E0,0E0,0E0,0E0,0E0,0E0,0E0,0E0,0E0,0E0,0E0,0E0,0E0],"parents":[2147483647,0,0,1,1,2,2,3,3,4,4,5,5,6,6,8,8,9,9,11,11,12,12,13,13,14,14,15,15,18,18,19,19,20,20,21,21,22,22,26,26],"right_children":[2,4,6,8,10,12,14,-1,16,18,-1,20,22,24,26,28,-1,-1,30,32,34,36,38,-1,-1,-1,40,-1,-1,-1,-1,-1,-1,-1,-1,-1,-1,-1,-1,-1,-1],"split_conditions":[3.2677492E-3,-4.489097E-2,2.1634035E-2,3.0966222E-2,1.8779984E-1,-5.305256E-2,1.7033163E-2,7.438462E-3,1.3081472E-1,4.7181947E-3,-3.6317817E-4,6.442658E-2,-1.3711503E-2,3.913615E-2,-1.9042568E-2,1.7381938E-2,2.6266726E-3,-4.6315766E-3,1.0344775E-1,7.3227964E-2,-4.116791E-2,-4.8188537E-2,6.983477E-2,-5.363922E-3,7.6079452E-3,1.9912838E-3,-7.697425E-2,-1.2673129E-3,-1.1655965E-2,-1.508818E-2,-7.5471792E-3,2.4238073E-3,-1.0708529E-2,6.770309E-3,-3.2708629E-3,-9.970759E-3,3.3623716E-4,-1.0074922E-3,9.278239E-3,6.466521E-3,1.5005137E-2],"split_indices":[1182,49,641,1194,1114,885,112,0,870,429,0,918,361,1079,183,337,0,0,610,23,1108,813,950,0,0,0,790,0,0,0,0,0,0,0,0,0,0,0,0,0,0],"split_type":[0,0,0,0,0,0,0,0,0,0,0,0,0,0,0,0,0,0,0,0,0,0,0,0,0,0,0,0,0,0,0,0,0,0,0,0,0,0,0,0,0],"sum_hessian":[1.0270824E3,3.251445E2,7.019379E2,1.2143788E2,2.0370662E2,5.0903522E2,1.9290273E2,2.250549E1,9.8932396E1,1.8743274E2,1.627387E1,3.6345898E2,1.4557622E2,4.2044514E1,1.5085822E2,8.3747E1,1.5185394E1,2.2457457E1,1.649753E2,5.2483177E1,3.109758E2,7.810751E1,6.746871E1,1.9242268E1,2.2802246E1,1.7559725E1,1.332985E2,2.4435652E1,5.9311348E1,1.4335841E2,2.1616875E1,2.3544828E1,2.893835E1,2.70711E2,4.02648E1,6.2575672E1,1.553184E1,4.3627953E1,2.3840757E1,2.596802E1,1.07330475E2],"tree_param":{"num_deleted":"0","num_feature":"1280","num_nodes":"41","size_leaf_vector":"1"}},{"base_weights":[-3.7105363E-2,-8.8790697E-1,4.387976E-1,-7.5072926E-3,-1.0692627E0,6.388205E-1,-2.1397828E-1,1.0265355E-2,-4.2392752E-1,-1.2180923E0,-5.172526E-1,1.1164188E-1,8.3926034E-1,-5.755869E-1,4.4133037E-1,2.8919147E-3,-9.124039E-3,-1.2941929E0,-2.279399E-3,9.030978E-4,-7.384962E-1,-1.3628358E-1,9.1079473E-1,-6.199898E-3,9.361524E-1,2.2100515E-3,-8.1346005E-1,8.592952E-1,-6.335776E-3,-7.54574E-3,-1.42636085E-2,-7.529183E-4,-1.0440721E-2,2.4574231E-3,-7.969534E-3,1.3404998E-2,2.8563577E-3,1.1674366E-2,5.3720316E-3,-1.0839544E-2,8.1556826E-4,1.2356376E-2,2.7743366E-3],"categories":[],"categories_nodes":[],"categories_segments":[],"categories_sizes":[],"default_left":[0,0,0,0,0,0,0,0,0,0,0,0,0,0,0,0,0,0,0,0,0,0,0,0,0,0,0,0,0,0,0,0,0,0,0,0,0,0,0,0,0,0,0],"id":1,"left_children":[1,3,5,7,9,11,13,-1,15,17,19,21,23,25,27,-1,-1,29,-1,-1,31,33,35,-1,37,-1,39,41,-1,-1,-1,-1,-1,-1,-1,-1,-1,-1,-1,-1,-1,-1,-1],"loss_changes":[4.2182553E2,5.963272E1,8.772403E1,3.0296925E1,2.3299591E1,5.3822906E1,3.8617264E1,0E0,1.8210995E1,1.7215576E1,9.861269E0,2.9171127E1,5.4275208E1,2.031636E1,2.8090796E1,0E0,0E0,1.1535156E1,0E0,0E0,1.028282E1,2.9092209E1,7.9261837E0,0E0,2.946399E1,0E0,1.9474773E1,8.249195E0,0E0,0E0,0E0,0E0,0E0,0E0,0E0,0E0,0E0,0E0,0E0,0E0,0E0,0E0,0E0],"parents":[2147483647,0,0,1,1,2,2,3,3,4,4,5,5,6,6,8,8,9,9,10,10,11,11,12,12,13,13,14,14,17,17,20,20,21,21,22,22,24,24,26,26,27,27],"right_children":[2,4,6,8,10,12,14,-1,16,18,20,22,24,26,28,-1,-1,30,-1,-1,32,34,36,-1,38,-1,40,42,-1,-1,-1,-1,-1,-1,-1,-1,-1,-1,-1,-1,-1,-1,-1],"split_conditions":[7.5716384E-2,-1.6139388E-2,-5.2004877E-2,4.2960398E-2,-4.4860425E-3,-5.164352E-2,4.1480254E-2,1.0265355E-2,-1.2821914E-1,5.0460577E-2,-5.3603563E-2,8.680088E-2,-8.830263E-2,8.517545E-2,4.2416446E-2,2.8919147E-3,-9.124039E-3,-3.3563793E-2,-2.279399E-3,9.030978E-4,-1.6519178E-2,-6.760422E-2,3.9160613E-2,-6.199898E-3,4.1638404E-2,2.2100515E-3,3.340502E-2,5.03538E-2,-6.335776E-3,-7.54574E-3,-1.42636085E-2,-7.529183E-4,-1.0440721E-2,2.4574231E-3,-7.969534E-3,1.3404998E-2,2.8563577E-3,1.1674366E-2,5.3720316E-3,-1.0839544E-2,8.1556826E-4,1.2356376E-2,2.7743366E-3],"split_indices":[1230,606,885,633,716,637,800,0,730,773,957,979,958,687,424,0,0,454,0,0,221,931,669,0,1061,0,617,437,0,0,0,0,0,0,0,0,0,0,0,0,0,0,0],"split_type":[0,0,0,0,0,0,0,0,0,0,0,0,0,0,0,0,0,0,0,0,0,0,0,0,0,0,0,0,0,0,0,0,0,0,0,0,0,0,0,0,0,0,0],"sum_hessian":[1.0350995E3,3.7024002E2,6.648595E2,6.3847572E1,3.0639246E2,5.0897342E2,1.5588608E2,1.696643E1,4.688114E1,2.3807982E2,6.831263E1,1.416744E2,3.67299E2,1.0072196E2,5.5164116E1,1.9534199E1,2.7346941E1,2.2013647E2,1.7943344E1,1.8787664E1,4.9524967E1,1.10292114E2,3.138228E1,2.1772072E1,3.4552695E2,2.3245514E1,7.747645E1,4.017337E1,1.4990745E1,4.561717E1,1.745193E2,1.6758238E1,3.2766727E1,7.116667E1,3.912544E1,1.643507E1,1.4947211E1,2.1720963E2,1.283173E2,5.9230427E1,1.8246017E1,2.2263552E1,1.790982E1],"tree_param":{"num_deleted":"0","num_feature":"1280","num_nodes":"43","size_leaf_vector":"1"}},{"base_weights":[1.0882112E-3,-8.6719626E-1,4.4457483E-1,-1.0073538E0,3.3588055E-1,1.0832751E-1,9.1519386E-1,-1.1279675E0,-1.0775895E-1,8.580249E-3,-4.1937213E-3,6.710087E-1,-1.280894E-1,-2.385765E-3,1.0239333E0,-5.281702E-1,-1.3181808E0,5.1669977E-3,-6.9133868E-3,8.661513E-1,-4.157827E-3,4.7838116E-1,-3.181326E-1,2.764946E-1,1.1950206E0,-1.2767762E-2,-2.2021825E-3,-2.3148067E-3,-1.4055273E-2,1.1018552E-2,-1.3902427E-3,-1.1637494E-3,1.3444318E-2,8.809441E-3,-4.2088716E-3,1.2057944E-2,-3.5005903E-3,1.4383171E-2,8.077631E-3],"categories":[],"categories_nodes":[],"categories_segments":[],"categories_sizes":[],"default_left":[0,0,0,0,0,0,0,0,0,0,0,0,0,0,0,0,0,0,0,0,0,0,0,0,0,0,0,0,0,0,0,0,0,0,0,0,0,0,0],"id":2,"left_children":[1,3,5,7,9,11,13,15,17,-1,-1,19,21,-1,23,25,27,-1,-1,29,-1,31,33,35,37,-1,-1,-1,-1,-1,-1,-1,-1,-1,-1,-1,-1,-1,-1],"loss_changes":[4.005116E2,6.0449615E1,1.0860475E2,3.385025E1,1.6523933E1,5.4226547E1,3.672963E1,2.9349976E1,1.6037754E1,0E0,0E0,2.6729038E1,3.3753822E1,0E0,3.2424652E1,1.5715105E1,1.7120728E1,0E0,0E0,2.437638E1,0E0,3.634812E1,2.788876E1,3.218022E1,1.56944275E1,0E0,0E0,0E0,0E0,0E0,0E0,0E0,0E0,0E0,0E0,0E0,0E0,0E0,0E0],"parents":[2147483647,0,0,1,1,2,2,3,3,4,4,5,5,6,6,7,7,8,8,11,11,12,12,14,14,15,15,16,16,19,19,21,21,22,22,23,23,24,24],"right_children":[2,4,6,8,10,12,14,16,18,-1,-1,20,22,-1,24,26,28,-1,-1,30,-1,32,34,36,38,-1,-1,-1,-1,-1,-1,-1,-1,-1,-1,-1,-1,-1,-1],"split_conditions":[1.0800644E-2,1.478205E-1,1.6059267E-3,-3.489872E-3,1.2508462E-2,-1.0628315E-1,2.7909253E-2,-4.1103594E-2,4.2516258E-2,8.580249E-3,-4.1937213E-3,-4.725441E-2,-1.5460803E-1,-2.385765E-3,-7.488864E-3,-7.293418E-2,-4.2333383E-2,5.1669977E-3,-6.9133868E-3,6.8364635E-2,-4.157827E-3,4.4682324E-2,-6.255739E-2,-1.7143918E-2,2.7277297E-3,-1.2767762E-2,-2.2021825E-3,-2.3148067E-3,-1.4055273E-2,1.1018552E-2,-1.3902427E-3,-1.1637494E-3,1.3444318E-2,8.809441E-3,-4.2088716E-3,1.2057944E-2,-3.5005903E-3,1.4383171E-2,8.077631E-3],"split_indices":[1182,32,641,8,492,885,24,631,319,0,0,427,441,0,401,840,995,0,0,482,0,217,37,891,304,0,0,0,0,0,0,0,0,0,0,0,0,0,0],"split_type":[0,0,0,0,0,0,0,0,0,0,0,0,0,0,0,0,0,0,0,0,0,0,0,0,0,0,0,0,0,0,0,0,0,0,0,0,0,0,0],"sum_hessian":[1.033256E3,3.482219E2,6.8503406E2,3.1238513E2,3.5836742E1,4.0200992E2,2.8302414E2,2.746887E2,3.7696453E1,2.0966127E1,1.4870615E1,1.170782E2,2.8493173E2,2.4051764E1,2.5897238E2,6.924482E1,2.0544386E2,1.8380829E1,1.9315622E1,9.980992E1,1.7268278E1,6.6745995E1,2.1818573E2,4.9901966E1,2.090704E2,1.7235186E1,5.2009632E1,1.501297E1,1.904309E2,8.095346E1,1.8856464E1,4.1206905E1,2.5539091E1,1.4902047E1,2.0328368E2,1.887224E1,3.1029728E1,1.24765755E2,8.430465E1],"tree_param":{"num_deleted":"0","num_feature":"1280","num_nodes":"39","size_leaf_vector":"1"}},{"base_weights":[-7.7482485E-3,4.8338485E-1,-8.1431144E-1,1.0831349E0,2.872035E-1,-1.1602706E-1,-9.913363E-1,3.9480472E-1,1.2942716E0,7.0403314E-1,-6.5908246E-2,-4.8447523E-1,8.546213E-3,-1.1819209E0,-4.336852E-1,9.239781E-3,-9.16482E-4,1.5184063E0,4.408386E-3,-4.443966E-3,7.97751E-1,-2.3658095E-1,7.348052E-1,5.087307E-3,-9.5057744E-1,-7.582921E-1,-1.4055489E0,5.0155385E-3,-6.8926644E-1,7.14864E-3,1.6505128E-2,-2.3471084E-3,8.978034E-3,-8.907123E-3,5.540282E-4,1.2057744E-2,-1.5746864E-3,-2.167244E-3,-1.3342858E-2,-5.1564E-4,-1.0721155E-2,-6.1736098E-3,-1.5138397E-2,-1.0763903E-2,-8.264616E-4],"categories":[],"categories_nodes":[],"categories_segments":[],"categories_sizes":[],"default_left":[0,0,0,0,0,0,0,0,0,0,0,0,0,0,0,0,0,0,0,0,0,0,0,0,0,0,0,0,0,0,0,0,0,0,0,0,0,0,0,0,0,0,0,0,0],"id":3,"left_children":[1,3,5,7,9,11,13,15,17,19,21,23,-1,25,27,-1,-1,29,-1,-1,31,33,35,-1,37,39,41,-1,43,-1,-1,-1,-1,-1,-1,-1,-1,-1,-1,-1,-1,-1,-1,-1,-1],"loss_changes":[4.140176E2,7.537291E1,4.8501556E1,2.1345627E1,7.289305E1,3.1266312E1,3.1736694E1,1.1046074E1,2.0756592E1,2.5580788E1,3.7581467E1,3.06829E1,0E0,1.8417816E1,2.1593628E1,0E0,0E0,5.3733215E0,0E0,0E0,2.1488907E1,4.293159E1,2.069267E1,0E0,1.1198463E1,1.8970222E1,8.651306E0,0E0,1.5607582E1,0E0,0E0,0E0,0E0,0E0,0E0,0E0,0E0,0E0,0E0,0E0,0E0,0E0,0E0,0E0,0E0],"parents":[2147483647,0,0,1,1,2,2,3,3,4,4,5,5,6,6,7,7,8,8,9,9,10,10,11,11,13,13,14,14,17,17,20,20,21,21,22,22,24,24,25,25,26,26,28,28],"right_children":[2,4,6,8,10,12,14,16,18,20,22,24,-1,26,28,-1,-1,30,-1,-1,32,34,36,-1,38,40,42,-1,44,-1,-1,-1,-1,-1,-1,-1,-1,-1,-1,-1,-1,-1,-1,-1,-1],"split_conditions":[1.6727393E-2,-4.415323E-2,5.87077E-3,6.863004E-2,1.6166244E-2,1.1460904E-2,8.042343E-2,8.868284E-2,7.027992E-2,-9.3076766E-2,1.0078252E-1,-2.3991538E-2,8.546213E-3,-4.628302E-2,5.507705E-2,9.239781E-3,-9.16482E-4,7.650109E-2,4.408386E-3,-4.443966E-3,-1.5782623E-1,-1.319909E-2,-1.2550115E-3,5.087307E-3,2.3174152E-2,-4.8361033E-2,-1.4678884E-1,5.0155385E-3,6.2491965E-2,7.14864E-3,1.6505128E-2,-2.3471084E-3,8.978034E-3,-8.907123E-3,5.540282E-4,1.2057744E-2,-1.5746864E-3,-2.167244E-3,-1.3342858E-2,-5.1564E-4,-1.0721155E-2,-6.1736098E-3,-1.5138397E-2,-1.0763903E-2,-8.264616E-4],"split_indices":[888,37,853,24,423,1204,309,887,858,208,802,458,0,49,1251,0,0,1030,0,0,952,646,9,0,812,393,936,0,696,0,0,0,0,0,0,0,0,0,0,0,0,0,0,0,0],"split_type":[0,0,0,0,0,0,0,0,0,0,0,0,0,0,0,0,0,0,0,0,0,0,0,0,0,0,0,0,0,0,0,0,0,0,0,0,0,0,0,0,0,0,0,0,0],"sum_hessian":[1.0383439E3,6.4621765E2,3.9212625E2,1.5547218E2,4.9074548E2,8.044862E1,3.116776E2,3.87967E1,1.16675476E2,2.2350911E2,2.6723636E2,5.9474777E1,2.0973848E1,2.2943875E2,8.223887E1,1.7194338E1,2.1602364E1,9.03602E1,2.631528E1,1.5933947E1,2.0757516E2,2.2226729E2,4.4969086E1,1.8936054E1,4.0538723E1,8.445501E1,1.4498373E2,1.698856E1,6.525031E1,1.5072815E1,7.5287384E1,1.71718E1,1.9040337E2,6.6720985E1,1.555463E2,2.8780922E1,1.6188164E1,1.5563315E1,2.4975407E1,2.6859629E1,5.759538E1,1.9089119E1,1.2589462E2,3.8459682E1,2.6790627E1],"tree_param":{"num_deleted":"0","num_feature":"1280","num_nodes":"45","size_leaf_vector":"1"}},{"base_weights":[-1.542859E-2,-9.291807E-1,4.145469E-1,-1.0794321E0,-1.1840798E-1,1.0657876E0,2.4277629E-1,-1.1593987E0,2.753901E-3,-1.0422636E-2,3.283681E-1,5.1433097E-5,1.1852194E0,-3.8935106E-2,5.25076E-1,-1.2295686E0,-2.3612473E-4,-3.9752633E-3,9.720242E-3,1.36446E0,2.7939146E-3,2.4315389E-1,-4.9570614E-1,-8.168857E-3,6.087594E-1,-1.2988727E-2,-3.7245324E-3,4.380858E-3,1.5101619E-2,4.6592117E-3,-5.1274807E-3,2.9015148E-3,-7.889186E-3,3.9869646E-4,8.150246E-3],"categories":[],"categories_nodes":[],"categories_segments":[],"categories_sizes":[],"default_left":[0,0,0,0,0,0,0,0,0,0,0,0,0,0,0,0,0,0,0,0,0,0,0,0,0,0,0,0,0,0,0,0,0,0,0],"id":4,"left_children":[1,3,5,7,9,11,13,15,-1,-1,17,-1,19,21,23,25,-1,-1,-1,27,-1,29,31,-1,33,-1,-1,-1,-1,-1,-1,-1,-1,-1,-1],"loss_changes":[4.1314874E2,4.0551758E1,7.9116516E1,3.1761871E1,2.4326982E1,1.8759644E1,4.5426003E1,2.1285126E1,0E0,0E0,2.0063438E1,0E0,2.0370071E1,3.760318E1,3.360811E1,1.19678955E1,0E0,0E0,0E0,1.1908981E1,0E0,3.0813812E1,2.6027153E1,0E0,3.09775E1,0E0,0E0,0E0,0E0,0E0,0E0,0E0,0E0,0E0,0E0],"parents":[2147483647,0,0,1,1,2,2,3,3,4,4,5,5,6,6,7,7,10,10,12,12,13,13,14,14,15,15,19,19,21,21,22,22,24,24],"right_children":[2,4,6,8,10,12,14,16,-1,-1,18,-1,20,22,24,26,-1,-1,-1,28,-1,30,32,-1,34,-1,-1,-1,-1,-1,-1,-1,-1,-1,-1],"split_conditions":[3.2677492E-3,-4.4167317E-2,-4.5491148E-2,1.471621E-1,4.854097E-2,8.8432856E-2,-2.7720604E-2,1.3626833E-1,2.753901E-3,-1.0422636E-2,3.5348624E-2,5.1433097E-5,6.0652062E-2,-6.724808E-2,-5.2745357E-2,7.3063686E-3,-2.3612473E-4,-3.9752633E-3,9.720242E-3,-1.2115334E-1,2.7939146E-3,9.57424E-2,-2.0180379E-1,-8.168857E-3,5.688936E-2,-1.2988727E-2,-3.7245324E-3,4.380858E-3,1.5101619E-2,4.6592117E-3,-5.1274807E-3,2.9015148E-3,-7.889186E-3,3.9869646E-4,8.150246E-3],"split_indices":[1182,921,37,799,610,818,208,210,0,0,912,0,810,500,1253,8,0,0,0,1032,0,23,1031,0,282,0,0,0,0,0,0,0,0,0,0],"split_type":[0,0,0,0,0,0,0,0,0,0,0,0,0,0,0,0,0,0,0,0,0,0,0,0,0,0,0,0,0,0,0,0,0,0,0],"sum_hessian":[1.0447938E3,3.3305112E2,7.1174274E2,2.8002496E2,5.3026154E1,1.4483604E2,5.669067E2,2.6486533E2,1.5159653E1,1.5874724E1,3.715143E1,1.5018711E1,1.2981734E2,2.8522336E2,2.816833E2,2.4919E2,1.567532E1,1.8024609E1,1.912682E1,1.06963196E2,2.2854137E1,1.7731598E2,1.0790739E2,1.4830319E1,2.66853E2,2.3063403E2,1.8555967E1,1.5679041E1,9.128415E1,1.3819698E2,3.9119007E1,2.9069456E1,7.883793E1,7.100765E1,1.9584534E2],"tree_param":{"num_deleted":"0","num_feature":"1280","num_nodes":"35","size_leaf_vector":"1"}},{"base_weights":[-4.8179845E-3,4.6640876E-1,-7.690446E-1,1.3792627E-1,8.966019E-1,-1.008227E0,-1.4234619E-1,5.691845E-1,-3.3590767E-1,1.0309726E0,-4.9718365E-2,-1.1299624E0,-1.4921844E-1,-7.4997675E-1,3.316895E-1,7.781583E-1,-2.3587275E-1,3.0385017E-1,-6.395315E-1,1.1821872E-1,1.1658404E0,7.405874E-3,-7.011995E-3,-1.2457275E0,-3.1177002E-1,4.2608343E-3,-8.050841E-3,-1.187383E-2,1.003889E-3,9.222397E-3,-1.624387E-1,9.14596E-3,-1.4935959E-3,6.0792724E-3,-7.928927E-3,6.5819086E-3,-5.883947E-3,-9.25539E-3,-1.6568318E-3,6.552491E-3,-5.0139353E-3,1.2690483E-2,2.4306555E-3,-1.3405235E-2,-2.543356E-3,-7.882619E-3,2.6812707E-3,-7.851405E-3,5.7947533E-3],"categories":[],"categories_nodes":[],"categories_segments":[],"categories_sizes":[],"default_left":[0,0,0,0,0,0,0,0,0,0,0,0,0,0,0,0,0,0,0,0,0,0,0,0,0,0,0,0,0,0,0,0,0,0,0,0,0,0,0,0,0,0,0,0,0,0,0,0,0],"id":5,"left_children":[1,3,5,7,9,11,13,15,17,19,21,23,25,27,29,31,33,35,37,39,41,-1,-1,43,45,-1,-1,-1,-1,-1,47,-1,-1,-1,-1,-1,-1,-1,-1,-1,-1,-1,-1,-1,-1,-1,-1,-1,-1],"loss_changes":[3.75478E2,9.071945E1,5.911905E1,7.621169E1,3.560544E1,2.946341E1,3.363691E1,3.340702E1,3.530416E1,2.9583588E1,2.107269E1,2.2455353E1,1.5950371E1,1.9074848E1,1.9706013E1,1.9451645E1,2.1516853E1,1.9947046E1,1.5776863E1,1.2714242E1,1.7938477E1,0E0,0E0,1.7956787E1,1.046781E1,0E0,0E0,0E0,0E0,0E0,1.931276E1,0E0,0E0,0E0,0E0,0E0,0E0,0E0,0E0,0E0,0E0,0E0,0E0,0E0,0E0,0E0,0E0,0E0,0E0],"parents":[2147483647,0,0,1,1,2,2,3,3,4,4,5,5,6,6,7,7,8,8,9,9,10,10,11,11,12,12,13,13,14,14,15,15,16,16,17,17,18,18,19,19,20,20,23,23,24,24,30,30],"right_children":[2,4,6,8,10,12,14,16,18,20,22,24,26,28,30,32,34,36,38,40,42,-1,-1,44,46,-1,-1,-1,-1,-1,48,-1,-1,-1,-1,-1,-1,-1,-1,-1,-1,-1,-1,-1,-1,-1,-1,-1,-1],"split_conditions":[1.274608E-2,-9.380791E-4,-3.100165E-2,3.213997E-2,-1.0069376E-1,-1.5444926E-3,-4.5645654E-2,-4.385301E-2,-4.4809725E-2,6.605855E-2,1.5855664E-2,5.015226E-2,8.999062E-2,1.0796008E-1,7.020152E-2,1.237904E-1,-3.514197E-2,2.203991E-4,1.3181177E-1,-3.4951426E-2,3.862766E-2,7.405874E-3,-7.011995E-3,1.7558856E-1,-2.7732689E-2,4.2608343E-3,-8.050841E-3,-1.187383E-2,1.003889E-3,9.222397E-3,-2.1101944E-2,9.14596E-3,-1.4935959E-3,6.0792724E-3,-7.928927E-3,6.5819086E-3,-5.883947E-3,-9.25539E-3,-1.6568318E-3,6.552491E-3,-5.0139353E-3,1.2690483E-2,2.4306555E-3,-1.3405235E-2,-2.543356E-3,-7.882619E-3,2.6812707E-3,-7.851405E-3,5.7947533E-3],"split_indices":[888,641,147,423,629,333,437,885,131,1097,376,1047,933,1155,119,138,727,1089,1136,1123,853,0,0,1114,204,0,0,0,0,0,251,0,0,0,0,0,0,0,0,0,0,0,0,0,0,0,0,0,0],"split_type":[0,0,0,0,0,0,0,0,0,0,0,0,0,0,0,0,0,0,0,0,0,0,0,0,0,0,0,0,0,0,0,0,0,0,0,0,0,0,0,0,0,0,0,0,0,0,0,0,0],"sum_hessian":[1.035815E3,6.41558E2,3.94257E2,3.6634244E2,2.7521555E2,2.838457E2,1.1041128E2,1.9142764E2,1.7491478E2,2.4072823E2,3.4487335E1,2.4766919E2,3.6176514E1,4.7515594E1,6.2895687E1,1.5206845E2,3.93592E1,5.6294846E1,1.1861994E2,3.1816132E1,2.089121E2,1.5365474E1,1.912186E1,2.1540614E2,3.2263046E1,1.988508E1,1.6291435E1,3.063388E1,1.6881716E1,2.7437176E1,3.5458508E1,1.3319093E2,1.8877514E1,1.5489717E1,2.3869482E1,4.100909E1,1.5285754E1,7.246595E1,4.615399E1,1.695701E1,1.485912E1,1.8797765E2,2.0934446E1,1.9679219E2,1.8613953E1,1.7090464E1,1.5172584E1,1.9193508E1,1.6265001E1],"tree_param":{"num_deleted":"0","num_feature":"1280","num_nodes":"49","size_leaf_vector":"1"}},{"base_weights":[4.3998216E-3,-9.057246E-1,3.9082673E-1,-1.0453899E0,-1.2590502E-1,6.1938787E-1,-1.5208915E-1,2.5740797E-3,-1.1336246E0,7.7357884E-3,-6.078724E-1,1.0042179E0,3.1913865E-1,1.9237224E-2,-9.365865E-1,-1.2169734E0,-1.4341844E-3,-1.0643177E-3,-1.0520088E-2,1.1601797E0,-2.5504848E-4,3.460778E-2,7.567389E-1,-6.263489E-1,2.3614734E-1,-3.383371E-3,-1.3554238E-2,-4.0896274E-3,-1.3199891E-2,1.2808804E-2,2.2428364E-3,4.0231086E-3,-3.8096681E-3,-1.129381E-3,1.0389121E-2,-9.755403E-3,8.1105984E-4,4.7052586E-3,-6.9273235E-3],"categories":[],"categories_nodes":[],"categories_segments":[],"categories_sizes":[],"default_left":[0,0,0,0,0,0,0,0,0,0,0,0,0,0,0,0,0,0,0,0,0,0,0,0,0,0,0,0,0,0,0,0,0,0,0,0,0,0,0],"id":6,"left_children":[1,3,5,7,9,11,13,-1,15,-1,17,19,21,23,25,27,-1,-1,-1,29,-1,31,33,35,37,-1,-1,-1,-1,-1,-1,-1,-1,-1,-1,-1,-1,-1,-1],"loss_changes":[3.6367422E2,3.3117233E1,9.039061E1,3.095465E1,2.3481316E1,5.800284E1,2.9332705E1,0E0,1.964032E1,0E0,7.301613E0,3.5840286E1,3.630722E1,2.6004879E1,8.113861E0,1.5766998E1,0E0,0E0,0E0,1.971698E1,0E0,2.7852085E1,2.8074074E1,1.1641069E1,3.0894167E1,0E0,0E0,0E0,0E0,0E0,0E0,0E0,0E0,0E0,0E0,0E0,0E0,0E0,0E0],"parents":[2147483647,0,0,1,1,2,2,3,3,4,4,5,5,6,6,8,8,10,10,11,11,12,12,13,13,14,14,15,15,19,19,21,21,22,22,23,23,24,24],"right_children":[2,4,6,8,10,12,14,-1,16,-1,18,20,22,24,26,28,-1,-1,-1,30,-1,32,34,36,38,-1,-1,-1,-1,-1,-1,-1,-1,-1,-1,-1,-1,-1,-1],"split_conditions":[-9.563954E-3,2.7251132E-2,2.0686345E-2,-2.5081698E-2,-1.3689108E-1,-4.4372357E-2,5.422531E-2,2.5740797E-3,3.1515528E-2,7.7357884E-3,7.234747E-2,7.108114E-2,5.3159915E-2,-4.700255E-2,-1.0603031E-2,4.100192E-2,-1.4341844E-3,-1.0643177E-3,-1.0520088E-2,1.07916765E-1,-2.5504848E-4,2.8776433E-2,-1.10347964E-1,5.4019347E-2,-1.465869E-1,-3.383371E-3,-1.3554238E-2,-4.0896274E-3,-1.3199891E-2,1.2808804E-2,2.2428364E-3,4.0231086E-3,-3.8096681E-3,-1.129381E-3,1.0389121E-2,-9.755403E-3,8.1105984E-4,4.7052586E-3,-6.9273235E-3],"split_indices":[1182,483,618,801,40,235,69,0,1187,0,584,466,47,420,745,874,0,0,0,506,0,155,832,877,1256,0,0,0,0,0,0,0,0,0,0,0,0,0,0],"split_type":[0,0,0,0,0,0,0,0,0,0,0,0,0,0,0,0,0,0,0,0,0,0,0,0,0,0,0,0,0,0,0,0,0,0,0,0,0,0,0],"sum_hessian":[1.0272008E3,3.0478055E2,7.224202E2,2.5749896E2,4.7281586E1,5.080542E2,2.1436603E2,1.5936116E1,2.4156285E2,1.58293915E1,3.1452192E1,2.191534E2,2.889008E2,1.7867775E2,3.5688286E1,2.2210216E2,1.9460693E1,1.6647928E1,1.4804263E1,1.89947E2,2.9206385E1,1.7730377E2,1.1159703E2,4.3313793E1,1.3536395E2,1.7056028E1,1.8632256E1,2.549386E1,1.966083E2,1.6821873E2,2.1728283E1,9.416872E1,8.313505E1,2.7453878E1,8.414315E1,2.8274593E1,1.5039202E1,1.0958069E2,2.578327E1],"tree_param":{"num_deleted":"0","num_feature":"1280","num_nodes":"39","size_leaf_vector":"1"}},{"base_weights":[8.531801E-3,4.6648577E-1,-7.322445E-1,1.5280621E-1,8.805116E-1,5.867012E-3,-8.192704E-1,3.440159E-1,-4.478918E-1,9.9584806E-1,-1.477076E-3,-9.073728E-1,4.98301E-3,-5.2401495E-1,5.378636E-1,3.0564594E-1,-8.35166E-1,1.1066799E0,1.0235985E-3,-9.8917836E-1,4.0137866E-3,-8.952267E-3,3.7342713E-3,1.4135552E-3,9.0465285E-3,-2.353859E-3,8.142204E-3,-1.1404884E-2,-2.016347E-3,3.465408E-3,1.2170476E-2,-1.1638948E-2,-4.6681757E-3],"categories":[],"categories_nodes":[],"categories_segments":[],"categories_sizes":[],"default_left":[0,0,0,0,0,0,0,0,0,0,0,0,0,0,0,0,0,0,0,0,0,0,0,0,0,0,0,0,0,0,0,0,0],"id":7,"left_children":[1,3,5,7,9,-1,11,13,15,17,-1,19,-1,21,23,25,27,29,-1,31,-1,-1,-1,-1,-1,-1,-1,-1,-1,-1,-1,-1,-1],"loss_changes":[3.594448E2,8.457115E1,4.7992706E1,4.37873E1,3.3859818E1,0E0,4.569188E1,4.9361786E1,2.7844576E1,2.4736313E1,0E0,3.9660156E1,0E0,1.8940226E1,3.3637466E1,9.873407E0,1.0999485E1,1.6449677E1,0E0,2.8122437E1,0E0,0E0,0E0,0E0,0E0,0E0,0E0,0E0,0E0,0E0,0E0,0E0,0E0],"parents":[2147483647,0,0,1,1,2,2,3,3,4,4,6,6,7,7,8,8,9,9,11,11,13,13,14,14,15,15,16,16,17,17,19,19],"right_children":[2,4,6,8,10,-1,12,14,16,18,-1,20,-1,22,24,26,28,30,-1,32,-1,-1,-1,-1,-1,-1,-1,-1,-1,-1,-1,-1,-1],"split_conditions":[1.274608E-2,1.6059267E-3,-4.7929943E-2,1.4678055E-1,-4.067449E-3,5.867012E-3,1.2175389E-1,5.7147693E-2,-1.718859E-2,4.9210686E-2,-1.477076E-3,9.05472E-2,4.98301E-3,-1.5047115E-1,-1.124077E-1,-1.4288752E-1,9.8431244E-2,-8.7677866E-2,1.0235985E-3,8.042343E-2,4.0137866E-3,-8.952267E-3,3.7342713E-3,1.4135552E-3,9.0465285E-3,-2.353859E-3,8.142204E-3,-1.1404884E-2,-2.016347E-3,3.465408E-3,1.2170476E-2,-1.1638948E-2,-4.6681757E-3],"split_indices":[888,641,875,804,983,0,1017,610,64,710,0,1115,0,390,566,1220,762,440,0,309,0,0,0,0,0,0,0,0,0,0,0,0,0],"split_type":[0,0,0,0,0,0,0,0,0,0,0,0,0,0,0,0,0,0,0,0,0,0,0,0,0,0,0,0,0,0,0,0,0],"sum_hessian":[1.052697E3,6.5131433E2,4.0138266E2,3.732249E2,2.7808945E2,2.3687695E1,3.7769495E2,2.842156E2,8.90093E1,2.5011804E2,2.7971397E1,3.5497238E2,2.2722567E1,5.082162E1,2.3339398E2,3.0460691E1,5.8548607E1,2.2180739E2,2.8310663E1,3.3484027E2,2.0132113E1,3.6071632E1,1.47499895E1,1.13574585E2,1.198194E2,1.5598263E1,1.4862429E1,3.7945045E1,2.0603561E1,2.8450836E1,1.9335655E2,2.5022598E2,8.461429E1],"tree_param":{"num_deleted":"0","num_feature":"1280","num_nodes":"33","size_leaf_vector":"1"}},{"base_weights":[-3.0685116E-2,-8.817814E-1,3.4575772E-1,-9.857039E-1,3.7017718E-3,1.3505249E-1,9.341951E-1,-2.632845E-1,-1.1336235E0,3.3910412E-1,-2.8767762E-1,2.5755084E-1,1.2113116E0,-1.0284318E-2,4.0411847E-3,-1.2298418E0,-8.877965E-4,-2.3820181E-1,5.116626E-1,-4.2783332E-1,8.06498E-3,7.378087E-1,-4.4967863E-3,1.345195E0,2.1813752E-3,-1.3015699E-2,-3.8324366E-3,4.742546E-3,-6.6881925E-3,6.0260226E-3,-5.304565E-3,3.6530346E-3,-6.45758E-3,1.2078309E-2,6.7982596E-4,1.5227613E-2,5.979903E-3],"categories":[],"categories_nodes":[],"categories_segments":[],"categories_sizes":[],"default_left":[0,0,0,0,0,0,0,0,0,0,0,0,0,0,0,0,0,0,0,0,0,0,0,0,0,0,0,0,0,0,0,0,0,0,0,0,0],"id":8,"left_children":[1,3,5,7,-1,9,11,13,15,17,19,21,23,-1,-1,25,-1,27,29,31,-1,33,-1,35,-1,-1,-1,-1,-1,-1,-1,-1,-1,-1,-1,-1,-1],"loss_changes":[3.3002573E2,4.2273254E1,8.814379E1,3.0241058E1,0E0,4.6052628E1,3.414476E1,2.879421E1,2.3947021E1,3.6183804E1,2.7817886E1,2.1068619E1,1.6613785E1,0E0,0E0,1.0529724E1,0E0,2.6842756E1,2.642752E1,2.7421833E1,0E0,1.1014139E1,0E0,1.1691589E1,0E0,0E0,0E0,0E0,0E0,0E0,0E0,0E0,0E0,0E0,0E0,0E0,0E0],"parents":[2147483647,0,0,1,1,2,2,3,3,5,5,6,6,7,7,8,8,9,9,10,10,11,11,12,12,15,15,17,17,18,18,19,19,21,21,23,23],"right_children":[2,4,6,8,-1,10,12,14,16,18,20,22,24,-1,-1,26,-1,28,30,32,-1,34,-1,36,-1,-1,-1,-1,-1,-1,-1,-1,-1,-1,-1,-1,-1],"split_conditions":[-5.259619E-4,1.5094797E-1,2.1634035E-2,-9.658076E-2,3.7017718E-3,-3.1919967E-2,9.4176404E-2,-6.0918063E-2,6.4531714E-3,-5.9527826E-2,8.514519E-2,-1.3251215E-2,-9.944268E-3,-1.0284318E-2,4.0411847E-3,1.15098685E-1,-8.877965E-4,1.2763835E-2,2.408106E-2,-5.8088236E-2,8.06498E-3,1.812568E-2,-4.4967863E-3,-1.578113E-2,2.1813752E-3,-1.3015699E-2,-3.8324366E-3,4.742546E-3,-6.6881925E-3,6.0260226E-3,-5.304565E-3,3.6530346E-3,-6.45758E-3,1.2078309E-2,6.7982596E-4,1.5227613E-2,5.979903E-3],"split_indices":[1182,919,641,547,0,344,87,478,8,637,807,966,1265,0,0,256,0,80,1260,801,0,42,0,1053,0,0,0,0,0,0,0,0,0,0,0,0,0],"split_type":[0,0,0,0,0,0,0,0,0,0,0,0,0,0,0,0,0,0,0,0,0,0,0,0,0,0,0,0,0,0,0,0,0,0,0,0,0],"sum_hessian":[1.02340936E3,3.124368E2,7.1097253E2,2.8912372E2,2.331309E1,5.2660803E2,1.8436449E2,5.075278E1,2.3837093E2,3.5562433E2,1.7098373E2,5.5482853E1,1.2888164E2,2.2834728E1,2.7918053E1,2.177262E2,2.0644732E1,8.153701E1,2.740873E2,1.5334348E2,1.7640255E1,3.2905727E1,2.2577126E1,1.12523994E2,1.6357634E1,2.005422E2,1.7183989E1,3.049553E1,5.104148E1,2.540554E2,2.0031904E1,3.221435E1,1.2112913E2,1.7844362E1,1.5061366E1,8.891521E1,2.3608791E1],"tree_param":{"num_deleted":"0","num_feature":"1280","num_nodes":"37","size_leaf_vector":"1"}},{"base_weights":[1.8082555E-2,3.9312553E-1,-9.044455E-1,1.2263885E-1,9.216353E-1,-1.6139723E-2,-1.0659876E0,-1.4419594E-1,4.661394E-1,4.6698865E-2,1.1357315E0,-7.787708E-3,7.9270955E-3,-1.1408625E0,1.1259485E-3,-3.4298936E-1,5.354527E-1,7.845738E-1,-7.781033E-2,-8.151838E-3,5.273934E-1,8.953692E-4,1.2239459E0,-1.2597069E0,-4.8755905E-1,-7.945292E-3,1.6389988E-4,8.79956E-3,-3.6068633E-3,9.427416E-3,-1.1190699E-3,8.846402E-3,-3.7880142E-3,-1.5382866E-3,1.1022218E-2,2.7806533E-3,1.3101831E-2,-1.3289247E-2,-4.0778266E-3,6.1388174E-4,-1.1040433E-2],"categories":[],"categories_nodes":[],"categories_segments":[],"categories_sizes":[],"default_left":[0,0,0,0,0,0,0,0,0,0,0,0,0,0,0,0,0,0,0,0,0,0,0,0,0,0,0,0,0,0,0,0,0,0,0,0,0,0,0,0,0],"id":9,"left_children":[1,3,5,7,9,11,13,15,17,19,21,-1,-1,23,-1,25,27,29,31,-1,33,-1,35,37,39,-1,-1,-1,-1,-1,-1,-1,-1,-1,-1,-1,-1,-1,-1,-1,-1],"loss_changes":[3.616917E2,1.0584647E2,4.3302795E1,4.564535E1,4.684488E1,3.259632E1,2.2983673E1,3.8657562E1,3.787064E1,2.3279812E1,1.8236145E1,0E0,0E0,1.658612E1,0E0,3.5393852E1,2.0848972E1,1.9243881E1,2.5025154E1,0E0,1.45102625E1,0E0,1.2758392E1,8.912079E0,1.45111685E1,0E0,0E0,0E0,0E0,0E0,0E0,0E0,0E0,0E0,0E0,0E0,0E0,0E0,0E0,0E0,0E0],"parents":[2147483647,0,0,1,1,2,2,3,3,4,4,5,5,6,6,7,7,8,8,9,9,10,10,13,13,15,15,16,16,17,17,18,18,20,20,22,22,23,23,24,24],"right_children":[2,4,6,8,10,12,14,16,18,20,22,-1,-1,24,-1,26,28,30,32,-1,34,-1,36,38,40,-1,-1,-1,-1,-1,-1,-1,-1,-1,-1,-1,-1,-1,-1,-1,-1],"split_conditions":[7.497642E-2,9.909081E-3,-1.0565571E-1,1.0590965E-2,-7.488864E-3,-8.856616E-2,2.2041148E-2,1.4768992E-1,-6.83612E-2,1.71954E-2,7.1841083E-3,-7.787708E-3,7.9270955E-3,1.3223004E-1,1.1259485E-3,-3.1470634E-2,7.4341297E-3,1.5027413E-1,3.977421E-2,-8.151838E-3,8.2404576E-2,8.953692E-4,-1.5143023E-1,2.5518402E-3,-4.970054E-3,-7.945292E-3,1.6389988E-4,8.79956E-3,-3.6068633E-3,9.427416E-3,-1.1190699E-3,8.846402E-3,-3.7880142E-3,-1.5382866E-3,1.1022218E-2,2.7806533E-3,1.3101831E-2,-1.3289247E-2,-4.0778266E-3,6.1388174E-4,-1.1040433E-2],"split_indices":[261,641,497,26,401,475,396,1136,1272,26,844,0,0,742,0,962,935,1241,112,0,133,0,566,1087,779,0,0,0,0,0,0,0,0,0,0,0,0,0,0,0,0],"split_type":[0,0,0,0,0,0,0,0,0,0,0,0,0,0,0,0,0,0,0,0,0,0,0,0,0,0,0,0,0,0,0,0,0,0,0,0,0,0,0,0,0],"sum_hessian":[1.0384606E3,7.397036E2,2.98757E2,4.920742E2,2.4762941E2,4.6548603E1,2.5220837E2,2.7805823E2,2.1401596E2,4.9500454E1,1.9812897E2,2.4026838E1,2.2521765E1,2.3723721E2,1.4971165E1,2.1644255E2,6.1615673E1,1.340374E2,7.997855E1,1.6934668E1,3.256579E1,1.5934638E1,1.8219432E2,1.980396E2,3.9197617E1,9.456408E1,1.2187847E2,4.4694286E1,1.6921389E1,1.143087E2,1.9728704E1,1.7448647E1,6.2529907E1,1.5971649E1,1.659414E1,1.5303188E1,1.6689113E2,1.8279802E2,1.5241582E1,2.2270864E1,1.6926754E1],"tree_param":{"num_deleted":"0","num_feature":"1280","num_nodes":"41","size_leaf_vector":"1"}},{"base_weights":[2.7478617E-2,3.9098343E-1,-8.655602E-1,7.245113E-1,7.539359E-2,-1.0540991E0,-7.023651E-2,-1.881014E-1,8.291533E-1,4.4011012E-1,-3.0886975E-1,-1.1398693E0,-1.1101724E-3,-9.406972E-3,3.6476701E-1,5.609632E-3,-8.173623E-3,-5.0684437E-3,9.0142864E-1,-4.9602413E-1,6.3087046E-1,1.6966741E-1,-6.834249E-1,-2.516487E-3,-1.2295588E0,1.2100229E-2,-2.252194E-3,5.7567246E-3,1.1842563E-2,1.4314739E-3,-9.897822E-3,-2.6293017E-3,8.660867E-3,-6.654767E-3,4.880045E-3,-9.968413E-3,2.631281E-4,-1.3183263E-2,-5.8808266E-3],"categories":[],"categories_nodes":[],"categories_segments":[],"categories_sizes":[],"default_left":[0,0,0,0,0,0,0,0,0,0,0,0,0,0,0,0,0,0,0,0,0,0,0,0,0,0,0,0,0,0,0,0,0,0,0,0,0,0,0],"id":10,"left_children":[1,3,5,7,9,11,13,15,17,19,21,23,-1,-1,25,-1,-1,-1,27,29,31,33,35,-1,37,-1,-1,-1,-1,-1,-1,-1,-1,-1,-1,-1,-1,-1,-1],"loss_changes":[3.361189E2,7.725158E1,4.466678E1,3.4653E1,5.39767E1,1.914972E1,2.4162601E1,1.9993658E1,3.250499E1,3.63036E1,3.4082245E1,1.6610596E1,0E0,0E0,2.221833E1,0E0,0E0,0E0,2.5523193E1,1.1497527E1,3.4842705E1,2.3495625E1,2.3304287E1,0E0,7.967346E0,0E0,0E0,0E0,0E0,0E0,0E0,0E0,0E0,0E0,0E0,0E0,0E0,0E0,0E0],"parents":[2147483647,0,0,1,1,2,2,3,3,4,4,5,5,6,6,7,7,8,8,9,9,10,10,11,11,14,14,18,18,19,19,20,20,21,21,22,22,24,24],"right_children":[2,4,6,8,10,12,14,16,18,20,22,24,-1,-1,26,-1,-1,-1,28,30,32,34,36,-1,38,-1,-1,-1,-1,-1,-1,-1,-1,-1,-1,-1,-1,-1,-1],"split_conditions":[7.497642E-2,-8.58853E-2,3.994014E-2,-8.7291256E-2,1.320419E-1,7.441038E-2,5.9277583E-2,-1.2496571E-2,-5.256133E-2,-1.7182054E-1,1.4878126E-2,4.351982E-2,-1.1101724E-3,-9.406972E-3,2.0865127E-2,5.609632E-3,-8.173623E-3,-5.0684437E-3,1.1614273E-1,4.3584112E-2,4.4226695E-2,-8.490283E-2,-1.6457418E-2,-2.516487E-3,7.203692E-2,1.2100229E-2,-2.252194E-3,5.7567246E-3,1.1842563E-2,1.4314739E-3,-9.897822E-3,-2.6293017E-3,8.660867E-3,-6.654767E-3,4.880045E-3,-9.968413E-3,2.631281E-4,-1.3183263E-2,-5.8808266E-3],"split_indices":[261,885,551,144,1259,51,52,1166,615,68,1153,318,0,0,1199,0,0,0,1175,219,282,208,208,0,865,0,0,0,0,0,0,0,0,0,0,0,0,0,0],"split_type":[0,0,0,0,0,0,0,0,0,0,0,0,0,0,0,0,0,0,0,0,0,0,0,0,0,0,0,0,0,0,0,0,0,0,0,0,0,0,0],"sum_hessian":[1.028431E3,7.3228204E2,2.9614902E2,3.5387036E2,3.7841168E2,2.3849886E2,5.765016E1,3.612127E1,3.1774908E2,1.9388895E2,1.8452275E2,2.1797598E2,2.052287E1,1.7964844E1,3.9685318E1,1.663252E1,1.9488747E1,1.5287351E1,3.0246173E2,3.1895845E1,1.619931E2,8.183643E1,1.0268631E2,2.1152262E1,1.9682373E2,1.4893369E1,2.479195E1,1.4306592E2,1.5939581E2,1.4879344E1,1.70165E1,3.3192543E1,1.2880055E2,2.1492704E1,6.034373E1,7.0634766E1,3.205155E1,1.7145558E2,2.536815E1],"tree_param":{"num_deleted":"0","num_feature":"1280","num_nodes":"39","size_leaf_vector":"1"}},{"base_weights":[1.7250896E-2,4.546995E-1,-7.424204E-1,8.417525E-1,1.4223167E-1,-2.5570196E-1,-1.017182E0,9.948293E-1,9.31358E-2,-1.7504887E-1,5.8583623E-1,-9.684614E-3,-3.438509E-3,-1.1336373E0,-7.8382774E-4,1.1339692E0,3.4192212E-2,-3.4637055E-1,7.5593153E-3,-3.290802E-1,9.753558E-3,7.7446723E-1,-1.1536624E-1,5.1850516E-1,-5.8482E-1,-1.2458887E0,-4.7922245E-1,1.2338644E-2,1.8239379E-3,-5.828759E-3,6.6266246E-3,2.3685575E-3,-8.758813E-3,3.6494415E-3,-5.82134E-3,1.0361926E-2,7.272113E-5,-6.9763684E-3,5.017901E-3,-3.2927862E-3,9.46306E-3,-9.861986E-3,3.4480977E-3,-5.718365E-3,-1.3593788E-2,-1.0989163E-2,1.2189489E-3],"categories":[],"categories_nodes":[],"categories_segments":[],"categories_sizes":[],"default_left":[0,0,0,0,0,0,0,0,0,0,0,0,0,0,0,0,0,0,0,0,0,0,0,0,0,0,0,0,0,0,0,0,0,0,0,0,0,0,0,0,0,0,0,0,0,0,0],"id":11,"left_children":[1,3,5,7,9,11,13,15,17,19,21,-1,23,25,-1,27,29,31,-1,33,-1,35,37,39,41,43,45,-1,-1,-1,-1,-1,-1,-1,-1,-1,-1,-1,-1,-1,-1,-1,-1,-1,-1,-1,-1],"loss_changes":[3.484926E2,8.006389E1,5.036171E1,3.3664032E1,5.2747467E1,2.549505E1,2.6364075E1,3.2726257E1,1.6560982E1,3.9848923E1,2.094209E1,0E0,3.403365E1,1.3875305E1,0E0,1.8376831E1,1.4598058E1,1.1336057E1,0E0,3.4679333E1,0E0,2.4252647E1,1.4005739E1,2.2209232E1,2.0659594E1,1.0559021E1,1.4198687E1,0E0,0E0,0E0,0E0,0E0,0E0,0E0,0E0,0E0,0E0,0E0,0E0,0E0,0E0,0E0,0E0,0E0,0E0,0E0,0E0],"parents":[2147483647,0,0,1,1,2,2,3,3,4,4,5,5,6,6,7,7,8,8,9,9,10,10,12,12,13,13,15,15,16,16,17,17,19,19,21,21,22,22,23,23,24,24,25,25,26,26],"right_children":[2,4,6,8,10,12,14,16,18,20,22,-1,24,26,-1,28,30,32,-1,34,-1,36,38,40,42,44,46,-1,-1,-1,-1,-1,-1,-1,-1,-1,-1,-1,-1,-1,-1,-1,-1,-1,-1,-1,-1],"split_conditions":[1.6727393E-2,1.7444544E-2,8.577685E-2,5.3758632E-2,-2.5197025E-3,-4.955592E-2,1.2411238E-2,4.137207E-2,-9.1363296E-2,1.1268383E-1,7.8072086E-2,-9.684614E-3,7.911695E-2,1.3402234E-1,-7.8382774E-4,-7.563624E-2,8.237368E-2,-7.722882E-3,7.5593153E-3,-1.9460935E-2,9.753558E-3,2.3278492E-2,5.798058E-2,4.959209E-2,-1.470115E-2,-1.0504822E-1,6.187741E-2,1.2338644E-2,1.8239379E-3,-5.828759E-3,6.6266246E-3,2.3685575E-3,-8.758813E-3,3.6494415E-3,-5.82134E-3,1.0361926E-2,7.272113E-5,-6.9763684E-3,5.017901E-3,-3.2927862E-3,9.46306E-3,-9.861986E-3,3.4480977E-3,-5.718365E-3,-1.3593788E-2,-1.0989163E-2,1.2189489E-3],"split_indices":[888,423,261,710,641,1268,716,875,441,802,669,0,339,496,0,593,751,617,0,995,0,1253,740,788,251,183,1037,0,0,0,0,0,0,0,0,0,0,0,0,0,0,0,0,0,0,0,0],"split_type":[0,0,0,0,0,0,0,0,0,0,0,0,0,0,0,0,0,0,0,0,0,0,0,0,0,0,0,0,0,0,0,0,0,0,0,0,0,0,0,0,0,0,0,0,0,0,0],"sum_hessian":[1.0417869E3,6.6197015E2,3.7981674E2,2.9310898E2,3.6886118E2,1.39428E2,2.4038873E2,2.4241606E2,5.0692917E1,2.1625623E2,1.5260497E2,3.4103134E1,1.0532486E2,2.1324068E2,2.7148056E1,2.112079E2,3.1208157E1,3.1382343E1,1.9310574E1,1.9276917E2,2.3487057E1,1.19973724E2,3.263124E1,5.569416E1,4.96307E1,1.7938295E2,3.3857723E1,1.9140868E2,1.9799234E1,1.5867142E1,1.5341015E1,1.577697E1,1.5605374E1,5.075443E1,1.4201472E2,8.90379E1,3.0935822E1,1.6578629E1,1.6052612E1,1.881951E1,3.687465E1,3.4638077E1,1.4992624E1,2.734451E1,1.5203844E2,1.5352815E1,1.850491E1],"tree_param":{"num_deleted":"0","num_feature":"1280","num_nodes":"47","size_leaf_vector":"1"}},{"base_weights":[-1.4614018E-2,-7.7361125E-1,4.267188E-1,-8.843706E-1,6.7131263E-3,2.0636237E-1,9.739629E-1,-1.1678319E0,-5.046294E-1,3.7186593E-1,-3.7951314E-1,1.4159214E-4,1.11092E0,-1.2363454E0,-2.6759387E-3,2.7130905E-1,-7.815979E-1,-2.1483901E-1,5.3439575E-1,-9.6040356E-1,8.45579E-2,2.9436995E-3,1.2211759E0,-1.3529682E-2,-5.413671E-3,-2.4775632E-3,9.866882E-3,-1.1043126E-3,-1.0299404E-2,-4.7159605E-3,7.664776E-3,-5.2444395E-3,6.2381704E-3,-1.3387135E-2,-1.7670282E-3,-3.0744604E-3,8.5715195E-3,1.4869987E-2,8.924733E-3],"categories":[],"categories_nodes":[],"categories_segments":[],"categories_sizes":[],"default_left":[0,0,0,0,0,0,0,0,0,0,0,0,0,0,0,0,0,0,0,0,0,0,0,0,0,0,0,0,0,0,0,0,0,0,0,0,0,0,0],"id":12,"left_children":[1,3,5,7,-1,9,11,13,15,17,19,-1,21,23,-1,25,27,29,31,33,35,-1,37,-1,-1,-1,-1,-1,-1,-1,-1,-1,-1,-1,-1,-1,-1,-1,-1],"loss_changes":[3.511522E2,6.3553772E1,7.925673E1,3.6671112E1,0E0,4.6731026E1,2.4844559E1,1.1426025E1,3.5029095E1,3.6020798E1,2.9054764E1,0E0,1.3723282E1,1.1909058E1,0E0,1.7204412E1,1.8968384E1,2.1978855E1,2.7847374E1,1.3098942E1,1.963291E1,0E0,7.9854584E0,0E0,0E0,0E0,0E0,0E0,0E0,0E0,0E0,0E0,0E0,0E0,0E0,0E0,0E0,0E0,0E0],"parents":[2147483647,0,0,1,1,2,2,3,3,5,5,6,6,7,7,8,8,9,9,10,10,12,12,13,13,15,15,16,16,17,17,18,18,19,19,20,20,22,22],"right_children":[2,4,6,8,-1,10,12,14,16,18,20,-1,22,24,-1,26,28,30,32,34,36,-1,38,-1,-1,-1,-1,-1,-1,-1,-1,-1,-1,-1,-1,-1,-1,-1,-1],"split_conditions":[2.0992647E-1,1.0187129E-2,2.1634035E-2,2.4551764E-2,6.7131263E-3,1.0232051E-1,-3.801022E-2,4.2039376E-2,-1.229116E-1,-2.9429825E-2,7.535506E-3,1.4159214E-4,-7.2299115E-2,6.2112745E-2,-2.6759387E-3,-1.3564096E-2,3.1402964E-2,-3.136746E-2,-1.3035408E-1,1.067923E-1,1.0354478E-1,2.9436995E-3,3.750772E-2,-1.3529682E-2,-5.413671E-3,-2.4775632E-3,9.866882E-3,-1.1043126E-3,-1.0299404E-2,-4.7159605E-3,7.664776E-3,-5.2444395E-3,6.2381704E-3,-1.3387135E-2,-1.7670282E-3,-3.0744604E-3,8.5715195E-3,1.4869987E-2,8.924733E-3],"split_indices":[690,26,641,105,0,23,1106,1278,40,854,79,0,140,949,0,1,1068,696,1000,788,1030,0,486,0,0,0,0,0,0,0,0,0,0,0,0,0,0,0,0],"split_type":[0,0,0,0,0,0,0,0,0,0,0,0,0,0,0,0,0,0,0,0,0,0,0,0,0,0,0,0,0,0,0,0,0,0,0,0,0,0,0],"sum_hessian":[1.0415239E3,3.819977E2,6.5952625E2,3.5596732E2,2.60304E1,4.735495E2,1.8597672E2,1.9976193E2,1.5620537E2,3.7021567E2,1.0333382E2,2.36927E1,1.6228401E2,1.8447485E2,1.5287077E1,4.1108387E1,1.15096985E2,8.00715E1,2.9014417E2,4.4267944E1,5.9065876E1,2.0758547E1,1.4152547E2,1.5666064E2,2.7814213E1,2.506725E1,1.6041138E1,3.1903503E1,8.319348E1,6.494681E1,1.5124699E1,2.060175E1,2.6954242E2,2.842541E1,1.5842535E1,4.052583E1,1.8540047E1,7.311266E1,6.84128E1],"tree_param":{"num_deleted":"0","num_feature":"1280","num_nodes":"39","size_leaf_vector":"1"}},{"base_weights":[-1.1643492E-2,-8.523461E-1,3.340205E-1,-1.0388659E0,-1.3088842E-1,1.3470641E-1,9.01929E-1,-1.142856E0,3.0357484E-4,7.1249376E-3,-4.502021E-1,5.365297E-1,-1.0688964E-1,1.0522536E0,-1.3534001E-3,-1.4637941E-2,-8.752943E-1,1.1234168E-3,-1.2484001E-2,6.623167E-1,-7.4304636E-3,-5.586806E-1,1.6982912E-1,1.1519767E0,9.752521E-4,-1.0064545E-2,4.2160516E-4,7.871365E-3,-5.6408313E-3,-9.379312E-3,-1.7434217E-3,-3.957443E-3,3.7154173E-3,1.2671339E-2,1.2190874E-3],"categories":[],"categories_nodes":[],"categories_segments":[],"categories_sizes":[],"default_left":[0,0,0,0,0,0,0,0,0,0,0,0,0,0,0,0,0,0,0,0,0,0,0,0,0,0,0,0,0,0,0,0,0,0,0],"id":13,"left_children":[1,3,5,7,9,11,13,15,-1,-1,17,19,21,23,-1,-1,25,-1,-1,27,-1,29,31,33,-1,-1,-1,-1,-1,-1,-1,-1,-1,-1,-1],"loss_changes":[3.0515945E2,4.0705505E1,8.382487E1,2.708908E1,1.8991388E1,5.4065E1,3.051735E1,1.419696E1,0E0,0E0,2.292729E1,3.5201042E1,4.40047E1,1.5689575E1,0E0,0E0,1.4929634E1,0E0,0E0,2.9879753E1,0E0,1.8706856E1,2.5192759E1,1.6559067E1,0E0,0E0,0E0,0E0,0E0,0E0,0E0,0E0,0E0,0E0,0E0],"parents":[2147483647,0,0,1,1,2,2,3,3,4,4,5,5,6,6,7,7,10,10,11,11,12,12,13,13,16,16,19,19,21,21,22,22,23,23],"right_children":[2,4,6,8,10,12,14,16,-1,-1,18,20,22,24,-1,-1,26,-1,-1,28,-1,30,32,34,-1,-1,-1,-1,-1,-1,-1,-1,-1,-1,-1],"split_conditions":[-1.2708531E-2,1.1245513E-1,2.1634035E-2,1.5062819E-2,1.0229758E-2,-9.446907E-2,-4.067449E-3,2.284377E-2,3.0357484E-4,7.1249376E-3,-8.990434E-2,-2.4776485E-2,-4.0449016E-2,4.6542138E-2,-1.3534001E-3,-1.4637941E-2,-1.1301084E-1,1.1234168E-3,-1.2484001E-2,-2.4627252E-2,-7.4304636E-3,-5.0406564E-2,-1.5971597E-1,-1.1158587E-2,9.752521E-4,-1.0064545E-2,4.2160516E-4,7.871365E-3,-5.6408313E-3,-9.379312E-3,-1.7434217E-3,-3.957443E-3,3.7154173E-3,1.2671339E-2,1.2190874E-3],"split_indices":[1182,942,641,716,664,885,983,28,0,0,936,427,233,392,0,0,1139,0,0,623,0,568,1020,362,0,0,0,0,0,0,0,0,0,0,0],"split_type":[0,0,0,0,0,0,0,0,0,0,0,0,0,0,0,0,0,0,0,0,0,0,0,0,0,0,0,0,0,0,0,0,0,0,0],"sum_hessian":[1.0433346E3,3.0253033E2,7.4080426E2,2.3918906E2,6.334128E1,5.514825E2,1.8932176E2,2.1777034E2,2.1418718E1,1.6301567E1,4.7039715E1,2.055086E2,3.4597388E2,1.6529855E2,2.4023214E1,9.328795E1,1.2448239E2,2.9229895E1,1.7809818E1,1.8856055E2,1.6948055E1,1.30093E2,2.1588087E2,1.4903577E2,1.6262781E1,1.09168274E2,1.5314119E1,1.7273427E2,1.5826273E1,6.350232E1,6.659068E1,5.564079E1,1.6024008E2,1.3412668E2,1.4909085E1],"tree_param":{"num_deleted":"0","num_feature":"1280","num_nodes":"35","size_leaf_vector":"1"}},{"base_weights":[1.9549225E-2,-7.295835E-1,4.438095E-1,-1.0149248E0,-1.00068755E-1,2.0892249E-1,1.0316502E0,2.906326E-4,-1.0805223E0,-4.3919152E-1,8.493816E-1,3.712965E-1,-3.7342665E-1,-1.3010148E-3,1.208748E0,-3.8523653E-3,-1.1696374E0,5.092879E-3,-6.697729E-1,1.9139614E-3,1.3566756E-2,6.296968E-1,-7.872445E-2,7.145209E-3,-6.0811937E-1,5.788965E-1,1.3670707E0,-1.2498492E-2,-2.5606167E-3,-9.720765E-3,6.821779E-4,7.4625937E-3,-6.0970406E-3,5.754971E-3,-4.7684573E-3,-1.2232865E-2,-1.015123E-3,1.0987149E-2,5.810219E-5,1.4783909E-2,5.0961566E-3],"categories":[],"categories_nodes":[],"categories_segments":[],"categories_sizes":[],"default_left":[0,0,0,0,0,0,0,0,0,0,0,0,0,0,0,0,0,0,0,0,0,0,0,0,0,0,0,0,0,0,0,0,0,0,0,0,0,0,0,0,0],"id":14,"left_children":[1,3,5,7,9,11,13,-1,15,17,19,21,23,-1,25,-1,27,-1,29,-1,-1,31,33,-1,35,37,39,-1,-1,-1,-1,-1,-1,-1,-1,-1,-1,-1,-1,-1,-1],"loss_changes":[3.298105E2,6.7054794E1,9.072603E1,1.7760925E1,4.0177914E1,4.56325E1,3.9243362E1,0E0,1.3546539E1,2.1067926E1,9.99085E0,4.379526E1,2.8408918E1,0E0,1.3616562E1,0E0,1.3342926E1,0E0,1.6644417E1,0E0,0E0,3.4816193E1,3.6976902E1,0E0,2.7015057E1,1.1413956E1,8.90332E0,0E0,0E0,0E0,0E0,0E0,0E0,0E0,0E0,0E0,0E0,0E0,0E0,0E0,0E0],"parents":[2147483647,0,0,1,1,2,2,3,3,4,4,5,5,6,6,8,8,9,9,10,10,11,11,12,12,14,14,16,16,18,18,21,21,22,22,24,24,25,25,26,26],"right_children":[2,4,6,8,10,12,14,-1,16,18,20,22,24,-1,26,-1,28,-1,30,-1,-1,32,34,-1,36,38,40,-1,-1,-1,-1,-1,-1,-1,-1,-1,-1,-1,-1,-1,-1],"split_conditions":[2.0992647E-1,4.3936282E-2,2.1634035E-2,2.1397253E-3,1.3081472E-1,-5.6803823E-2,-7.2299115E-2,2.906326E-4,-9.176381E-3,-1.3919249E-1,1.0702698E-2,-6.342787E-2,-2.4593547E-2,-1.3010148E-3,2.7583478E-2,-3.8523653E-3,3.0318186E-1,5.092879E-3,-5.313933E-3,1.9139614E-3,1.3566756E-2,9.3262E-2,-4.6277553E-2,7.145209E-3,8.226424E-2,2.9253678E-2,6.314798E-2,-1.2498492E-2,-2.5606167E-3,-9.720765E-3,6.821779E-4,7.4625937E-3,-6.0970406E-3,5.754971E-3,-4.7684573E-3,-1.2232865E-2,-1.015123E-3,1.0987149E-2,5.810219E-5,1.4783909E-2,5.0961566E-3],"split_indices":[690,105,641,1068,870,1272,140,0,59,162,642,885,155,0,761,0,583,0,705,0,0,692,727,0,942,843,96,0,0,0,0,0,0,0,0,0,0,0,0,0,0],"split_type":[0,0,0,0,0,0,0,0,0,0,0,0,0,0,0,0,0,0,0,0,0,0,0,0,0,0,0,0,0,0,0,0,0,0,0,0,0,0,0,0,0],"sum_hessian":[1.0308057E3,3.7181628E2,6.589893E2,2.5440825E2,1.1740804E2,4.741584E2,1.8483096E2,1.5155324E1,2.3925291E2,8.7862015E1,2.9546026E1,3.717447E2,1.0241368E2,2.4582516E1,1.6024846E2,2.9166225E1,2.1008669E2,1.6418522E1,7.14435E1,1.4788459E1,1.4757567E1,2.3528227E2,1.3646243E2,1.6989052E1,8.542463E1,3.5385567E1,1.24862885E2,1.9325903E2,1.6827658E1,5.016008E1,2.1283415E1,2.1686641E2,1.8415861E1,5.099687E1,8.546556E1,3.664215E1,4.8782482E1,1.7016893E1,1.8368671E1,1.0925097E2,1.561192E1],"tree_param":{"num_deleted":"0","num_feature":"1280","num_nodes":"41","size_leaf_vector":"1"}},{"base_weights":[1.4172235E-2,4.7302854E-1,-7.6103616E-1,1.6030586E-1,9.8848784E-1,2.722868E-1,-8.795008E-1,6.4439815E-1,-4.9444966E-2,-1.5134985E-3,1.1113667E0,-4.0245024E-3,6.8859765E-3,-4.4361755E-1,-1.0603999E0,8.4647834E-1,-4.1214246E-3,-6.739934E-1,1.5132491E-1,1.2526873E0,1.5791239E-3,5.959473E-3,-7.208787E-1,-3.5092518E-1,-1.1958926E0,1.0239439E-2,-3.0800534E-4,-1.1673364E-2,-2.4487686E-3,1.0934564E-2,-3.118915E-4,1.3457779E-2,2.0513486E-3,9.335607E-4,-9.828711E-3,5.404099E-3,-8.873353E-3,-1.3006379E-2,-3.5019973E-3],"categories":[],"categories_nodes":[],"categories_segments":[],"categories_sizes":[],"default_left":[0,0,0,0,0,0,0,0,0,0,0,0,0,0,0,0,0,0,0,0,0,0,0,0,0,0,0,0,0,0,0,0,0,0,0,0,0,0,0],"id":15,"left_children":[1,3,5,7,9,11,13,15,17,-1,19,-1,-1,21,23,25,-1,27,29,31,-1,-1,33,35,37,-1,-1,-1,-1,-1,-1,-1,-1,-1,-1,-1,-1,-1,-1],"loss_changes":[3.6906686E2,1.04509705E2,4.8046387E1,4.170878E1,3.492273E1,1.2681116E1,2.5748993E1,2.7628521E1,3.6588406E1,0E0,2.9256409E1,0E0,0E0,3.239215E1,2.1898865E1,1.6009163E1,0E0,1.3912201E1,3.794482E1,1.650299E1,0E0,0E0,1.8391106E1,2.23032E1,1.5289612E1,0E0,0E0,0E0,0E0,0E0,0E0,0E0,0E0,0E0,0E0,0E0,0E0,0E0,0E0],"parents":[2147483647,0,0,1,1,2,2,3,3,4,4,5,5,6,6,7,7,8,8,10,10,13,13,14,14,15,15,17,17,18,18,19,19,22,22,23,23,24,24],"right_children":[2,4,6,8,10,12,14,16,18,-1,20,-1,-1,22,24,26,-1,28,30,32,-1,-1,34,36,38,-1,-1,-1,-1,-1,-1,-1,-1,-1,-1,-1,-1,-1,-1],"split_conditions":[1.274608E-2,9.909081E-3,3.0885752E-2,-1.6806025E-2,3.6306232E-2,4.241867E-2,7.524127E-2,4.7687504E-2,9.6061416E-2,-1.5134985E-3,3.430558E-2,-4.0245024E-3,6.8859765E-3,-6.333358E-2,-1.1276355E-3,2.0943697E-1,-4.1214246E-3,8.903986E-2,5.8881603E-3,3.5399962E-2,1.5791239E-3,5.959473E-3,-8.63565E-3,-2.0262424E-2,6.4531714E-3,1.0239439E-2,-3.0800534E-4,-1.1673364E-2,-2.4487686E-3,1.0934564E-2,-3.118915E-4,1.3457779E-2,2.0513486E-3,9.335607E-4,-9.828711E-3,5.404099E-3,-8.873353E-3,-1.3006379E-2,-3.5019973E-3],"split_indices":[888,641,273,1029,1090,858,826,1105,505,0,1045,0,0,447,1266,754,0,541,1198,1127,0,0,764,306,8,0,0,0,0,0,0,0,0,0,0,0,0,0,0],"split_type":[0,0,0,0,0,0,0,0,0,0,0,0,0,0,0,0,0,0,0,0,0,0,0,0,0,0,0,0,0,0,0,0,0,0,0,0,0,0,0],"sum_hessian":[1.030677E3,6.4828204E2,3.8239496E2,4.062779E2,2.4200414E2,3.8874077E1,3.4352087E2,1.2067853E2,2.855994E2,2.348956E1,2.1851457E2,1.4822593E1,2.4051483E1,1.0421267E2,2.3930821E2,1.01835945E2,1.8842577E1,6.7516716E1,2.1808267E2,1.8939726E2,2.9117317E1,2.1171944E1,8.304072E1,4.0340714E1,1.989675E2,8.4658516E1,1.7177431E1,2.893854E1,3.8578175E1,3.277652E1,1.8530615E2,1.7412987E2,1.5267388E1,2.0454287E1,6.2586437E1,1.5091598E1,2.5249117E1,1.767068E2,2.2260685E1],"tree_param":{"num_deleted":"0","num_feature":"1280","num_nodes":"39","size_leaf_vector":"1"}},{"base_weights":[-1.3504101E-2,-7.088095E-1,4.140317E-1,-9.408415E-1,-7.956007E-2,1.3217694E-1,7.8928536E-1,-1.0208106E0,5.439485E-4,-3.4495017E-1,7.2844047E-3,-2.2429083E-1,4.0268108E-1,9.158316E-1,-6.1982878E-2,-1.095664E0,-5.1585375E-5,-7.388069E-1,4.0716296E-3,2.0074525E-1,-5.902698E-1,-3.2249963E-1,6.114348E-1,9.927249E-1,-9.6804695E-4,7.335339E-3,-7.483256E-3,-3.5250047E-3,-1.1817938E-2,-1.1890441E-2,-2.9975448E-3,6.603518E-3,-4.2082574E-3,3.811542E-4,-8.992232E-3,-1.001316E-2,5.1789973E-3,9.431684E-3,2.3937915E-3,1.1841891E-2,5.914143E-3],"categories":[],"categories_nodes":[],"categories_segments":[],"categories_sizes":[],"default_left":[0,0,0,0,0,0,0,0,0,0,0,0,0,0,0,0,0,0,0,0,0,0,0,0,0,0,0,0,0,0,0,0,0,0,0,0,0,0,0,0,0],"id":16,"left_children":[1,3,5,7,9,11,13,15,-1,17,-1,19,21,23,25,27,-1,29,-1,31,33,35,37,39,-1,-1,-1,-1,-1,-1,-1,-1,-1,-1,-1,-1,-1,-1,-1,-1,-1],"loss_changes":[3.0380273E2,5.655635E1,6.658541E1,2.2782837E1,2.4026428E1,3.5556526E1,2.9364914E1,1.9976776E1,0E0,2.5819489E1,0E0,2.5279057E1,3.232123E1,1.869101E1,2.2525211E1,1.3209869E1,0E0,9.80237E0,0E0,2.2569294E1,1.6710754E1,2.9390682E1,1.9189957E1,1.409639E1,0E0,0E0,0E0,0E0,0E0,0E0,0E0,0E0,0E0,0E0,0E0,0E0,0E0,0E0,0E0,0E0,0E0],"parents":[2147483647,0,0,1,1,2,2,3,3,4,4,5,5,6,6,7,7,9,9,11,11,12,12,13,13,14,14,15,15,17,17,19,19,20,20,21,21,22,22,23,23],"right_children":[2,4,6,8,10,12,14,16,-1,18,-1,20,22,24,26,28,-1,30,-1,32,34,36,38,40,-1,-1,-1,-1,-1,-1,-1,-1,-1,-1,-1,-1,-1,-1,-1,-1,-1],"split_conditions":[8.268877E-2,4.5454286E-2,1.6059267E-3,1.5883106E-1,7.086159E-2,-4.16491E-2,1.0540083E-1,2.4859863E-3,5.439485E-4,4.4309475E-2,7.2844047E-3,4.614001E-2,-3.401954E-2,5.690791E-2,-3.3381246E-2,-4.3898118E-1,-5.1585375E-5,3.5346434E-2,4.0716296E-3,2.5351055E-2,-2.4121588E-2,1.7655128E-1,1.0260914E-2,-8.7356643E-4,-9.6804695E-4,7.335339E-3,-7.483256E-3,-3.5250047E-3,-1.1817938E-2,-1.1890441E-2,-2.9975448E-3,6.603518E-3,-4.2082574E-3,3.811542E-4,-8.992232E-3,-1.001316E-2,5.1789973E-3,9.431684E-3,2.3937915E-3,1.1841891E-2,5.914143E-3],"split_indices":[1230,1175,641,742,70,637,23,379,0,598,0,1266,26,482,250,876,0,70,0,667,1153,491,215,966,0,0,0,0,0,0,0,0,0,0,0,0,0,0,0,0,0],"split_type":[0,0,0,0,0,0,0,0,0,0,0,0,0,0,0,0,0,0,0,0,0,0,0,0,0,0,0,0,0,0,0,0,0,0,0,0,0,0,0,0,0],"sum_hessian":[1.01519257E3,3.8569128E2,6.295013E2,2.8054865E2,1.0514263E2,3.621267E2,2.6737457E2,2.595951E2,2.0953554E1,8.052389E1,2.4618744E1,1.5648976E2,2.0563695E2,2.32546E2,3.4828564E1,2.4152605E2,1.8069054E1,5.2832176E1,2.7691715E1,7.311689E1,8.337288E1,4.5547974E1,1.6008897E2,2.1618764E2,1.635837E1,1.6014307E1,1.8814255E1,2.5236666E1,2.1628938E2,2.3441168E1,2.9391006E1,4.1985157E1,3.113173E1,2.8188028E1,5.518485E1,2.4887457E1,2.0660515E1,8.2584274E1,7.75047E1,1.4372823E2,7.2459404E1],"tree_param":{"num_deleted":"0","num_feature":"1280","num_nodes":"41","size_leaf_vector":"1"}},{"base_weights":[2.3444941E-2,4.2536592E-1,-6.4624643E-1,1.9565469E-1,9.4395715E-1,-8.907919E-1,-1.4241974E-1,-4.0057167E-1,3.6268774E-1,4.6823078E-1,1.2240916E0,-6.209395E-5,-9.8278254E-1,2.3813346E-1,-6.987071E-1,-7.797616E-1,3.059324E-1,4.2844725E-1,-8.004757E-3,8.070074E-1,-5.1817326E-3,1.3644114E-2,2.3672504E-3,-2.9086798E-1,-1.0958487E0,6.630174E-1,-3.1135008E-1,-1.1348385E-2,-2.6618017E-4,-1.0555909E-2,7.5868954E-4,-3.3351595E-3,7.91349E-3,6.109179E-3,-8.60035E-4,1.5504587E-3,1.2219661E-2,3.0985572E-3,-8.479445E-3,-1.1993792E-2,-2.583891E-3,1.0344164E-2,-7.5182546E-4,3.3442625E-3,-8.159083E-3],"categories":[],"categories_nodes":[],"categories_segments":[],"categories_sizes":[],"default_left":[0,0,0,0,0,0,0,0,0,0,0,0,0,0,0,0,0,0,0,0,0,0,0,0,0,0,0,0,0,0,0,0,0,0,0,0,0,0,0,0,0,0,0,0,0],"id":17,"left_children":[1,3,5,7,9,11,13,15,17,19,21,-1,23,25,27,29,31,33,-1,35,-1,-1,-1,37,39,41,43,-1,-1,-1,-1,-1,-1,-1,-1,-1,-1,-1,-1,-1,-1,-1,-1,-1,-1],"loss_changes":[2.7596075E2,7.56813E1,4.6950226E1,4.5138588E1,2.4129425E1,2.099562E1,2.803343E1,2.7530594E1,2.799247E1,2.74452E1,1.4873367E1,0E0,1.7210403E1,1.9285805E1,1.5395084E1,1.55038185E1,1.2338815E1,3.1088818E1,0E0,1.521125E1,0E0,0E0,0E0,1.3310295E1,1.52812195E1,1.2682184E1,1.2857287E1,0E0,0E0,0E0,0E0,0E0,0E0,0E0,0E0,0E0,0E0,0E0,0E0,0E0,0E0,0E0,0E0,0E0,0E0],"parents":[2147483647,0,0,1,1,2,2,3,3,4,4,5,5,6,6,7,7,8,8,9,9,10,10,12,12,13,13,14,14,15,15,16,16,17,17,19,19,23,23,24,24,25,25,26,26],"right_children":[2,4,6,8,10,12,14,16,18,20,22,-1,24,26,28,30,32,34,-1,36,-1,-1,-1,38,40,42,44,-1,-1,-1,-1,-1,-1,-1,-1,-1,-1,-1,-1,-1,-1,-1,-1,-1,-1],"split_conditions":[1.423532E-2,1.9220486E-2,2.9138932E-2,9.6564434E-2,6.938074E-2,-5.7739872E-2,8.513561E-2,1.0873514E-1,4.6631973E-2,9.2125535E-3,1.09196536E-1,-6.209395E-5,-7.942595E-2,1.5216231E-2,8.665096E-2,3.1846043E-2,1.0572422E-1,4.414425E-3,-8.004757E-3,7.937606E-2,-5.1817326E-3,1.3644114E-2,2.3672504E-3,-3.692303E-1,1.4616276E-1,4.641635E-2,8.579079E-2,-1.1348385E-2,-2.6618017E-4,-1.0555909E-2,7.5868954E-4,-3.3351595E-3,7.91349E-3,6.109179E-3,-8.60035E-4,1.5504587E-3,1.2219661E-2,3.0985572E-3,-8.479445E-3,-1.1993792E-2,-2.583891E-3,1.0344164E-2,-7.5182546E-4,3.3442625E-3,-8.159083E-3],"split_indices":[888,641,1047,505,82,155,826,1017,1046,810,646,0,795,543,329,759,610,925,0,856,0,0,0,876,742,246,318,0,0,0,0,0,0,0,0,0,0,0,0,0,0,0,0,0,0],"split_type":[0,0,0,0,0,0,0,0,0,0,0,0,0,0,0,0,0,0,0,0,0,0,0,0,0,0,0,0,0,0,0,0,0,0,0,0,0,0,0,0,0,0,0,0,0],"sum_hessian":[1.0183485E3,6.3718384E2,3.811647E2,4.4484485E2,1.92339E2,2.5484474E2,1.26319954E2,9.630514E1,3.485397E2,7.466705E1,1.1767194E2,2.4348417E1,2.3049632E2,7.616804E1,5.0151917E1,6.2439007E1,3.3866135E1,3.318656E2,1.6674086E1,5.599737E1,1.8669685E1,1.0255971E2,1.5112235E1,3.4089695E1,1.9640663E2,4.255596E1,3.3612076E1,2.9161005E1,2.0990913E1,4.6845802E1,1.5593205E1,1.5023912E1,1.884222E1,2.4555666E2,8.630895E1,2.337477E1,3.26226E1,1.7083694E1,1.7006002E1,1.7467352E2,2.1733112E1,2.754019E1,1.5015771E1,1.5196979E1,1.8415098E1],"tree_param":{"num_deleted":"0","num_feature":"1280","num_nodes":"45","size_leaf_vector":"1"}},{"base_weights":[9.9749975E-3,-8.448531E-1,3.7742254E-1,-1.056419E0,-1.8523976E-1,1.0593423E-1,7.662412E-1,-1.2212074E0,-5.814078E-1,6.7219664E-3,-6.0495067E-1,-5.59537E-2,6.0493493E-1,1.3361216E-1,9.32982E-1,-5.59993E-3,-1.3264559E-2,3.0757228E-3,-8.9023536E-1,4.992614E-3,-1.1163311E-2,1.6106306E-1,-5.061214E-1,9.468184E-1,1.1144197E-1,-7.018941E-3,5.7049334E-1,3.6404454E-4,1.015336E0,-2.4012334E-3,-1.24973925E-2,2.6626755E-3,-8.286059E-3,-1.0122665E-2,-1.9569442E-4,1.2189098E-2,1.4511399E-3,-6.173612E-3,5.727438E-3,-7.648669E-4,9.135929E-3,6.0786232E-3,1.201853E-2],"categories":[],"categories_nodes":[],"categories_segments":[],"categories_sizes":[],"default_left":[0,0,0,0,0,0,0,0,0,0,0,0,0,0,0,0,0,0,0,0,0,0,0,0,0,0,0,0,0,0,0,0,0,0,0,0,0,0,0,0,0,0,0],"id":18,"left_children":[1,3,5,7,9,11,13,15,17,-1,19,21,23,25,27,-1,-1,-1,29,-1,-1,31,33,35,37,-1,39,-1,41,-1,-1,-1,-1,-1,-1,-1,-1,-1,-1,-1,-1,-1,-1],"loss_changes":[3.271822E2,4.303264E1,7.661535E1,1.6076721E1,3.0126804E1,3.5086014E1,3.1108704E1,8.76358E0,1.940351E1,0E0,3.2839695E1,3.2516003E1,1.7579067E1,2.5475103E1,1.7304855E1,0E0,0E0,0E0,1.0687443E1,0E0,0E0,2.3797142E1,2.630334E1,1.27063675E1,1.6959059E1,0E0,1.0167711E1,0E0,1.3530518E1,0E0,0E0,0E0,0E0,0E0,0E0,0E0,0E0,0E0,0E0,0E0,0E0,0E0,0E0],"parents":[2147483647,0,0,1,1,2,2,3,3,4,4,5,5,6,6,7,7,8,8,10,10,11,11,12,12,13,13,14,14,18,18,21,21,22,22,23,23,24,24,26,26,28,28],"right_children":[2,4,6,8,10,12,14,16,18,-1,20,22,24,26,28,-1,-1,-1,30,-1,-1,32,34,36,38,-1,40,-1,42,-1,-1,-1,-1,-1,-1,-1,-1,-1,-1,-1,-1,-1,-1],"split_conditions":[-2.6486835E-3,1.2112478E-1,1.6059267E-3,-5.9671886E-2,-1.2189827E-1,1.12225406E-1,-1.2393392E-2,-3.6651928E-2,-6.8779595E-2,6.7219664E-3,2.7067998E-2,-3.1919967E-2,-4.838835E-3,8.841575E-2,-8.32805E-2,-5.59993E-3,-1.3264559E-2,3.0757228E-3,6.7483075E-2,4.992614E-3,-1.1163311E-2,8.0270305E-2,1.125804E-2,1.491372E-1,1.3080391E-1,-7.018941E-3,-4.902307E-2,3.6404454E-4,7.5185564E-3,-2.4012334E-3,-1.24973925E-2,2.6626755E-3,-8.286059E-3,-1.0122665E-2,-1.9569442E-4,1.2189098E-2,1.4511399E-3,-6.173612E-3,5.727438E-3,-7.648669E-4,9.135929E-3,6.0786232E-3,1.201853E-2],"split_indices":[1182,32,641,744,40,1017,638,1044,774,0,933,344,163,1175,144,0,0,0,874,0,0,1105,807,377,1156,0,513,0,903,0,0,0,0,0,0,0,0,0,0,0,0,0,0],"split_type":[0,0,0,0,0,0,0,0,0,0,0,0,0,0,0,0,0,0,0,0,0,0,0,0,0,0,0,0,0,0,0,0,0,0,0,0,0,0,0,0,0,0,0],"sum_hessian":[1.0347493E3,3.0973767E2,7.250116E2,2.329615E2,7.677618E1,4.2947992E2,2.955317E2,1.6897423E2,6.3987274E1,2.4630688E1,5.2145485E1,3.2656735E2,1.02912575E2,6.2928936E1,2.3260275E2,2.4763786E1,1.4421045E2,1.6527313E1,4.7459957E1,1.6424723E1,3.5720764E1,2.218246E2,1.0474276E2,5.8940674E1,4.39719E1,2.096376E1,4.1965176E1,1.9978132E1,2.1262463E2,1.869944E1,2.8760519E1,2.0293697E2,1.8887629E1,4.9810226E1,5.493253E1,4.2959225E1,1.5981449E1,1.6573378E1,2.7398523E1,1.532887E1,2.6636305E1,6.944624E1,1.4317839E2],"tree_param":{"num_deleted":"0","num_feature":"1280","num_nodes":"43","size_leaf_vector":"1"}},{"base_weights":[-1.550468E-2,-8.010872E-1,3.4919792E-1,-9.088965E-1,2.566154E-1,1.5138163E-1,8.757148E-1,-3.679558E-1,-1.1285524E0,-4.1105063E-3,8.8174995E-3,3.0021763E-1,-3.6660042E-1,-6.7135476E-4,1.0251335E0,-7.5708103E-1,2.666238E-1,-1.2172084E0,-1.2509471E-3,3.9062658E-1,-9.662917E-3,2.0764327E-1,-8.2858056E-1,1.5595366E-3,1.1381885E0,-8.1534096E-4,-1.0343501E-2,7.670283E-3,-3.8383869E-3,-1.3014403E-2,-3.1625535E-3,5.469473E-3,-3.2475782E-3,-7.39012E-3,7.0682853E-3,-1.1138301E-2,-7.0970115E-4,1.2550229E-2,4.080502E-3],"categories":[],"categories_nodes":[],"categories_segments":[],"categories_sizes":[],"default_left":[0,0,0,0,0,0,0,0,0,0,0,0,0,0,0,0,0,0,0,0,0,0,0,0,0,0,0,0,0,0,0,0,0,0,0,0,0,0,0],"id":19,"left_children":[1,3,5,7,9,11,13,15,17,-1,-1,19,21,-1,23,25,27,29,-1,31,-1,33,35,-1,37,-1,-1,-1,-1,-1,-1,-1,-1,-1,-1,-1,-1,-1,-1],"loss_changes":[2.9578598E2,3.811963E1,7.2993324E1,3.396382E1,1.483304E1,4.0212284E1,2.7254639E1,2.3177155E1,1.818805E1,0E0,0E0,4.7279285E1,3.1592773E1,0E0,1.5706085E1,1.0257858E1,1.2955339E1,1.2105469E1,0E0,4.2103485E1,0E0,2.7391533E1,1.3602798E1,0E0,1.0092346E1,0E0,0E0,0E0,0E0,0E0,0E0,0E0,0E0,0E0,0E0,0E0,0E0,0E0,0E0],"parents":[2147483647,0,0,1,1,2,2,3,3,4,4,5,5,6,6,7,7,8,8,11,11,12,12,14,14,15,15,16,16,17,17,19,19,21,21,22,22,24,24],"right_children":[2,4,6,8,10,12,14,16,18,-1,-1,20,22,-1,24,26,28,30,-1,32,-1,34,36,-1,38,-1,-1,-1,-1,-1,-1,-1,-1,-1,-1,-1,-1,-1,-1],"split_conditions":[3.2677492E-3,5.0460577E-2,2.1634035E-2,1.06426865E-1,-4.557942E-2,-3.0642835E-2,-7.067753E-2,2.0864572E-2,6.4531714E-3,-4.1105063E-3,8.8174995E-3,1.2670013E-1,-1.3205006E-2,-6.7135476E-4,1.408867E-2,2.433219E-2,-3.146296E-2,7.708085E-2,-1.2509471E-3,7.079813E-2,-9.662917E-3,-6.105766E-2,5.2945524E-2,1.5595366E-3,1.5535043E-1,-8.1534096E-4,-1.0343501E-2,7.670283E-3,-3.8383869E-3,-1.3014403E-2,-3.1625535E-3,5.469473E-3,-3.2475782E-3,-7.39012E-3,7.0682853E-3,-1.1138301E-2,-7.0970115E-4,1.2550229E-2,4.080502E-3],"split_indices":[1182,773,641,701,601,223,140,981,8,0,0,89,130,0,1056,331,567,865,0,493,0,871,590,0,1030,0,0,0,0,0,0,0,0,0,0,0,0,0,0],"split_type":[0,0,0,0,0,0,0,0,0,0,0,0,0,0,0,0,0,0,0,0,0,0,0,0,0,0,0,0,0,0,0,0,0,0,0,0,0,0,0],"sum_hessian":[1.0256442E3,3.238884E2,7.0175574E2,2.943651E2,2.952327E1,5.133032E2,1.8845251E2,8.765075E1,2.0671437E2,1.4808385E1,1.4714884E1,3.998481E2,1.1345511E2,2.6046295E1,1.6240622E2,5.3924526E1,3.372622E1,1.8927702E2,1.7437351E1,3.7531128E2,2.4536835E1,5.1420414E1,6.2034695E1,1.961012E1,1.427961E2,1.6745684E1,3.7178844E1,1.875977E1,1.496645E1,1.7292288E2,1.6354149E1,3.09536E2,6.57753E1,1.7146149E1,3.4274265E1,4.416542E1,1.7869274E1,1.2198581E2,2.0810286E1],"tree_param":{"num_deleted":"0","num_feature":"1280","num_nodes":"39","size_leaf_vector":"1"}},{"base_weights":[-1.6436927E-2,-8.556546E-1,3.159119E-1,-9.42141E-1,2.9136082E-3,7.10503E-2,8.36421E-1,-1.0364007E0,3.470216E-3,8.0656093E-1,-6.865335E-2,9.785921E-1,-1.5470901E-3,-1.2030138E0,-4.9399015E-1,1.1220907E0,-4.6047606E-3,2.0608702E-1,-3.587236E-1,1.0574545E0,-3.229704E-4,-1.3113261E-2,-5.746989E-3,-9.76982E-3,1.728883E-3,1.3160985E-2,4.2363745E-3,-4.4175764E-3,3.9683534E-3,-1.1090397E-2,-1.0925235E-3,1.3677689E-2,8.313841E-3],"categories":[],"categories_nodes":[],"categories_segments":[],"categories_sizes":[],"default_left":[0,0,0,0,0,0,0,0,0,0,0,0,0,0,0,0,0,0,0,0,0,0,0,0,0,0,0,0,0,0,0,0,0],"id":20,"left_children":[1,3,5,7,-1,9,11,13,-1,15,17,19,-1,21,23,25,-1,27,29,31,-1,-1,-1,-1,-1,-1,-1,-1,-1,-1,-1,-1,-1],"loss_changes":[2.868089E2,2.983197E1,9.36943E1,3.42321E1,0E0,5.2055157E1,3.3655624E1,2.0952515E1,0E0,3.4015236E1,3.430894E1,1.6559525E1,0E0,9.78067E0,2.1442694E1,6.7345734E0,0E0,2.7597988E1,3.8525288E1,9.530151E0,0E0,0E0,0E0,0E0,0E0,0E0,0E0,0E0,0E0,0E0,0E0,0E0,0E0],"parents":[2147483647,0,0,1,1,2,2,3,3,5,5,6,6,7,7,9,9,10,10,11,11,13,13,14,14,15,15,17,17,18,18,19,19],"right_children":[2,4,6,8,-1,10,12,14,-1,16,18,20,-1,22,24,26,-1,28,30,32,-1,-1,-1,-1,-1,-1,-1,-1,-1,-1,-1,-1,-1],"split_conditions":[-1.1302386E-2,9.330005E-2,1.3485005E-2,3.4807637E-2,2.9136082E-3,-1.365868E-1,-4.894652E-3,1.2297283E-1,3.470216E-3,2.525658E-1,-3.0875973E-2,6.0336396E-2,-1.5470901E-3,2.2609258E-1,-8.6632736E-2,2.0877533E-2,-4.6047606E-3,-1.4818419E-3,-1.98539E-2,-5.764009E-2,-3.229704E-4,-1.3113261E-2,-5.746989E-3,-9.76982E-3,1.728883E-3,1.3160985E-2,4.2363745E-3,-4.4175764E-3,3.9683534E-3,-1.1090397E-2,-1.0925235E-3,1.3677689E-2,8.313841E-3],"split_indices":[1182,1027,641,1028,0,885,983,742,0,1196,707,951,0,370,544,1058,0,10,646,277,0,0,0,0,0,0,0,0,0,0,0,0,0],"split_type":[0,0,0,0,0,0,0,0,0,0,0,0,0,0,0,0,0,0,0,0,0,0,0,0,0,0,0,0,0,0,0,0,0],"sum_hessian":[1.02158105E3,2.8827484E2,7.333062E2,2.6860236E2,1.9672487E1,5.0134384E2,2.3196236E2,2.5089844E2,1.7703928E1,7.7422134E1,4.2392172E2,2.0287822E2,2.9084131E1,1.8875636E2,6.2142067E1,6.2271286E1,1.5150845E1,2.1822191E2,2.0569981E2,1.8804771E2,1.483051E1,1.5943909E2,2.931728E1,3.5262463E1,2.6879604E1,4.679213E1,1.5479159E1,4.8335888E1,1.6988602E2,4.8773186E1,1.5692664E2,7.391435E1,1.1413336E2],"tree_param":{"num_deleted":"0","num_feature":"1280","num_nodes":"33","size_leaf_vector":"1"}},{"base_weights":[4.2418198E-4,-7.3478967E-1,4.294187E-1,-9.128516E-1,-1.921596E-1,1.6327131E-1,8.305315E-1,2.7805266E-3,-1.0302491E0,3.560102E-1,-6.932936E-1,5.2937764E-1,-2.4518469E-1,9.210254E-1,-4.3043853E-3,-9.447508E-4,-1.1295264E0,8.688568E-3,-1.4497029E-3,-1.0842198E-2,8.8859134E-4,6.5167403E-1,-6.6635907E-3,-1.1944043E-1,-1.3412644E-2,1.1800952E0,5.167572E-1,-1.1998427E-2,-1.995014E-3,8.088732E-3,-2.5192855E-3,1.0269355E-3,-6.4700097E-3,1.3193003E-2,1.8350336E-4,-6.3311827E-4,9.227671E-3],"categories":[],"categories_nodes":[],"categories_segments":[],"categories_sizes":[],"default_left":[0,0,0,0,0,0,0,0,0,0,0,0,0,0,0,0,0,0,0,0,0,0,0,0,0,0,0,0,0,0,0,0,0,0,0,0,0],"id":21,"left_children":[1,3,5,7,9,11,13,-1,15,17,19,21,23,25,-1,-1,27,-1,-1,-1,-1,29,-1,31,-1,33,35,-1,-1,-1,-1,-1,-1,-1,-1,-1,-1],"loss_changes":[3.2481534E2,3.606697E1,6.896572E1,4.0746033E1,2.7788586E1,5.9541866E1,3.0801895E1,0E0,2.3799469E1,1.2914642E1,1.6113035E1,3.2023754E1,2.5360584E1,2.3294525E1,0E0,0E0,1.3222473E1,0E0,0E0,0E0,0E0,2.7171959E1,0E0,2.0360846E1,0E0,2.2240616E1,2.3630014E1,0E0,0E0,0E0,0E0,0E0,0E0,0E0,0E0,0E0,0E0],"parents":[2147483647,0,0,1,1,2,2,3,3,4,4,5,5,6,6,8,8,9,9,10,10,11,11,12,12,13,13,16,16,21,21,23,23,25,25,26,26],"right_children":[2,4,6,8,10,12,14,-1,16,18,20,22,24,26,-1,-1,28,-1,-1,-1,-1,30,-1,32,-1,34,36,-1,-1,-1,-1,-1,-1,-1,-1,-1,-1],"split_conditions":[7.9987556E-2,8.141995E-2,7.0256367E-3,-2.8159674E-2,1.0368759E-2,-8.16859E-2,7.091142E-2,2.7805266E-3,-6.413437E-2,-4.65637E-2,-7.849918E-3,2.9677588E-1,1.297038E-1,-6.614455E-2,-4.3043853E-3,-9.447508E-4,7.332053E-2,8.688568E-3,-1.4497029E-3,-1.0842198E-2,8.8859134E-4,-1.2150316E-2,-6.6635907E-3,1.6662816E-2,-1.3412644E-2,-8.634912E-2,2.0818025E-2,-1.1998427E-2,-1.995014E-3,8.088732E-3,-2.5192855E-3,1.0269355E-3,-6.4700097E-3,1.3193003E-2,1.8350336E-4,-6.3311827E-4,9.227671E-3],"split_indices":[1230,309,641,933,71,885,951,0,405,187,156,1196,506,715,0,0,50,0,0,0,0,524,0,231,0,629,842,0,0,0,0,0,0,0,0,0,0],"split_type":[0,0,0,0,0,0,0,0,0,0,0,0,0,0,0,0,0,0,0,0,0,0,0,0,0,0,0,0,0,0,0,0,0,0,0,0,0],"sum_hessian":[1.02300793E3,3.7606662E2,6.469413E2,2.8139627E2,9.467037E1,3.9178854E2,2.5515276E2,2.4861454E1,2.565348E2,4.568593E1,4.898444E1,2.0607146E2,1.8571707E2,2.3889536E2,1.6257404E1,2.5231943E1,2.3130286E2,2.1423937E1,2.4261993E1,3.1939024E1,1.7045416E1,1.8830666E2,1.77648E1,1.698958E2,1.5821278E1,1.4159724E2,9.729812E1,2.1547809E2,1.5824777E1,1.6130927E2,2.6997395E1,1.2135099E2,4.85448E1,1.26704994E2,1.4892241E1,4.0979237E1,5.6318882E1],"tree_param":{"num_deleted":"0","num_feature":"1280","num_nodes":"37","size_leaf_vector":"1"}},{"base_weights":[1.8176816E-2,4.145725E-1,-6.6268474E-1,5.5573606E-1,-2.9411724E-1,-8.3418375E-1,4.7032535E-2,8.0382705E-1,2.1516798E-1,3.2981348E-1,-6.5638447E-1,-9.263158E-1,-1.4931728E-2,7.2509474E-1,-4.9640983E-1,9.505291E-1,1.3057917E-1,4.1332567E-1,-4.0328196E-1,8.408912E-3,-3.866226E-3,-1.2283165E-2,-1.9704935E-1,-6.311378E-4,-1.01836E0,6.203946E-3,-6.4362655E-3,1.7736303E-3,1.1226443E-2,1.6526906E-3,-8.9066485E-3,4.008304E-3,1.1095787E-2,1.0650506E-2,-2.7941882E-3,8.399826E-3,2.3481861E-4,-7.5925104E-3,1.48128E-3,2.9837992E-3,-8.002724E-3,-6.368315E-3,-1.1718936E-2],"categories":[],"categories_nodes":[],"categories_segments":[],"categories_sizes":[],"default_left":[0,0,0,0,0,0,0,0,0,0,0,0,0,0,0,0,0,0,0,0,0,0,0,0,0,0,0,0,0,0,0,0,0,0,0,0,0,0,0,0,0,0,0],"id":22,"left_children":[1,3,5,7,9,11,13,15,17,19,21,23,25,27,29,31,33,35,37,-1,-1,-1,39,-1,41,-1,-1,-1,-1,-1,-1,-1,-1,-1,-1,-1,-1,-1,-1,-1,-1,-1,-1],"loss_changes":[2.7538687E2,6.5065765E1,4.583789E1,4.4940414E1,2.5453594E1,2.2792847E1,2.9350021E1,3.0245209E1,2.8974289E1,1.6466228E1,1.7448277E1,2.1397125E1,1.4818027E1,6.92367E0,1.1930094E1,2.002951E1,2.359905E1,2.9124401E1,1.1620714E1,0E0,0E0,0E0,1.3497066E1,0E0,1.1417404E1,0E0,0E0,0E0,0E0,0E0,0E0,0E0,0E0,0E0,0E0,0E0,0E0,0E0,0E0,0E0,0E0,0E0,0E0],"parents":[2147483647,0,0,1,1,2,2,3,3,4,4,5,5,6,6,7,7,8,8,9,9,10,10,11,11,12,12,13,13,14,14,15,15,16,16,17,17,18,18,22,22,24,24],"right_children":[2,4,6,8,10,12,14,16,18,20,22,24,26,28,30,32,34,36,38,-1,-1,-1,40,-1,42,-1,-1,-1,-1,-1,-1,-1,-1,-1,-1,-1,-1,-1,-1,-1,-1,-1,-1],"split_conditions":[1.274608E-2,-4.067817E-2,-1.5421432E-2,3.334743E-2,-9.129727E-2,7.763079E-2,3.4838505E-2,5.3758632E-2,-4.7870047E-2,5.322047E-2,-8.1473455E-2,-1.24482214E-1,-8.365299E-3,-1.583728E-2,-1.1466422E-1,2.526337E-2,6.9744964E-3,1.9470355E-1,-6.483765E-2,8.408912E-3,-3.866226E-3,-1.2283165E-2,2.5096074E-2,-6.311378E-4,-2.5586661E-2,6.203946E-3,-6.4362655E-3,1.7736303E-3,1.1226443E-2,1.6526906E-3,-8.9066485E-3,4.008304E-3,1.1095787E-2,1.0650506E-2,-2.7941882E-3,8.399826E-3,2.3481861E-4,-7.5925104E-3,1.48128E-3,2.9837992E-3,-8.002724E-3,-6.368315E-3,-1.1718936E-2],"split_indices":[888,885,147,423,631,1115,1077,710,835,979,450,884,416,1193,40,1010,900,656,229,0,0,0,357,0,477,0,0,0,0,0,0,0,0,0,0,0,0,0,0,0,0,0,0],"split_type":[0,0,0,0,0,0,0,0,0,0,0,0,0,0,0,0,0,0,0,0,0,0,0,0,0,0,0,0,0,0,0,0,0,0,0,0,0,0,0,0,0,0,0],"sum_hessian":[1.0134696E3,6.413903E2,3.7207928E2,5.3546814E2,1.0592217E2,2.99184E2,7.289528E1,3.0710553E2,2.2836264E2,3.90216E1,6.690057E1,2.68538E2,3.0645983E1,3.192267E1,4.097261E1,2.5100397E2,5.6101555E1,1.7380656E2,5.4556084E1,2.2486773E1,1.6534828E1,2.7437202E1,3.946337E1,2.6420374E1,2.4211763E2,1.5262981E1,1.5383002E1,1.5364961E1,1.655771E1,1.5932223E1,2.5040386E1,5.728149E1,1.9372247E2,1.5473022E1,4.0628532E1,8.156025E1,9.2246315E1,3.2502598E1,2.2053486E1,2.2576408E1,1.6886961E1,7.213151E1,1.6998613E2],"tree_param":{"num_deleted":"0","num_feature":"1280","num_nodes":"43","size_leaf_vector":"1"}},{"base_weights":[1.0063255E-3,3.8395047E-1,-6.721638E-1,-2.2262652E-1,5.198706E-1,-2.2184475E-1,-9.455147E-1,-1.1160316E-2,2.9545723E-2,7.485784E-1,1.991561E-1,4.980734E-1,-5.09547E-1,-1.0877173E0,-6.497691E-2,-3.4539273E-1,6.378164E-1,3.2619846E-1,1.0138739E0,-8.5166115E-3,3.266793E-1,1.0392913E-2,-4.200666E-3,-8.6834294E-1,-5.342906E-3,-1.165939E0,-3.2492008E-3,-6.175145E-3,5.0089285E-3,2.5756168E-3,-6.6511137E-3,1.1685304E-2,-5.638936E-4,9.827339E-3,-4.0589392E-4,1.6335272E-3,1.1355983E-2,8.189053E-3,7.803196E-5,-1.551935E-3,-1.1064813E-2,-3.6797954E-3,6.137499E-3,-4.115318E-3,-1.247465E-2],"categories":[],"categories_nodes":[],"categories_segments":[],"categories_sizes":[],"default_left":[0,0,0,0,0,0,0,0,0,0,0,0,0,0,0,0,0,0,0,0,0,0,0,0,0,0,0,0,0,0,0,0,0,0,0,0,0,0,0,0,0,0,0,0,0],"id":23,"left_children":[1,3,5,7,9,11,13,-1,15,17,19,21,23,25,27,29,31,33,35,-1,37,-1,-1,39,41,43,-1,-1,-1,-1,-1,-1,-1,-1,-1,-1,-1,-1,-1,-1,-1,-1,-1,-1,-1],"loss_changes":[2.700794E2,5.5452293E1,4.6045883E1,2.8013348E1,3.9581573E1,3.1512932E1,2.9227448E1,0E0,2.3648754E1,3.4482544E1,3.193002E1,2.3064137E1,1.9413921E1,1.0815414E1,1.2298085E1,1.2821852E1,1.4600914E1,3.0621716E1,1.8481277E1,0E0,3.2575066E1,0E0,0E0,9.831848E0,1.145065E1,8.631851E0,0E0,0E0,0E0,0E0,0E0,0E0,0E0,0E0,0E0,0E0,0E0,0E0,0E0,0E0,0E0,0E0,0E0,0E0,0E0],"parents":[2147483647,0,0,1,1,2,2,3,3,4,4,5,5,6,6,8,8,9,9,10,10,11,11,12,12,13,13,14,14,15,15,16,16,17,17,18,18,20,20,23,23,24,24,25,25],"right_children":[2,4,6,8,10,12,14,-1,16,18,20,22,24,26,28,30,32,34,36,-1,38,-1,-1,40,42,44,-1,-1,-1,-1,-1,-1,-1,-1,-1,-1,-1,-1,-1,-1,-1,-1,-1,-1,-1],"split_conditions":[1.6727393E-2,7.621843E-2,8.817219E-2,-8.557833E-2,-7.126736E-2,4.970057E-2,2.6159834E-2,-1.1160316E-2,-1.329726E-1,2.4271917E-2,1.2241792E-2,8.633359E-2,-6.7520826E-3,3.949286E-2,1.6568905E-2,7.549032E-2,-5.6544166E-2,-1.2554653E-1,-1.6446786E-1,-8.5166115E-3,-2.912633E-2,1.0392913E-2,-4.200666E-3,-4.7517985E-2,2.3430865E-2,-1.2807755E-1,-3.2492008E-3,-6.175145E-3,5.0089285E-3,2.5756168E-3,-6.6511137E-3,1.1685304E-2,-5.638936E-4,9.827339E-3,-4.0589392E-4,1.6335272E-3,1.1355983E-2,8.189053E-3,7.803196E-5,-1.551935E-3,-1.1064813E-2,-3.6797954E-3,6.137499E-3,-4.115318E-3,-1.247465E-2],"split_indices":[888,610,261,275,223,980,483,0,68,800,24,373,968,491,1239,188,344,885,1105,0,1025,0,0,1086,773,43,0,0,0,0,0,0,0,0,0,0,0,0,0,0,0,0,0,0,0],"split_type":[0,0,0,0,0,0,0,0,0,0,0,0,0,0,0,0,0,0,0,0,0,0,0,0,0,0,0,0,0,0,0,0,0,0,0,0,0,0,0,0,0,0,0,0,0],"sum_hessian":[1.0408485E3,6.6437537E2,3.7647308E2,1.21220276E2,5.431551E2,1.4454285E2,2.3193024E2,2.4244316E1,9.697596E1,3.1439517E2,2.2875993E2,4.055742E1,1.03985435E2,1.9899031E2,3.2939934E1,6.0908577E1,3.606738E1,1.24228226E2,1.9016693E2,2.275343E1,2.060065E2,2.5309385E1,1.5248032E1,5.9311287E1,4.4674145E1,1.7889088E2,2.0099428E1,1.651932E1,1.6420614E1,2.1212658E1,3.969592E1,1.92227E1,1.684468E1,4.2678333E1,8.154989E1,2.3778044E1,1.6638889E2,7.93142E1,1.2669231E2,1.5967476E1,4.334381E1,2.9047508E1,1.56266365E1,1.8161406E1,1.6072948E2],"tree_param":{"num_deleted":"0","num_feature":"1280","num_nodes":"45","size_leaf_vector":"1"}},{"base_weights":[-5.818229E-3,-7.600909E-1,3.1191808E-1,-8.87526E-1,3.5855663E-1,5.360186E-2,6.9506705E-1,-9.5954937E-1,2.9601408E-3,9.791081E-3,-3.1361023E-3,4.3920693E-1,-2.6336947E-1,9.3518573E-1,1.8808319E-1,-1.063453E0,6.4418814E-4,6.0673356E-1,-4.2465472E-1,6.0346913E-1,-4.4084838E-1,1.111576E0,3.455433E-1,5.289301E-1,-7.274754E-3,-1.1247806E-2,-2.0083047E-3,8.248992E-3,1.7604764E-4,1.7500484E-3,-9.668846E-3,-9.52397E-4,1.2538963E-2,1.0401075E-3,-6.615141E-3,1.228559E-2,2.6627409E-3,-4.1083754E-3,7.6362235E-3,9.876961E-3,9.188805E-4],"categories":[],"categories_nodes":[],"categories_segments":[],"categories_sizes":[],"default_left":[0,0,0,0,0,0,0,0,0,0,0,0,0,0,0,0,0,0,0,0,0,0,0,0,0,0,0,0,0,0,0,0,0,0,0,0,0,0,0,0,0],"id":24,"left_children":[1,3,5,7,9,11,13,15,-1,-1,-1,17,19,21,23,25,-1,27,29,31,33,35,37,39,-1,-1,-1,-1,-1,-1,-1,-1,-1,-1,-1,-1,-1,-1,-1,-1,-1],"loss_changes":[2.4781293E2,4.4776016E1,7.188463E1,2.4471954E1,1.4980621E1,5.396588E1,3.5032654E1,2.7998688E1,0E0,0E0,0E0,2.9682377E1,3.824588E1,1.9257477E1,3.1877073E1,1.0626373E1,0E0,2.114381E1,1.1619153E1,1.9599758E1,2.4293774E1,1.3021118E1,1.6837955E1,1.4297356E1,0E0,0E0,0E0,0E0,0E0,0E0,0E0,0E0,0E0,0E0,0E0,0E0,0E0,0E0,0E0,0E0,0E0],"parents":[2147483647,0,0,1,1,2,2,3,3,4,4,5,5,6,6,7,7,11,11,12,12,13,13,14,14,15,15,17,17,18,18,19,19,20,20,21,21,22,22,23,23],"right_children":[2,4,6,8,10,12,14,16,-1,-1,-1,18,20,22,24,26,-1,28,30,32,34,36,38,40,-1,-1,-1,-1,-1,-1,-1,-1,-1,-1,-1,-1,-1,-1,-1,-1,-1],"split_conditions":[-2.6486835E-3,1.3843916E-1,1.6059267E-3,1.8779984E-1,-1.2599221E-1,-8.58853E-2,4.4089768E-2,7.1469694E-2,2.9601408E-3,9.791081E-3,-3.1361023E-3,5.476588E-2,-1.6464756E-1,-3.9883137E-2,-6.362678E-2,1.2034686E-1,6.4418814E-4,-6.274568E-2,-4.0829636E-2,-3.9550614E-2,-5.8545996E-2,-1.2781159E-2,-6.1252482E-2,-6.5614164E-2,-7.274754E-3,-1.1247806E-2,-2.0083047E-3,8.248992E-3,1.7604764E-4,1.7500484E-3,-9.668846E-3,-9.52397E-4,1.2538963E-2,1.0401075E-3,-6.615141E-3,1.228559E-2,2.6627409E-3,-4.1083754E-3,7.6362235E-3,9.876961E-3,9.188805E-4],"split_indices":[1182,799,641,1114,476,885,1238,436,0,0,0,404,441,774,414,47,0,1264,936,322,447,983,435,1212,0,0,0,0,0,0,0,0,0,0,0,0,0,0,0,0,0],"split_type":[0,0,0,0,0,0,0,0,0,0,0,0,0,0,0,0,0,0,0,0,0,0,0,0,0,0,0,0,0,0,0,0,0,0,0,0,0,0,0,0,0],"sum_hessian":[1.0272224E3,3.0305188E2,7.241705E2,2.7269296E2,3.0358906E1,4.3487555E2,2.8929492E2,2.576378E2,1.5055188E1,1.5022142E1,1.5336763E1,1.956021E2,2.3927347E2,1.9435715E2,9.4937775E1,2.3377571E2,2.3862076E1,1.6468263E2,3.0919456E1,3.927006E1,2.0000342E2,1.4727545E2,4.708169E1,7.015073E1,2.4787046E1,2.1868567E2,1.5090047E1,1.1982662E2,4.4856014E1,1.57157545E1,1.5203702E1,2.0240797E1,1.9029264E1,5.7573303E1,1.4243011E2,1.2890097E2,1.8374483E1,1.6705004E1,3.0376688E1,3.234656E1,3.7804165E1],"tree_param":{"num_deleted":"0","num_feature":"1280","num_nodes":"41","size_leaf_vector":"1"}},{"base_weights":[-8.6114155E-3,-5.820534E-1,4.1628227E-1,-1.8255432E-1,-8.9989984E-1,-6.3561596E-2,6.13503E-1,-6.7781764E-1,1.4544909E-1,2.6098974E-3,-1.0158972E0,5.8944744E-1,-2.9821268E-1,1.030174E0,3.5684243E-1,-1.0628797E0,-3.692948E-2,4.8915693E-1,-3.947966E-1,-1.1119225E0,-1.7595409E-3,1.1576545E-2,-1.4615979E-3,6.363251E-3,-5.0076675E-1,1.2636533E0,3.9569312E-1,4.5852196E-1,-5.5499612E-3,-2.7910355E-3,-1.3795318E-2,4.956794E-3,-5.738843E-3,-3.964648E-4,8.586861E-3,-7.8776525E-3,1.1673756E-3,-5.9438124E-3,-1.2563301E-2,1.9400918E-3,-7.89508E-3,3.0335982E-3,1.4080729E-2,-2.9369276E-3,7.5462377E-3,6.9428454E-3,2.1580634E-4],"categories":[],"categories_nodes":[],"categories_segments":[],"categories_sizes":[],"default_left":[0,0,0,0,0,0,0,0,0,0,0,0,0,0,0,0,0,0,0,0,0,0,0,0,0,0,0,0,0,0,0,0,0,0,0,0,0,0,0,0,0,0,0,0,0,0,0],"id":25,"left_children":[1,3,5,7,9,11,13,15,17,-1,19,21,23,25,27,29,31,33,35,37,-1,-1,-1,-1,39,41,43,45,-1,-1,-1,-1,-1,-1,-1,-1,-1,-1,-1,-1,-1,-1,-1,-1,-1,-1,-1],"loss_changes":[2.5054146E2,5.5006744E1,5.6032356E1,3.2532127E1,3.3565353E1,2.7439375E1,4.3546906E1,1.9501106E1,2.3321037E1,0E0,1.7215622E1,2.0179644E1,2.581784E1,2.1679794E1,2.5310318E1,1.0751587E1,1.041785E1,1.4806793E1,1.0117344E1,1.1708267E1,0E0,0E0,0E0,0E0,2.216931E1,1.3585846E1,1.2338566E1,2.4281738E1,0E0,0E0,0E0,0E0,0E0,0E0,0E0,0E0,0E0,0E0,0E0,0E0,0E0,0E0,0E0,0E0,0E0,0E0,0E0],"parents":[2147483647,0,0,1,1,2,2,3,3,4,4,5,5,6,6,7,7,8,8,10,10,11,11,12,12,13,13,14,14,15,15,16,16,17,17,18,18,19,19,24,24,25,25,26,26,27,27],"right_children":[2,4,6,8,10,12,14,16,18,-1,20,22,24,26,28,30,32,34,36,38,-1,-1,-1,-1,40,42,44,46,-1,-1,-1,-1,-1,-1,-1,-1,-1,-1,-1,-1,-1,-1,-1,-1,-1,-1,-1],"split_conditions":[-1.6640166E-2,8.456363E-2,2.964396E-2,4.506623E-2,-1.6283199E-1,-7.865995E-2,3.0290127E-2,-6.264896E-3,1.005798E-1,2.6098974E-3,7.824221E-2,-9.609699E-3,-2.2975194E-1,-1.7829448E-2,1.1911435E-1,3.3026457E-2,-1.0360644E-1,1.0912914E-2,4.96024E-2,-9.3678854E-2,-1.7595409E-3,1.1576545E-2,-1.4615979E-3,6.363251E-3,3.9387103E-2,4.3236084E-2,7.9632446E-2,3.6947656E-2,-5.5499612E-3,-2.7910355E-3,-1.3795318E-2,4.956794E-3,-5.738843E-3,-3.964648E-4,8.586861E-3,-7.8776525E-3,1.1673756E-3,-5.9438124E-3,-1.2563301E-2,1.9400918E-3,-7.89508E-3,3.0335982E-3,1.4080729E-2,-2.9369276E-3,7.5462377E-3,6.9428454E-3,2.1580634E-4],"split_indices":[1039,261,890,598,869,71,1266,968,339,0,865,1170,648,570,506,1153,1222,1132,337,1060,0,0,0,0,499,507,603,946,0,0,0,0,0,0,0,0,0,0,0,0,0,0,0,0,0,0,0],"split_type":[0,0,0,0,0,0,0,0,0,0,0,0,0,0,0,0,0,0,0,0,0,0,0,0,0,0,0,0,0,0,0,0,0,0,0,0,0,0,0,0,0,0,0,0,0,0,0],"sum_hessian":[1.0214614E3,4.3419815E2,5.872633E2,1.9477109E2,2.3942706E2,1.7173721E2,4.155261E2,7.614821E1,1.1862287E2,2.138829E1,2.1803877E2,4.4032627E1,1.2770459E2,1.5446489E2,2.610612E2,4.6162636E1,2.9985577E1,7.26962E1,4.5926674E1,1.9470186E2,2.3336916E1,2.3846704E1,2.0185925E1,2.1515993E1,1.061886E2,1.1043732E2,4.402758E1,2.3632048E2,2.4740702E1,1.4888386E1,3.127425E1,1.5179673E1,1.4805904E1,3.0946352E1,4.1749847E1,2.5040102E1,2.0886572E1,4.4586536E1,1.5011533E2,3.121854E1,7.4970055E1,1.5156372E1,9.5280945E1,1.51955385E1,2.8832043E1,1.5302591E2,8.329458E1],"tree_param":{"num_deleted":"0","num_feature":"1280","num_nodes":"47","size_leaf_vector":"1"}},{"base_weights":[-1.7378798E-2,-7.180834E-1,3.3856854E-1,-8.3140266E-1,5.024151E-3,5.904907E-1,-6.235521E-2,-9.92318E-1,-7.4804604E-2,7.4922466E-1,-1.3602123E-1,-7.381379E-1,1.1430354E-1,-4.9599874E-1,-1.129442E0,3.2898226E-1,-8.1067495E-3,8.781809E-1,-7.547189E-2,6.390791E-3,-6.375873E-1,-1.792618E-3,-1.21000735E-2,2.9935998E-1,-6.1522055E-1,-7.022E-4,-9.8748505E-3,-1.2115964E-2,-3.5857134E-3,-2.8569386E-3,7.986817E-3,-1.0589734E-3,9.420877E-3,-8.550474E-3,3.6153966E-3,-1.2090984E-2,1.4826906E-4,5.2460274E-3,-2.9186353E-3,-5.86759E-5,-9.481944E-3],"categories":[],"categories_nodes":[],"categories_segments":[],"categories_sizes":[],"default_left":[0,0,0,0,0,0,0,0,0,0,0,0,0,0,0,0,0,0,0,0,0,0,0,0,0,0,0,0,0,0,0,0,0,0,0,0,0,0,0,0,0],"id":26,"left_children":[1,3,5,7,-1,9,11,13,15,17,19,21,23,25,27,29,-1,31,33,-1,35,-1,-1,37,39,-1,-1,-1,-1,-1,-1,-1,-1,-1,-1,-1,-1,-1,-1,-1,-1],"loss_changes":[2.5319614E2,4.861389E1,6.8130775E1,3.7990005E1,0E0,4.8070267E1,3.167501E1,1.5695709E1,1.8276268E1,3.6400116E1,3.1230574E1,1.3589962E1,2.9166542E1,1.2639823E1,1.0277435E1,1.2281639E1,0E0,1.7454514E1,1.762364E1,0E0,1.792344E1,0E0,0E0,2.295141E1,8.757685E0,0E0,0E0,0E0,0E0,0E0,0E0,0E0,0E0,0E0,0E0,0E0,0E0,0E0,0E0,0E0,0E0],"parents":[2147483647,0,0,1,1,2,2,3,3,5,5,6,6,7,7,8,8,9,9,10,10,11,11,12,12,13,13,14,14,15,15,17,17,18,18,20,20,23,23,24,24],"right_children":[2,4,6,8,-1,10,12,14,16,18,20,22,24,26,28,30,-1,32,34,-1,36,-1,-1,38,40,-1,-1,-1,-1,-1,-1,-1,-1,-1,-1,-1,-1,-1,-1,-1,-1],"split_conditions":[1.7698866E-1,6.6464685E-2,-7.162268E-2,-3.2976947E-3,5.024151E-3,4.310701E-2,-1.7071454E-1,3.440231E-2,9.777514E-2,3.2583408E-2,-5.3589262E-2,-3.2331463E-2,1.1534508E-1,4.4232186E-2,3.375352E-2,2.1782573E-2,-8.1067495E-3,-1.0605048E-1,-4.3423146E-2,6.390791E-3,2.1153431E-2,-1.792618E-3,-1.21000735E-2,4.1984655E-2,3.4447074E-2,-7.022E-4,-9.8748505E-3,-1.2115964E-2,-3.5857134E-3,-2.8569386E-3,7.986817E-3,-1.0589734E-3,9.420877E-3,-8.550474E-3,3.6153966E-3,-1.2090984E-2,1.4826906E-4,5.2460274E-3,-2.9186353E-3,-5.86759E-5,-9.481944E-3],"split_indices":[690,1277,885,333,0,951,68,179,1218,238,1227,1045,1266,854,1278,303,0,704,199,0,576,0,0,724,380,0,0,0,0,0,0,0,0,0,0,0,0,0,0,0,0],"split_type":[0,0,0,0,0,0,0,0,0,0,0,0,0,0,0,0,0,0,0,0,0,0,0,0,0,0,0,0,0,0,0,0,0,0,0,0,0,0,0,0,0],"sum_hessian":[1.0084167E3,3.385276E2,6.698891E2,3.1070367E2,2.7823925E1,4.103981E2,2.59491E2,2.5533398E2,5.5369675E1,3.3672168E2,7.367641E1,5.15259E1,2.0796509E2,5.8688408E1,1.9664558E2,3.6892574E1,1.8477102E1,2.9099738E2,4.572431E1,2.8659042E1,4.501737E1,2.5545517E1,2.5980385E1,1.6749251E2,4.0472584E1,3.336691E1,2.5321499E1,1.772963E2,1.9349283E1,1.649735E1,2.0395224E1,1.6346357E1,2.7465103E2,1.5266166E1,3.0458145E1,2.2571455E1,2.2445911E1,1.2188483E2,4.5607677E1,1.5383195E1,2.508939E1],"tree_param":{"num_deleted":"0","num_feature":"1280","num_nodes":"41","size_leaf_vector":"1"}},{"base_weights":[-2.8768942E-2,-6.865399E-1,3.3285454E-1,-8.972324E-1,-1.4145656E-1,1.3287045E-1,8.2795215E-1,2.5366694E-3,-9.681088E-1,-6.7941165E-1,3.5293168E-1,2.4826342E-1,-4.157068E-1,1.2396239E-1,1.0141927E0,-1.0866385E0,-3.9583358E-1,-1.04906205E-2,5.3023756E-4,7.9185754E-1,-4.417255E-3,4.285994E-1,-2.57451E-1,4.719886E-3,-6.983246E-1,5.834316E-3,-5.327336E-3,4.3143106E-1,1.2341496E0,-2.0717545E-3,-1.160962E-2,-8.494733E-3,2.478691E-3,1.2006341E-2,1.3304164E-3,-6.1490136E-4,6.1778184E-3,3.3731149E-3,-5.9676124E-3,-1.6389376E-3,-1.2576967E-2,1.028257E-2,-1.54681E-3,1.3816841E-2,5.790528E-3],"categories":[],"categories_nodes":[],"categories_segments":[],"categories_sizes":[],"default_left":[0,0,0,0,0,0,0,0,0,0,0,0,0,0,0,0,0,0,0,0,0,0,0,0,0,0,0,0,0,0,0,0,0,0,0,0,0,0,0,0,0,0,0,0,0],"id":27,"left_children":[1,3,5,7,9,11,13,-1,15,17,19,21,23,25,27,29,31,-1,-1,33,-1,35,37,-1,39,-1,-1,41,43,-1,-1,-1,-1,-1,-1,-1,-1,-1,-1,-1,-1,-1,-1,-1,-1],"loss_changes":[2.4844792E2,4.211377E1,6.637248E1,2.2553925E1,2.9366474E1,3.1007E1,2.4915268E1,0E0,1.5609207E1,1.4210913E1,2.1425348E1,3.70603E1,2.2496964E1,1.42867985E1,1.7714493E1,1.1633759E1,1.4734228E1,0E0,0E0,9.72661E0,0E0,2.7261902E1,2.21922E1,0E0,1.8878407E1,0E0,0E0,1.6816584E1,7.3530426E0,0E0,0E0,0E0,0E0,0E0,0E0,0E0,0E0,0E0,0E0,0E0,0E0,0E0,0E0,0E0,0E0],"parents":[2147483647,0,0,1,1,2,2,3,3,4,4,5,5,6,6,8,8,9,9,10,10,11,11,12,12,13,13,14,14,15,15,16,16,19,19,21,21,22,22,24,24,27,27,28,28],"right_children":[2,4,6,8,10,12,14,-1,16,18,20,22,24,26,28,30,32,-1,-1,34,-1,36,38,-1,40,-1,-1,42,44,-1,-1,-1,-1,-1,-1,-1,-1,-1,-1,-1,-1,-1,-1,-1,-1],"split_conditions":[7.5716384E-2,3.8001847E-2,2.1634035E-2,-1.5473396E-1,6.2348638E-2,1.23431385E-1,1.7033163E-2,2.5366694E-3,1.1941388E-1,5.0917853E-2,-1.4419551E-2,5.2669678E-2,2.7053267E-2,6.5658376E-2,1.7956235E-1,1.128998E-2,7.898786E-3,-1.04906205E-2,5.3023756E-4,7.3525704E-2,-4.417255E-3,7.799583E-3,-1.1594466E-1,4.719886E-3,9.596337E-3,5.834316E-3,-5.327336E-3,-3.7703548E-2,3.9932434E-2,-2.0717545E-3,-1.160962E-2,-8.494733E-3,2.478691E-3,1.2006341E-2,1.3304164E-3,-6.1490136E-4,6.1778184E-3,3.3731149E-3,-5.9676124E-3,-1.6389376E-3,-1.2576967E-2,1.028257E-2,-1.54681E-3,1.3816841E-2,5.790528E-3],"split_indices":[1230,1047,641,271,117,554,112,0,850,177,204,933,155,926,1200,711,1200,0,0,740,0,396,405,0,11,0,0,681,439,0,0,0,0,0,0,0,0,0,0,0,0,0,0,0,0],"split_type":[0,0,0,0,0,0,0,0,0,0,0,0,0,0,0,0,0,0,0,0,0,0,0,0,0,0,0,0,0,0,0,0,0,0,0,0,0,0,0,0,0,0,0,0,0],"sum_hessian":[1.0377899E3,3.6706006E2,6.707298E2,2.6314023E2,1.0391983E2,4.8083908E2,1.8989073E2,1.4773013E1,2.4836722E2,4.91547E1,5.4765125E1,3.988184E2,8.202069E1,4.091671E1,1.4897401E2,2.0320767E2,4.5159546E1,3.1851828E1,1.7302874E1,3.5244896E1,1.9520231E1,2.9436862E2,1.04449776E2,1.9300823E1,6.2719868E1,2.4322824E1,1.6593884E1,4.3593876E1,1.0538014E2,1.5639258E1,1.8756842E2,2.5939552E1,1.9219995E1,2.0162317E1,1.5082578E1,8.166515E1,2.1270346E2,3.779755E1,6.665222E1,3.4118443E1,2.8601423E1,2.041008E1,2.3183796E1,8.377233E1,2.1607807E1],"tree_param":{"num_deleted":"0","num_feature":"1280","num_nodes":"45","size_leaf_vector":"1"}},{"base_weights":[1.6540814E-2,3.7742546E-1,-6.107836E-1,1.06501155E-1,8.564752E-1,6.332876E-3,-6.847955E-1,5.6295484E-1,-9.9504575E-2,3.2161045E-1,1.1375234E0,-8.1053746E-1,9.626936E-2,-5.738467E-3,7.3012084E-1,-6.349061E-1,1.5198947E-1,5.5930686E-1,-6.4551975E-3,4.5645055E-3,1.2455164E0,-9.065836E-1,-6.616145E-2,-4.6461974E-3,6.0603805E-3,-2.8588632E-3,9.478954E-3,1.518873E-3,-8.476996E-3,-5.8160224E-3,4.3199775E-3,-2.1800976E-3,8.531085E-3,4.71419E-3,1.358292E-2,-3.7492414E-3,-1.0268285E-2,-6.816415E-3,4.7042845E-3],"categories":[],"categories_nodes":[],"categories_segments":[],"categories_sizes":[],"default_left":[0,0,0,0,0,0,0,0,0,0,0,0,0,0,0,0,0,0,0,0,0,0,0,0,0,0,0,0,0,0,0,0,0,0,0,0,0,0,0],"id":28,"left_children":[1,3,5,7,9,-1,11,13,15,17,19,21,23,-1,25,27,29,31,-1,-1,33,35,37,-1,-1,-1,-1,-1,-1,-1,-1,-1,-1,-1,-1,-1,-1,-1,-1],"loss_changes":[2.357516E2,8.547154E1,3.6402252E1,4.025775E1,3.456923E1,0E0,3.5677444E1,2.6636982E1,4.025269E1,2.112316E1,9.496063E0,2.2024063E1,1.5965309E1,0E0,2.628606E1,1.6071907E1,4.2356583E1,1.669127E1,0E0,0E0,8.665619E0,1.5582031E1,1.3906522E1,0E0,0E0,0E0,0E0,0E0,0E0,0E0,0E0,0E0,0E0,0E0,0E0,0E0,0E0,0E0,0E0],"parents":[2147483647,0,0,1,1,2,2,3,3,4,4,6,6,7,7,8,8,9,9,10,10,11,11,12,12,14,14,15,15,16,16,17,17,20,20,21,21,22,22],"right_children":[2,4,6,8,10,-1,12,14,16,18,20,22,24,-1,26,28,30,32,-1,-1,34,36,38,-1,-1,-1,-1,-1,-1,-1,-1,-1,-1,-1,-1,-1,-1,-1,-1],"split_conditions":[1.6727393E-2,9.909081E-3,-5.0287742E-2,-1.11354165E-1,6.803177E-2,6.332876E-3,1.3081472E-1,-9.9571876E-2,-1.618921E-1,3.9745282E-2,8.020602E-2,-6.827556E-2,3.143132E-2,-5.738467E-3,-6.756969E-3,-6.519608E-2,9.6564434E-2,-4.127204E-3,-6.4551975E-3,4.5645055E-3,-1.4052728E-1,-6.974929E-2,-3.2711804E-2,-4.6461974E-3,6.0603805E-3,-2.8588632E-3,9.478954E-3,1.518873E-3,-8.476996E-3,-5.8160224E-3,4.3199775E-3,-2.1800976E-3,8.531085E-3,4.71419E-3,1.358292E-2,-3.7492414E-3,-1.0268285E-2,-6.816415E-3,4.7042845E-3],"split_indices":[888,641,875,885,82,0,870,526,1020,981,1217,1020,105,0,747,707,505,417,0,0,696,982,644,0,0,0,0,0,0,0,0,0,0,0,0,0,0,0,0],"split_type":[0,0,0,0,0,0,0,0,0,0,0,0,0,0,0,0,0,0,0,0,0,0,0,0,0,0,0,0,0,0,0,0,0,0,0,0,0,0,0],"sum_hessian":[1.0344474E3,6.5754095E2,3.7690637E2,4.2267545E2,2.3486552E2,1.9770594E1,3.5713577E2,1.2959872E2,2.9307672E2,8.342531E1,1.5144022E2,3.0750262E2,4.963313E1,1.5591194E1,1.1400752E2,9.200326E1,2.0107347E2,6.807202E1,1.5353287E1,2.3092585E1,1.2834764E2,2.7170074E2,3.580188E1,2.3751345E1,2.5881783E1,1.9579367E1,9.442816E1,1.9483969E1,7.251929E1,5.4373253E1,1.4670021E2,1.872261E1,4.934941E1,1.7625042E1,1.10722595E2,5.0754055E1,2.209467E2,1.625645E1,1.9545431E1],"tree_param":{"num_deleted":"0","num_feature":"1280","num_nodes":"39","size_leaf_vector":"1"}},{"base_weights":[2.3889618E-3,-7.712841E-1,3.357465E-1,-8.732076E-1,6.180269E-3,-4.586162E-1,4.4509754E-1,6.4000284E-4,-9.620667E-1,-8.8344884E-1,3.8123194E-3,-2.5477558E-1,5.727693E-1,-1.0797461E0,-3.0493543E-1,-1.9500835E-3,-1.1812937E0,-5.021173E-1,9.223146E-3,8.3472085E-1,2.5112212E-1,-2.321564E-3,-1.17392875E-2,-8.297584E-3,4.0096845E-3,-1.4749954E-2,-5.429182E-3,2.2617928E-3,-9.43217E-3,1.0571233E-2,3.9851354E-3,-4.0070177E-3,4.5855083E-3],"categories":[],"categories_nodes":[],"categories_segments":[],"categories_sizes":[],"default_left":[0,0,0,0,0,0,0,0,0,0,0,0,0,0,0,0,0,0,0,0,0,0,0,0,0,0,0,0,0,0,0,0,0],"id":29,"left_children":[1,3,5,7,-1,9,11,-1,13,15,-1,17,19,21,23,-1,25,27,-1,29,31,-1,-1,-1,-1,-1,-1,-1,-1,-1,-1,-1,-1],"loss_changes":[2.658993E2,4.569719E1,6.3283722E1,2.4402512E1,0E0,3.2778427E1,5.7243477E1,0E0,1.9417404E1,1.1536308E1,0E0,3.067123E1,4.462471E1,1.5845276E1,1.7654333E1,0E0,4.8556137E0,2.7709547E1,0E0,2.6643005E1,3.3462807E1,0E0,0E0,0E0,0E0,0E0,0E0,0E0,0E0,0E0,0E0,0E0,0E0],"parents":[2147483647,0,0,1,1,2,2,3,3,5,5,6,6,8,8,9,9,11,11,12,12,13,13,14,14,16,16,17,17,19,19,20,20],"right_children":[2,4,6,8,-1,10,12,-1,14,16,-1,18,20,22,24,-1,26,28,-1,30,32,-1,-1,-1,-1,-1,-1,-1,-1,-1,-1,-1,-1],"split_conditions":[7.4198194E-2,5.141443E-2,-1.3234201E-1,-8.8985726E-2,6.180269E-3,1.118662E-1,2.1456268E-2,6.4000284E-4,8.852322E-3,3.859029E-2,3.8123194E-3,4.2946838E-2,4.6071544E-2,-6.5210634E-3,7.1426043E-3,-1.9500835E-3,7.532056E-2,-3.5743013E-2,9.223146E-3,-2.211903E-2,-7.4476264E-2,-2.321564E-3,-1.17392875E-2,-8.297584E-3,4.0096845E-3,-1.4749954E-2,-5.429182E-3,2.2617928E-3,-9.43217E-3,1.0571233E-2,3.9851354E-3,-4.0070177E-3,4.5855083E-3],"split_indices":[378,1278,952,795,0,82,24,0,133,318,0,43,858,663,734,0,1180,1227,0,768,449,0,0,0,0,0,0,0,0,0,0,0,0],"split_type":[0,0,0,0,0,0,0,0,0,0,0,0,0,0,0,0,0,0,0,0,0,0,0,0,0,0,0,0,0,0,0,0,0],"sum_hessian":[1.0241302E3,3.0704227E2,7.17088E2,2.8718988E2,1.985236E1,8.544842E1,6.316396E2,2.4962902E1,2.62227E2,5.657718E1,2.887124E1,9.692312E1,5.347165E2,2.205358E2,4.169119E1,1.8770683E1,3.7806496E1,8.16507E1,1.5272412E1,2.91702E2,2.4301448E2,2.192548E1,1.9861032E2,2.3625978E1,1.806521E1,2.3093742E1,1.4712753E1,3.124004E1,5.0410667E1,1.9189052E2,9.981149E1,5.7528183E1,1.854863E2],"tree_param":{"num_deleted":"0","num_feature":"1280","num_nodes":"33","size_leaf_vector":"1"}},{"base_weights":[-1.2644728E-2,-7.8318286E-1,2.8992635E-1,1.583355E-1,-9.287681E-1,7.799389E-2,8.5260594E-1,-3.861608E-3,7.864904E-3,-1.1084383E-1,-1.0745788E0,2.7165627E-1,-3.2875708E-1,3.7600562E-1,1.1387947E0,-9.454677E-3,5.683521E-3,-1.6461522E-3,-1.1430656E0,3.7040755E-1,-6.1677563E-1,-8.7731874E-1,-3.1498543E-3,6.1203194E-1,-5.370311E-3,3.3396413E-3,1.2417867E0,-1.27231125E-2,-5.557514E-3,1.8708898E-3,7.958686E-3,-1.1093198E-2,1.283226E-3,-1.1336777E-2,-1.6981676E-3,3.1236566E-3,-4.099568E-3,-3.4503842E-4,9.512122E-3,3.5401222E-3,1.3733201E-2],"categories":[],"categories_nodes":[],"categories_segments":[],"categories_sizes":[],"default_left":[0,0,0,0,0,0,0,0,0,0,0,0,0,0,0,0,0,0,0,0,0,0,0,0,0,0,0,0,0,0,0,0,0,0,0,0,0,0,0,0,0],"id":30,"left_children":[1,3,5,7,9,11,13,-1,-1,15,17,19,21,23,25,-1,-1,-1,27,29,31,33,35,37,-1,-1,39,-1,-1,-1,-1,-1,-1,-1,-1,-1,-1,-1,-1,-1,-1],"loss_changes":[2.4246947E2,4.069478E1,8.883735E1,1.5312897E1,2.9939392E1,4.3337746E1,2.6361862E1,0E0,0E0,2.5560814E1,1.2806534E1,3.3413742E1,3.1739681E1,1.865797E1,9.037949E0,0E0,0E0,0E0,1.2092651E1,2.5656597E1,1.44329605E1,1.1099213E1,1.5040606E1,1.4465132E1,0E0,0E0,1.0574417E1,0E0,0E0,0E0,0E0,0E0,0E0,0E0,0E0,0E0,0E0,0E0,0E0,0E0,0E0],"parents":[2147483647,0,0,1,1,2,2,3,3,4,4,5,5,6,6,9,9,10,10,11,11,12,12,13,13,14,14,18,18,19,19,20,20,21,21,22,22,23,23,26,26],"right_children":[2,4,6,8,10,12,14,-1,-1,16,18,20,22,24,26,-1,-1,-1,28,30,32,34,36,38,-1,-1,40,-1,-1,-1,-1,-1,-1,-1,-1,-1,-1,-1,-1,-1,-1],"split_conditions":[-8.49667E-3,-4.6205536E-1,2.1634035E-2,-1.1458495E-2,-1.3203373E-2,-3.143158E-2,-4.8238847E-2,-3.861608E-3,7.864904E-3,-4.706028E-2,-1.559943E-1,5.036836E-2,2.7218934E-3,1.4827527E-2,-4.534038E-2,-9.454677E-3,5.683521E-3,-1.6461522E-3,4.9201503E-2,5.3828987E-3,5.0905343E-2,7.036894E-2,8.922602E-2,-2.075421E-1,-5.370311E-3,3.3396413E-3,-7.697425E-2,-1.27231125E-2,-5.557514E-3,1.8708898E-3,7.958686E-3,-1.1093198E-2,1.283226E-3,