{"learner":{"attributes":{"best_iteration":"753","best_score":"0.8309088482583745"},"feature_names":[],"feature_types":[],"gradient_booster":{"model":{"gbtree_model_param":{"num_parallel_tree":"1","num_trees":"854"},"iteration_indptr":[0,1,2,3,4,5,6,7,8,9,10,11,12,13,14,15,16,17,18,19,20,21,22,23,24,25,26,27,28,29,30,31,32,33,34,35,36,37,38,39,40,41,42,43,44,45,46,47,48,49,50,51,52,53,54,55,56,57,58,59,60,61,62,63,64,65,66,67,68,69,70,71,72,73,74,75,76,77,78,79,80,81,82,83,84,85,86,87,88,89,90,91,92,93,94,95,96,97,98,99,100,101,102,103,104,105,106,107,108,109,110,111,112,113,114,115,116,117,118,119,120,121,122,123,124,125,126,127,128,129,130,131,132,133,134,135,136,137,138,139,140,141,142,143,144,145,146,147,148,149,150,151,152,153,154,155,156,157,158,159,160,161,162,163,164,165,166,167,168,169,170,171,172,173,174,175,176,177,178,179,180,181,182,183,184,185,186,187,188,189,190,191,192,193,194,195,196,197,198,199,200,201,202,203,204,205,206,207,208,209,210,211,212,213,214,215,216,217,218,219,220,221,222,223,224,225,226,227,228,229,230,231,232,233,234,235,236,237,238,239,240,241,242,243,244,245,246,247,248,249,250,251,252,253,254,255,256,257,258,259,260,261,262,263,264,265,266,267,268,269,270,271,272,273,274,275,276,277,278,279,280,281,282,283,284,285,286,287,288,289,290,291,292,293,294,295,296,297,298,299,300,301,302,303,304,305,306,307,308,309,310,311,312,313,314,315,316,317,318,319,320,321,322,323,324,325,326,327,328,329,330,331,332,333,334,335,336,337,338,339,340,341,342,343,344,345,346,347,348,349,350,351,352,353,354,355,356,357,358,359,360,361,362,363,364,365,366,367,368,369,370,371,372,373,374,375,376,377,378,379,380,381,382,383,384,385,386,387,388,389,390,391,392,393,394,395,396,397,398,399,400,401,402,403,404,405,406,407,408,409,410,411,412,413,414,415,416,417,418,419,420,421,422,423,424,425,426,427,428,429,430,431,432,433,434,435,436,437,438,439,440,441,442,443,444,445,446,447,448,449,450,451,452,453,454,455,456,457,458,459,460,461,462,463,464,465,466,467,468,469,470,471,472,473,474,475,476,477,478,479,480,481,482,483,484,485,486,487,488,489,490,491,492,493,494,495,496,497,498,499,500,501,502,503,504,505,506,507,508,509,510,511,512,513,514,515,516,517,518,519,520,521,522,523,524,525,526,527,528,529,530,531,532,533,534,535,536,537,538,539,540,541,542,543,544,545,546,547,548,549,550,551,552,553,554,555,556,557,558,559,560,561,562,563,564,565,566,567,568,569,570,571,572,573,574,575,576,577,578,579,580,581,582,583,584,585,586,587,588,589,590,591,592,593,594,595,596,597,598,599,600,601,602,603,604,605,606,607,608,609,610,611,612,613,614,615,616,617,618,619,620,621,622,623,624,625,626,627,628,629,630,631,632,633,634,635,636,637,638,639,640,641,642,643,644,645,646,647,648,649,650,651,652,653,654,655,656,657,658,659,660,661,662,663,664,665,666,667,668,669,670,671,672,673,674,675,676,677,678,679,680,681,682,683,684,685,686,687,688,689,690,691,692,693,694,695,696,697,698,699,700,701,702,703,704,705,706,707,708,709,710,711,712,713,714,715,716,717,718,719,720,721,722,723,724,725,726,727,728,729,730,731,732,733,734,735,736,737,738,739,740,741,742,743,744,745,746,747,748,749,750,751,752,753,754,755,756,757,758,759,760,761,762,763,764,765,766,767,768,769,770,771,772,773,774,775,776,777,778,779,780,781,782,783,784,785,786,787,788,789,790,791,792,793,794,795,796,797,798,799,800,801,802,803,804,805,806,807,808,809,810,811,812,813,814,815,816,817,818,819,820,821,822,823,824,825,826,827,828,829,830,831,832,833,834,835,836,837,838,839,840,841,842,843,844,845,846,847,848,849,850,851,852,853,854],"tree_info":[0,0,0,0,0,0,0,0,0,0,0,0,0,0,0,0,0,0,0,0,0,0,0,0,0,0,0,0,0,0,0,0,0,0,0,0,0,0,0,0,0,0,0,0,0,0,0,0,0,0,0,0,0,0,0,0,0,0,0,0,0,0,0,0,0,0,0,0,0,0,0,0,0,0,0,0,0,0,0,0,0,0,0,0,0,0,0,0,0,0,0,0,0,0,0,0,0,0,0,0,0,0,0,0,0,0,0,0,0,0,0,0,0,0,0,0,0,0,0,0,0,0,0,0,0,0,0,0,0,0,0,0,0,0,0,0,0,0,0,0,0,0,0,0,0,0,0,0,0,0,0,0,0,0,0,0,0,0,0,0,0,0,0,0,0,0,0,0,0,0,0,0,0,0,0,0,0,0,0,0,0,0,0,0,0,0,0,0,0,0,0,0,0,0,0,0,0,0,0,0,0,0,0,0,0,0,0,0,0,0,0,0,0,0,0,0,0,0,0,0,0,0,0,0,0,0,0,0,0,0,0,0,0,0,0,0,0,0,0,0,0,0,0,0,0,0,0,0,0,0,0,0,0,0,0,0,0,0,0,0,0,0,0,0,0,0,0,0,0,0,0,0,0,0,0,0,0,0,0,0,0,0,0,0,0,0,0,0,0,0,0,0,0,0,0,0,0,0,0,0,0,0,0,0,0,0,0,0,0,0,0,0,0,0,0,0,0,0,0,0,0,0,0,0,0,0,0,0,0,0,0,0,0,0,0,0,0,0,0,0,0,0,0,0,0,0,0,0,0,0,0,0,0,0,0,0,0,0,0,0,0,0,0,0,0,0,0,0,0,0,0,0,0,0,0,0,0,0,0,0,0,0,0,0,0,0,0,0,0,0,0,0,0,0,0,0,0,0,0,0,0,0,0,0,0,0,0,0,0,0,0,0,0,0,0,0,0,0,0,0,0,0,0,0,0,0,0,0,0,0,0,0,0,0,0,0,0,0,0,0,0,0,0,0,0,0,0,0,0,0,0,0,0,0,0,0,0,0,0,0,0,0,0,0,0,0,0,0,0,0,0,0,0,0,0,0,0,0,0,0,0,0,0,0,0,0,0,0,0,0,0,0,0,0,0,0,0,0,0,0,0,0,0,0,0,0,0,0,0,0,0,0,0,0,0,0,0,0,0,0,0,0,0,0,0,0,0,0,0,0,0,0,0,0,0,0,0,0,0,0,0,0,0,0,0,0,0,0,0,0,0,0,0,0,0,0,0,0,0,0,0,0,0,0,0,0,0,0,0,0,0,0,0,0,0,0,0,0,0,0,0,0,0,0,0,0,0,0,0,0,0,0,0,0,0,0,0,0,0,0,0,0,0,0,0,0,0,0,0,0,0,0,0,0,0,0,0,0,0,0,0,0,0,0,0,0,0,0,0,0,0,0,0,0,0,0,0,0,0,0,0,0,0,0,0,0,0,0,0,0,0,0,0,0,0,0,0,0,0,0,0,0,0,0,0,0,0,0,0,0,0,0,0,0,0,0,0,0,0,0,0,0,0,0,0,0,0,0,0,0,0,0,0,0,0,0,0,0,0,0,0,0,0,0,0,0,0,0,0,0,0,0,0,0,0,0,0,0,0,0,0,0,0,0,0,0,0,0,0,0,0,0,0,0,0,0,0,0,0,0,0,0,0,0,0,0,0,0,0,0,0,0,0,0,0,0,0,0,0,0,0,0,0,0,0,0,0,0,0,0,0,0,0,0,0,0,0,0,0,0,0,0,0,0,0,0,0,0,0,0,0,0,0,0,0,0,0,0,0,0,0,0,0,0,0,0,0,0,0,0,0,0,0,0,0,0,0,0,0,0,0,0,0,0,0,0,0,0,0,0,0,0,0,0,0,0,0,0,0,0,0,0,0,0,0,0,0,0,0,0,0,0,0,0],"trees":[{"base_weights":[-8.514056E-2,-4.1704163E-1,1.3764412E0,-6.302835E-1,1.0058492E0,4.1743848E-3,1.7396991E0,2.2553276E-1,-8.517237E-1,1.4318472E-3,2.3918414E-2,2.7914869E-2,1.2875193E-2,-9.5167775E-3,7.40892E-1,-1.7690836E-1,-1.1194239E0,-2.975801E-5,1.711057E-2,9.353271E-3,-9.311724E-1,-1.3129144E0,-5.435024E-1,-4.0492243E-3,-1.8787267E-2,-1.8642073E-2,-9.603804E-3,-1.5733173E-2,2.086957E-3],"categories":[],"categories_nodes":[],"categories_segments":[],"categories_sizes":[],"default_left":[0,0,0,0,0,0,0,0,0,0,0,0,0,0,0,0,0,0,0,0,0,0,0,0,0,0,0,0,0],"id":0,"left_children":[1,3,5,7,9,-1,11,13,15,-1,-1,-1,-1,-1,17,19,21,-1,-1,-1,23,25,27,-1,-1,-1,-1,-1,-1],"loss_changes":[9.468884E1,4.894501E1,1.3213539E1,2.6543781E1,1.54293995E1,0E0,5.5007935E0,1.5141014E1,1.9739418E1,0E0,0E0,0E0,0E0,0E0,8.358328E0,2.2897522E1,7.952446E0,0E0,0E0,0E0,5.245367E0,2.626068E0,1.0406324E1,0E0,0E0,0E0,0E0,0E0,0E0],"parents":[2147483647,0,0,1,1,2,2,3,3,4,4,6,6,7,7,8,8,14,14,15,15,16,16,20,20,21,21,22,22],"right_children":[2,4,6,8,10,-1,12,14,16,-1,-1,-1,-1,-1,18,20,22,-1,-1,-1,24,26,28,-1,-1,-1,-1,-1,-1],"split_conditions":[1.6404969E-3,1.8629517E-1,7.752187E-2,-8.6607546E-2,3.4058467E-2,4.1743848E-3,1.0231348E-1,-3.672941E-2,-2.8025026E-2,1.4318472E-3,2.3918414E-2,2.7914869E-2,1.2875193E-2,-9.5167775E-3,-4.9084272E-2,1.4737622E-2,-5.367492E-2,-2.975801E-5,1.711057E-2,9.353271E-3,1.0324475E-2,6.4315707E-3,6.05319E-3,-4.0492243E-3,-1.8787267E-2,-1.8642073E-2,-9.603804E-3,-1.5733173E-2,2.086957E-3],"split_indices":[361,1064,456,1040,995,0,895,716,1025,0,0,0,0,0,479,184,593,0,0,0,376,1118,941,0,0,0,0,0,0],"split_type":[0,0,0,0,0,0,0,0,0,0,0,0,0,0,0,0,0,0,0,0,0,0,0,0,0,0,0,0,0],"sum_hessian":[1.9261073E2,1.5765546E2,3.495528E1,1.37681E2,1.9974447E1,9.5116415E0,2.544364E1,2.8297132E1,1.0938387E2,1.0225015E1,9.749433E0,1.5218626E1,1.0225015E1,9.749433E0,1.85477E1,3.1626207E1,7.775767E1,8.560477E0,9.987224E0,1.4505253E1,1.7120955E1,5.7069847E1,2.068782E1,8.560477E0,8.560477E0,4.613146E1,1.0938388E1,1.0225015E1,1.0462806E1],"tree_param":{"num_deleted":"0","num_feature":"1280","num_nodes":"29","size_leaf_vector":"1"}},{"base_weights":[-2.4546461E-2,1.4347081E0,-3.3513921E-1,2.6566857E-2,6.728652E-3,-6.183726E-1,4.8491076E-1,-7.6000655E-1,1.1380466E-2,9.3961555E-1,-9.386233E-3,-9.981727E-1,4.1124073E-1,1.4365599E0,1.4144385E-3,3.9123837E-3,-1.1396544E0,-4.433851E-3,1.4317952E-2,2.5576979E-2,9.307472E-3,-6.1083073E-3,-1.7354582E-2],"categories":[],"categories_nodes":[],"categories_segments":[],"categories_sizes":[],"default_left":[0,0,0,0,0,0,0,0,0,0,0,0,0,0,0,0,0,0,0,0,0,0,0],"id":1,"left_children":[1,3,5,-1,-1,7,9,11,-1,13,-1,15,17,19,-1,-1,21,-1,-1,-1,-1,-1,-1],"loss_changes":[8.623545E1,1.7187378E1,3.6774292E1,0E0,0E0,2.5491024E1,2.3197948E1,3.0483665E1,0E0,1.2296467E1,0E0,1.6877228E1,1.0225766E1,5.4614525E0,0E0,0E0,9.60363E0,0E0,0E0,0E0,0E0,0E0,0E0],"parents":[2147483647,0,0,1,1,2,2,5,5,6,6,7,7,9,9,11,11,12,12,13,13,16,16],"right_children":[2,4,6,-1,-1,8,10,12,-1,14,-1,16,18,20,-1,-1,22,-1,-1,-1,-1,-1,-1],"split_conditions":[-3.318354E-2,9.930176E-2,7.66604E-2,2.6566857E-2,6.728652E-3,3.4373822E-3,1.3595822E-2,1.4194785E-1,1.1380466E-2,1.15046166E-1,-9.386233E-3,-3.2346185E-2,3.106568E-2,2.1044461E-2,1.4144385E-3,3.9123837E-3,-2.3022078E-2,-4.433851E-3,1.4317952E-2,2.5576979E-2,9.307472E-3,-6.1083073E-3,-1.7354582E-2],"split_indices":[1172,365,105,0,0,1204,713,335,0,929,0,52,1120,335,0,0,392,0,0,0,0,0,0],"split_type":[0,0,0,0,0,0,0,0,0,0,0,0,0,0,0,0,0,0,0,0,0,0,0],"sum_hessian":[1.8782835E2,3.2210663E1,1.5561769E2,1.8617443E1,1.3593219E1,1.1588403E2,3.9733658E1,1.0635485E2,9.529178E0,2.9029198E1,1.070446E1,8.852805E1,1.7826797E1,1.7628828E1,1.1400369E1,8.571906E0,7.995615E1,8.792712E0,9.034086E0,9.062823E0,8.566005E0,1.8509886E1,6.1446262E1],"tree_param":{"num_deleted":"0","num_feature":"1280","num_nodes":"23","size_leaf_vector":"1"}},{"base_weights":[-7.630452E-2,-5.935021E-1,6.733007E-1,1.0808906E-2,-8.013423E-1,-3.5919377E-1,1.0533378E0,-1.8118417E-1,-1.1012379E0,-1.35520715E-2,7.966768E-3,1.3096529E0,-3.6283082E-3,-1.3923349E-2,4.2260963E-1,-4.7656932E-4,-1.2625117E0,2.5135433E-2,6.1039644E-1,-5.908147E-3,1.8119622E-2,-7.7981097E-3,-1.3939503E0,1.6766548E-2,-2.8793658E-3,-1.0977582E-2,-1.9827059E-2],"categories":[],"categories_nodes":[],"categories_segments":[],"categories_sizes":[],"default_left":[0,0,0,0,0,0,0,0,0,0,0,0,0,0,0,0,0,0,0,0,0,0,0,0,0,0,0],"id":2,"left_children":[1,3,5,-1,7,9,11,13,15,-1,-1,17,-1,-1,19,-1,21,-1,23,-1,-1,-1,25,-1,-1,-1,-1],"loss_changes":[7.399097E1,3.4121574E1,3.1043758E1,0E0,1.8184631E1,1.513735E1,1.9981586E1,1.8548357E1,1.1369247E1,0E0,0E0,1.9384056E1,0E0,0E0,1.8386543E1,0E0,4.0630875E0,0E0,1.3957576E1,0E0,0E0,0E0,1.7552643E0,0E0,0E0,0E0,0E0],"parents":[2147483647,0,0,1,1,2,2,4,4,5,5,6,6,7,7,8,8,11,11,14,14,16,16,18,18,22,22],"right_children":[2,4,6,-1,8,10,12,14,16,-1,-1,18,-1,-1,20,-1,22,-1,24,-1,-1,-1,26,-1,-1,-1,-1],"split_conditions":[1.3532755E-2,-4.14204E-1,-2.9849717E-2,1.0808906E-2,-1.541319E-2,-5.5616286E-2,9.376265E-2,3.2912068E-2,-3.2714248E-2,-1.35520715E-2,7.966768E-3,-1.7085776E-1,-3.6283082E-3,-1.3923349E-2,5.8244545E-2,-4.7656932E-4,-1.609215E-2,2.5135433E-2,-5.471184E-2,-5.908147E-3,1.8119622E-2,-7.7981097E-3,5.6482434E-2,1.6766548E-2,-2.8793658E-3,-1.0977582E-2,-1.9827059E-2],"split_indices":[833,876,18,0,392,1027,232,69,1186,0,0,1031,0,0,610,0,899,0,187,0,0,0,895,0,0,0,0],"split_type":[0,0,0,0,0,0,0,0,0,0,0,0,0,0,0,0,0,0,0,0,0,0,0,0,0,0,0],"sum_hessian":[1.8844594E2,1.1165493E2,7.6791016E1,1.3792814E1,9.7862114E1,2.067784E1,5.6113174E1,3.251732E1,6.5344795E1,1.2112123E1,8.565717E0,4.706979E1,9.043382E0,1.2817023E1,1.9700294E1,8.786608E0,5.655819E1,2.3926926E1,2.3142866E1,1.0662415E1,9.037881E0,1.0414358E1,4.6143833E1,1.2422513E1,1.0720353E1,1.0180466E1,3.5963367E1],"tree_param":{"num_deleted":"0","num_feature":"1280","num_nodes":"27","size_leaf_vector":"1"}},{"base_weights":[-2.3697311E-2,1.0875553E0,-4.316108E-1,7.015482E-2,1.7477187E0,-6.040248E-1,7.7790225E-1,1.088307E-2,-1.1462659E-2,2.6382215E-2,1.1508342E-2,-7.305309E-1,1.070517E-2,8.3283056E-4,1.8430835E-2,9.586572E-3,-8.710705E-1,-3.8395885E-1,-1.1313348E0,9.633886E-3,-1.0220269E-2,-1.6639022E-2,-1.5388159E-3],"categories":[],"categories_nodes":[],"categories_segments":[],"categories_sizes":[],"default_left":[0,0,0,0,0,0,0,0,0,0,0,0,0,0,0,0,0,0,0,0,0,0,0],"id":3,"left_children":[1,3,5,7,9,11,13,-1,-1,-1,-1,15,-1,-1,-1,-1,17,19,21,-1,-1,-1,-1],"loss_changes":[8.9680084E1,3.5539448E1,3.0724808E1,1.689425E1,5.503708E0,2.3639206E1,8.297868E0,0E0,0E0,0E0,0E0,2.4952087E1,0E0,0E0,0E0,0E0,1.3149979E1,1.8282555E1,9.929001E0,0E0,0E0,0E0,0E0],"parents":[2147483647,0,0,1,1,2,2,3,3,4,4,5,5,6,6,11,11,16,16,17,17,18,18],"right_children":[2,4,6,8,10,12,14,-1,-1,-1,-1,16,-1,-1,-1,-1,18,20,22,-1,-1,-1,-1],"split_conditions":[2.9354899E-3,8.546297E-2,1.4865845E-1,6.9553606E-2,-8.829194E-2,-8.326293E-2,7.0198216E-2,1.088307E-2,-1.1462659E-2,2.6382215E-2,1.1508342E-2,-1.3482238E-1,1.070517E-2,8.3283056E-4,1.8430835E-2,9.586572E-3,-1.8684583E-2,-9.087736E-2,1.0769957E-2,9.633886E-3,-1.0220269E-2,-1.6639022E-2,-1.5388159E-3],"split_indices":[1172,491,335,669,441,209,257,0,0,0,0,1134,0,0,0,0,458,984,1187,0,0,0,0],"split_type":[0,0,0,0,0,0,0,0,0,0,0,0,0,0,0,0,0,0,0,0,0,0,0],"sum_hessian":[1.9543182E2,5.19463E1,1.4348553E2,2.0957317E1,3.0988983E1,1.2610224E2,1.738329E1,1.16886E1,9.268718E0,2.2360449E1,8.628534E0,1.1634301E2,9.759227E0,8.786846E0,8.596442E0,9.747235E0,1.0659578E2,3.814063E1,6.8455154E1,9.740421E0,2.8400206E1,5.971279E1,8.742359E0],"tree_param":{"num_deleted":"0","num_feature":"1280","num_nodes":"23","size_leaf_vector":"1"}},{"base_weights":[1.5067043E-2,1.1603056E0,-4.0640402E-1,1.4974947E0,-2.9131423E-3,-6.126705E-1,7.7808803E-1,6.148483E-3,1.8670787E0,-3.7552878E-1,-1.86245E-2,1.7403638E-2,2.0163393E-4,1.3213298E-2,2.8467765E-2,6.6553116E-1,-6.2625134E-1,1.9349128E-2,-3.8991435E-3,-1.1171203E0,-2.3510501E-1,-1.7930154E-2,-4.9695615E-3,9.513303E-3,-7.143976E-3],"categories":[],"categories_nodes":[],"categories_segments":[],"categories_sizes":[],"default_left":[0,0,0,0,0,0,0,0,0,0,0,0,0,0,0,0,0,0,0,0,0,0,0,0,0],"id":4,"left_children":[1,3,5,7,-1,9,11,-1,13,15,-1,-1,-1,-1,-1,17,19,-1,-1,21,23,-1,-1,-1,-1],"loss_changes":[9.309678E1,2.4597527E1,3.5017776E1,1.484375E1,0E0,2.267651E1,9.049103E0,0E0,5.533394E0,2.5322493E1,0E0,0E0,0E0,0E0,0E0,1.5512587E1,1.4525551E1,0E0,0E0,5.790413E0,1.3859515E1,0E0,0E0,0E0,0E0],"parents":[2147483647,0,0,1,1,2,2,3,3,5,5,6,6,8,8,9,9,15,15,16,16,19,19,20,20],"right_children":[2,4,6,8,-1,10,12,-1,14,16,-1,-1,-1,-1,-1,18,20,-1,-1,22,24,-1,-1,-1,-1],"split_conditions":[-1.4950595E-3,7.2310284E-2,9.377806E-2,8.0090705E-3,-2.9131423E-3,7.170433E-2,1.2637231E-1,6.148483E-3,-1.5782611E-1,5.830435E-2,-1.86245E-2,1.7403638E-2,2.0163393E-4,1.3213298E-2,2.8467765E-2,-3.6102645E-2,9.010318E-3,1.9349128E-2,-3.8991435E-3,-5.806743E-2,-6.5619044E-2,-1.7930154E-2,-4.9695615E-3,9.513303E-3,-7.143976E-3],"split_indices":[1172,860,105,927,0,64,989,0,76,1262,0,0,0,0,0,472,577,0,0,999,208,0,0,0,0],"split_type":[0,0,0,0,0,0,0,0,0,0,0,0,0,0,0,0,0,0,0,0,0,0,0,0,0],"sum_hessian":[1.9053345E2,5.069865E1,1.398348E2,4.0684948E1,1.0013703E1,1.19582115E2,2.0252682E1,1.1482729E1,2.9202217E1,9.394186E1,2.5640259E1,1.1209643E1,9.043038E0,9.178205E0,2.0024012E1,1.7853237E1,7.608862E1,9.322355E0,8.530882E0,3.2768974E1,4.3319645E1,2.354931E1,9.219666E0,1.021048E1,3.3109165E1],"tree_param":{"num_deleted":"0","num_feature":"1280","num_nodes":"25","size_leaf_vector":"1"}},{"base_weights":[2.212171E-2,-3.188454E-1,1.3689274E0,2.6095933E-1,-7.171113E-1,1.9080459E0,6.35127E-3,8.919937E-1,-3.3567712E-1,6.018971E-3,-9.301778E-1,2.9200034E-2,1.602893E-2,6.836404E-4,2.0101598E-2,7.620853E-3,-8.154935E-1,1.3917806E-3,-1.1900471E0,-1.627429E-2,-1.665417E-3,-4.8921816E-3,-1.3236498E0,-1.884435E-2,-8.966223E-3],"categories":[],"categories_nodes":[],"categories_segments":[],"categories_sizes":[],"default_left":[0,0,0,0,0,0,0,0,0,0,0,0,0,0,0,0,0,0,0,0,0,0,0,0,0],"id":5,"left_children":[1,3,5,7,9,11,-1,13,15,-1,17,-1,-1,-1,-1,-1,19,-1,21,-1,-1,-1,23,-1,-1],"loss_changes":[8.80178E1,3.5554054E1,1.7320831E1,2.4138716E1,2.3356148E1,2.033043E0,0E0,1.6778734E1,1.5267585E1,0E0,2.102369E1,0E0,0E0,0E0,0E0,0E0,6.453535E0,0E0,6.1713104E0,0E0,0E0,0E0,2.8588638E0,0E0,0E0],"parents":[2147483647,0,0,1,1,2,2,3,3,4,4,5,5,7,7,8,8,10,10,16,16,18,18,22,22],"right_children":[2,4,6,8,10,12,-1,14,16,-1,18,-1,-1,-1,-1,-1,20,-1,22,-1,-1,-1,24,-1,-1],"split_conditions":[6.73554E-2,5.28795E-2,-9.180609E-2,2.1106687E-1,-2.3337834E-2,7.837949E-2,6.35127E-3,-4.663809E-2,-3.228902E-2,6.018971E-3,-8.234995E-2,2.9200034E-2,1.602893E-2,6.836404E-4,2.0101598E-2,7.620853E-3,1.2575085E-1,1.3917806E-3,2.5780743E-4,-1.627429E-2,-1.665417E-3,-4.8921816E-3,-2.1988821E-4,-1.884435E-2,-8.966223E-3],"split_indices":[437,669,832,145,1249,989,0,163,392,0,1040,0,0,0,0,0,1038,0,506,0,0,0,674,0,0],"split_type":[0,0,0,0,0,0,0,0,0,0,0,0,0,0,0,0,0,0,0,0,0,0,0,0,0],"sum_hessian":[1.8936154E2,1.5182707E2,3.7534473E1,6.198941E1,8.9837654E1,2.2445827E1,1.5088648E1,2.9841585E1,3.2147827E1,1.3547718E1,7.628994E1,1.3308349E1,9.137478E0,1.3553252E1,1.6288334E1,1.0935936E1,2.121189E1,1.5429507E1,6.086043E1,1.2449233E1,8.762657E0,9.202791E0,5.1657642E1,4.221629E1,9.441353E0],"tree_param":{"num_deleted":"0","num_feature":"1280","num_nodes":"25","size_leaf_vector":"1"}},{"base_weights":[6.709173E-4,-3.4877756E-1,1.2916386E0,-5.9834844E-1,4.952076E-1,1.6473231E0,4.942289E-3,1.7652991E-1,-8.7181956E-1,2.0352865E-2,-6.164379E-2,1.0468477E-2,2.5892405E-2,1.3485141E-2,-5.0142545E-1,-1.0568732E0,4.111047E-3,9.83348E-3,-8.949178E-3,-1.3435437E-2,1.4305314E-3,-1.1937737E0,-2.6637346E-3,-6.8539293E-3,-1.767262E-2],"categories":[],"categories_nodes":[],"categories_segments":[],"categories_sizes":[],"default_left":[0,0,0,0,0,0,0,0,0,0,0,0,0,0,0,0,0,0,0,0,0,0,0,0,0],"id":6,"left_children":[1,3,5,7,9,11,-1,13,15,-1,17,-1,-1,-1,19,21,-1,-1,-1,-1,-1,23,-1,-1,-1],"loss_changes":[8.79529E1,3.2668793E1,1.2749954E1,2.5388912E1,2.124038E1,6.508667E0,0E0,1.9200638E1,1.9746017E1,0E0,1.3090572E1,0E0,0E0,0E0,6.151868E0,8.644051E0,0E0,0E0,0E0,0E0,0E0,6.184181E0,0E0,0E0,0E0],"parents":[2147483647,0,0,1,1,2,2,3,3,4,4,5,5,7,7,8,8,10,10,14,14,15,15,21,21],"right_children":[2,4,6,8,10,12,-1,14,16,-1,18,-1,-1,-1,20,22,-1,-1,-1,-1,-1,24,-1,-1,-1],"split_conditions":[6.5082006E-2,9.4069324E-2,-1.1521781E-1,-6.9844626E-2,-9.5278405E-2,-1.0338791E-1,4.942289E-3,7.323251E-2,-3.997042E-3,2.0352865E-2,1.4355135E-1,1.0468477E-2,2.5892405E-2,1.3485141E-2,-6.014871E-4,2.213525E-1,4.111047E-3,9.83348E-3,-8.949178E-3,-1.3435437E-2,1.4305314E-3,-1.8810403E-2,-2.6637346E-3,-6.8539293E-3,-1.767262E-2],"split_indices":[437,182,6,1040,600,1006,0,874,570,0,754,0,0,0,1208,384,0,0,0,0,0,155,0,0,0],"split_type":[0,0,0,0,0,0,0,0,0,0,0,0,0,0,0,0,0,0,0,0,0,0,0,0,0],"sum_hessian":[1.925978E2,1.5224944E2,4.0348362E1,1.1776893E2,3.4480503E1,2.8352161E1,1.19962E1,3.0830473E1,8.693845E1,1.111562E1,2.3364883E1,9.203291E0,1.914887E1,1.3348471E1,1.7482002E1,7.53224E1,1.161605E1,1.0024928E1,1.3339954E1,8.945777E0,8.536226E0,6.449615E1,1.08262615E1,1.3425631E1,5.107051E1],"tree_param":{"num_deleted":"0","num_feature":"1280","num_nodes":"25","size_leaf_vector":"1"}},{"base_weights":[-2.781295E-2,-3.9135072E-1,1.1555983E0,9.8831065E-2,-8.603559E-1,1.4429864E0,-6.649611E-4,-2.7729672E-1,1.0081044E0,6.706398E-3,-1.0566701E0,7.005441E-3,2.3636287E-2,1.3863729E-1,-9.3558675E-1,-1.4892209E-3,2.2934662E-2,-1.3511115E0,-4.069963E-1,6.0686237E-1,-7.8110537E-3,-1.7761873E-2,-4.1882424E-3,-1.9914621E-2,-1.1772789E-2,-1.4881176E-2,2.9653867E-3,-1.0317396E-3,1.6915275E-2],"categories":[],"categories_nodes":[],"categories_segments":[],"categories_sizes":[],"default_left":[0,0,0,0,0,0,0,0,0,0,0,0,0,0,0,0,0,0,0,0,0,0,0,0,0,0,0,0,0],"id":7,"left_children":[1,3,5,7,9,11,-1,13,15,-1,17,-1,-1,19,21,-1,-1,23,25,27,-1,-1,-1,-1,-1,-1,-1,-1,-1],"loss_changes":[8.272398E1,3.3902504E1,1.5757923E1,2.5281061E1,2.0943542E1,1.1023117E1,0E0,1.4537607E1,1.8386467E1,0E0,1.2020172E1,0E0,0E0,1.1893951E1,4.837551E0,0E0,0E0,1.9027481E0,1.0694354E1,9.997419E0,0E0,0E0,0E0,0E0,0E0,0E0,0E0,0E0,0E0],"parents":[2147483647,0,0,1,1,2,2,3,3,4,4,5,5,7,7,8,8,10,10,13,13,14,14,17,17,18,18,19,19],"right_children":[2,4,6,8,10,12,-1,14,16,-1,18,-1,-1,20,22,-1,-1,24,26,28,-1,-1,-1,-1,-1,-1,-1,-1,-1],"split_conditions":[6.5082006E-2,-1.7289003E-2,-3.1412493E-2,1.690502E-2,-8.6607546E-2,4.6584617E-2,-6.649611E-4,-5.032848E-2,7.9097755E-2,6.706398E-3,-7.320208E-2,7.005441E-3,2.3636287E-2,2.4345085E-2,5.6466654E-2,-1.4892209E-3,2.2934662E-2,6.6270605E-3,-2.3557931E-2,7.338835E-2,-7.8110537E-3,-1.7761873E-2,-4.1882424E-3,-1.9914621E-2,-1.1772789E-2,-1.4881176E-2,2.9653867E-3,-1.0317396E-3,1.6915275E-2],"split_indices":[437,385,835,927,1040,1233,0,1166,569,0,367,0,0,97,761,0,0,1138,203,643,0,0,0,0,0,0,0,0,0],"split_type":[0,0,0,0,0,0,0,0,0,0,0,0,0,0,0,0,0,0,0,0,0,0,0,0,0,0,0,0,0],"sum_hessian":[1.8985815E2,1.4584677E2,4.4011375E1,7.177007E1,7.40767E1,3.535755E1,8.653824E0,5.135085E1,2.0419228E1,9.021235E0,6.505546E1,1.1040912E1,2.431664E1,3.2040485E1,1.9310364E1,8.572728E0,1.1846499E1,4.3887447E1,2.116801E1,1.97202E1,1.2320286E1,1.0569022E1,8.741341E0,2.9577463E1,1.4309985E1,9.381683E0,1.1786327E1,1.0406111E1,9.314089E0],"tree_param":{"num_deleted":"0","num_feature":"1280","num_nodes":"29","size_leaf_vector":"1"}},{"base_weights":[1.8461486E-3,-4.9000558E-1,1.0761873E0,-6.568926E-1,1.5572023E-2,1.4578284E0,3.7009263E-4,1.9209252E-1,-8.943974E-1,5.2156067E-3,1.770349E0,1.2390157E-2,-4.392635E-3,-1.0348868E0,3.1330944E-3,2.607726E-2,1.330598E-2,-1.2005563E0,-1.0596203E-3,-4.9954616E-3,-1.737781E-2],"categories":[],"categories_nodes":[],"categories_segments":[],"categories_sizes":[],"default_left":[0,0,0,0,0,0,0,0,0,0,0,0,0,0,0,0,0,0,0,0,0],"id":8,"left_children":[1,3,5,7,-1,9,-1,11,13,-1,15,-1,-1,17,-1,-1,-1,19,-1,-1,-1],"loss_changes":[1.0073486E2,3.7652763E1,2.3891823E1,2.4346462E1,0E0,1.3669693E1,0E0,1.1240244E1,1.5238075E1,0E0,3.3094025E0,0E0,0E0,1.3103157E1,0E0,0E0,0E0,7.0004044E0,0E0,0E0,0E0],"parents":[2147483647,0,0,1,1,2,2,3,3,5,5,7,7,8,8,10,10,13,13,17,17],"right_children":[2,4,6,8,-1,10,-1,12,14,-1,16,-1,-1,18,-1,-1,-1,20,-1,-1,-1],"split_conditions":[9.46445E-2,-8.6883776E-2,-2.765914E-2,-6.319441E-2,1.5572023E-2,-1.01820864E-1,3.7009263E-4,1.07524194E-1,-4.0469974E-2,5.2156067E-3,1.7399248E-2,1.2390157E-2,-4.392635E-3,1.16498135E-1,3.1330944E-3,2.607726E-2,1.330598E-2,-7.8273006E-2,-1.0596203E-3,-4.9954616E-3,-1.737781E-2],"split_indices":[182,209,983,511,0,952,0,597,68,0,1267,0,0,633,0,0,0,892,0,0,0],"split_type":[0,0,0,0,0,0,0,0,0,0,0,0,0,0,0,0,0,0,0,0,0],"sum_hessian":[1.8827115E2,1.2958742E2,5.8683735E1,1.1855185E2,1.1035561E1,4.2677017E1,1.6006716E1,2.596469E1,9.258716E1,1.0344047E1,3.2332973E1,1.0288541E1,1.5676149E1,8.2476585E1,1.01105795E1,2.3317705E1,9.015266E0,7.000914E1,1.2467442E1,1.0278154E1,5.9730988E1],"tree_param":{"num_deleted":"0","num_feature":"1280","num_nodes":"21","size_leaf_vector":"1"}},{"base_weights":[6.7025474E-3,1.0951104E0,-3.88539E-1,3.6711347E-1,1.6486514E0,5.2134293E-1,-6.327657E-1,-5.04164E-3,1.5885422E-2,2.6468046E-2,1.0332655E-2,-1.2678542E-3,1.618149E-2,3.174263E-1,-8.823182E-1,-8.393433E-3,1.2537545E-2,-1.036106E0,5.0690565E-3,-1.1897811E0,1.5714816E-3,-5.006929E-3,-1.6889041E-2],"categories":[],"categories_nodes":[],"categories_segments":[],"categories_sizes":[],"default_left":[0,0,0,0,0,0,0,0,0,0,0,0,0,0,0,0,0,0,0,0,0,0,0],"id":9,"left_children":[1,3,5,7,9,11,13,-1,-1,-1,-1,-1,-1,15,17,-1,-1,19,-1,21,-1,-1,-1],"loss_changes":[8.2196365E1,1.979509E1,3.1542137E1,1.5602743E1,7.3791504E0,1.3606398E1,2.6665092E1,0E0,0E0,0E0,0E0,0E0,0E0,1.5531141E1,1.7723969E1,0E0,0E0,1.4220306E1,0E0,5.2685623E0,0E0,0E0,0E0],"parents":[2147483647,0,0,1,1,2,2,3,3,4,4,5,5,6,6,13,13,14,14,17,17,19,19],"right_children":[2,4,6,8,10,12,14,-1,-1,-1,-1,-1,-1,16,18,-1,-1,20,-1,22,-1,-1,-1],"split_conditions":[-4.46043E-3,-4.3170847E-4,-8.782361E-2,-9.049641E-2,-1.2263773E-1,-1.1548705E-2,1.642657E-2,-5.04164E-3,1.5885422E-2,2.6468046E-2,1.0332655E-2,-1.2678542E-3,1.618149E-2,-4.792931E-2,2.5248203E-2,-8.393433E-3,1.2537545E-2,6.718346E-2,5.0690565E-3,-1.38899E-1,1.5714816E-3,-5.006929E-3,-1.6889041E-2],"split_indices":[1172,1232,1040,777,605,1106,607,0,0,0,0,0,0,144,1232,0,0,839,0,885,0,0,0],"split_type":[0,0,0,0,0,0,0,0,0,0,0,0,0,0,0,0,0,0,0,0,0,0,0],"sum_hessian":[1.8871887E2,4.971618E1,1.3900269E2,2.2324238E1,2.739194E1,2.9130928E1,1.0987176E2,1.2175536E1,1.0148702E1,1.7876736E1,9.515204E0,1.6201612E1,1.2929316E1,2.2786898E1,8.708486E1,9.137818E0,1.3649079E1,7.787735E1,9.207509E0,6.871263E1,9.1647215E0,8.478325E0,6.0234306E1],"tree_param":{"num_deleted":"0","num_feature":"1280","num_nodes":"23","size_leaf_vector":"1"}},{"base_weights":[-7.79542E-2,-4.3657243E-1,9.70621E-1,-5.8376265E-1,1.2665642E-2,-1.3456297E-3,1.5342994E0,5.945927E-1,-7.6700526E-1,2.521823E-2,8.140171E-3,1.8509172E-2,-3.9792634E-3,-9.8171383E-1,4.6907946E-2,-4.1187027E-1,-1.1866852E0,-1.1956367E-2,8.25317E-3,-1.25731835E-2,7.1252594E-3,-1.8476576E-2,-8.880492E-3],"categories":[],"categories_nodes":[],"categories_segments":[],"categories_sizes":[],"default_left":[0,0,0,0,0,0,0,0,0,0,0,0,0,0,0,0,0,0,0,0,0,0,0],"id":10,"left_children":[1,3,5,7,-1,-1,9,11,13,-1,-1,-1,-1,15,17,19,21,-1,-1,-1,-1,-1,-1],"loss_changes":[7.268784E1,3.045787E1,3.0017696E1,2.8819859E1,0E0,0E0,1.0299896E1,1.4055046E1,1.9952515E1,0E0,0E0,0E0,0E0,9.951286E0,1.47138405E1,1.4168049E1,6.4641953E0,0E0,0E0,0E0,0E0,0E0,0E0],"parents":[2147483647,0,0,1,1,2,2,3,3,6,6,7,7,8,8,13,13,14,14,15,15,16,16],"right_children":[2,4,6,8,-1,-1,10,12,14,-1,-1,-1,-1,16,18,20,22,-1,-1,-1,-1,-1,-1],"split_conditions":[9.47169E-2,7.807359E-2,-6.151274E-2,-5.971458E-3,1.2665642E-2,-1.3456297E-3,-6.412786E-2,3.271523E-2,2.0359151E-1,2.521823E-2,8.140171E-3,1.8509172E-2,-3.9792634E-3,-2.5478585E-2,-1.2192606E-1,1.9389497E-2,-8.0602884E-2,-1.1956367E-2,8.25317E-3,-1.25731835E-2,7.1252594E-3,-1.8476576E-2,-8.880492E-3],"split_indices":[491,839,125,246,0,0,902,349,1012,0,0,0,0,961,1228,1044,1135,0,0,0,0,0,0],"split_type":[0,0,0,0,0,0,0,0,0,0,0,0,0,0,0,0,0,0,0,0,0,0,0],"sum_hessian":[1.9078236E2,1.4267679E2,4.8105576E1,1.2978908E2,1.2887715E1,1.6893581E1,3.1211992E1,1.7109413E1,1.12679665E2,2.0806786E1,1.0405208E1,8.577047E0,8.532365E0,8.896653E1,2.3713133E1,2.4477467E1,6.448906E1,8.712739E0,1.5000395E1,1.5531084E1,8.9463825E0,4.2969242E1,2.151982E1],"tree_param":{"num_deleted":"0","num_feature":"1280","num_nodes":"23","size_leaf_vector":"1"}},{"base_weights":[-4.2187367E-3,1.0328153E0,-4.0216455E-1,1.5052133E0,9.729257E-2,2.7106526E-1,-6.3310015E-1,9.406261E-3,2.4583526E-2,-8.243762E-3,1.13710305E-2,-4.198436E-1,9.215951E-1,-7.8200567E-1,7.6261363E-3,3.0872999E-3,-1.3440359E-2,1.9874495E-2,1.9809501E-3,-1.5012942E-1,-1.0817463E0,9.5110405E-3,-7.9967475E-1,-4.1301525E-3,-1.2460327E0,-1.578574E-2,-3.3295508E-3,-1.845972E-2,-5.6772153E-3],"categories":[],"categories_nodes":[],"categories_segments":[],"categories_sizes":[],"default_left":[0,0,0,0,0,0,0,0,0,0,0,0,0,0,0,0,0,0,0,0,0,0,0,0,0,0,0,0,0],"id":11,"left_children":[1,3,5,7,9,11,13,-1,-1,-1,-1,15,17,19,-1,-1,-1,-1,-1,21,23,-1,25,-1,27,-1,-1,-1,-1],"loss_changes":[8.2422745E1,2.4304985E1,2.2642115E1,9.283165E0,1.1843101E1,1.7398672E1,2.0083496E1,0E0,0E0,0E0,0E0,7.9275875E0,8.876785E0,1.8098766E1,0E0,0E0,0E0,0E0,0E0,1.9207357E1,7.7458267E0,0E0,3.9215393E0,0E0,6.543686E0,0E0,0E0,0E0,0E0],"parents":[2147483647,0,0,1,1,2,2,3,3,4,4,5,5,6,6,11,11,12,12,13,13,19,19,20,20,22,22,24,24],"right_children":[2,4,6,8,10,12,14,-1,-1,-1,-1,16,18,20,-1,-1,-1,-1,-1,22,24,-1,26,-1,28,-1,-1,-1,-1],"split_conditions":[2.9354899E-3,3.961288E-2,-1.0601136E-1,9.9781446E-2,-2.3455815E-2,9.898362E-2,4.041369E-2,9.406261E-3,2.4583526E-2,-8.243762E-3,1.13710305E-2,-4.650094E-2,-1.3759539E-1,1.0397649E-1,7.6261363E-3,3.0872999E-3,-1.3440359E-2,1.9874495E-2,1.9809501E-3,-5.134375E-2,-4.728242E-2,9.5110405E-3,1.7000938E-2,-4.1301525E-3,1.9714531E-1,-1.578574E-2,-3.3295508E-3,-1.845972E-2,-5.6772153E-3],"split_indices":[1172,778,758,795,18,32,304,0,0,0,0,892,1075,154,0,0,0,0,0,1166,1169,0,139,0,1097,0,0,0,0],"split_type":[0,0,0,0,0,0,0,0,0,0,0,0,0,0,0,0,0,0,0,0,0,0,0,0,0,0,0,0,0],"sum_hessian":[1.9734962E2,5.4205086E1,1.4314453E2,3.5538918E1,1.8666166E1,3.650846E1,1.0663607E2,1.2669188E1,2.2869732E1,9.72441E0,8.941756E0,1.7908247E1,1.8600214E1,9.539023E1,1.1245846E1,8.9730015E0,8.9352455E0,9.797667E0,8.802548E0,3.1262495E1,6.412773E1,1.3226502E1,1.8035994E1,1.1944153E1,5.218358E1,9.471017E0,8.564976E0,4.250291E1,9.680668E0],"tree_param":{"num_deleted":"0","num_feature":"1280","num_nodes":"29","size_leaf_vector":"1"}},{"base_weights":[-2.1688651E-2,-4.8034522E-1,8.8412243E-1,-6.089397E-1,1.1470935E-2,1.2010379E0,-4.4204886E-3,-2.1042489E-1,-1.0023297E0,1.7080907E0,3.7014064E-1,-5.6323457E-1,5.762451E-1,-1.2160527E0,-5.9496204E-4,2.6659613E-2,9.5467875E-3,1.2890307E-2,-5.852724E-3,-9.2983097E-1,1.4523553E-3,1.5873078E-2,-1.1850535E-3,-1.781319E-2,-6.2426594E-3,-1.594487E-3,-1.7194288E-2],"categories":[],"categories_nodes":[],"categories_segments":[],"categories_sizes":[],"default_left":[0,0,0,0,0,0,0,0,0,0,0,0,0,0,0,0,0,0,0,0,0,0,0,0,0,0,0],"id":12,"left_children":[1,3,5,7,-1,9,-1,11,13,15,17,19,21,23,-1,-1,-1,-1,-1,25,-1,-1,-1,-1,-1,-1,-1],"loss_changes":[7.9269325E1,2.2762835E1,2.5338043E1,1.7995636E1,0E0,2.0824097E1,0E0,1.684566E1,1.1845936E1,8.501022E0,1.1090075E1,1.0395134E1,8.215079E0,4.4377594E0,0E0,0E0,0E0,0E0,0E0,8.267832E0,0E0,0E0,0E0,0E0,0E0,0E0,0E0],"parents":[2147483647,0,0,1,1,2,2,3,3,5,5,7,7,8,8,9,9,10,10,11,11,12,12,13,13,19,19],"right_children":[2,4,6,8,-1,10,-1,12,14,16,18,20,22,24,-1,-1,-1,-1,-1,26,-1,-1,-1,-1,-1,-1,-1],"split_conditions":[6.7702886E-3,2.0343492E-2,9.833179E-2,-5.7149306E-2,1.1470935E-2,-3.2269713E-2,-4.4204886E-3,1.0225855E-1,8.322647E-3,1.5202871E-1,7.142456E-2,-4.3018915E-2,3.9457276E-2,-2.360268E-2,-5.9496204E-4,2.6659613E-2,9.5467875E-3,1.2890307E-2,-5.852724E-3,1.4004573E-3,1.4523553E-3,1.5873078E-2,-1.1850535E-3,-1.781319E-2,-6.2426594E-3,-1.594487E-3,-1.7194288E-2],"split_indices":[307,430,1050,1214,0,999,0,788,502,1206,634,110,425,1204,0,0,0,0,0,294,0,0,0,0,0,0,0],"split_type":[0,0,0,0,0,0,0,0,0,0,0,0,0,0,0,0,0,0,0,0,0,0,0,0,0,0,0],"sum_hessian":[1.8840778E2,1.2544475E2,6.2963024E1,1.1519745E2,1.0247294E1,5.001959E1,1.2943435E1,5.812822E1,5.7069233E1,3.0287493E1,1.9732096E1,4.0362385E1,1.7765833E1,4.638657E1,1.0682663E1,2.1608135E1,8.679358E0,1.1109489E1,8.622606E0,2.5859322E1,1.4503065E1,8.572125E0,9.193708E0,3.778167E1,8.604899E0,8.884612E0,1.6974709E1],"tree_param":{"num_deleted":"0","num_feature":"1280","num_nodes":"27","size_leaf_vector":"1"}},{"base_weights":[2.0755965E-2,-4.9367833E-1,9.1100836E-1,-6.874099E-1,1.1868994E-2,1.1924853E0,-5.8882963E-3,-8.019736E-1,5.611428E-3,2.4935478E-4,1.423944E0,-4.8433086E-1,-1.2409221E0,8.665229E-1,1.8649843E0,-1.043202E-1,-1.0598263E0,-1.8498272E-2,-9.496938E-3,2.0077901E-2,1.3101313E-3,2.7448094E-2,1.6036801E-2,1.1324066E-2,-6.680697E-3,-6.2966943E-3,-1.785735E-2],"categories":[],"categories_nodes":[],"categories_segments":[],"categories_sizes":[],"default_left":[0,0,0,0,0,0,0,0,0,0,0,0,0,0,0,0,0,0,0,0,0,0,0,0,0,0,0],"id":13,"left_children":[1,3,5,7,-1,9,-1,11,-1,-1,13,15,17,19,21,23,25,-1,-1,-1,-1,-1,-1,-1,-1,-1,-1],"loss_changes":[8.6684784E1,3.3349678E1,2.7208492E1,1.3988728E1,0E0,1.565583E1,0E0,1.2764435E1,0E0,0E0,9.944946E0,1.2556319E1,2.379387E0,1.1913977E1,8.598175E-1,1.4878074E1,3.3006802E0,0E0,0E0,0E0,0E0,0E0,0E0,0E0,0E0,0E0,0E0],"parents":[2147483647,0,0,1,1,2,2,3,3,5,5,7,7,10,10,11,11,12,12,13,13,14,14,15,15,16,16],"right_children":[2,4,6,8,-1,10,-1,12,-1,-1,14,16,18,20,22,24,26,-1,-1,-1,-1,-1,-1,-1,-1,-1,-1],"split_conditions":[1.8102735E-2,9.06212E-3,4.1838605E-2,2.2200545E-2,1.1868994E-2,-3.4918673E-2,-5.8882963E-3,1.1974725E-2,5.611428E-3,2.4935478E-4,7.0645645E-2,1.8846344E-2,-9.993287E-2,3.95388E-2,-4.8928898E-2,-3.1396274E-2,-6.383175E-2,-1.8498272E-2,-9.496938E-3,2.0077901E-2,1.3101313E-3,2.7448094E-2,1.6036801E-2,1.1324066E-2,-6.680697E-3,-6.2966943E-3,-1.785735E-2],"split_indices":[1033,550,1094,1187,0,641,0,14,0,0,499,440,777,102,835,200,1166,0,0,0,0,0,0,0,0,0,0],"split_type":[0,0,0,0,0,0,0,0,0,0,0,0,0,0,0,0,0,0,0,0,0,0,0,0,0,0,0],"sum_hessian":[1.8693251E2,1.1880683E2,6.812567E1,1.0492075E2,1.3886081E1,5.658027E1,1.1545404E1,9.5465485E1,9.455266E0,9.533078E0,4.704719E1,5.6829834E1,3.8635654E1,2.2331314E1,2.4715878E1,3.5070145E1,2.175969E1,2.7221087E1,1.1414566E1,1.12661915E1,1.1065123E1,1.6015217E1,8.700661E0,9.965427E0,2.5104717E1,8.625254E0,1.3134435E1],"tree_param":{"num_deleted":"0","num_feature":"1280","num_nodes":"27","size_leaf_vector":"1"}},{"base_weights":[-1.0609537E-2,8.9967644E-1,-4.5434412E-1,8.366207E-3,1.456128E0,-6.7112845E-1,1.2050674E-2,1.0225345E-2,-1.164905E-2,1.7566704E0,7.057799E-3,-8.792347E-1,3.160377E-1,1.411362E-2,2.5974432E-2,-1.075411E0,-2.7285732E-2,1.5050264E-2,-6.5685026E-3,-1.2070653E0,-2.3891374E-3,9.758472E-3,-1.0285763E-2,-1.7472815E-2,-6.1992123E-3],"categories":[],"categories_nodes":[],"categories_segments":[],"categories_sizes":[],"default_left":[0,0,0,0,0,0,0,0,0,0,0,0,0,0,0,0,0,0,0,0,0,0,0,0,0],"id":14,"left_children":[1,3,5,7,9,11,-1,-1,-1,13,-1,15,17,-1,-1,19,21,-1,-1,23,-1,-1,-1,-1,-1],"loss_changes":[7.6072365E1,3.0599068E1,3.853443E1,1.8215149E1,9.330063E0,2.2939999E1,0E0,0E0,0E0,1.8735428E0,0E0,1.5210144E1,1.4419237E1,0E0,0E0,8.445854E0,1.1473095E1,0E0,0E0,5.438553E0,0E0,0E0,0E0,0E0,0E0],"parents":[2147483647,0,0,1,1,2,2,3,3,4,4,5,5,9,9,11,11,12,12,15,15,16,16,19,19],"right_children":[2,4,6,8,10,12,-1,-1,-1,14,-1,16,18,-1,-1,20,22,-1,-1,24,-1,-1,-1,-1,-1],"split_conditions":[1.3021639E-2,8.89135E-2,9.281507E-2,-3.6104384E-3,5.369971E-2,2.496768E-2,1.2050674E-2,1.0225345E-2,-1.164905E-2,3.0830983E-2,7.057799E-3,9.820636E-2,-2.7953697E-2,1.411362E-2,2.5974432E-2,1.4865845E-1,6.7057465E-3,1.5050264E-2,-6.5685026E-3,-4.0353946E-3,-2.3891374E-3,9.758472E-3,-1.0285763E-2,-1.7472815E-2,-6.1992123E-3],"split_indices":[1172,994,105,553,860,911,0,0,0,979,0,53,342,0,0,335,765,0,0,100,0,0,0,0,0],"split_type":[0,0,0,0,0,0,0,0,0,0,0,0,0,0,0,0,0,0,0,0,0,0,0,0,0],"sum_hessian":[1.8595193E2,6.054102E1,1.2541091E2,2.3730766E1,3.6810253E1,1.0888142E2,1.6529491E1,1.283906E1,1.08917055E1,2.6894196E1,9.916057E0,9.0031166E1,1.885025E1,8.607371E0,1.8286825E1,7.292786E1,1.7103308E1,9.086406E0,9.7638445E0,6.318857E1,9.739293E0,8.482767E0,8.620541E0,5.274727E1,1.0441299E1],"tree_param":{"num_deleted":"0","num_feature":"1280","num_nodes":"25","size_leaf_vector":"1"}},{"base_weights":[4.6532806E-2,-4.181696E-1,9.974431E-1,1.7303033E-2,-5.621638E-1,-5.8523873E-3,1.2899299E0,-7.805738E-1,1.6504091E-1,2.6982895E-3,1.4993578E0,-1.0159714E0,4.5872357E-2,-7.5268224E-3,9.262492E-3,1.7251076E0,8.778013E-3,-1.1659452E0,-1.9580655E-4,1.0637134E-2,-8.718322E-3,1.2907691E-2,2.520086E-2,-1.7347997E-2,-7.898027E-3],"categories":[],"categories_nodes":[],"categories_segments":[],"categories_sizes":[],"default_left":[0,0,0,0,0,0,0,0,0,0,0,0,0,0,0,0,0,0,0,0,0,0,0,0,0],"id":15,"left_children":[1,3,5,-1,7,-1,9,11,13,-1,15,17,19,-1,-1,21,-1,23,-1,-1,-1,-1,-1,-1,-1],"loss_changes":[8.464203E1,3.3206257E1,2.7265678E1,0E0,1.917369E1,0E0,1.156369E1,1.8012466E1,1.2047034E1,0E0,6.8192368E0,1.0771889E1,1.24947E1,0E0,0E0,2.837532E0,0E0,4.76091E0,0E0,0E0,0E0,0E0,0E0,0E0,0E0],"parents":[2147483647,0,0,1,1,2,2,4,4,6,6,7,7,8,8,10,10,11,11,12,12,15,15,17,17],"right_children":[2,4,6,-1,8,-1,10,12,14,-1,16,18,20,-1,-1,22,-1,24,-1,-1,-1,-1,-1,-1,-1],"split_conditions":[9.46445E-2,-8.10403E-2,-6.1771415E-2,1.7303033E-2,9.140711E-3,-5.8523873E-3,-1.00051485E-1,1.022078E-1,1.2257113E-2,2.6982895E-3,-3.5493087E-2,-5.394917E-3,-3.6646188E-3,-7.5268224E-3,9.262492E-3,1.5044348E-2,8.778013E-3,6.540007E-2,-1.9580655E-4,1.0637134E-2,-8.718322E-3,1.2907691E-2,2.520086E-2,-1.7347997E-2,-7.898027E-3],"split_indices":[182,897,654,0,533,0,952,633,518,0,983,78,321,0,0,191,0,853,0,0,0,0,0,0,0],"split_type":[0,0,0,0,0,0,0,0,0,0,0,0,0,0,0,0,0,0,0,0,0,0,0,0,0],"sum_hessian":[1.8924512E2,1.2756704E2,6.1678074E1,8.990916E0,1.1857612E2,1.02723875E1,5.1405685E1,9.1121635E1,2.7454487E1,8.709237E0,4.269645E1,7.0709885E1,2.0411747E1,1.1593556E1,1.5860931E1,3.2530857E1,1.0165589E1,6.132645E1,9.383437E0,9.744956E0,1.0666791E1,8.591546E0,2.3939312E1,4.627004E1,1.5056412E1],"tree_param":{"num_deleted":"0","num_feature":"1280","num_nodes":"25","size_leaf_vector":"1"}},{"base_weights":[-1.3367052E-2,-3.616446E-1,1.201101E0,7.329495E-1,-5.6389713E-1,1.4796045E0,1.2730727E-3,-2.734611E-3,1.7357053E-2,2.4100848E-2,-8.161585E-1,9.380532E-3,2.3545275E-2,-1.1286483E-2,5.241521E-1,3.920192E-3,-1.0245457E0,1.9994538E-2,-3.0385114E-3,-1.1611072E0,9.132579E-6,-1.6964117E-2,-4.4303862E-3],"categories":[],"categories_nodes":[],"categories_segments":[],"categories_sizes":[],"default_left":[0,0,0,0,0,0,0,0,0,0,0,0,0,0,0,0,0,0,0,0,0,0,0],"id":16,"left_children":[1,3,5,7,9,11,-1,-1,-1,13,15,-1,-1,-1,17,-1,19,-1,-1,21,-1,-1,-1],"loss_changes":[8.1356E1,3.357334E1,1.3005215E1,1.3722713E1,1.8832111E1,6.885353E0,0E0,0E0,0E0,1.7963526E1,2.101651E1,0E0,0E0,0E0,2.0119867E1,0E0,1.0512131E1,0E0,0E0,7.0092545E0,0E0,0E0,0E0],"parents":[2147483647,0,0,1,1,2,2,3,3,4,4,5,5,9,9,10,10,14,14,16,16,19,19],"right_children":[2,4,6,8,10,12,-1,-1,-1,14,16,-1,-1,-1,18,-1,20,-1,-1,22,-1,-1,-1],"split_conditions":[6.5082006E-2,-4.2285784E-3,7.509596E-2,2.8307607E-2,-6.9844626E-2,-9.092494E-2,1.2730727E-3,-2.734611E-3,1.7357053E-2,1.01611875E-1,-4.3314744E-2,9.380532E-3,2.3545275E-2,-1.1286483E-2,1.0354758E-1,3.920192E-3,8.043163E-3,1.9994538E-2,-3.0385114E-3,1.7825637E-3,9.132579E-6,-1.6964117E-2,-4.4303862E-3],"split_indices":[437,891,998,477,1040,952,0,0,0,880,185,0,0,0,348,0,976,0,0,267,0,0,0],"split_type":[0,0,0,0,0,0,0,0,0,0,0,0,0,0,0,0,0,0,0,0,0,0,0],"sum_hessian":[1.8994524E2,1.482593E2,4.1685932E1,2.2637869E1,1.2562143E2,3.2963894E1,8.722041E0,9.073117E0,1.3564752E1,3.8035175E1,8.758626E1,1.0978886E1,2.1985006E1,1.338545E1,2.4649723E1,1.3694677E1,7.389158E1,1.0055283E1,1.4594441E1,6.506781E1,8.823766E0,5.5103664E1,9.964146E0],"tree_param":{"num_deleted":"0","num_feature":"1280","num_nodes":"23","size_leaf_vector":"1"}},{"base_weights":[-4.740996E-2,9.350411E-1,-4.039545E-1,-9.585701E-2,1.4888625E0,5.6056726E-1,-5.738289E-1,8.6785965E-3,-1.0291297E-2,9.441193E-3,2.3278438E-2,-1.4565497E-3,1.6170563E-2,1.0003349E-1,-8.621315E-1,-1.1970003E-2,4.600142E-1,-1.0796224E0,-1.0166654E-1,-1.5676691E-3,1.3744064E-2,-5.0474095E-1,-1.2792413E0,-1.0472712E-2,7.553664E-3,-1.4957232E-2,2.8497924E-3,-8.554187E-3,-1.8499883E-2],"categories":[],"categories_nodes":[],"categories_segments":[],"categories_sizes":[],"default_left":[0,0,0,0,0,0,0,0,0,0,0,0,0,0,0,0,0,0,0,0,0,0,0,0,0,0,0,0,0],"id":17,"left_children":[1,3,5,7,9,11,13,-1,-1,-1,-1,-1,-1,15,17,-1,19,21,23,-1,-1,25,27,-1,-1,-1,-1,-1,-1],"loss_changes":[6.707289E1,2.9288715E1,2.3382023E1,1.0593891E1,5.965523E0,1.0017583E1,2.3404613E1,0E0,0E0,0E0,0E0,0E0,0E0,1.4044111E1,1.378442E1,0E0,9.817423E0,6.729088E0,1.0087917E1,0E0,0E0,9.001155E0,3.0035553E0,0E0,0E0,0E0,0E0,0E0,0E0],"parents":[2147483647,0,0,1,1,2,2,3,3,4,4,5,5,6,6,13,13,14,14,16,16,17,17,18,18,21,21,22,22],"right_children":[2,4,6,8,10,12,14,-1,-1,-1,-1,-1,-1,16,18,-1,20,22,24,-1,-1,26,28,-1,-1,-1,-1,-1,-1],"split_conditions":[-1.4950595E-3,8.148007E-2,1.2887229E-2,-4.6428802E-4,2.0132016E-2,1.3968292E-2,-1.00392744E-1,8.6785965E-3,-1.0291297E-2,9.441193E-3,2.3278438E-2,-1.4565497E-3,1.6170563E-2,-1.3488922E-1,3.85685E-2,-1.1970003E-2,-2.5014035E-2,7.225883E-2,7.3554896E-2,-1.5676691E-3,1.3744064E-2,7.847995E-2,-8.868597E-2,-1.0472712E-2,7.553664E-3,-1.4957232E-2,2.8497924E-3,-8.554187E-3,-1.8499883E-2],"split_indices":[1172,491,373,897,638,702,758,0,0,0,0,0,0,524,897,0,147,742,531,0,0,505,183,0,0,0,0,0,0],"split_type":[0,0,0,0,0,0,0,0,0,0,0,0,0,0,0,0,0,0,0,0,0,0,0,0,0,0,0,0,0],"sum_hessian":[1.8902022E2,4.9820618E1,1.391996E2,1.7753069E1,3.206755E1,2.0437424E1,1.1876218E2,8.482563E0,9.270506E0,1.0038327E1,2.2029222E1,1.0760223E1,9.6772E0,3.581738E1,8.29448E1,8.8855295E0,2.6931849E1,6.411225E1,1.883255E1,1.4088355E1,1.2843493E1,1.760037E1,4.6511883E1,9.173594E0,9.658955E0,8.962924E0,8.637446E0,9.647218E0,3.6864662E1],"tree_param":{"num_deleted":"0","num_feature":"1280","num_nodes":"29","size_leaf_vector":"1"}},{"base_weights":[1.631991E-2,-3.3622846E-1,1.1506358E0,-5.4607964E-1,6.604564E-1,5.632859E-3,1.5183424E0,-7.803931E-1,9.146734E-2,1.4977807E-2,-2.0899456E-3,2.4011347E-2,9.100199E-3,-9.5500827E-1,1.8926321E-3,1.2303526E-2,-4.7186825E-1,-1.0979714E0,-2.0822644E-4,-1.4105036E-2,3.56939E-3,-1.5932411E-2,-5.970826E-3],"categories":[],"categories_nodes":[],"categories_segments":[],"categories_sizes":[],"default_left":[0,0,0,0,0,0,0,0,0,0,0,0,0,0,0,0,0,0,0,0,0,0,0],"id":18,"left_children":[1,3,5,7,9,-1,11,13,15,-1,-1,-1,-1,17,-1,-1,19,21,-1,-1,-1,-1,-1],"loss_changes":[7.651244E1,3.096455E1,1.12202835E1,1.8198753E1,1.0575599E1,0E0,6.2697525E0,1.4511478E1,1.6656317E1,0E0,0E0,0E0,0E0,1.0028572E1,0E0,0E0,9.889555E0,4.4337845E0,0E0,0E0,0E0,0E0,0E0],"parents":[2147483647,0,0,1,1,2,2,3,3,4,4,6,6,7,7,8,8,13,13,16,16,17,17],"right_children":[2,4,6,8,10,-1,12,14,16,-1,-1,-1,-1,18,-1,-1,20,22,-1,-1,-1,-1,-1],"split_conditions":[6.3743554E-2,9.09937E-2,1.3598145E-2,4.224069E-2,1.4324585E-1,5.632859E-3,-3.5484385E-2,9.2856444E-2,3.8662113E-2,1.4977807E-2,-2.0899456E-3,2.4011347E-2,9.100199E-3,1.4035028E-1,1.8926321E-3,1.2303526E-2,4.6720225E-2,5.767087E-3,-2.0822644E-4,-1.4105036E-2,3.56939E-3,-1.5932411E-2,-5.970826E-3],"split_indices":[437,105,831,764,32,0,385,567,958,0,0,0,0,335,0,0,994,379,0,0,0,0,0],"split_type":[0,0,0,0,0,0,0,0,0,0,0,0,0,0,0,0,0,0,0,0,0,0,0],"sum_hessian":[1.8900027E2,1.4482182E2,4.4178448E1,1.2007509E2,2.4746733E1,1.58164215E1,2.8362026E1,8.76109E1,3.2464188E1,1.52359495E1,9.510784E0,1.9338705E1,9.023319E0,7.367135E1,1.39395485E1,1.2613659E1,1.9850529E1,6.376366E1,9.907693E0,1.0634586E1,9.215942E0,5.2632824E1,1.1130836E1],"tree_param":{"num_deleted":"0","num_feature":"1280","num_nodes":"23","size_leaf_vector":"1"}},{"base_weights":[1.6507085E-2,-3.9965674E-1,9.809086E-1,6.302624E-1,-5.832307E-1,-2.4162745E-3,1.2873138E0,1.682563E-2,-1.9910263E-3,6.807395E-2,-8.6649126E-1,1.5551438E0,1.1968918E-3,-3.756073E-1,1.3430718E-2,6.05726E-3,-1.0360225E0,2.3612354E-2,9.431071E-3,5.3765206E-3,-1.0303202E-2,-1.1634477E0,-3.667118E-3,-1.6881347E-2,-5.642356E-3],"categories":[],"categories_nodes":[],"categories_segments":[],"categories_sizes":[],"default_left":[0,0,0,0,0,0,0,0,0,0,0,0,0,0,0,0,0,0,0,0,0,0,0,0,0],"id":19,"left_children":[1,3,5,7,9,-1,11,-1,-1,13,15,17,-1,19,-1,-1,21,-1,-1,-1,-1,23,-1,-1,-1],"loss_changes":[7.89884E1,2.6434261E1,2.147522E1,1.1249847E1,2.1715145E1,0E0,1.4921875E1,0E0,0E0,1.608264E1,1.9030964E1,6.5670776E0,0E0,8.834348E0,0E0,0E0,6.6342697E0,0E0,0E0,0E0,0E0,5.221977E0,0E0,0E0,0E0],"parents":[2147483647,0,0,1,1,2,2,3,3,4,4,6,6,9,9,10,10,11,11,13,13,16,16,21,21],"right_children":[2,4,6,8,10,-1,12,-1,-1,14,16,18,-1,20,-1,-1,22,-1,-1,-1,-1,24,-1,-1,-1],"split_conditions":[9.46445E-2,-4.455462E-3,-2.9849717E-2,6.4219065E-2,-6.9844626E-2,-2.4162745E-3,1.7551075E-1,1.682563E-2,-1.9910263E-3,5.3121537E-2,-3.1595338E-2,-1.4056525E-1,1.1968918E-3,7.877005E-2,1.3430718E-2,6.05726E-3,6.8222195E-2,2.3612354E-2,9.431071E-3,5.3765206E-3,-1.0303202E-2,-4.4991743E-2,-3.667118E-3,-1.6881347E-2,-5.642356E-3],"split_indices":[182,246,18,870,1040,0,377,0,0,425,221,882,0,874,0,0,182,0,0,0,0,91,0,0,0],"split_type":[0,0,0,0,0,0,0,0,0,0,0,0,0,0,0,0,0,0,0,0,0,0,0,0,0],"sum_hessian":[1.9446817E2,1.3633086E2,5.813731E1,2.0188183E1,1.1614268E2,1.2195838E1,4.5941475E1,1.0548457E1,9.639727E0,3.547455E1,8.066814E1,3.724298E1,8.69849E0,2.4760277E1,1.0714271E1,8.884869E0,7.1783264E1,2.7486969E1,9.756015E0,8.528518E0,1.6231758E1,6.087149E1,1.0911774E1,5.0931877E1,9.939614E0],"tree_param":{"num_deleted":"0","num_feature":"1280","num_nodes":"25","size_leaf_vector":"1"}},{"base_weights":[-9.7973675E-2,-4.2379257E-1,8.4897536E-1,1.6122213E-1,-6.3278913E-1,-2.7389042E-3,1.2296728E0,-4.636906E-1,8.740772E-1,-8.391197E-1,1.5402335E-1,1.5636721E0,1.7423565E-3,2.2588114E-3,-1.4899825E-2,2.0743685E-2,2.9021743E-4,-1.0336301E0,1.2950802E-3,1.0714225E-2,-1.0896986E-2,1.2073757E-2,2.3407904E-2,-5.863539E-1,-1.2126217E0,1.9075708E-3,-1.4382631E-2,-7.977803E-3,-1.7290091E-2],"categories":[],"categories_nodes":[],"categories_segments":[],"categories_sizes":[],"default_left":[0,0,0,0,0,0,0,0,0,0,0,0,0,0,0,0,0,0,0,0,0,0,0,0,0,0,0,0,0],"id":20,"left_children":[1,3,5,7,9,-1,11,13,15,17,19,21,-1,-1,-1,-1,-1,23,-1,-1,-1,-1,-1,25,27,-1,-1,-1,-1],"loss_changes":[5.9684723E1,1.7688908E1,2.0282154E1,1.7747913E1,1.7378769E1,0E0,1.3163204E1,9.479453E0,1.12350445E1,1.5497459E1,1.6000465E1,2.1348724E0,0E0,0E0,0E0,0E0,0E0,4.753525E0,0E0,0E0,0E0,0E0,0E0,8.594923E0,2.324028E0,0E0,0E0,0E0,0E0],"parents":[2147483647,0,0,1,1,2,2,3,3,4,4,6,6,7,7,8,8,9,9,10,10,11,11,17,17,23,23,24,24],"right_children":[2,4,6,8,10,-1,12,14,16,18,20,22,-1,-1,-1,-1,-1,24,-1,-1,-1,-1,-1,26,28,-1,-1,-1,-1],"split_conditions":[3.0091887E-2,-1.03039525E-1,1.2718388E-2,-2.6693472E-3,-4.6721775E-2,-2.7389042E-3,7.716882E-2,3.7505783E-2,1.8856712E-2,8.07323E-2,1.4608827E-1,5.0523123E-3,1.7423565E-3,2.2588114E-3,-1.4899825E-2,2.0743685E-2,2.9021743E-4,-3.0413475E-2,1.2950802E-3,1.0714225E-2,-1.0896986E-2,1.2073757E-2,2.3407904E-2,-1.702474E-2,2.2044567E-2,1.9075708E-3,-1.4382631E-2,-7.977803E-3,-1.7290091E-2],"split_indices":[307,758,807,107,367,0,336,467,180,796,787,1007,0,0,0,0,0,707,0,0,0,0,0,300,1244,0,0,0,0],"split_type":[0,0,0,0,0,0,0,0,0,0,0,0,0,0,0,0,0,0,0,0,0,0,0,0,0,0,0,0,0],"sum_hessian":[1.9088306E2,1.4250482E2,4.8378223E1,3.7580765E1,1.04924065E2,1.2935091E1,3.544313E1,2.0246021E1,1.7334743E1,8.306323E1,2.1860834E1,2.6779268E1,8.663864E0,1.0892414E1,9.353608E0,8.868398E0,8.466346E0,6.8701485E1,1.4361743E1,1.3176949E1,8.683885E0,8.647704E0,1.8131565E1,2.108143E1,4.7620056E1,9.056725E0,1.2024706E1,8.662047E0,3.8958008E1],"tree_param":{"num_deleted":"0","num_feature":"1280","num_nodes":"29","size_leaf_vector":"1"}},{"base_weights":[-2.879643E-2,8.32296E-1,-4.1363695E-1,1.2572291E0,-1.5827475E-1,-5.867845E-1,5.9749806E-1,1.5761205E0,5.0253333E-3,-1.0549987E-2,7.622625E-3,-7.252826E-1,6.812781E-3,1.570829E-2,-2.937917E-3,1.1320383E-2,2.3510912E-2,-8.413876E-1,4.073357E-3,-9.6525425E-1,3.5116514E-3,-1.4266973E-2,1.8585813E-3],"categories":[],"categories_nodes":[],"categories_segments":[],"categories_sizes":[],"default_left":[0,0,0,0,0,0,0,0,0,0,0,0,0,0,0,0,0,0,0,0,0,0,0],"id":21,"left_children":[1,3,5,7,9,11,13,15,-1,-1,-1,17,-1,-1,-1,-1,-1,19,-1,21,-1,-1,-1],"loss_changes":[6.5686104E1,2.6012218E1,2.4388617E1,1.1239571E1,9.93154E0,1.8490948E1,1.0587709E1,3.1082764E0,0E0,0E0,0E0,1.2951061E1,0E0,0E0,0E0,0E0,0E0,1.3333618E1,0E0,1.226165E1,0E0,0E0,0E0],"parents":[2147483647,0,0,1,1,2,2,3,3,4,4,5,5,6,6,7,7,11,11,17,17,19,19],"right_children":[2,4,6,8,10,12,14,16,-1,-1,-1,18,-1,-1,-1,-1,-1,20,-1,22,-1,-1,-1],"split_conditions":[1.2187288E-2,-2.3592217E-2,9.07795E-2,-9.5102586E-2,-2.8102107E-2,3.107878E-2,2.183564E-2,1.3030984E-1,5.0253333E-3,-1.0549987E-2,7.622625E-3,5.629279E-3,6.812781E-3,1.570829E-2,-2.937917E-3,1.1320383E-2,2.3510912E-2,5.6170676E-2,4.073357E-3,4.5772705E-2,3.5116514E-3,-1.4266973E-2,1.8585813E-3],"split_indices":[1172,837,105,613,641,533,953,123,0,0,0,513,0,0,0,0,0,437,0,637,0,0,0],"split_type":[0,0,0,0,0,0,0,0,0,0,0,0,0,0,0,0,0,0,0,0,0,0,0],"sum_hessian":[1.9580531E2,6.005487E1,1.3575044E2,4.180353E1,1.8251339E1,1.163271E2,1.9423334E1,2.9913141E1,1.1890389E1,9.674796E0,8.576543E0,1.03772385E2,1.2554718E1,1.0870353E1,8.552981E0,8.585036E0,2.1328106E1,9.352734E1,1.0245039E1,8.428024E1,9.247104E0,7.558892E1,8.691321E0],"tree_param":{"num_deleted":"0","num_feature":"1280","num_nodes":"23","size_leaf_vector":"1"}},{"base_weights":[2.041102E-2,9.298798E-1,-3.1942946E-1,1.3593535E0,-5.398488E-3,-4.958397E-1,6.4560366E-1,1.5727313E0,6.886389E-3,-6.336784E-1,7.990465E-3,1.7229782E-2,-1.3618773E-3,2.333271E-2,1.2188818E-2,5.791662E-3,-7.787099E-1,3.0049332E-3,-9.491814E-1,-3.4487732E-3,-1.4194744E-2],"categories":[],"categories_nodes":[],"categories_segments":[],"categories_sizes":[],"default_left":[0,0,0,0,0,0,0,0,0,0,0,0,0,0,0,0,0,0,0,0,0],"id":22,"left_children":[1,3,5,7,-1,9,11,13,-1,15,-1,-1,-1,-1,-1,-1,17,-1,19,-1,-1],"loss_changes":[5.767006E1,2.9945541E1,2.3512245E1,5.8932343E0,0E0,1.8105442E1,1.1040752E1,2.1698837E0,0E0,1.6556625E1,0E0,0E0,0E0,0E0,0E0,0E0,1.5998146E1,0E0,7.0894547E0,0E0,0E0],"parents":[2147483647,0,0,1,1,2,2,3,3,5,5,6,6,7,7,9,9,16,16,18,18],"right_children":[2,4,6,8,-1,10,12,14,-1,16,-1,-1,-1,-1,-1,-1,18,-1,20,-1,-1],"split_conditions":[-2.2061546E-3,7.2310284E-2,9.09937E-2,-3.810679E-2,-5.398488E-3,9.747031E-2,-3.4750942E-2,-1.1312035E-2,6.886389E-3,5.0673205E-2,7.990465E-3,1.7229782E-2,-1.3618773E-3,2.333271E-2,1.2188818E-2,5.791662E-3,-5.5059176E-2,3.0049332E-3,-9.7325414E-2,-3.4487732E-3,-1.4194744E-2],"split_indices":[1172,860,105,889,0,848,892,944,0,687,0,0,0,0,0,0,200,0,1108,0,0],"split_type":[0,0,0,0,0,0,0,0,0,0,0,0,0,0,0,0,0,0,0,0,0],"sum_hessian":[1.8426912E2,4.9566517E1,1.347026E2,3.7548523E1,1.2017995E1,1.143707E2,2.0331905E1,2.9044533E1,8.503989E0,1.0216629E2,1.2204406E1,1.023308E1,1.0098825E1,2.0153082E1,8.891451E0,1.1832961E1,9.033333E1,1.2997425E1,7.733591E1,1.3555785E1,6.378012E1],"tree_param":{"num_deleted":"0","num_feature":"1280","num_nodes":"21","size_leaf_vector":"1"}},{"base_weights":[1.0262548E-2,-3.3451375E-1,8.2458764E-1,-1.0069667E0,-5.5535957E-3,1.1608014E0,-6.115084E-3,-1.7229985E-2,-5.025205E-1,-1.2809706E-2,2.2649823E-1,1.4288095E0,-1.5515968E-4,-1.4934008E-2,3.328145E-3,6.28828E-1,-3.1881857E-1,7.6074796E-3,2.1846836E-2,1.7523484E-1,1.7385934E-2,3.0036166E-1,-1.3305297E-2,1.3606672E-2,-5.564359E-3,1.5495312E-2,-8.42362E-3],"categories":[],"categories_nodes":[],"categories_segments":[],"categories_sizes":[],"default_left":[0,0,0,0,0,0,0,0,0,0,0,0,0,0,0,0,0,0,0,0,0,0,0,0,0,0,0],"id":23,"left_children":[1,3,5,7,9,11,-1,-1,13,-1,15,17,-1,-1,-1,19,21,-1,-1,23,-1,25,-1,-1,-1,-1,-1],"loss_changes":[5.4268574E1,3.0038574E1,2.5635948E1,6.255188E0,2.1181547E1,1.4466949E1,0E0,0E0,9.569675E0,0E0,1.6824389E1,6.592743E0,0E0,0E0,0E0,1.3722115E1,1.4621945E1,0E0,0E0,1.5151667E1,0E0,1.6304136E1,0E0,0E0,0E0,0E0,0E0],"parents":[2147483647,0,0,1,1,2,2,3,3,4,4,5,5,8,8,10,10,11,11,15,15,16,16,19,19,21,21],"right_children":[2,4,6,8,10,12,-1,-1,14,-1,16,18,-1,-1,-1,20,22,-1,-1,24,-1,26,-1,-1,-1,-1,-1],"split_conditions":[-4.284803E-2,6.2385585E-2,5.951759E-2,-2.737462E-2,-8.1957296E-2,1.0548579E-1,-6.115084E-3,-1.7229985E-2,3.7354988E-3,-1.2809706E-2,-9.026919E-3,-9.980586E-3,-1.5515968E-4,-1.4934008E-2,3.328145E-3,-6.784525E-2,-1.6418539E-2,7.6074796E-3,2.1846836E-2,1.3670401E-1,1.7385934E-2,8.058917E-2,-1.3305297E-2,1.3606672E-2,-5.564359E-3,1.5495312E-2,-8.42362E-3],"split_indices":[367,942,376,18,139,701,0,0,312,0,458,191,0,0,0,915,1126,0,0,1206,0,1117,0,0,0,0,0],"split_type":[0,0,0,0,0,0,0,0,0,0,0,0,0,0,0,0,0,0,0,0,0,0,0,0,0,0,0],"sum_hessian":[1.9094585E2,1.3463857E2,5.6307274E1,4.342707E1,9.12115E1,4.4783398E1,1.1523876E1,2.5623596E1,1.7803474E1,1.6791483E1,7.442002E1,3.624211E1,8.541286E0,9.31323E0,8.490245E0,4.272022E1,3.16998E1,9.026531E0,2.7215578E1,2.6863585E1,1.5856634E1,1.7183695E1,1.4516106E1,1.0647545E1,1.621604E1,8.712833E0,8.470861E0],"tree_param":{"num_deleted":"0","num_feature":"1280","num_nodes":"27","size_leaf_vector":"1"}},{"base_weights":[-1.47009175E-2,-3.9247304E-1,9.3636906E-1,-7.487609E-1,1.558396E-1,-2.9227207E-4,1.28427E0,5.5715675E-3,-8.9160603E-1,-3.5419977E-1,9.85132E-1,3.4326012E-3,2.194878E-2,-1.066166E-3,-1.0982349E0,8.920843E-3,-8.124583E-1,2.1604272E-2,4.3859994E-3,-1.2180129E0,-7.191611E-3,-1.0066838E-3,-1.6874336E-2,-1.0312787E-2,-1.8147659E-2],"categories":[],"categories_nodes":[],"categories_segments":[],"categories_sizes":[],"default_left":[0,0,0,0,0,0,0,0,0,0,0,0,0,0,0,0,0,0,0,0,0,0,0,0,0],"id":24,"left_children":[1,3,5,7,9,-1,11,-1,13,15,17,-1,-1,-1,19,-1,21,-1,-1,23,-1,-1,-1,-1,-1],"loss_changes":[6.7441154E1,2.6377007E1,1.7835133E1,1.4155205E1,2.3202656E1,0E0,1.5362587E1,0E0,1.2136997E1,1.6932827E1,8.39905E0,0E0,0E0,0E0,3.0211563E0,0E0,8.455767E0,0E0,0E0,2.1455688E0,0E0,0E0,0E0,0E0,0E0],"parents":[2147483647,0,0,1,1,2,2,3,3,4,4,6,6,8,8,9,9,10,10,14,14,16,16,19,19],"right_children":[2,4,6,8,10,-1,12,-1,14,16,18,-1,-1,-1,20,-1,22,-1,-1,24,-1,-1,-1,-1,-1],"split_conditions":[2.925672E-2,2.4371317E-2,8.245104E-2,1.3386737E-2,-8.4258616E-2,-2.9227207E-4,4.8191648E-2,5.5715675E-3,9.1954746E-4,-1.334246E-1,-1.114378E-2,3.4326012E-3,2.194878E-2,-1.066166E-3,8.400823E-3,8.920843E-3,9.838947E-2,2.1604272E-2,4.3859994E-3,-6.491776E-2,-7.191611E-3,-1.0066838E-3,-1.6874336E-2,-1.0312787E-2,-1.8147659E-2],"split_indices":[307,764,491,373,356,0,886,0,501,628,1018,0,0,0,245,0,1067,0,0,183,0,0,0,0,0],"split_type":[0,0,0,0,0,0,0,0,0,0,0,0,0,0,0,0,0,0,0,0,0,0,0,0,0],"sum_hessian":[1.8531427E2,1.3312932E2,5.2184963E1,8.043252E1,5.26968E1,1.4189161E1,3.79958E1,8.459908E0,7.197261E1,3.3048744E1,1.9648054E1,1.1185685E1,2.6810118E1,1.4964834E1,5.7007774E1,9.946948E0,2.3101795E1,8.768469E0,1.0879585E1,4.5583088E1,1.1424684E1,9.667722E0,1.3434074E1,1.4967388E1,3.0615702E1],"tree_param":{"num_deleted":"0","num_feature":"1280","num_nodes":"25","size_leaf_vector":"1"}},{"base_weights":[-6.1887935E-2,9.56625E-1,-4.2245632E-1,1.2978853E0,-6.7412313E-3,5.6425035E-1,-6.089801E-1,5.005826E-3,1.5239547E0,1.5623144E-2,-2.2502753E-3,-2.7038547E-1,-1.0173796E0,9.171837E-3,2.347717E-2,9.205472E-3,-4.8542562E-1,-1.2177552E0,-2.342642E-3,1.22088626E-1,-8.152872E-1,-1.7442634E-2,-8.501274E-3,1.136869E-2,-9.3518095E-3,-1.2411396E-3,-1.4892963E-2],"categories":[],"categories_nodes":[],"categories_segments":[],"categories_sizes":[],"default_left":[0,0,0,0,0,0,0,0,0,0,0,0,0,0,0,0,0,0,0,0,0,0,0,0,0,0,0],"id":25,"left_children":[1,3,5,7,-1,9,11,-1,13,-1,-1,15,17,-1,-1,-1,19,21,-1,23,25,-1,-1,-1,-1,-1,-1],"loss_changes":[7.039012E1,2.5994999E1,2.6433596E1,7.79303E0,0E0,1.1004861E1,1.619962E1,0E0,5.831711E0,0E0,0E0,1.444886E1,8.7644005E0,0E0,0E0,0E0,1.1250897E1,1.8644867E0,0E0,1.3657198E1,8.348749E0,0E0,0E0,0E0,0E0,0E0,0E0],"parents":[2147483647,0,0,1,1,2,2,3,3,5,5,6,6,8,8,11,11,12,12,16,16,17,17,19,19,20,20],"right_children":[2,4,6,8,-1,10,12,-1,14,-1,-1,16,18,-1,-1,-1,20,22,-1,24,26,-1,-1,-1,-1,-1,-1],"split_conditions":[-8.7692775E-3,7.928626E-2,-3.1271544E-3,-1.8211711E-2,-6.7412313E-3,2.3039233E-2,2.0976601E-2,5.005826E-3,-8.1477836E-2,1.5623144E-2,-2.2502753E-3,-3.4130678E-2,8.523067E-2,9.171837E-3,2.347717E-2,9.205472E-3,-2.0430699E-2,1.5835984E-2,-2.342642E-3,-2.930099E-2,-6.0715705E-2,-1.7442634E-2,-8.501274E-3,1.136869E-2,-9.3518095E-3,-1.2411396E-3,-1.4892963E-2],"split_indices":[1172,860,246,1007,0,607,1212,0,463,0,0,1125,796,0,0,0,392,81,0,238,479,0,0,0,0,0,0],"split_type":[0,0,0,0,0,0,0,0,0,0,0,0,0,0,0,0,0,0,0,0,0,0,0,0,0,0,0],"sum_hessian":[1.8918599E2,4.895228E1,1.4023372E2,3.985862E1,9.0936575E0,2.1913816E1,1.183199E2,8.533063E0,3.1325558E1,1.1392736E1,1.0521081E1,6.5763565E1,5.2556335E1,8.898857E0,2.24267E1,1.1391183E1,5.437238E1,4.1981026E1,1.0575309E1,1.9395868E1,3.4976513E1,3.339789E1,8.583138E0,1.022177E1,9.174098E0,1.1363148E1,2.3613365E1],"tree_param":{"num_deleted":"0","num_feature":"1280","num_nodes":"27","size_leaf_vector":"1"}},{"base_weights":[8.500486E-4,7.1374863E-1,-4.369794E-1,1.0980638E0,-3.8581777E-2,1.0620626E-2,-6.0318536E-1,-3.0838687E-4,1.3507572E0,7.678304E-3,-1.0980893E-2,-1.4166722E-1,-9.7076494E-1,9.044117E-3,2.2502922E-2,-5.1969594E-1,8.193161E-3,-3.8215965E-1,-1.2195977E0,-8.7782794E-1,5.3338334E-3,5.920231E-3,-1.5010373E-2,-1.7762557E-2,-8.320305E-3,-1.5173145E-2,-4.662991E-3],"categories":[],"categories_nodes":[],"categories_segments":[],"categories_sizes":[],"default_left":[0,0,0,0,0,0,0,0,0,0,0,0,0,0,0,0,0,0,0,0,0,0,0,0,0,0,0],"id":26,"left_children":[1,3,5,7,9,-1,11,-1,13,-1,-1,15,17,-1,-1,19,-1,21,23,25,-1,-1,-1,-1,-1,-1,-1],"loss_changes":[5.87945E1,2.077201E1,2.4835539E1,1.3494797E1,1.3348885E1,0E0,1.7427208E1,0E0,8.100578E0,0E0,0E0,1.4156859E1,7.8724174E0,0E0,0E0,1.1195131E1,0E0,1.2684926E1,2.2485504E0,3.026514E0,0E0,0E0,0E0,0E0,0E0,0E0,0E0],"parents":[2147483647,0,0,1,1,2,2,3,3,4,4,6,6,8,8,11,11,12,12,15,15,17,17,18,18,19,19],"right_children":[2,4,6,8,10,-1,12,-1,14,-1,-1,16,18,-1,-1,20,-1,22,24,26,-1,-1,-1,-1,-1,-1,-1],"split_conditions":[-1.7808652E-2,-1.7242637E-1,-5.1475182E-2,-1.5044366E-1,-8.52192E-3,1.0620626E-2,-1.4807348E-2,-3.0838687E-4,5.3259563E-2,7.678304E-3,-1.0980893E-2,-7.6940976E-2,-9.860938E-3,9.044117E-3,2.2502922E-2,2.0073384E-1,8.193161E-3,5.6719963E-2,4.4773117E-2,-1.482062E-1,5.3338334E-3,5.920231E-3,-1.5010373E-2,-1.7762557E-2,-8.320305E-3,-1.5173145E-2,-4.662991E-3],"split_indices":[901,29,1025,1075,342,0,385,0,105,0,0,372,155,0,0,659,0,847,472,1075,0,0,0,0,0,0,0],"split_type":[0,0,0,0,0,0,0,0,0,0,0,0,0,0,0,0,0,0,0,0,0,0,0,0,0,0,0],"sum_hessian":[1.860009E2,7.048597E1,1.1551493E2,4.6293785E1,2.419218E1,1.3011252E1,1.02503685E2,8.7088E0,3.7584984E1,1.37615E1,1.0430681E1,4.6171703E1,5.6331978E1,1.4820027E1,2.276496E1,3.121562E1,1.4956082E1,1.7629839E1,3.870214E1,2.2571602E1,8.644017E0,8.672792E0,8.9570465E0,2.9883684E1,8.818457E0,1.3654182E1,8.917419E0],"tree_param":{"num_deleted":"0","num_feature":"1280","num_nodes":"27","size_leaf_vector":"1"}},{"base_weights":[4.1300175E-3,-5.3652877E-1,5.425433E-1,5.177247E-1,-8.4718835E-1,-2.0168442E-1,8.981547E-1,-6.4663757E-3,1.6728753E-2,-1.9362119E-1,-1.0343642E0,-7.0127285E-1,9.044011E-3,-6.771193E-3,1.1464537E0,-1.1983965E-2,7.3451293E-3,-1.1738005E0,-2.559344E-3,-1.5990527E-2,4.643845E-4,2.268907E-3,1.3689966E0,-1.3090509E0,-7.935186E-3,1.6181536E0,7.2495574E-3,-1.8551003E-2,-1.0360163E-2,1.25626745E-2,2.3388261E-2],"categories":[],"categories_nodes":[],"categories_segments":[],"categories_sizes":[],"default_left":[0,0,0,0,0,0,0,0,0,0,0,0,0,0,0,0,0,0,0,0,0,0,0,0,0,0,0,0,0,0,0],"id":27,"left_children":[1,3,5,7,9,11,13,-1,-1,15,17,19,-1,-1,21,-1,-1,23,-1,-1,-1,-1,25,27,-1,29,-1,-1,-1,-1,-1],"loss_changes":[5.7086777E1,3.256781E1,2.6217789E1,1.8550104E1,9.064098E0,1.5202622E1,2.4169262E1,0E0,0E0,1.0681023E1,6.604698E0,8.38167E0,0E0,0E0,1.2083496E1,0E0,0E0,2.9015274E0,0E0,0E0,0E0,0E0,8.326584E0,9.44664E-1,0E0,1.9216232E0,0E0,0E0,0E0,0E0,0E0],"parents":[2147483647,0,0,1,1,2,2,3,3,4,4,5,5,6,6,9,9,10,10,11,11,14,14,17,17,22,22,23,23,25,25],"right_children":[2,4,6,8,10,12,14,-1,-1,16,18,20,-1,-1,22,-1,-1,24,-1,-1,-1,-1,26,28,-1,30,-1,-1,-1,-1,-1],"split_conditions":[-6.5392684E-3,-8.6607546E-2,-5.578167E-2,9.6550144E-2,-7.9565994E-2,1.7249823E-2,-4.7765598E-2,-6.4663757E-3,1.6728753E-2,2.0396857E-2,3.6887508E-2,-9.266693E-2,9.044011E-3,-6.771193E-3,-1.3309235E-2,-1.1983965E-2,7.3451293E-3,4.568942E-2,-2.559344E-3,-1.5990527E-2,4.643845E-4,2.268907E-3,7.982041E-2,1.3944386E-1,-7.935186E-3,-6.8976814E-3,7.2495574E-3,-1.8551003E-2,-1.0360163E-2,1.25626745E-2,2.3388261E-2],"split_indices":[833,1040,806,157,892,638,527,0,0,729,169,566,0,0,950,0,0,865,0,0,0,0,814,512,0,1132,0,0,0,0,0],"split_type":[0,0,0,0,0,0,0,0,0,0,0,0,0,0,0,0,0,0,0,0,0,0,0,0,0,0,0,0,0,0,0],"sum_hessian":[1.9374196E2,9.667146E1,9.7070496E1,2.182329E1,7.4848175E1,3.1551445E1,6.551905E1,9.55897E0,1.226432E1,1.719952E1,5.7648655E1,2.0408175E1,1.11432705E1,9.577906E0,5.5941143E1,8.655866E0,8.543654E0,4.9021465E1,8.627187E0,1.1472357E1,8.935818E0,1.0808479E1,4.5132664E1,3.8312332E1,1.0709134E1,3.3656784E1,1.147588E1,2.9768734E1,8.543599E0,8.657412E0,2.4999372E1],"tree_param":{"num_deleted":"0","num_feature":"1280","num_nodes":"31","size_leaf_vector":"1"}},{"base_weights":[-4.464447E-2,-4.3575245E-1,7.560057E-1,3.2158688E-1,-6.490185E-1,1.4973354E0,2.9302546E-1,1.5228608E-2,-2.2144446E-1,-7.690064E-1,6.7867213E-3,1.165002E-2,2.3958787E-2,-1.1753852E-2,7.562338E-1,-1.0374633E-2,4.7127665E-3,-8.95563E-1,5.2655507E-3,-1.4112726E-3,1.2166829E0,-1.0430926E0,-3.3649761E-4,7.508953E-3,2.1396853E-2,-5.525993E-3,-1.5347004E-2],"categories":[],"categories_nodes":[],"categories_segments":[],"categories_sizes":[],"default_left":[0,0,0,0,0,0,0,0,0,0,0,0,0,0,0,0,0,0,0,0,0,0,0,0,0,0,0],"id":28,"left_children":[1,3,5,7,9,11,13,-1,15,17,-1,-1,-1,-1,19,-1,-1,21,-1,-1,23,25,-1,-1,-1,-1,-1],"loss_changes":[6.1307865E1,2.1477493E1,2.154166E1,1.3920212E1,1.4912796E1,3.0541458E0,2.3490015E1,0E0,6.702626E0,1.4351582E1,0E0,0E0,0E0,0E0,1.2176916E1,0E0,0E0,1.0884613E1,0E0,0E0,4.2494583E0,5.3810654E0,0E0,0E0,0E0,0E0,0E0],"parents":[2147483647,0,0,1,1,2,2,3,3,4,4,5,5,6,6,8,8,9,9,14,14,17,17,20,20,21,21],"right_children":[2,4,6,8,10,12,14,-1,16,18,-1,-1,-1,-1,20,-1,-1,22,-1,-1,24,26,-1,-1,-1,-1,-1],"split_conditions":[9.77236E-3,-8.782361E-2,1.9665126E-2,1.8494096E-2,6.718346E-2,2.6346862E-1,-5.103571E-2,1.5228608E-2,1.0976587E-2,7.80467E-3,6.7867213E-3,1.165002E-2,2.3958787E-2,-1.1753852E-2,-1.2131227E-1,-1.0374633E-2,4.7127665E-3,6.0399033E-2,5.2655507E-3,-1.4112726E-3,-6.94376E-2,3.876802E-2,-3.3649761E-4,7.508953E-3,2.1396853E-2,-5.525993E-3,-1.5347004E-2],"split_indices":[307,1040,996,423,839,459,708,0,1252,513,0,0,0,0,696,0,0,890,0,0,1053,886,0,0,0,0,0],"split_type":[0,0,0,0,0,0,0,0,0,0,0,0,0,0,0,0,0,0,0,0,0,0,0,0,0,0,0],"sum_hessian":[1.933556E2,1.3026299E2,6.309261E1,2.848995E1,1.0177304E2,2.3238766E1,3.9853844E1,1.0615092E1,1.7874857E1,9.266553E1,9.107517E0,9.872269E0,1.3366497E1,1.0831633E1,2.9022213E1,8.791202E0,9.083655E0,8.388894E1,8.7765875E0,1.0401823E1,1.8620388E1,7.152192E1,1.2367018E1,8.501347E0,1.0119042E1,1.3469326E1,5.8052593E1],"tree_param":{"num_deleted":"0","num_feature":"1280","num_nodes":"27","size_leaf_vector":"1"}},{"base_weights":[-1.2693524E-3,-7.5259954E-1,3.6652365E-1,-1.0218182E0,4.408594E-3,9.157678E-1,-1.6538642E-1,-4.4010677E-3,-1.1934562E0,1.1403313E0,-5.039941E-3,-6.362457E-1,4.169969E-1,-1.73835E-2,-7.909751E-3,1.5198942E0,3.2770786E-1,-9.2111385E-1,2.7035077E-3,-7.277168E-3,9.0885955E-1,2.3595406E-2,1.1584617E-2,1.4246332E-2,-6.6105053E-3,-1.3241051E-3,-1.6502155E-2,1.9380616E-2,2.7612646E-3],"categories":[],"categories_nodes":[],"categories_segments":[],"categories_sizes":[],"default_left":[0,0,0,0,0,0,0,0,0,0,0,0,0,0,0,0,0,0,0,0,0,0,0,0,0,0,0,0,0],"id":29,"left_children":[1,3,5,7,-1,9,11,-1,13,15,-1,17,19,-1,-1,21,23,25,-1,-1,27,-1,-1,-1,-1,-1,-1,-1,-1],"loss_changes":[5.3630085E1,1.9129978E1,3.824545E1,5.569763E0,0E0,1.9314224E1,1.8740364E1,0E0,2.34552E0,1.6414032E1,0E0,9.264416E0,1.5339854E1,0E0,0E0,4.876152E0,1.27920685E1,7.815111E0,0E0,0E0,8.014053E0,0E0,0E0,0E0,0E0,0E0,0E0,0E0,0E0],"parents":[2147483647,0,0,1,1,2,2,3,3,5,5,6,6,8,8,9,9,11,11,12,12,15,15,16,16,17,17,20,20],"right_children":[2,4,6,8,-1,10,12,-1,14,16,-1,18,20,-1,-1,22,24,26,-1,-1,28,-1,-1,-1,-1,-1,-1,-1,-1],"split_conditions":[-5.6288797E-2,5.3550098E-2,3.368267E-2,-2.5654685E-2,4.408594E-3,8.553372E-2,-8.2942635E-2,-4.4010677E-3,-2.3596163E-3,6.2278736E-2,-5.039941E-3,6.068389E-2,-6.9652826E-2,-1.73835E-2,-7.909751E-3,9.062858E-3,1.1729543E-1,-5.059103E-2,2.7035077E-3,-7.277168E-3,-3.1301368E-2,2.3595406E-2,1.1584617E-2,1.4246332E-2,-6.6105053E-3,-1.3241051E-3,-1.6502155E-2,1.9380616E-2,2.7612646E-3],"split_indices":[199,28,946,376,0,860,356,0,58,336,0,767,139,0,0,75,1145,354,0,0,611,0,0,0,0,0,0,0,0],"split_type":[0,0,0,0,0,0,0,0,0,0,0,0,0,0,0,0,0,0,0,0,0,0,0,0,0,0,0,0,0],"sum_hessian":[1.9171252E2,6.2598274E1,1.2911424E2,5.026181E1,1.2336464E1,6.3101955E1,6.601229E1,1.0777124E1,3.9484684E1,5.394354E1,9.158418E0,3.6440533E1,2.9571758E1,3.0756964E1,8.72772E0,3.606723E1,1.7876307E1,2.7157803E1,9.282731E0,9.866875E0,1.9704884E1,2.3285387E1,1.2781844E1,9.142173E0,8.734133E0,8.463013E0,1.869479E1,1.0062337E1,9.642547E0],"tree_param":{"num_deleted":"0","num_feature":"1280","num_nodes":"29","size_leaf_vector":"1"}},{"base_weights":[7.9550585E-3,-4.2402345E-1,7.0777726E-1,2.7769154E-1,-6.441299E-1,1.01027E0,-6.5837386E-3,-6.4189765E-3,1.2945388E-2,-3.890476E-2,-9.035431E-1,1.4448996E0,1.6872655E-1,-7.082575E-3,8.75199E-3,-3.191464E-1,-1.1220262E0,2.1417834E-2,9.423857E-3,1.1818415E-2,-5.3105974E-3,5.6159394E-3,-1.3339517E-2,-7.087457E-3,-1.6483553E-2],"categories":[],"categories_nodes":[],"categories_segments":[],"categories_sizes":[],"default_left":[0,0,0,0,0,0,0,0,0,0,0,0,0,0,0,0,0,0,0,0,0,0,0,0,0],"id":30,"left_children":[1,3,5,7,9,11,-1,-1,-1,13,15,17,19,-1,-1,21,23,-1,-1,-1,-1,-1,-1,-1,-1],"loss_changes":[5.7220222E1,1.8290113E1,2.7088528E1,1.6382338E1,1.40035095E1,2.1000198E1,0E0,0E0,0E0,1.0459563E1,7.564575E0,4.0072174E0,9.406516E0,0E0,0E0,1.0354904E1,2.8587456E0,0E0,0E0,0E0,0E0,0E0,0E0,0E0,0E0],"parents":[2147483647,0,0,1,1,2,2,3,3,4,4,5,5,9,9,10,10,11,11,12,12,15,15,16,16],"right_children":[2,4,6,8,10,12,-1,-1,-1,14,16,18,20,-1,-1,22,24,-1,-1,-1,-1,-1,-1,-1,-1],"split_conditions":[-3.449707E-2,-8.887832E-2,-5.1349446E-2,4.8552975E-2,2.7431576E-2,8.237146E-2,-6.5837386E-3,-6.4189765E-3,1.2945388E-2,4.577419E-2,-3.1334385E-2,1.3247718E-1,6.526967E-2,-7.082575E-3,8.75199E-3,1.0746741E-1,-5.5084486E-2,2.1417834E-2,9.423857E-3,1.1818415E-2,-5.3105974E-3,5.6159394E-3,-1.3339517E-2,-7.087457E-3,-1.6483553E-2],"split_indices":[641,1040,1205,715,394,650,0,0,0,740,707,1090,861,0,0,186,1019,0,0,0,0,0,0,0,0],"split_type":[0,0,0,0,0,0,0,0,0,0,0,0,0,0,0,0,0,0,0,0,0,0,0,0,0],"sum_hessian":[1.8691975E2,1.1586576E2,7.1054E1,2.7591738E1,8.8274025E1,5.7020733E1,1.4033264E1,1.3457293E1,1.4134446E1,2.6892689E1,6.1381332E1,3.7041584E1,1.9979149E1,1.5889274E1,1.1003414E1,1.7495728E1,4.3885605E1,2.7969797E1,9.071788E0,8.466064E0,1.1513084E1,8.688734E0,8.8069935E0,9.696994E0,3.418861E1],"tree_param":{"num_deleted":"0","num_feature":"1280","num_nodes":"25","size_leaf_vector":"1"}},{"base_weights":[5.3086553E-2,9.456905E-1,-2.9144946E-1,-4.1505467E-4,1.2513001E0,7.210479E-1,-4.762253E-1,5.9773885E-3,1.4469341E0,1.8248111E-2,-2.5441637E-4,-6.804036E-1,5.588616E-1,1.33567145E-2,2.2778189E-2,1.0781662E-1,-8.8098085E-1,-2.4175781E-3,1.50804045E-2,9.652993E-3,-8.371566E-3,-1.6180439E-3,-1.0714583E0,-1.5929485E-2,-5.5764746E-3],"categories":[],"categories_nodes":[],"categories_segments":[],"categories_sizes":[],"default_left":[0,0,0,0,0,0,0,0,0,0,0,0,0,0,0,0,0,0,0,0,0,0,0,0,0],"id":31,"left_children":[1,3,5,-1,7,9,11,-1,13,-1,-1,15,17,-1,-1,19,21,-1,-1,-1,-1,-1,23,-1,-1],"loss_changes":[5.8739E1,1.5932167E1,2.6214134E1,0E0,5.5087395E0,1.0937412E1,2.5255236E1,0E0,1.923912E0,0E0,0E0,1.5695606E1,9.120813E0,0E0,0E0,1.05193205E1,1.1191471E1,0E0,0E0,0E0,0E0,0E0,5.3940506E0,0E0,0E0],"parents":[2147483647,0,0,1,1,2,2,4,4,5,5,6,6,8,8,11,11,12,12,15,15,16,16,22,22],"right_children":[2,4,6,-1,8,10,12,-1,14,-1,-1,16,18,-1,-1,20,22,-1,-1,-1,-1,-1,24,-1,-1],"split_conditions":[1.5951508E-3,-2.9849717E-2,-5.971458E-3,-4.1505467E-4,8.792616E-2,1.2484046E-1,2.1716848E-1,5.9773885E-3,1.0144698E-1,1.8248111E-2,-2.5441637E-4,-8.6607546E-2,-1.7859899E-2,1.33567145E-2,2.2778189E-2,9.632461E-2,-4.541463E-2,-2.4175781E-3,1.50804045E-2,9.652993E-3,-8.371566E-3,-1.6180439E-3,-9.3184814E-2,-1.5929485E-2,-5.5764746E-3],"split_indices":[1172,18,246,0,1042,1175,1012,0,677,0,0,1040,794,0,0,856,1174,0,0,0,0,0,503,0,0],"split_type":[0,0,0,0,0,0,0,0,0,0,0,0,0,0,0,0,0,0,0,0,0,0,0,0,0],"sum_hessian":[1.8875606E2,5.1992428E1,1.3676363E2,1.2636179E1,3.9356247E1,2.0576792E1,1.1618684E2,8.5663395E0,3.078991E1,1.0202709E1,1.0374083E1,9.738284E1,1.8803993E1,1.4873975E1,1.5915935E1,1.9865086E1,7.751776E1,8.728459E0,1.0075533E1,1.078595E1,9.079136E0,1.5975896E1,6.1541862E1,4.9140633E1,1.2401229E1],"tree_param":{"num_deleted":"0","num_feature":"1280","num_nodes":"25","size_leaf_vector":"1"}},{"base_weights":[-8.69914E-2,6.935904E-1,-3.712302E-1,-2.4404095E-1,1.1823466E0,-4.860747E-1,1.1131778E-2,-1.3603436E-2,7.838524E-3,1.5327454E0,3.045964E-3,-6.61012E-1,4.244798E-1,1.1346608E-2,2.3830853E-2,5.717475E-3,-7.92557E-1,1.34480195E-2,-5.135866E-3,-9.2402774E-1,3.7212966E-3,-1.4450965E-2,-3.727876E-3],"categories":[],"categories_nodes":[],"categories_segments":[],"categories_sizes":[],"default_left":[0,0,0,0,0,0,0,0,0,0,0,0,0,0,0,0,0,0,0,0,0,0,0],"id":32,"left_children":[1,3,5,7,9,11,-1,-1,-1,13,-1,15,17,-1,-1,-1,19,-1,-1,21,-1,-1,-1],"loss_changes":[4.207703E1,2.3561789E1,1.9998322E1,1.3100888E1,1.0720089E1,2.066293E1,0E0,0E0,0E0,2.8347435E0,0E0,1.5955349E1,1.1025273E1,0E0,0E0,0E0,1.39766655E1,0E0,0E0,9.697792E0,0E0,0E0,0E0],"parents":[2147483647,0,0,1,1,2,2,3,3,4,4,5,5,9,9,11,11,12,12,16,16,19,19],"right_children":[2,4,6,8,10,12,-1,-1,-1,14,-1,16,18,-1,-1,-1,20,-1,-1,22,-1,-1,-1],"split_conditions":[3.2746367E-2,-4.232649E-2,1.00564055E-1,5.5610172E-2,1.5643677E-2,1.4565073E-1,1.1131778E-2,-1.3603436E-2,7.838524E-3,-2.5126927E-2,3.045964E-3,-4.646687E-2,4.7106043E-2,1.1346608E-2,2.3830853E-2,5.717475E-3,5.629279E-3,1.34480195E-2,-5.135866E-3,3.1532336E-2,3.7212966E-3,-1.4450965E-2,-3.727876E-3],"split_indices":[336,225,105,469,713,1198,0,0,0,903,0,219,246,0,0,0,513,0,0,369,0,0,0],"split_type":[0,0,0,0,0,0,0,0,0,0,0,0,0,0,0,0,0,0,0,0,0,0,0],"sum_hessian":[1.870893E2,4.9485943E1,1.3760335E2,1.7159527E1,3.2326416E1,1.2645134E2,1.1152013E1,8.680309E0,8.479218E0,2.3077835E1,9.248581E0,1.06344536E2,2.0106802E1,8.500908E0,1.4576926E1,1.1073861E1,9.5270676E1,1.1376004E1,8.730798E0,8.5061584E1,1.0209089E1,6.5444984E1,1.9616596E1],"tree_param":{"num_deleted":"0","num_feature":"1280","num_nodes":"23","size_leaf_vector":"1"}},{"base_weights":[8.220407E-3,6.545252E-1,-3.905725E-1,-5.1107164E-2,1.12932E0,-6.452167E-1,5.461011E-1,7.0158415E-3,-1.0533074E-2,1.4075252E0,1.9518334E-3,-9.680199E-1,-1.0732193E-1,3.7214643E-4,1.6862193E-2,9.903074E-3,2.1356342E-2,-1.1032029E0,-3.332382E-3,4.2157087E-1,-1.14619145E-2,-1.2630553E0,-4.8306542E-3,-4.473654E-3,1.8322397E-2,-9.126649E-3,-1.8174661E-2],"categories":[],"categories_nodes":[],"categories_segments":[],"categories_sizes":[],"default_left":[0,0,0,0,0,0,0,0,0,0,0,0,0,0,0,0,0,0,0,0,0,0,0,0,0,0,0],"id":33,"left_children":[1,3,5,7,9,11,13,-1,-1,15,-1,17,19,-1,-1,-1,-1,21,-1,23,-1,25,-1,-1,-1,-1,-1],"loss_changes":[4.9184456E1,2.4462381E1,2.8568459E1,1.40418215E1,1.1629368E1,1.608422E1,9.938885E0,0E0,0E0,3.5403976E0,0E0,5.2731857E0,1.5249161E1,0E0,0E0,0E0,0E0,5.137455E0,0E0,1.7340109E1,0E0,1.7151871E0,0E0,0E0,0E0,0E0,0E0],"parents":[2147483647,0,0,1,1,2,2,3,3,4,4,5,5,6,6,9,9,11,11,12,12,17,17,19,19,21,21],"right_children":[2,4,6,8,10,12,14,-1,-1,16,-1,18,20,-1,-1,-1,-1,22,-1,24,-1,26,-1,-1,-1,-1,-1],"split_conditions":[2.1471618E-2,8.841196E-3,6.5931E-2,8.71987E-3,-9.5102586E-2,-1.1005485E-2,-7.0560105E-2,7.0158415E-3,-1.0533074E-2,1.165888E-1,1.9518334E-3,6.261179E-2,3.815153E-2,3.7214643E-4,1.6862193E-2,9.903074E-3,2.1356342E-2,4.914906E-2,-3.332382E-3,-4.2405207E-2,-1.14619145E-2,-1.0893376E-1,-4.8306542E-3,-4.473654E-3,1.8322397E-2,-9.126649E-3,-1.8174661E-2],"split_indices":[1172,927,1079,293,613,533,752,0,0,123,0,235,429,0,0,0,0,638,0,76,0,1149,0,0,0,0,0],"split_type":[0,0,0,0,0,0,0,0,0,0,0,0,0,0,0,0,0,0,0,0,0,0,0,0,0,0,0],"sum_hessian":[1.8847147E2,7.1628204E1,1.1684326E2,2.9235222E1,4.2392982E1,9.215751E1,2.4685751E1,1.6628006E1,1.2607217E1,3.261563E1,9.777348E0,5.7002655E1,3.5154854E1,1.5295334E1,9.390417E0,9.820733E0,2.2794899E1,4.7370182E1,9.632473E0,2.1165298E1,1.3989556E1,3.818881E1,9.181375E0,1.2334986E1,8.830313E0,8.528231E0,2.9660578E1],"tree_param":{"num_deleted":"0","num_feature":"1280","num_nodes":"27","size_leaf_vector":"1"}},{"base_weights":[5.4297477E-2,-2.0316581E-1,8.911167E-1,7.8869015E-2,-7.5372505E-1,1.1603141E0,-1.9585383E-3,8.327262E-1,-1.962549E-1,1.1389304E-3,-1.0118765E0,2.6678008E-3,1.970194E-2,1.8715104E-2,1.6860772E-4,-4.582732E-1,1.1570076E-2,-1.634122E-2,-6.1862906E-3,-6.7117375E-1,6.6966387E-3,-2.8217372E-3,-1.4099242E-2],"categories":[],"categories_nodes":[],"categories_segments":[],"categories_sizes":[],"default_left":[0,0,0,0,0,0,0,0,0,0,0,0,0,0,0,0,0,0,0,0,0,0,0],"id":34,"left_children":[1,3,5,7,9,11,-1,13,15,-1,17,-1,-1,-1,-1,19,-1,-1,-1,21,-1,-1,-1],"loss_changes":[4.012605E1,2.2216976E1,1.2483311E1,1.9976463E1,1.0617538E1,1.1287243E1,0E0,1.2651571E1,2.0573147E1,0E0,4.091511E0,0E0,0E0,0E0,0E0,1.2361861E1,0E0,0E0,0E0,8.6402855E0,0E0,0E0,0E0],"parents":[2147483647,0,0,1,1,2,2,3,3,4,4,5,5,7,7,8,8,10,10,15,15,19,19],"right_children":[2,4,6,8,10,12,-1,14,16,-1,18,-1,-1,-1,-1,20,-1,-1,-1,22,-1,-1,-1],"split_conditions":[1.17828995E-1,2.9427545E-2,-4.253413E-2,8.29402E-2,-1.3797449E-1,-1.1679639E-1,-1.9585383E-3,-5.017787E-3,-2.9362848E-2,1.1389304E-3,-3.521073E-2,2.6678008E-3,1.970194E-2,1.8715104E-2,1.6860772E-4,-1.8823655E-2,1.1570076E-2,-1.634122E-2,-6.1862906E-3,-4.3880932E-2,6.6966387E-3,-2.8217372E-3,-1.4099242E-2],"split_indices":[182,1212,835,1269,1242,372,0,965,358,0,199,0,0,0,0,443,0,0,0,511,0,0,0],"split_type":[0,0,0,0,0,0,0,0,0,0,0,0,0,0,0,0,0,0,0,0,0,0,0],"sum_hessian":[1.8406514E2,1.414434E2,4.262173E1,9.420092E1,4.724249E1,3.3757843E1,8.863888E0,2.454575E1,6.965517E1,1.1279914E1,3.5962574E1,9.526916E0,2.4230927E1,1.3653337E1,1.0892413E1,5.6630386E1,1.3024781E1,2.3787905E1,1.217467E1,4.67484E1,9.881989E0,2.2979893E1,2.3768507E1],"tree_param":{"num_deleted":"0","num_feature":"1280","num_nodes":"23","size_leaf_vector":"1"}},{"base_weights":[-2.3488959E-3,-2.6148307E-1,9.140402E-1,-5.6957257E-1,1.6213936E-1,1.9547075E-2,4.3830135E-1,-7.4754703E-1,5.776236E-3,-1.9529389E-1,9.565377E-1,1.4641793E-2,-1.7106618E-3,1.4986407E-3,-9.175776E-1,-8.164275E-1,2.797786E-1,2.1560488E-2,4.5062092E-4,-2.8619063E-1,-1.1611141E0,-1.766539E-2,-3.300417E-3,-5.6528933E-3,1.1376176E-2,4.2655254E-3,-1.1121618E-2,-8.2279155E-3,-1.7279936E-2],"categories":[],"categories_nodes":[],"categories_segments":[],"categories_sizes":[],"default_left":[0,0,0,0,0,0,0,0,0,0,0,0,0,0,0,0,0,0,0,0,0,0,0,0,0,0,0,0,0],"id":35,"left_children":[1,3,5,7,9,-1,11,13,-1,15,17,-1,-1,-1,19,21,23,-1,-1,25,27,-1,-1,-1,-1,-1,-1,-1,-1],"loss_changes":[4.5938953E1,1.9790726E1,1.1056656E1,1.6163605E1,1.8511572E1,0E0,9.961456E0,1.1108421E1,0E0,1.3669791E1,1.2870045E1,0E0,0E0,0E0,9.248638E0,5.639785E0,1.1668545E1,0E0,0E0,6.9259567E0,2.8834572E0,0E0,0E0,0E0,0E0,0E0,0E0,0E0,0E0],"parents":[2147483647,0,0,1,1,2,2,3,3,4,4,6,6,7,7,9,9,10,10,14,14,15,15,16,16,19,19,20,20],"right_children":[2,4,6,8,10,-1,12,14,-1,16,18,-1,-1,-1,20,22,24,-1,-1,26,28,-1,-1,-1,-1,-1,-1,-1,-1],"split_conditions":[6.5082006E-2,-1.0902752E-1,1.5596396E-2,1.1492487E-1,7.521103E-2,1.9547075E-2,5.2444395E-2,-1.1545577E-1,5.776236E-3,9.162896E-2,8.185119E-2,1.4641793E-2,-1.7106618E-3,1.4986407E-3,3.4723107E-2,4.0832687E-2,6.121244E-2,2.1560488E-2,4.5062092E-4,1.949789E-2,-4.33861E-2,-1.766539E-2,-3.300417E-3,-5.6528933E-3,1.1376176E-2,4.2655254E-3,-1.1121618E-2,-8.2279155E-3,-1.7279936E-2],"split_indices":[437,777,326,182,445,0,349,198,0,408,1269,0,0,0,607,1133,610,0,0,916,1185,0,0,0,0,0,0,0,0],"split_type":[0,0,0,0,0,0,0,0,0,0,0,0,0,0,0,0,0,0,0,0,0,0,0,0,0,0,0,0,0],"sum_hessian":[1.9107918E2,1.4961664E2,4.1462547E1,8.638407E1,6.323256E1,1.7485044E1,2.3977503E1,7.372764E1,1.2656433E1,4.422588E1,1.900668E1,1.0376788E1,1.3600715E1,1.2206171E1,6.1521465E1,1.879808E1,2.54278E1,1.0303833E1,8.7028475E0,1.7841047E1,4.368042E1,8.779642E0,1.0018439E1,1.1676895E1,1.3750903E1,8.803152E0,9.037895E0,1.1591005E1,3.2089417E1],"tree_param":{"num_deleted":"0","num_feature":"1280","num_nodes":"29","size_leaf_vector":"1"}},{"base_weights":[4.5132063E-2,-2.0946868E-1,8.029706E-1,6.166079E-1,-4.0787074E-1,-3.3395293E-3,1.114224E0,-6.142233E-3,1.1310955E0,2.600599E-1,-6.0944253E-1,2.5531364E-5,1.4622834E0,2.1568725E-2,5.6908145E-3,1.43378945E-2,-7.984463E-3,-3.7142307E-2,-9.29522E-1,2.2939134E-2,1.3153558E-2,1.0533604E-2,-5.5692893E-1,-5.185912E-4,-1.0941657E0,-1.3613717E-2,1.7587435E-3,-1.6170885E-2,-5.7277977E-3],"categories":[],"categories_nodes":[],"categories_segments":[],"categories_sizes":[],"default_left":[0,0,0,0,0,0,0,0,0,0,0,0,0,0,0,0,0,0,0,0,0,0,0,0,0,0,0,0,0],"id":36,"left_children":[1,3,5,7,9,-1,11,-1,13,15,17,-1,19,-1,-1,-1,-1,21,23,-1,-1,-1,25,-1,27,-1,-1,-1,-1],"loss_changes":[3.6031853E1,2.3234835E1,1.5808491E1,1.6051907E1,1.5476761E1,0E0,1.412785E1,0E0,6.053299E0,2.063562E1,1.6003605E1,0E0,1.6323471E0,0E0,0E0,0E0,0E0,1.4854842E1,8.170486E0,0E0,0E0,0E0,7.191511E0,0E0,3.8384438E0,0E0,0E0,0E0,0E0],"parents":[2147483647,0,0,1,1,2,2,3,3,4,4,6,6,8,8,9,9,10,10,12,12,17,17,18,18,22,22,24,24],"right_children":[2,4,6,8,10,-1,12,-1,14,16,18,-1,20,-1,-1,-1,-1,22,24,-1,-1,-1,26,-1,28,-1,-1,-1,-1],"split_conditions":[1.1492487E-1,1.4361079E-3,-1.00051485E-1,-8.5414685E-2,-1.1573425E-1,-3.3395293E-3,-8.14516E-2,-6.142233E-3,1.1413393E-2,1.4481258E-1,5.157196E-2,2.5531364E-5,1.8707762E-2,2.1568725E-2,5.6908145E-3,1.43378945E-2,-7.984463E-3,1.9109912E-2,-2.7656993E-2,2.2939134E-2,1.3153558E-2,1.0533604E-2,5.3124126E-2,-5.185912E-4,3.6577288E-2,-1.3613717E-2,1.7587435E-3,-1.6170885E-2,-5.7277977E-3],"split_indices":[182,246,952,883,229,0,107,0,1050,907,634,0,1208,0,0,0,0,684,875,0,0,0,295,0,538,0,0,0,0],"split_type":[0,0,0,0,0,0,0,0,0,0,0,0,0,0,0,0,0,0,0,0,0,0,0,0,0,0,0,0,0],"sum_hessian":[1.8453073E2,1.3876723E2,4.5763508E1,2.639083E1,1.12376396E2,1.0444779E1,3.531873E1,8.510195E0,1.7880634E1,2.5971981E1,8.640442E1,8.701603E0,2.6617126E1,9.289234E0,8.5914E0,1.3083217E1,1.2888763E1,3.1465284E1,5.4939133E1,1.409136E1,1.2525766E1,1.1743342E1,1.9721941E1,8.807705E0,4.6131428E1,1.1231317E1,8.490625E0,3.6934643E1,9.196785E0],"tree_param":{"num_deleted":"0","num_feature":"1280","num_nodes":"29","size_leaf_vector":"1"}},{"base_weights":[1.4297292E-3,-3.6065608E-1,6.874223E-1,-5.0632304E-1,1.0620884E-2,9.368153E-1,-1.0440198E-2,-6.1304647E-1,7.7517536E-3,1.2468605E0,-2.731818E-3,-3.9789864E-1,-1.6950132E-2,3.4126863E-3,1.5121523E0,1.5247537E-1,-7.0059717E-1,1.0895322E-2,2.2553544E-2,-5.990605E-3,1.0113161E-2,-1.2383336E-2,-7.0096686E-4],"categories":[],"categories_nodes":[],"categories_segments":[],"categories_sizes":[],"default_left":[0,0,0,0,0,0,0,0,0,0,0,0,0,0,0,0,0,0,0,0,0,0,0],"id":37,"left_children":[1,3,5,7,-1,9,-1,11,-1,13,-1,15,-1,-1,17,19,21,-1,-1,-1,-1,-1,-1],"loss_changes":[4.7274616E1,2.17953E1,2.5272707E1,1.3528206E1,0E0,2.0510868E1,0E0,1.4468456E1,0E0,1.127533E1,0E0,1.3378153E1,0E0,0E0,3.4239502E0,1.1526255E1,8.205479E0,0E0,0E0,0E0,0E0,0E0,0E0],"parents":[2147483647,0,0,1,1,2,2,3,3,5,5,7,7,9,9,11,11,14,14,15,15,16,16],"right_children":[2,4,6,8,-1,10,-1,12,-1,14,-1,16,-1,-1,18,20,22,-1,-1,-1,-1,-1,-1],"split_conditions":[7.449698E-2,3.427069E-2,1.420674E-1,4.0039816E-3,1.0620884E-2,-1.2872873E-1,-1.0440198E-2,6.973087E-2,7.7517536E-3,3.8094223E-3,-2.731818E-3,-8.4109284E-2,-1.6950132E-2,3.4126863E-3,1.4602962E-2,-1.8132332E-3,-9.808601E-3,1.0895322E-2,2.2553544E-2,-5.990605E-3,1.0113161E-2,-1.2383336E-2,-7.0096686E-4],"split_indices":[491,304,255,515,0,882,0,337,0,535,0,758,0,0,747,1127,1100,0,0,0,0,0,0],"split_type":[0,0,0,0,0,0,0,0,0,0,0,0,0,0,0,0,0,0,0,0,0,0,0],"sum_hessian":[1.8796117E2,1.23392426E2,6.456874E1,1.1037311E2,1.3019319E1,5.5670643E1,8.898101E0,1.01090034E2,9.283074E0,4.3735E1,1.1935641E1,7.836025E1,2.2729784E1,9.774819E0,3.396018E1,2.8013199E1,5.0347054E1,9.584081E0,2.43761E1,1.4286283E1,1.3726916E1,3.5997425E1,1.43496275E1],"tree_param":{"num_deleted":"0","num_feature":"1280","num_nodes":"23","size_leaf_vector":"1"}},{"base_weights":[3.3678897E-2,4.3134543E-1,-5.7947665E-1,1.0361162E0,-6.2060498E-2,6.894462E-3,-7.435159E-1,1.3767807E0,1.2590957E-3,1.5204112E-2,-2.789314E-1,-9.26462E-1,4.9801283E-3,2.074405E-2,9.43049E-3,4.1202694E-1,-6.2031007E-1,-5.6778455E-1,-1.6550025E-2,1.5147919E-2,-5.7306825E-3,3.2311175E-3,-9.4386405E-1,2.401957E-3,-9.687571E-1,-4.753704E-3,-1.6956197E-2,-1.7309932E-2,-5.8233836E-3],"categories":[],"categories_nodes":[],"categories_segments":[],"categories_sizes":[],"default_left":[0,0,0,0,0,0,0,0,0,0,0,0,0,0,0,0,0,0,0,0,0,0,0,0,0,0,0,0,0],"id":38,"left_children":[1,3,5,7,9,-1,11,13,-1,-1,15,17,-1,-1,-1,19,21,23,-1,-1,-1,-1,25,-1,27,-1,-1,-1,-1],"loss_changes":[4.615745E1,3.4323353E1,1.4000446E1,1.637117E1,1.7495907E1,0E0,1.3874489E1,3.8916779E0,0E0,0E0,1.3420242E1,6.0739365E0,0E0,0E0,0E0,1.2766286E1,1.0860465E1,9.172679E0,0E0,0E0,0E0,0E0,5.1413555E0,0E0,2.9550495E0,0E0,0E0,0E0,0E0],"parents":[2147483647,0,0,1,1,2,2,3,3,4,4,6,6,7,7,10,10,11,11,15,15,16,16,17,17,22,22,24,24],"right_children":[2,4,6,8,10,-1,12,14,-1,-1,16,18,-1,-1,-1,20,22,24,-1,-1,-1,-1,26,-1,28,-1,-1,-1,-1],"split_conditions":[-1.1113805E-2,4.5305196E-2,-8.6607546E-2,-5.7380438E-2,-1.3682011E-1,6.894462E-3,7.8694396E-2,1.0177821E-1,1.2590957E-3,1.5204112E-2,4.3261796E-5,-3.6672205E-2,4.9801283E-3,2.074405E-2,9.43049E-3,7.6448806E-2,-1.6830713E-2,9.374097E-3,-1.6550025E-2,1.5147919E-2,-5.7306825E-3,3.2311175E-3,-1.6115604E-2,2.401957E-3,-1.0466865E-2,-4.753704E-3,-1.6956197E-2,-1.7309932E-2,-5.8233836E-3],"split_indices":[385,336,1040,1073,938,0,149,989,0,0,64,1272,0,0,0,467,1164,1164,0,0,0,0,660,0,838,0,0,0,0],"split_type":[0,0,0,0,0,0,0,0,0,0,0,0,0,0,0,0,0,0,0,0,0,0,0,0,0,0,0,0,0],"sum_hessian":[1.8690431E2,1.135873E2,7.331701E1,5.044949E1,6.313781E1,9.119069E0,6.4197945E1,3.662218E1,1.3827311E1,8.708538E0,5.442927E1,5.539794E1,8.799998E0,2.6378687E1,1.0243494E1,1.791798E1,3.651129E1,2.854651E1,2.6851433E1,9.305428E0,8.612553E0,9.991362E0,2.651993E1,1.0152393E1,1.839412E1,1.0981773E1,1.5538157E1,9.846917E0,8.547201E0],"tree_param":{"num_deleted":"0","num_feature":"1280","num_nodes":"29","size_leaf_vector":"1"}},{"base_weights":[7.574575E-2,-2.8619096E-1,8.51431E-1,-4.0652293E-1,1.1641062E-2,1.3622487E0,1.460255E-1,5.7293687E-2,-6.91422E-1,2.1571467E-2,1.1139112E-2,8.336867E-3,-7.9641165E-3,6.552278E-1,-8.1725633E-1,5.3458516E-3,-8.5436195E-1,-1.1321603E-3,1.588342E-2,-1.6219864E-2,-3.8274566E-3,-1.0413632E0,-1.9449191E-3,-4.7183926E-3,-1.5370842E-2],"categories":[],"categories_nodes":[],"categories_segments":[],"categories_sizes":[],"default_left":[0,0,0,0,0,0,0,0,0,0,0,0,0,0,0,0,0,0,0,0,0,0,0,0,0],"id":39,"left_children":[1,3,5,7,-1,9,11,13,15,-1,-1,-1,-1,17,19,-1,21,-1,-1,-1,-1,23,-1,-1,-1],"loss_changes":[5.02478E1,1.7752254E1,2.0272297E1,1.4807682E1,0E0,3.1851006E0,9.856808E0,2.343228E1,1.2843376E1,0E0,0E0,0E0,0E0,1.1184845E1,3.631195E0,0E0,7.8285027E0,0E0,0E0,0E0,0E0,3.9190254E0,0E0,0E0,0E0],"parents":[2147483647,0,0,1,1,2,2,3,3,5,5,6,6,7,7,8,8,13,13,14,14,16,16,21,21],"right_children":[2,4,6,8,-1,10,12,14,16,-1,-1,-1,-1,18,20,-1,22,-1,-1,-1,-1,24,-1,-1,-1],"split_conditions":[8.148007E-2,3.4373822E-3,4.9659263E-2,-2.014677E-2,1.1641062E-2,-4.9721997E-2,-1.2310681E-1,2.1373242E-2,-2.1925163E-4,2.1571467E-2,1.1139112E-2,8.336867E-3,-7.9641165E-3,-4.1263554E-2,-7.4980915E-2,5.3458516E-3,1.936179E-1,-1.1321603E-3,1.588342E-2,-1.6219864E-2,-3.8274566E-3,2.8137831E-2,-1.9449191E-3,-4.7183926E-3,-1.5370842E-2],"split_indices":[491,1204,336,392,0,774,841,409,852,0,0,0,0,109,652,0,1012,0,0,0,0,1147,0,0,0],"split_type":[0,0,0,0,0,0,0,0,0,0,0,0,0,0,0,0,0,0,0,0,0,0,0,0,0],"sum_hessian":[1.7676733E2,1.21037605E2,5.572973E1,1.1052173E2,1.0515875E1,3.1683998E1,2.4045732E1,4.2415123E1,6.810661E1,1.8488268E1,1.3195729E1,1.4671348E1,9.374384E0,2.5367792E1,1.704733E1,8.5497E0,5.955691E1,1.1358155E1,1.4009636E1,8.516247E0,8.531083E0,4.6631092E1,1.2925817E1,8.495458E0,3.8135635E1],"tree_param":{"num_deleted":"0","num_feature":"1280","num_nodes":"25","size_leaf_vector":"1"}},{"base_weights":[2.596941E-3,-2.5603053E-1,7.4404603E-1,-4.5780373E-1,4.629223E-1,1.0999873E0,-1.3874213E-3,-6.385304E-1,7.3525724E-3,-1.6903768E-1,1.9209E-2,1.4166042E0,5.432946E-3,-8.423106E-1,1.6093962E-1,6.7846137E-3,-9.785923E-3,2.168655E-2,1.1653068E-2,-1.0048919E0,-2.2874566E-4,-9.164309E-3,1.1989789E-2,-2.4290588E-3,-1.5233834E-2],"categories":[],"categories_nodes":[],"categories_segments":[],"categories_sizes":[],"default_left":[0,0,0,0,0,0,0,0,0,0,0,0,0,0,0,0,0,0,0,0,0,0,0,0,0],"id":40,"left_children":[1,3,5,7,9,11,-1,13,-1,15,-1,17,-1,19,21,-1,-1,-1,-1,23,-1,-1,-1,-1,-1],"loss_changes":[3.534134E1,2.007367E1,1.4563475E1,2.022433E1,1.9754238E1,6.5990906E0,0E0,1.5102333E1,0E0,8.391046E0,0E0,1.134388E0,0E0,9.80513E0,1.3589016E1,0E0,0E0,0E0,0E0,7.8603706E0,0E0,0E0,0E0,0E0,0E0],"parents":[2147483647,0,0,1,1,2,2,3,3,4,4,5,5,7,7,9,9,11,11,13,13,14,14,19,19],"right_children":[2,4,6,8,10,12,-1,14,-1,16,-1,18,-1,20,22,-1,-1,-1,-1,24,-1,-1,-1,-1,-1],"split_conditions":[-7.063757E-3,1.450137E-1,-3.96181E-3,1.2869498E-2,-3.545616E-2,5.296948E-2,-1.3874213E-3,2.8116444E-2,7.3525724E-3,6.511806E-3,1.9209E-2,5.9203286E-2,5.432946E-3,3.3425473E-2,4.5938212E-2,6.7846137E-3,-9.785923E-3,2.168655E-2,1.1653068E-2,-1.7100643E-1,-2.2874566E-4,-9.164309E-3,1.1989789E-2,-2.4290588E-3,-1.5233834E-2],"split_indices":[361,919,342,1187,249,701,0,374,0,1130,0,286,0,611,148,0,0,0,0,613,0,0,0,0,0],"split_type":[0,0,0,0,0,0,0,0,0,0,0,0,0,0,0,0,0,0,0,0,0,0,0,0,0],"sum_hessian":[1.8194186E2,1.3546466E2,4.647721E1,1.0611378E2,2.9350878E1,3.251791E1,1.3959299E1,9.053211E1,1.5581668E1,1.8649286E1,1.0701592E1,2.1360043E1,1.1157867E1,7.20927E1,1.8439415E1,8.586678E0,1.0062608E1,1.2811944E1,8.5480995E0,6.0006004E1,1.2086693E1,8.660245E0,9.77917E0,1.0331449E1,4.9674553E1],"tree_param":{"num_deleted":"0","num_feature":"1280","num_nodes":"25","size_leaf_vector":"1"}},{"base_weights":[-7.8676894E-2,-3.768688E-1,5.8597386E-1,5.0498563E-1,-6.596689E-1,-6.7137375E-2,1.0932387E0,1.721731E-2,-4.293638E-3,5.973613E-3,-7.865566E-1,-1.1555393E-2,7.34466E-3,5.0831777E-3,1.4765353E0,-9.423106E-1,3.4999258E-3,2.3084693E-2,1.2666032E-2,-3.696548E-1,-1.1697261E0,3.5458924E-3,-1.16820885E-2,-1.7368365E-2,-3.952019E-3],"categories":[],"categories_nodes":[],"categories_segments":[],"categories_sizes":[],"default_left":[0,0,0,0,0,0,0,0,0,0,0,0,0,0,0,0,0,0,0,0,0,0,0,0,0],"id":41,"left_children":[1,3,5,7,9,11,13,-1,-1,-1,15,-1,-1,-1,17,19,-1,-1,-1,21,23,-1,-1,-1,-1],"loss_changes":[3.568022E1,3.1339033E1,1.857645E1,2.1415592E1,1.3817852E1,1.3731102E1,7.8128166E0,0E0,0E0,0E0,1.43053665E1,0E0,0E0,0E0,9.179573E-1,9.197968E0,0E0,0E0,0E0,8.007523E0,6.8814926E0,0E0,0E0,0E0,0E0],"parents":[2147483647,0,0,1,1,2,2,3,3,4,4,5,5,6,6,10,10,14,14,15,15,19,19,20,20],"right_children":[2,4,6,8,10,12,14,-1,-1,-1,16,-1,-1,-1,18,20,-1,-1,-1,22,24,-1,-1,-1,-1],"split_conditions":[-9.5296666E-2,-5.5281866E-2,6.717149E-2,3.4419455E-2,-1.290676E-1,6.463807E-2,9.093276E-2,1.721731E-2,-4.293638E-3,5.973613E-3,8.564661E-2,-1.1555393E-2,7.34466E-3,5.0831777E-3,1.478955E-2,2.7395686E-4,3.4999258E-3,2.3084693E-2,1.2666032E-2,-4.62803E-2,2.0724764E-2,3.5458924E-3,-1.16820885E-2,-1.7368365E-2,-3.952019E-3],"split_indices":[777,645,643,409,990,651,282,0,0,0,1076,0,0,0,242,155,0,0,0,245,637,0,0,0,0],"split_type":[0,0,0,0,0,0,0,0,0,0,0,0,0,0,0,0,0,0,0,0,0,0,0,0,0],"sum_hessian":[1.7752544E2,1.2289957E2,5.462587E1,2.961659E1,9.328298E1,2.4328829E1,3.029704E1,1.4639998E1,1.4976591E1,9.199315E0,8.4083664E1,1.0373786E1,1.3955042E1,1.15226555E1,1.8774385E1,7.337365E1,1.0710018E1,1.0040152E1,8.734233E0,2.1739096E1,5.1634552E1,1.0045079E1,1.1694016E1,4.302784E1,8.606711E0],"tree_param":{"num_deleted":"0","num_feature":"1280","num_nodes":"25","size_leaf_vector":"1"}},{"base_weights":[1.5973102E-2,9.5603585E-1,-2.2320138E-1,1.5917525E-4,1.2914518E0,3.0860856E-1,-4.5393544E-1,8.010529E-3,2.0811537E-2,8.2391757E-1,-2.516448E-1,-6.746648E-1,2.6295376E-1,1.8917615E-2,5.0073885E-4,5.244252E-3,-1.119965E-2,1.4166492E-1,-9.300854E-1,-5.181063E-3,1.6545152E-2,1.0518707E-2,-7.7591906E-3,-1.1560186E0,7.986445E-4,-1.7217088E-2,-5.0812745E-3],"categories":[],"categories_nodes":[],"categories_segments":[],"categories_sizes":[],"default_left":[0,0,0,0,0,0,0,0,0,0,0,0,0,0,0,0,0,0,0,0,0,0,0,0,0,0,0],"id":42,"left_children":[1,3,5,-1,7,9,11,-1,-1,13,15,17,19,-1,-1,-1,-1,21,23,-1,-1,-1,-1,25,-1,-1,-1],"loss_changes":[4.1913784E1,1.1949837E1,1.8408762E1,0E0,4.5634384E0,1.3436251E1,1.6692799E1,0E0,0E0,1.1758259E1,9.437383E0,1.6831226E1,1.7410603E1,0E0,0E0,0E0,0E0,1.0384137E1,1.3761173E1,0E0,0E0,0E0,0E0,5.6087036E0,0E0,0E0,0E0],"parents":[2147483647,0,0,1,1,2,2,4,4,5,5,6,6,9,9,10,10,11,11,12,12,17,17,18,18,23,23],"right_children":[2,4,6,-1,8,10,12,-1,-1,14,16,18,20,-1,-1,-1,-1,22,24,-1,-1,-1,-1,26,-1,-1,-1],"split_conditions":[-1.9123675E-2,-7.163252E-2,-1.0204199E-1,1.5917525E-4,-1.1138539E-1,-5.24394E-4,5.4810017E-2,8.010529E-3,2.0811537E-2,-1.4697509E-2,8.109149E-2,9.569547E-2,-6.841744E-2,1.8917615E-2,5.0073885E-4,5.244252E-3,-1.119965E-2,8.325721E-2,1.4332895E-1,-5.181063E-3,1.6545152E-2,1.0518707E-2,-7.7591906E-3,2.3935717E-2,7.986445E-4,-1.7217088E-2,-5.0812745E-3],"split_indices":[1172,242,758,0,1027,262,1079,0,0,433,216,154,302,0,0,0,0,715,1231,0,0,0,0,374,0,0,0],"split_type":[0,0,0,0,0,0,0,0,0,0,0,0,0,0,0,0,0,0,0,0,0,0,0,0,0,0,0],"sum_hessian":[1.8411049E2,3.6622204E1,1.4748828E2,9.923713E0,2.669849E1,4.450684E1,1.02981445E2,9.347691E0,1.73508E1,2.2893242E1,2.1613596E1,7.8791374E1,2.4190077E1,1.2191566E1,1.0701676E1,1.0594763E1,1.1018833E1,1.8903236E1,5.9888138E1,1.503128E1,9.158797E0,9.878435E0,9.0248E0,4.861165E1,1.1276488E1,3.939563E1,9.216021E0],"tree_param":{"num_deleted":"0","num_feature":"1280","num_nodes":"27","size_leaf_vector":"1"}},{"base_weights":[9.82502E-3,-3.0815858E-1,7.7413076E-1,-5.904343E-1,3.1538755E-1,1.0485728E0,-5.382273E-3,-8.074555E-1,5.515197E-3,1.6129306E-2,-1.2812656E-1,9.773267E-4,1.2868937E0,1.7374667E-3,-9.430208E-1,5.478059E-3,-1.0814165E-2,5.062491E-3,2.0343345E-2,-3.6409413E-3,-1.1019201E0,-1.6329372E-2,-4.1294373E-3],"categories":[],"categories_nodes":[],"categories_segments":[],"categories_sizes":[],"default_left":[0,0,0,0,0,0,0,0,0,0,0,0,0,0,0,0,0,0,0,0,0,0,0],"id":43,"left_children":[1,3,5,7,9,11,-1,13,-1,-1,15,-1,17,-1,19,-1,-1,-1,-1,-1,21,-1,-1],"loss_changes":[4.430098E1,2.288221E1,1.7947792E1,1.9976765E1,1.687514E1,1.0055756E1,0E0,9.550304E0,0E0,0E0,1.140571E1,0E0,7.8581886E0,0E0,6.4528885E0,0E0,0E0,0E0,0E0,0E0,5.5820885E0,0E0,0E0],"parents":[2147483647,0,0,1,1,2,2,3,3,4,4,5,5,7,7,10,10,12,12,14,14,20,20],"right_children":[2,4,6,8,10,12,-1,14,-1,-1,16,-1,18,-1,20,-1,-1,-1,-1,-1,22,-1,-1],"split_conditions":[9.4069324E-2,5.374728E-2,3.6702923E-2,-2.0879114E-2,-7.2335014E-3,1.7919673E-2,-5.382273E-3,-7.37428E-2,5.515197E-3,1.6129306E-2,1.2363628E-3,9.773267E-4,-2.6454704E-2,1.7374667E-3,-2.2724973E-2,5.478059E-3,-1.0814165E-2,5.062491E-3,2.0343345E-2,-3.6409413E-3,2.7410964E-2,-1.6329372E-2,-4.1294373E-3],"split_indices":[182,1079,277,515,1071,111,0,481,0,0,798,0,1132,0,355,0,0,0,0,0,452,0,0],"split_type":[0,0,0,0,0,0,0,0,0,0,0,0,0,0,0,0,0,0,0,0,0,0,0],"sum_hessian":[1.7993625E2,1.2756854E2,5.236771E1,8.785839E1,3.971015E1,4.2641327E1,9.726382E0,7.255325E1,1.5305138E1,1.2228362E1,2.7481787E1,8.690298E0,3.395103E1,9.142783E0,6.3410473E1,1.5685961E1,1.1795827E1,8.538296E0,2.5412735E1,1.2871909E1,5.0538563E1,4.189693E1,8.641631E0],"tree_param":{"num_deleted":"0","num_feature":"1280","num_nodes":"23","size_leaf_vector":"1"}},{"base_weights":[-1.8040625E-2,-3.3584073E-1,8.230123E-1,-5.359414E-1,4.489967E-1,-1.0497067E-3,1.0435566E0,-7.437669E-1,2.1703959E-2,-8.9086004E-4,1.6579924E-2,1.2185812E-3,1.317929E0,5.092116E-4,-9.1585606E-1,-6.4779096E-3,6.617202E-3,2.006922E-2,8.413238E-3,-1.0531609E0,-5.94103E-4,-1.555298E-2,-4.894126E-3],"categories":[],"categories_nodes":[],"categories_segments":[],"categories_sizes":[],"default_left":[0,0,0,0,0,0,0,0,0,0,0,0,0,0,0,0,0,0,0,0,0,0,0],"id":44,"left_children":[1,3,5,7,9,-1,11,13,15,-1,-1,-1,17,-1,19,-1,-1,-1,-1,21,-1,-1,-1],"loss_changes":[4.8777092E1,2.1077179E1,1.0072002E1,1.2308189E1,1.1798365E1,0E0,1.0365334E1,1.0452728E1,7.8205285E0,0E0,0E0,0E0,3.4359894E0,0E0,7.520096E0,0E0,0E0,0E0,0E0,4.599407E0,0E0,0E0,0E0],"parents":[2147483647,0,0,1,1,2,2,3,3,4,4,6,6,7,7,8,8,12,12,14,14,19,19],"right_children":[2,4,6,8,10,-1,12,14,16,-1,-1,-1,18,-1,20,-1,-1,-1,-1,22,-1,-1,-1],"split_conditions":[-7.063757E-3,1.5049456E-1,-1.0512054E-1,8.328802E-2,-3.491958E-2,-1.0497067E-3,5.496466E-2,-3.8137402E-2,4.50895E-2,-8.9086004E-4,1.6579924E-2,1.2185812E-3,1.0503527E-1,5.092116E-4,1.0314298E-1,-6.4779096E-3,6.617202E-3,2.006922E-2,8.413238E-3,1.0532514E-1,-5.94103E-4,-1.555298E-2,-4.894126E-3],"split_indices":[361,919,883,1017,443,0,13,185,1021,0,0,0,720,0,796,0,0,0,0,1111,0,0,0],"split_type":[0,0,0,0,0,0,0,0,0,0,0,0,0,0,0,0,0,0,0,0,0,0,0],"sum_hessian":[1.8008282E2,1.3121336E2,4.8869457E1,1.04854996E2,2.635837E1,9.736709E0,3.913275E1,7.609912E1,2.875587E1,1.6836441E1,9.521929E0,9.1231365E0,3.0009613E1,1.3879829E1,6.2219296E1,1.3895655E1,1.4860216E1,2.1491764E1,8.517849E0,5.3526485E1,8.69281E0,4.372342E1,9.803066E0],"tree_param":{"num_deleted":"0","num_feature":"1280","num_nodes":"23","size_leaf_vector":"1"}},{"base_weights":[-3.1283878E-2,-4.4707954E-1,4.5765388E-1,-6.8388957E-1,2.7877966E-1,-5.627796E-3,6.477301E-1,-8.711763E-1,2.00373E-3,-6.5886476E-3,9.761364E-3,8.608199E-1,-2.3754349E-3,-1.0145409E0,-2.0689495E-4,1.1452312E0,2.573028E-4,-2.5691064E-3,-1.2158872E0,6.353837E-1,1.4950937E0,-1.7319357E-2,-9.647629E-3,-1.0574406E-3,1.6571237E-2,1.1830116E-2,2.3131955E-2],"categories":[],"categories_nodes":[],"categories_segments":[],"categories_sizes":[],"default_left":[0,0,0,0,0,0,0,0,0,0,0,0,0,0,0,0,0,0,0,0,0,0,0,0,0,0,0],"id":45,"left_children":[1,3,5,7,9,-1,11,13,-1,-1,-1,15,-1,17,-1,19,-1,-1,21,23,25,-1,-1,-1,-1,-1,-1],"loss_changes":[3.7335297E1,1.7277565E1,1.4594374E1,1.1942657E1,9.720942E0,0E0,1.256715E1,7.5327377E0,0E0,0E0,0E0,1.3352699E1,0E0,8.3981285E0,0E0,6.3276443E0,0E0,0E0,1.0626259E0,8.777271E0,1.9960213E0,0E0,0E0,0E0,0E0,0E0,0E0],"parents":[2147483647,0,0,1,1,2,2,3,3,4,4,6,6,7,7,11,11,13,13,15,15,18,18,19,19,20,20],"right_children":[2,4,6,8,10,-1,12,14,-1,-1,-1,16,-1,18,-1,20,-1,-1,22,24,26,-1,-1,-1,-1,-1,-1],"split_conditions":[6.8222195E-2,-9.3543574E-2,3.2747995E-2,-1.2718292E-2,-2.6166772E-2,-5.627796E-3,8.384136E-2,2.4483839E-2,2.00373E-3,-6.5886476E-3,9.761364E-3,2.5067631E-2,-2.3754349E-3,-2.7057283E-2,-2.0689495E-4,-1.2083736E-2,2.573028E-4,-2.5691064E-3,8.282065E-2,1.2250477E-1,1.0756478E-1,-1.7319357E-2,-9.647629E-3,-1.0574406E-3,1.6571237E-2,1.1830116E-2,2.3131955E-2],"split_indices":[182,777,796,78,74,0,364,38,0,0,0,713,0,392,0,14,0,0,620,722,507,0,0,0,0,0,0],"split_type":[0,0,0,0,0,0,0,0,0,0,0,0,0,0,0,0,0,0,0,0,0,0,0,0,0,0,0],"sum_hessian":[1.8127373E2,9.801904E1,8.3254684E1,7.395862E1,2.4060423E1,1.4404264E1,6.885042E1,6.0401478E1,1.35571375E1,8.975135E0,1.5085288E1,5.4745617E1,1.4104801E1,5.154207E1,8.859412E0,4.0592056E1,1.4153563E1,1.064564E1,4.0896427E1,1.7875193E1,2.2716862E1,3.1476826E1,9.4196005E0,8.876638E0,8.998554E0,8.880357E0,1.3836506E1],"tree_param":{"num_deleted":"0","num_feature":"1280","num_nodes":"27","size_leaf_vector":"1"}},{"base_weights":[1.0162898E-1,-2.1163225E-1,7.9284817E-1,1.5188736E-1,-7.016352E-1,-3.8284103E-3,1.0303508E0,-1.941047E-1,1.0648272E0,2.551287E-4,-9.009643E-1,1.7987807E-4,1.2600156E0,1.0538043E-2,-5.979909E-1,6.805057E-3,1.9815132E-2,-1.1892236E0,-5.0622723E-3,7.879271E-3,1.952534E-2,-1.0094572E0,8.7586045E-4,-9.705633E-3,-1.7700963E-2,-6.571933E-3,-1.7464206E-2],"categories":[],"categories_nodes":[],"categories_segments":[],"categories_sizes":[],"default_left":[0,0,0,0,0,0,0,0,0,0,0,0,0,0,0,0,0,0,0,0,0,0,0,0,0,0,0],"id":46,"left_children":[1,3,5,7,9,-1,11,13,15,-1,17,-1,19,-1,21,-1,-1,23,-1,-1,-1,25,-1,-1,-1,-1,-1],"loss_changes":[3.972171E1,2.2665773E1,1.5105488E1,2.3498152E1,7.7983513E0,0E0,1.0993771E1,2.2565817E1,4.090597E0,0E0,5.728668E0,0E0,4.8820114E0,0E0,1.0871608E1,0E0,0E0,7.823448E-1,0E0,0E0,0E0,3.2626762E0,0E0,0E0,0E0,0E0,0E0],"parents":[2147483647,0,0,1,1,2,2,3,3,4,4,6,6,7,7,8,8,10,10,12,12,14,14,17,17,21,21],"right_children":[2,4,6,8,10,-1,12,14,16,-1,18,-1,20,-1,22,-1,-1,24,-1,-1,-1,26,-1,-1,-1,-1,-1],"split_conditions":[3.0091887E-2,6.8265766E-2,-2.3178404E-2,5.7111345E-2,2.5865664E-3,-3.8284103E-3,4.042112E-2,2.2648914E-2,2.7858566E-2,2.551287E-4,3.1653162E-2,1.7987807E-4,1.0495387E-3,1.0538043E-2,7.626322E-2,6.805057E-3,1.9815132E-2,-8.2179144E-2,-5.0622723E-3,7.879271E-3,1.952534E-2,7.89339E-2,8.7586045E-4,-9.705633E-3,-1.7700963E-2,-6.571933E-3,-1.7464206E-2],"split_indices":[307,339,18,148,142,0,1233,958,952,0,837,0,490,0,218,0,0,513,0,0,0,288,0,0,0,0,0],"split_type":[0,0,0,0,0,0,0,0,0,0,0,0,0,0,0,0,0,0,0,0,0,0,0,0,0,0,0],"sum_hessian":[1.813446E2,1.2535472E2,5.5989876E1,7.2434265E1,5.2920464E1,9.996771E0,4.5993107E1,5.320282E1,1.9231443E1,1.169066E1,4.12298E1,8.707063E0,3.728604E1,1.4952073E1,3.8250748E1,9.898703E0,9.332741E0,2.5402597E1,1.5827207E1,1.0960964E1,2.6325079E1,2.3252432E1,1.4998314E1,8.671103E0,1.6731493E1,1.0328741E1,1.2923692E1],"tree_param":{"num_deleted":"0","num_feature":"1280","num_nodes":"27","size_leaf_vector":"1"}},{"base_weights":[5.3033795E-2,-4.1213968E-1,5.3504276E-1,-5.612774E-1,8.456364E-3,-1.421424E-1,8.403464E-1,4.8104767E-3,-7.6799005E-1,-6.893179E-1,1.1013483E-2,-4.068686E-3,1.0833592E0,-3.9262668E-4,-9.5479405E-1,-1.6223961E-2,-9.4410917E-4,3.0917635E-3,1.3112487E0,-4.6488103E-3,-1.1688615E0,7.375795E-3,1.5082264E0,-7.883004E-3,-1.7015431E-2,9.673271E-3,2.3027314E-2],"categories":[],"categories_nodes":[],"categories_segments":[],"categories_sizes":[],"default_left":[0,0,0,0,0,0,0,0,0,0,0,0,0,0,0,0,0,0,0,0,0,0,0,0,0,0,0],"id":47,"left_children":[1,3,5,7,-1,9,11,-1,13,15,-1,-1,17,-1,19,-1,-1,-1,21,-1,23,-1,25,-1,-1,-1,-1],"loss_changes":[4.1341476E1,1.5273808E1,1.8850962E1,1.6278334E1,0E0,1.6402145E1,1.7909256E1,0E0,9.37405E0,6.513074E0,0E0,0E0,9.647621E0,0E0,6.482643E0,0E0,0E0,0E0,4.9660187E0,0E0,2.0762405E0,0E0,4.6216583E0,0E0,0E0,0E0,0E0],"parents":[2147483647,0,0,1,1,2,2,3,3,5,5,6,6,8,8,9,9,12,12,14,14,18,18,20,20,22,22],"right_children":[2,4,6,8,-1,10,12,-1,14,16,-1,-1,18,-1,20,-1,-1,-1,22,-1,24,-1,26,-1,-1,-1,-1],"split_conditions":[6.8222195E-2,1.4831781E-2,-3.4094132E-2,-5.9126433E-2,8.456364E-3,-2.0937242E-2,-5.820758E-2,4.8104767E-3,-1.0944477E-1,6.3932575E-2,1.1013483E-2,-4.068686E-3,-4.0980466E-3,-3.9262668E-4,-1.0811615E-1,-1.6223961E-2,-9.4410917E-4,3.0917635E-3,-1.2344588E-1,-4.6488103E-3,-8.4227756E-2,7.375795E-3,-1.4000651E-1,-7.883004E-3,-1.7015431E-2,9.673271E-3,2.3027314E-2],"split_indices":[182,100,654,350,0,1053,225,0,229,70,0,0,1229,0,1000,0,0,0,86,0,563,0,1135,0,0,0,0],"split_type":[0,0,0,0,0,0,0,0,0,0,0,0,0,0,0,0,0,0,0,0,0,0,0,0,0,0,0],"sum_hessian":[1.8203384E2,9.272197E1,8.9311874E1,8.177242E1,1.094955E1,2.794974E1,6.1362133E1,1.4705165E1,6.706725E1,1.8202076E1,9.7476635E0,1.0631087E1,5.0731045E1,1.3825892E1,5.3241364E1,8.962733E0,9.239343E0,1.1272085E1,3.9458958E1,1.4852897E1,3.8388466E1,9.196088E0,3.026287E1,8.630431E0,2.9758036E1,8.716355E0,2.1546516E1],"tree_param":{"num_deleted":"0","num_feature":"1280","num_nodes":"27","size_leaf_vector":"1"}},{"base_weights":[1.05067834E-1,-4.461455E-1,4.9307245E-1,-6.335607E-1,6.930242E-3,1.03607096E-1,1.0107952E0,-9.1202474E-1,-2.8339528E-2,-4.3763658E-1,6.2339914E-1,1.2556996E0,2.7915137E-4,-1.0838947E0,-2.3943558E-3,8.335631E-3,-1.0180627E-2,3.8835634E-2,-1.5369787E-2,-8.898798E-3,1.1565046E0,8.503048E-3,1.9514337E-2,-1.6601106E-2,-6.7543997E-3,-7.885543E-3,9.253319E-3,2.1504752E-2,3.793877E-3],"categories":[],"categories_nodes":[],"categories_segments":[],"categories_sizes":[],"default_left":[0,0,0,0,0,0,0,0,0,0,0,0,0,0,0,0,0,0,0,0,0,0,0,0,0,0,0,0,0],"id":48,"left_children":[1,3,5,7,-1,9,11,13,15,17,19,21,-1,23,-1,-1,-1,25,-1,-1,27,-1,-1,-1,-1,-1,-1,-1,-1],"loss_changes":[3.853131E1,1.4047473E1,2.1164864E1,1.0601475E1,0E0,1.764522E1,1.0918724E1,5.170685E0,1.1163351E1,1.0929936E1,2.3124115E1,4.079399E0,0E0,2.9108276E0,0E0,0E0,0E0,9.083614E0,0E0,0E0,9.243034E0,0E0,0E0,0E0,0E0,0E0,0E0,0E0,0E0],"parents":[2147483647,0,0,1,1,2,2,3,3,5,5,6,6,7,7,8,8,9,9,10,10,11,11,13,13,17,17,20,20],"right_children":[2,4,6,8,-1,10,12,14,16,18,20,22,-1,24,-1,-1,-1,26,-1,-1,28,-1,-1,-1,-1,-1,-1,-1,-1],"split_conditions":[1.723656E-2,2.7402272E-2,1.4471185E-2,1.6985278E-1,6.930242E-3,-2.0369021E-2,3.9190702E-2,-3.758485E-2,1.873103E-2,-7.398169E-2,-9.076299E-2,-7.9723924E-2,2.7915137E-4,-2.5655294E-3,-2.3943558E-3,8.335631E-3,-1.0180627E-2,1.5203658E-2,-1.5369787E-2,-8.898798E-3,-3.683354E-2,8.503048E-3,1.9514337E-2,-1.6601106E-2,-6.7543997E-3,-7.885543E-3,9.253319E-3,2.1504752E-2,3.793877E-3],"split_indices":[1239,1165,927,274,0,791,217,869,109,517,586,785,0,1239,0,0,0,237,0,0,913,0,0,0,0,0,0,0,0],"split_type":[0,0,0,0,0,0,0,0,0,0,0,0,0,0,0,0,0,0,0,0,0,0,0,0,0,0,0,0,0],"sum_hessian":[1.777591E2,7.336162E1,1.0439748E2,6.190289E1,1.1458729E1,6.0388992E1,4.4008488E1,4.1985428E1,1.9917463E1,2.9675655E1,3.0713335E1,3.502135E1,8.987137E0,3.35051E1,8.480327E0,1.0647334E1,9.270128E0,1.8731041E1,1.0944615E1,8.811963E0,2.1901371E1,1.1176329E1,2.3845022E1,2.4059162E1,9.445939E0,9.618276E0,9.112765E0,1.32973385E1,8.604033E0],"tree_param":{"num_deleted":"0","num_feature":"1280","num_nodes":"29","size_leaf_vector":"1"}},{"base_weights":[-1.716044E-2,-2.28578E-1,6.661504E-1,-4.6052796E-1,3.296609E-1,-2.7100395E-3,9.7668594E-1,6.870369E-3,-6.0024405E-1,-8.8126175E-3,6.638372E-1,1.3311502E0,9.198304E-4,-7.46212E-1,5.5337553E-3,1.2807035E-1,1.7576385E-2,2.027313E-2,1.0715763E-2,-9.0978783E-1,5.554241E-3,1.134651E-2,-7.110388E-3,-1.3670756E-2,-1.2543984E-4],