{"learner":{"attributes":{"best_iteration":"580","best_score":"0.8704595525929274"},"feature_names":[],"feature_types":[],"gradient_booster":{"model":{"gbtree_model_param":{"num_parallel_tree":"1","num_trees":"681"},"iteration_indptr":[0,1,2,3,4,5,6,7,8,9,10,11,12,13,14,15,16,17,18,19,20,21,22,23,24,25,26,27,28,29,30,31,32,33,34,35,36,37,38,39,40,41,42,43,44,45,46,47,48,49,50,51,52,53,54,55,56,57,58,59,60,61,62,63,64,65,66,67,68,69,70,71,72,73,74,75,76,77,78,79,80,81,82,83,84,85,86,87,88,89,90,91,92,93,94,95,96,97,98,99,100,101,102,103,104,105,106,107,108,109,110,111,112,113,114,115,116,117,118,119,120,121,122,123,124,125,126,127,128,129,130,131,132,133,134,135,136,137,138,139,140,141,142,143,144,145,146,147,148,149,150,151,152,153,154,155,156,157,158,159,160,161,162,163,164,165,166,167,168,169,170,171,172,173,174,175,176,177,178,179,180,181,182,183,184,185,186,187,188,189,190,191,192,193,194,195,196,197,198,199,200,201,202,203,204,205,206,207,208,209,210,211,212,213,214,215,216,217,218,219,220,221,222,223,224,225,226,227,228,229,230,231,232,233,234,235,236,237,238,239,240,241,242,243,244,245,246,247,248,249,250,251,252,253,254,255,256,257,258,259,260,261,262,263,264,265,266,267,268,269,270,271,272,273,274,275,276,277,278,279,280,281,282,283,284,285,286,287,288,289,290,291,292,293,294,295,296,297,298,299,300,301,302,303,304,305,306,307,308,309,310,311,312,313,314,315,316,317,318,319,320,321,322,323,324,325,326,327,328,329,330,331,332,333,334,335,336,337,338,339,340,341,342,343,344,345,346,347,348,349,350,351,352,353,354,355,356,357,358,359,360,361,362,363,364,365,366,367,368,369,370,371,372,373,374,375,376,377,378,379,380,381,382,383,384,385,386,387,388,389,390,391,392,393,394,395,396,397,398,399,400,401,402,403,404,405,406,407,408,409,410,411,412,413,414,415,416,417,418,419,420,421,422,423,424,425,426,427,428,429,430,431,432,433,434,435,436,437,438,439,440,441,442,443,444,445,446,447,448,449,450,451,452,453,454,455,456,457,458,459,460,461,462,463,464,465,466,467,468,469,470,471,472,473,474,475,476,477,478,479,480,481,482,483,484,485,486,487,488,489,490,491,492,493,494,495,496,497,498,499,500,501,502,503,504,505,506,507,508,509,510,511,512,513,514,515,516,517,518,519,520,521,522,523,524,525,526,527,528,529,530,531,532,533,534,535,536,537,538,539,540,541,542,543,544,545,546,547,548,549,550,551,552,553,554,555,556,557,558,559,560,561,562,563,564,565,566,567,568,569,570,571,572,573,574,575,576,577,578,579,580,581,582,583,584,585,586,587,588,589,590,591,592,593,594,595,596,597,598,599,600,601,602,603,604,605,606,607,608,609,610,611,612,613,614,615,616,617,618,619,620,621,622,623,624,625,626,627,628,629,630,631,632,633,634,635,636,637,638,639,640,641,642,643,644,645,646,647,648,649,650,651,652,653,654,655,656,657,658,659,660,661,662,663,664,665,666,667,668,669,670,671,672,673,674,675,676,677,678,679,680,681],"tree_info":[0,0,0,0,0,0,0,0,0,0,0,0,0,0,0,0,0,0,0,0,0,0,0,0,0,0,0,0,0,0,0,0,0,0,0,0,0,0,0,0,0,0,0,0,0,0,0,0,0,0,0,0,0,0,0,0,0,0,0,0,0,0,0,0,0,0,0,0,0,0,0,0,0,0,0,0,0,0,0,0,0,0,0,0,0,0,0,0,0,0,0,0,0,0,0,0,0,0,0,0,0,0,0,0,0,0,0,0,0,0,0,0,0,0,0,0,0,0,0,0,0,0,0,0,0,0,0,0,0,0,0,0,0,0,0,0,0,0,0,0,0,0,0,0,0,0,0,0,0,0,0,0,0,0,0,0,0,0,0,0,0,0,0,0,0,0,0,0,0,0,0,0,0,0,0,0,0,0,0,0,0,0,0,0,0,0,0,0,0,0,0,0,0,0,0,0,0,0,0,0,0,0,0,0,0,0,0,0,0,0,0,0,0,0,0,0,0,0,0,0,0,0,0,0,0,0,0,0,0,0,0,0,0,0,0,0,0,0,0,0,0,0,0,0,0,0,0,0,0,0,0,0,0,0,0,0,0,0,0,0,0,0,0,0,0,0,0,0,0,0,0,0,0,0,0,0,0,0,0,0,0,0,0,0,0,0,0,0,0,0,0,0,0,0,0,0,0,0,0,0,0,0,0,0,0,0,0,0,0,0,0,0,0,0,0,0,0,0,0,0,0,0,0,0,0,0,0,0,0,0,0,0,0,0,0,0,0,0,0,0,0,0,0,0,0,0,0,0,0,0,0,0,0,0,0,0,0,0,0,0,0,0,0,0,0,0,0,0,0,0,0,0,0,0,0,0,0,0,0,0,0,0,0,0,0,0,0,0,0,0,0,0,0,0,0,0,0,0,0,0,0,0,0,0,0,0,0,0,0,0,0,0,0,0,0,0,0,0,0,0,0,0,0,0,0,0,0,0,0,0,0,0,0,0,0,0,0,0,0,0,0,0,0,0,0,0,0,0,0,0,0,0,0,0,0,0,0,0,0,0,0,0,0,0,0,0,0,0,0,0,0,0,0,0,0,0,0,0,0,0,0,0,0,0,0,0,0,0,0,0,0,0,0,0,0,0,0,0,0,0,0,0,0,0,0,0,0,0,0,0,0,0,0,0,0,0,0,0,0,0,0,0,0,0,0,0,0,0,0,0,0,0,0,0,0,0,0,0,0,0,0,0,0,0,0,0,0,0,0,0,0,0,0,0,0,0,0,0,0,0,0,0,0,0,0,0,0,0,0,0,0,0,0,0,0,0,0,0,0,0,0,0,0,0,0,0,0,0,0,0,0,0,0,0,0,0,0,0,0,0,0,0,0,0,0,0,0,0,0,0,0,0,0,0,0,0,0,0,0,0,0,0,0,0,0,0,0,0,0,0,0,0,0,0,0,0,0,0,0,0,0,0,0,0,0,0,0,0,0,0,0,0,0,0,0,0,0,0,0,0,0,0,0,0,0,0,0,0,0,0,0,0,0,0,0,0,0,0,0,0,0],"trees":[{"base_weights":[-6.004711E-3,-9.2344487E-1,3.9729723E-1,-1.0175698E0,2.1149988E-1,1.6907091E-1,1.0476129E0,-1.0641965E0,4.8403534E-1,-6.120921E-1,6.9182354E-1,3.8118672E-1,-2.4498923E-1,1.9263388E-1,1.264695E0,-1.1418854E0,-6.487178E-2,-3.2792693E-1,2.3860505E-2,5.406775E-3,-7.976814E-1,-4.540306E-1,1.1273726E0,-3.2852226E-1,5.320118E-1,-4.4969985E-1,4.4947407E-1,-7.0712346E-1,6.957314E-1,1.3607812E0,-2.939993E-1,-2.9767297E-2,-5.64322E-3,1.808017E-2,-1.73179E-2,1.96375E-3,-1.1403922E-2,-1.479275E-3,-2.1313494E-2,1.96375E-3,-1.4686891E-2,-3.1868513E-3,3.394354E-2,5.4209563E-3,-1.8281227E-2,1.615205E-2,-9.541762E-3,1.132442E-3,-1.8398412E-2,-6.2736543E-3,2.2063706E-2,7.5091836E-3,-2.378545E-2,-3.1436675E-3,2.4453077E-2,1.3266497E-2,3.768499E-2,-1.6046299E-2,1.21357525E-2],"categories":[],"categories_nodes":[],"categories_segments":[],"categories_sizes":[],"default_left":[0,0,0,0,0,0,0,0,0,0,0,0,0,0,0,0,0,0,0,0,0,0,0,0,0,0,0,0,0,0,0,0,0,0,0,0,0,0,0,0,0,0,0,0,0,0,0,0,0,0,0,0,0,0,0,0,0,0,0],"id":0,"left_children":[1,3,5,7,9,11,13,15,17,19,21,23,25,27,29,31,33,35,-1,-1,37,39,41,43,45,47,49,51,53,55,57,-1,-1,-1,-1,-1,-1,-1,-1,-1,-1,-1,-1,-1,-1,-1,-1,-1,-1,-1,-1,-1,-1,-1,-1,-1,-1,-1,-1],"loss_changes":[4.236431E2,3.85878E1,1.1703211E2,2.5640015E1,1.4917225E1,5.285211E1,3.674118E1,2.4097168E1,7.1352015E0,3.2619882E0,1.4241059E1,4.3408268E1,3.034737E1,2.4747467E1,2.669696E1,1.3941956E1,1.7448605E1,7.122816E-1,0E0,0E0,3.0456066E-1,1.0303478E0,6.47036E0,1.7231277E1,3.732698E1,2.3534492E1,1.662303E1,6.8081284E0,8.814753E0,1.5502838E1,5.743819E0,0E0,0E0,0E0,0E0,0E0,0E0,0E0,0E0,0E0,0E0,0E0,0E0,0E0,0E0,0E0,0E0,0E0,0E0,0E0,0E0,0E0,0E0,0E0,0E0,0E0,0E0,0E0,0E0],"parents":[2147483647,0,0,1,1,2,2,3,3,4,4,5,5,6,6,7,7,8,8,9,9,10,10,11,11,12,12,13,13,14,14,15,15,16,16,17,17,20,20,21,21,22,22,23,23,24,24,25,25,26,26,27,27,28,28,29,29,30,30],"right_children":[2,4,6,8,10,12,14,16,18,20,22,24,26,28,30,32,34,36,-1,-1,38,40,42,44,46,48,50,52,54,56,58,-1,-1,-1,-1,-1,-1,-1,-1,-1,-1,-1,-1,-1,-1,-1,-1,-1,-1,-1,-1,-1,-1,-1,-1,-1,-1,-1,-1],"split_conditions":[-1.1302386E-2,1.17345765E-1,2.1634035E-2,9.558129E-2,6.466384E-2,-5.8055736E-2,1.7033163E-2,2.7037298E-2,-3.1385455E-2,1.44103365E-2,-1.9561116E-1,7.124325E-2,4.281632E-2,9.3019664E-2,3.575326E-2,-7.201856E-2,6.0989417E-2,-9.151924E-2,2.3860505E-2,5.406775E-3,-3.4338206E-2,6.0706295E-2,-1.7100108E-1,1.1203164E-1,-3.0528914E-2,-4.6467E-2,1.1828647E-1,-8.3253E-3,-1.292566E-1,-7.697425E-2,1.19907185E-1,-2.9767297E-2,-5.64322E-3,1.808017E-2,-1.73179E-2,1.96375E-3,-1.1403922E-2,-1.479275E-3,-2.1313494E-2,1.96375E-3,-1.4686891E-2,-3.1868513E-3,3.394354E-2,5.4209563E-3,-1.8281227E-2,1.615205E-2,-9.541762E-3,1.132442E-3,-1.8398412E-2,-6.2736543E-3,2.2063706E-2,7.5091836E-3,-2.378545E-2,-3.1436675E-3,2.4453077E-2,1.3266497E-2,3.768499E-2,-1.6046299E-2,1.21357525E-2],"split_indices":[1182,47,641,1115,610,885,112,396,51,959,1075,918,800,942,618,1020,339,9,0,0,35,87,1128,720,1108,1219,507,253,480,790,1175,0,0,0,0,0,0,0,0,0,0,0,0,0,0,0,0,0,0,0,0,0,0,0,0,0,0,0,0],"split_type":[0,0,0,0,0,0,0,0,0,0,0,0,0,0,0,0,0,0,0,0,0,0,0,0,0,0,0,0,0,0,0,0,0,0,0,0,0,0,0,0,0,0,0,0,0,0,0,0,0,0,0,0,0,0,0,0,0,0,0],"sum_hessian":[1.1334934E3,3.4385522E2,7.896381E2,3.180721E2,2.578312E1,5.898792E2,1.9975893E2,3.1012033E2,7.951803E0,8.915658E0,1.686746E1,3.9036124E2,1.9951796E2,4.265058E1,1.5710835E2,2.869878E2,2.3132519E1,3.614456E0,4.337347E0,1.4457824E0,7.4698753E0,4.578311E0,1.228915E1,6.722888E1,3.2313235E2,1.5566257E2,4.38554E1,1.4457824E1,2.8192757E1,1.4867462E2,8.43373E0,2.6819263E2,1.879517E1,9.879513E0,1.3253005E1,1.4457824E0,2.1686735E0,1.4457824E0,6.024093E0,1.4457824E0,3.1325285E0,2.4096372E0,9.879513E0,2.9879501E1,3.7349377E1,2.8746973E2,3.5662632E1,5.951804E1,9.614452E1,1.7831316E1,2.6024082E1,2.650601E0,1.1807222E1,8.192767E0,1.9999989E1,2.7951792E1,1.20722824E2,6.5060205E0,1.9277098E0],"tree_param":{"num_deleted":"0","num_feature":"1280","num_nodes":"59","size_leaf_vector":"1"}},{"base_weights":[-1.80645E-2,-8.070376E-1,4.5537E-1,5.259928E-4,-9.5879424E-1,1.1700463E0,2.5865817E-1,8.6645997E-1,-3.4466258E-1,-1.1442478E0,-5.492019E-1,1.3230472E0,1.656358E-1,5.3974295E-1,-1.2442106E-1,-1.6341819E-1,1.1796396E0,3.5035625E-1,-7.993447E-1,-1.2344747E0,-2.2562794E-1,1.3074873E-1,-8.5112745E-1,1.5194036E0,4.3283972E-1,7.6762867E-1,-4.8597735E-1,7.338724E-1,-7.644519E-2,-3.7551153E-1,6.851315E-1,8.750758E-3,-1.1817041E-2,-4.864316E-3,3.3915408E-2,2.6151637E-2,-1.2449493E-2,-2.4634006E-2,1.1773604E-2,-3.150049E-2,1.6231484E-3,1.3298843E-2,-1.4834518E-2,-1.0916088E-2,1.8194525E-2,-2.4918351E-2,7.853887E-3,1.9610475E-3,3.9932415E-2,-1.0225477E-2,2.1464866E-2,-6.317144E-3,2.6151318E-2,7.3388545E-3,-1.8894821E-2,-5.4797283E-3,2.2378992E-2,6.7938943E-3,-1.4122457E-2,-1.7056288E-2,4.4411966E-3,-1.26812225E-2,2.4484286E-2],"categories":[],"categories_nodes":[],"categories_segments":[],"categories_sizes":[],"default_left":[0,0,0,0,0,0,0,0,0,0,0,0,0,0,0,0,0,0,0,0,0,0,0,0,0,0,0,0,0,0,0,0,0,0,0,0,0,0,0,0,0,0,0,0,0,0,0,0,0,0,0,0,0,0,0,0,0,0,0,0,0,0,0],"id":1,"left_children":[1,3,5,7,9,11,13,15,17,19,21,23,25,27,29,31,33,35,37,39,41,43,45,47,49,51,53,55,57,59,61,-1,-1,-1,-1,-1,-1,-1,-1,-1,-1,-1,-1,-1,-1,-1,-1,-1,-1,-1,-1,-1,-1,-1,-1,-1,-1,-1,-1,-1,-1,-1,-1],"loss_changes":[4.275871E2,5.2609406E1,9.885501E1,2.3738256E1,2.3828827E1,2.222116E1,6.160327E1,8.410589E0,1.9558651E1,1.8571075E1,2.6035141E1,1.9248016E1,1.2655484E1,3.967697E1,5.1341328E1,2.63707E0,6.1989784E0,1.8916645E1,1.161289E1,1.056839E1,1.0018381E1,1.6658358E1,1.7298828E1,1.2991257E1,1.3697273E1,6.276821E0,4.829157E0,4.1401062E1,1.5403667E1,3.37415E1,2.4603691E1,0E0,0E0,0E0,0E0,0E0,0E0,0E0,0E0,0E0,0E0,0E0,0E0,0E0,0E0,0E0,0E0,0E0,0E0,0E0,0E0,0E0,0E0,0E0,0E0,0E0,0E0,0E0,0E0,0E0,0E0,0E0,0E0],"parents":[2147483647,0,0,1,1,2,2,3,3,4,4,5,5,6,6,7,7,8,8,9,9,10,10,11,11,12,12,13,13,14,14,15,15,16,16,17,17,18,18,19,19,20,20,21,21,22,22,23,23,24,24,25,25,26,26,27,27,28,28,29,29,30,30],"right_children":[2,4,6,8,10,12,14,16,18,20,22,24,26,28,30,32,34,36,38,40,42,44,46,48,50,52,54,56,58,60,62,-1,-1,-1,-1,-1,-1,-1,-1,-1,-1,-1,-1,-1,-1,-1,-1,-1,-1,-1,-1,-1,-1,-1,-1,-1,-1,-1,-1,-1,-1,-1,-1],"split_conditions":[7.5716384E-2,-1.8027917E-2,-4.5491148E-2,4.2960398E-2,1.0266266E-1,4.631233E-2,3.213997E-2,-3.2522536E-3,-1.30799E-1,1.4616276E-1,-1.229116E-1,1.1639604E-2,4.5749687E-2,-5.1512208E-2,1.1359691E-1,7.142727E-3,-9.0831794E-2,-8.6638086E-2,3.7531238E-2,3.619561E-2,-8.264572E-2,-3.9033562E-2,3.1330474E-2,-4.691522E-2,1.0283002E-1,9.779407E-2,-1.27587E-1,2.4317594E-2,1.6485792E-1,-2.536173E-3,-7.917289E-2,8.750758E-3,-1.1817041E-2,-4.864316E-3,3.3915408E-2,2.6151637E-2,-1.2449493E-2,-2.4634006E-2,1.1773604E-2,-3.150049E-2,1.6231484E-3,1.3298843E-2,-1.4834518E-2,-1.0916088E-2,1.8194525E-2,-2.4918351E-2,7.853887E-3,1.9610475E-3,3.9932415E-2,-1.0225477E-2,2.1464866E-2,-6.317144E-3,2.6151318E-2,7.3388545E-3,-1.8894821E-2,-5.4797283E-3,2.2378992E-2,6.7938943E-3,-1.4122457E-2,-1.7056288E-2,4.4411966E-3,-1.26812225E-2,2.4484286E-2],"split_indices":[1230,606,37,633,32,946,423,327,730,742,40,1125,1129,885,833,721,140,1222,692,208,86,790,1159,854,942,723,414,686,77,361,941,0,0,0,0,0,0,0,0,0,0,0,0,0,0,0,0,0,0,0,0,0,0,0,0,0,0,0,0,0,0,0,0],"split_type":[0,0,0,0,0,0,0,0,0,0,0,0,0,0,0,0,0,0,0,0,0,0,0,0,0,0,0,0,0,0,0,0,0,0,0,0,0,0,0,0,0,0,0,0,0,0,0,0,0,0,0,0,0,0,0,0,0,0,0,0,0,0,0],"sum_hessian":[1.1333016E3,4.2349442E2,7.098072E2,6.790138E1,3.5559305E2,1.4705167E2,5.6275555E2,1.687385E1,5.1027534E1,2.3765671E2,1.1793633E2,1.2602686E2,2.1024796E1,3.232298E2,2.3952574E2,4.5769877E0,1.2296864E1,2.0702963E1,3.0324572E1,2.1459836E2,2.3058342E1,3.7269424E1,8.066691E1,9.9916756E1,2.611011E1,1.0395446E1,1.0629351E1,2.4495644E2,7.827335E1,1.8517891E2,5.4346836E1,1.4507618E0,3.126226E0,1.4423106E0,1.0854552E1,1.0591322E1,1.0111641E1,2.7427118E1,2.8974516E0,2.0906688E2,5.5314755E0,6.738935E0,1.6319407E1,1.9939262E1,1.733016E1,7.201965E1,8.647259E0,6.522941E0,9.3393814E1,8.928643E0,1.7181467E1,2.415526E0,7.97992E0,2.6606565E0,7.968694E0,3.6413685E1,2.0854274E2,4.724772E1,3.1025639E1,1.1762222E2,6.755669E1,1.0142498E1,4.4204338E1],"tree_param":{"num_deleted":"0","num_feature":"1280","num_nodes":"63","size_leaf_vector":"1"}},{"base_weights":[5.300336E-3,4.8468456E-1,-7.5016016E-1,1.7729127E-1,9.6218204E-1,-9.2519677E-1,-1.1499925E-1,-4.3382397E-1,3.4352526E-1,1.962841E-1,1.1542553E0,-1.0323437E0,9.2110366E-2,7.46076E-1,-3.821137E-1,-7.991179E-1,1.6580093E-1,5.2690053E-1,-1.8899359E-1,8.024352E-1,-2.5843155E-1,1.2398124E0,-1.1101698E-2,2.2283974E-1,-1.1022403E0,-3.7181303E-1,8.8620585E-1,-2.8100163E-1,1.2578206E0,-7.8068906E-1,3.1637472E-1,4.1785655E-3,-2.4620658E-2,-1.4160428E-2,1.975129E-2,1.7150126E-2,-6.3934843E-3,7.718282E-3,-1.7515294E-2,2.7203897E-2,-8.351879E-3,-1.3757077E-2,1.4672426E-2,-1.0369125E-2,3.2118075E-2,1.4629407E-2,-1.3758325E-2,1.6271392E-2,-1.3043332E-2,-2.8234908E-2,8.138293E-3,1.459833E-2,-1.5254563E-2,3.0331945E-2,-5.2051027E-3,-1.5770499E-2,1.0619477E-2,3.408736E-2,5.396958E-4,-2.763391E-2,2.3511604E-3,-6.780753E-3,2.1028709E-2],"categories":[],"categories_nodes":[],"categories_segments":[],"categories_sizes":[],"default_left":[0,0,0,0,0,0,0,0,0,0,0,0,0,0,0,0,0,0,0,0,0,0,0,0,0,0,0,0,0,0,0,0,0,0,0,0,0,0,0,0,0,0,0,0,0,0,0,0,0,0,0,0,0,0,0,0,0,0,0,0,0,0,0],"id":2,"left_children":[1,3,5,7,9,11,13,15,17,19,21,23,25,27,29,31,33,35,37,39,41,43,45,47,49,51,53,55,57,59,61,-1,-1,-1,-1,-1,-1,-1,-1,-1,-1,-1,-1,-1,-1,-1,-1,-1,-1,-1,-1,-1,-1,-1,-1,-1,-1,-1,-1,-1,-1,-1,-1],"loss_changes":[4.1450076E2,1.0178847E2,4.878749E1,4.4848022E1,3.8842926E1,3.842868E1,2.5234634E1,2.1603745E1,3.41297E1,1.8189375E1,2.1716583E1,2.9040466E1,1.6045662E1,1.5825858E1,2.427851E1,1.2204414E1,2.1554996E1,3.418831E1,2.5119095E1,1.14493065E1,1.1849806E1,2.1480865E1,8.593569E0,8.92318E0,1.7486511E1,8.688623E0,7.3265142E0,4.945326E0,2.4929237E0,1.6337997E1,1.196203E1,0E0,0E0,0E0,0E0,0E0,0E0,0E0,0E0,0E0,0E0,0E0,0E0,0E0,0E0,0E0,0E0,0E0,0E0,0E0,0E0,0E0,0E0,0E0,0E0,0E0,0E0,0E0,0E0,0E0,0E0,0E0,0E0],"parents":[2147483647,0,0,1,1,2,2,3,3,4,4,5,5,6,6,7,7,8,8,9,9,10,10,11,11,12,12,13,13,14,14,15,15,16,16,17,17,18,18,19,19,20,20,21,21,22,22,23,23,24,24,25,25,26,26,27,27,28,28,29,29,30,30],"right_children":[2,4,6,8,10,12,14,16,18,20,22,24,26,28,30,32,34,36,38,40,42,44,46,48,50,52,54,56,58,60,62,-1,-1,-1,-1,-1,-1,-1,-1,-1,-1,-1,-1,-1,-1,-1,-1,-1,-1,-1,-1,-1,-1,-1,-1,-1,-1,-1,-1,-1,-1,-1,-1],"split_conditions":[1.6727393E-2,6.1877053E-3,1.2295358E-2,9.6564434E-2,-7.488864E-3,7.3063686E-3,-1.2189827E-1,1.00713044E-1,5.7255104E-2,1.8033572E-2,-9.441443E-2,-5.750661E-1,4.6358276E-2,4.3316125E-3,-1.1774936E-2,-1.027065E-1,4.1852765E-2,1.1148629E-1,8.072457E-2,4.4895712E-2,1.4348814E-1,-1.8119079E-1,4.8770238E-2,-4.9092464E-2,9.908931E-2,-1.2542652E-1,-4.1963365E-2,1.3527706E-1,2.0876023E-1,-3.0030323E-2,9.6616656E-2,4.1785655E-3,-2.4620658E-2,-1.4160428E-2,1.975129E-2,1.7150126E-2,-6.3934843E-3,7.718282E-3,-1.7515294E-2,2.7203897E-2,-8.351879E-3,-1.3757077E-2,1.4672426E-2,-1.0369125E-2,3.2118075E-2,1.4629407E-2,-1.3758325E-2,1.6271392E-2,-1.3043332E-2,-2.8234908E-2,8.138293E-3,1.459833E-2,-1.5254563E-2,3.0331945E-2,-5.2051027E-3,-1.5770499E-2,1.0619477E-2,3.408736E-2,5.396958E-4,-2.763391E-2,2.3511604E-3,-6.780753E-3,2.1028709E-2],"split_indices":[888,641,900,505,401,8,40,1017,933,1238,629,876,955,491,147,414,1197,554,1067,807,1211,566,198,1227,1115,91,1014,880,1012,438,669,0,0,0,0,0,0,0,0,0,0,0,0,0,0,0,0,0,0,0,0,0,0,0,0,0,0,0,0,0,0,0,0],"split_type":[0,0,0,0,0,0,0,0,0,0,0,0,0,0,0,0,0,0,0,0,0,0,0,0,0,0,0,0,0,0,0,0,0,0,0,0,0,0,0,0,0,0,0,0,0,0,0,0,0,0,0,0,0,0,0,0,0,0,0,0,0,0,0],"sum_hessian":[1.1329944E3,6.9441296E2,4.3858145E2,4.2725943E2,2.6715353E2,3.4176752E2,9.6813934E1,8.938549E1,3.3787393E2,5.5899315E1,2.1125421E2,3.0912415E2,3.2643375E1,2.0476717E1,7.633722E1,5.435556E1,3.5029934E1,2.513732E2,8.6500725E1,2.2072004E1,3.382731E1,1.964625E2,1.4791723E1,1.5641138E1,2.9348303E2,2.2538826E1,1.0104548E1,7.673344E0,1.2803373E1,4.8171486E1,2.8165731E1,9.173384E0,4.5182175E1,1.6404459E1,1.8625475E1,2.0839882E2,4.297438E1,4.5135185E1,4.136554E1,1.7713943E1,4.358062E0,2.6571547E1,7.255763E0,5.062874E0,1.9139961E2,6.7927756E0,7.998947E0,1.036119E1,5.279948E0,2.8745813E2,6.024888E0,2.8995214E0,1.9639305E1,7.22251E0,2.882039E0,5.5122156E0,2.1611285E0,1.1116219E1,1.6871545E0,3.375677E1,1.4414714E1,1.4673827E1,1.3491904E1],"tree_param":{"num_deleted":"0","num_feature":"1280","num_nodes":"63","size_leaf_vector":"1"}},{"base_weights":[-3.8335242E-3,-8.860343E-1,3.702628E-1,-9.783316E-1,2.925035E-1,1.1832933E-1,9.343576E-1,6.997319E-1,-1.0181395E0,-5.027698E-1,1.0091645E0,2.8847554E-1,-2.7709877E-1,2.3047684E-2,1.1082541E0,2.3698362E-2,-4.7859773E-3,-3.647381E-1,-1.1246504E0,1.189097E-2,-8.376885E-1,-3.7813988E-3,1.2101763E0,4.7606587E-1,-2.3557621E-1,-5.569741E-1,1.8060726E-1,-5.2454025E-1,6.333972E-1,1.2171975E0,-1.3401016E-2,1.3402735E-2,-1.7057093E-2,-2.9344082E-2,2.0383454E-3,1.9071593E-3,-2.3943514E-2,3.291051E-2,2.4575861E-3,1.7664324E-2,-4.0719197E-3,1.8654045E-2,-1.1052272E-2,-1.7909555E-2,1.0511371E-2,-6.578005E-3,1.8671492E-2,-1.987016E-2,1.1408905E-2,-1.2358653E-2,2.208266E-2,3.1861648E-2,-6.494348E-3,1.711243E-2,-1.3293834E-2],"categories":[],"categories_nodes":[],"categories_segments":[],"categories_sizes":[],"default_left":[0,0,0,0,0,0,0,0,0,0,0,0,0,0,0,0,0,0,0,0,0,0,0,0,0,0,0,0,0,0,0,0,0,0,0,0,0,0,0,0,0,0,0,0,0,0,0,0,0,0,0,0,0,0,0],"id":3,"left_children":[1,3,5,7,9,11,13,15,17,19,21,23,25,27,29,-1,-1,31,33,-1,35,-1,37,39,41,43,45,47,49,51,53,-1,-1,-1,-1,-1,-1,-1,-1,-1,-1,-1,-1,-1,-1,-1,-1,-1,-1,-1,-1,-1,-1,-1,-1],"loss_changes":[3.7959354E2,3.8903076E1,1.1415297E2,2.5408905E1,1.962652E1,3.8470764E1,3.9239258E1,3.5254316E0,1.9482819E1,8.146431E0,5.1091995E0,3.975403E1,2.2727629E1,1.7190327E1,2.5582703E1,0E0,0E0,1.7481373E1,1.9299896E1,0E0,2.2127533E0,0E0,1.2365913E0,4.520958E1,2.4464518E1,1.934113E1,1.8985435E1,9.533356E0,9.590226E0,2.0798492E1,1.1005335E1,0E0,0E0,0E0,0E0,0E0,0E0,0E0,0E0,0E0,0E0,0E0,0E0,0E0,0E0,0E0,0E0,0E0,0E0,0E0,0E0,0E0,0E0,0E0,0E0],"parents":[2147483647,0,0,1,1,2,2,3,3,4,4,5,5,6,6,7,7,8,8,9,9,10,10,11,11,12,12,13,13,14,14,17,17,18,18,20,20,22,22,23,23,24,24,25,25,26,26,27,27,28,28,29,29,30,30],"right_children":[2,4,6,8,10,12,14,16,18,20,22,24,26,28,30,-1,-1,32,34,-1,36,-1,38,40,42,44,46,48,50,52,54,-1,-1,-1,-1,-1,-1,-1,-1,-1,-1,-1,-1,-1,-1,-1,-1,-1,-1,-1,-1,-1,-1,-1,-1],"split_conditions":[-9.563954E-3,1.5319145E-1,1.42779965E-2,-6.157124E-2,4.629525E-3,-6.0231153E-2,-3.801022E-2,1.796011E-1,-6.9896944E-2,-1.0951617E-2,-4.479709E-2,-2.840428E-2,-2.5544677E-2,8.864981E-2,-4.894652E-3,2.3698362E-2,-4.7859773E-3,1.063295E-2,1.9370583E-1,1.189097E-2,1.5294658E-2,-3.7813988E-3,6.900135E-2,4.9365167E-2,-1.0905066E-1,1.535544E-2,-4.523365E-2,7.341102E-2,3.871767E-2,1.0924753E-1,-8.8830695E-2,1.3402735E-2,-1.7057093E-2,-2.9344082E-2,2.0383454E-3,1.9071593E-3,-2.3943514E-2,3.291051E-2,2.4575861E-3,1.7664324E-2,-4.0719197E-3,1.8654045E-2,-1.1052272E-2,-1.7909555E-2,1.0511371E-2,-6.578005E-3,1.8671492E-2,-1.987016E-2,1.1408905E-2,-1.2358653E-2,2.208266E-2,3.1861648E-2,-6.494348E-3,1.711243E-2,-1.3293834E-2],"split_indices":[1182,32,641,995,1044,1103,1106,236,49,1009,836,223,22,880,983,0,0,339,1114,0,217,0,160,933,40,430,433,506,919,897,1228,0,0,0,0,0,0,0,0,0,0,0,0,0,0,0,0,0,0,0,0,0,0,0,0],"split_type":[0,0,0,0,0,0,0,0,0,0,0,0,0,0,0,0,0,0,0,0,0,0,0,0,0,0,0,0,0,0,0,0,0,0,0,0,0,0,0,0,0,0,0,0,0,0,0,0,0,0,0,0,0,0,0],"sum_hessian":[1.1386998E3,3.367314E2,8.0196844E2,3.1318295E2,2.354848E1,5.5919257E2,2.4277591E2,5.0446334E0,3.081383E2,1.1976891E1,1.15715885E1,3.9205542E2,1.6713712E2,3.994841E1,2.028275E2,3.608159E0,1.4364742E0,4.676123E1,2.6137708E2,2.414386E0,9.562504E0,1.9124728E0,9.659116E0,2.890972E2,1.0295823E2,1.0294172E2,6.4195404E1,2.1483671E1,1.8464739E1,1.8442421E2,1.8403284E1,1.1273829E1,3.5487404E1,2.4947499E2,1.1902092E1,1.4486451E0,8.113859E0,7.7326546E0,1.9264612E0,2.1077336E2,7.832384E1,1.5442267E1,8.751596E1,8.942377E1,1.351795E1,3.7815742E1,2.637966E1,1.7612558E1,3.8711119E0,2.412471E0,1.6052267E1,1.771502E2,7.274001E0,7.058474E0,1.13448105E1],"tree_param":{"num_deleted":"0","num_feature":"1280","num_nodes":"55","size_leaf_vector":"1"}},{"base_weights":[-1.0714891E-2,4.375459E-1,-7.399437E-1,1.8071228E-1,9.563163E-1,-2.8678522E-1,-9.9406207E-1,-1.0165774E-1,5.761575E-1,4.050077E-1,1.3091089E0,6.2541866E-1,-4.8791006E-1,-1.1535127E0,-3.5919523E-1,7.916928E-1,-2.4406752E-1,-1.5430771E-1,8.0054194E-1,8.1840557E-1,-1.7695472E-1,1.390689E0,-7.364751E-2,-1.5346132E-1,1.0402683E0,-7.7090824E-1,3.2676592E-1,-1.1845623E0,1.1086442E-2,5.5921924E-1,-6.0062146E-1,3.190097E-3,3.3573437E-2,-1.2267532E-2,7.3439213E-3,-1.7017702E-2,1.2680352E-2,-6.3734775E-4,2.5162386E-2,-7.196578E-3,2.5081536E-2,-1.50049785E-2,1.6337797E-2,3.7490434E-4,3.5992425E-2,1.2576099E-2,-1.3477762E-2,1.0472623E-2,-1.4508211E-2,3.0159622E-2,-6.003734E-3,3.3193848E-3,-2.4358695E-2,-9.643878E-3,2.027914E-2,-2.9887853E-2,9.1722775E-3,2.4475262E-2,-4.022665E-3,-1.9968111E-2,7.4688587E-3],"categories":[],"categories_nodes":[],"categories_segments":[],"categories_sizes":[],"default_left":[0,0,0,0,0,0,0,0,0,0,0,0,0,0,0,0,0,0,0,0,0,0,0,0,0,0,0,0,0,0,0,0,0,0,0,0,0,0,0,0,0,0,0,0,0,0,0,0,0,0,0,0,0,0,0,0,0,0,0,0,0],"id":4,"left_children":[1,3,5,7,9,11,13,15,17,19,21,23,25,27,29,31,33,35,37,39,41,43,45,47,49,51,53,55,-1,57,59,-1,-1,-1,-1,-1,-1,-1,-1,-1,-1,-1,-1,-1,-1,-1,-1,-1,-1,-1,-1,-1,-1,-1,-1,-1,-1,-1,-1,-1,-1],"loss_changes":[3.7634106E2,9.40155E1,4.8825867E1,5.4388584E1,4.261252E1,3.2131954E1,2.580194E1,3.766421E1,3.3905296E1,2.488252E1,1.6449554E1,1.1399053E1,3.347114E1,1.3978912E1,1.6183506E1,1.421282E1,3.495063E1,2.0563189E1,2.7667473E1,1.4382641E1,1.8827488E1,1.0867401E1,5.2129354E0,5.4661994E0,6.619953E0,2.0753674E1,1.5819762E1,9.367676E0,0E0,5.964048E0,1.1278038E1,0E0,0E0,0E0,0E0,0E0,0E0,0E0,0E0,0E0,0E0,0E0,0E0,0E0,0E0,0E0,0E0,0E0,0E0,0E0,0E0,0E0,0E0,0E0,0E0,0E0,0E0,0E0,0E0,0E0,0E0],"parents":[2147483647,0,0,1,1,2,2,3,3,4,4,5,5,6,6,7,7,8,8,9,9,10,10,11,11,12,12,13,13,14,14,15,15,16,16,17,17,18,18,19,19,20,20,21,21,22,22,23,23,24,24,25,25,26,26,27,27,29,29,30,30],"right_children":[2,4,6,8,10,12,14,16,18,20,22,24,26,28,30,32,34,36,38,40,42,44,46,48,50,52,54,56,-1,58,60,-1,-1,-1,-1,-1,-1,-1,-1,-1,-1,-1,-1,-1,-1,-1,-1,-1,-1,-1,-1,-1,-1,-1,-1,-1,-1,-1,-1,-1,-1],"split_conditions":[1.6727393E-2,1.3485005E-2,8.817219E-2,-2.1560477E-2,6.865772E-2,-1.2189827E-1,-5.1700515E-3,-1.6545963E-1,2.102028E-2,1.4589788E-2,-4.1348943E-3,7.2136475E-3,-8.024001E-3,1.4446639E-1,7.2990656E-3,1.0993068E-2,-1.2183166E-1,4.857781E-2,-1.7584322E-2,8.783898E-3,1.0227418E-1,2.602537E-2,3.1247605E-2,-4.0734332E-2,9.5766254E-2,-3.3901133E-2,-5.5271234E-2,4.766054E-2,1.1086442E-2,9.176842E-2,5.2718155E-2,3.190097E-3,3.3573437E-2,-1.2267532E-2,7.3439213E-3,-1.7017702E-2,1.2680352E-2,-6.3734775E-4,2.5162386E-2,-7.196578E-3,2.5081536E-2,-1.50049785E-2,1.6337797E-2,3.7490434E-4,3.5992425E-2,1.2576099E-2,-1.3477762E-2,1.0472623E-2,-1.4508211E-2,3.0159622E-2,-6.003734E-3,3.3193848E-3,-2.4358695E-2,-9.643878E-3,2.027914E-2,-2.9887853E-2,9.1722775E-3,2.4475262E-2,-4.022665E-3,-1.9968111E-2,7.4688587E-3],"split_indices":[888,641,261,208,82,40,716,441,473,167,152,327,251,1110,756,147,390,1239,1253,53,748,24,53,310,1151,219,622,1028,0,218,836,0,0,0,0,0,0,0,0,0,0,0,0,0,0,0,0,0,0,0,0,0,0,0,0,0,0,0,0,0,0],"split_type":[0,0,0,0,0,0,0,0,0,0,0,0,0,0,0,0,0,0,0,0,0,0,0,0,0,0,0,0,0,0,0,0,0,0,0,0,0,0,0,0,0,0,0,0,0,0,0,0,0,0,0,0,0,0,0,0,0,0,0,0,0],"sum_hessian":[1.1398313E3,7.0733356E2,4.3249774E2,4.7830164E2,2.290319E2,1.5979764E2,2.727001E2,2.815432E2,1.967584E2,9.419921E1,1.348327E2,2.6672606E1,1.3312503E2,2.1419759E2,5.8502525E1,3.509952E1,2.464437E2,4.6659866E1,1.5009854E2,5.37077E1,4.0491516E1,1.2728978E2,7.5429153E0,1.0530604E1,1.6142E1,9.903291E1,3.409212E1,2.11589E2,2.6085732E0,1.0599372E1,4.7903152E1,1.9340492E1,1.5759031E1,1.6870956E2,7.773414E1,2.5838682E1,2.0821184E1,3.1884005E1,1.1821453E2,7.5174007E0,4.6190296E1,2.7829998E1,1.2661516E1,5.6274886E0,1.2166229E2,3.168392E0,4.374523E0,4.5635886E0,5.967016E0,1.4463002E1,1.6789984E0,1.9121738E1,7.991118E1,1.43548975E1,1.9737225E1,2.1016179E2,1.427217E0,5.326688E0,5.2726836E0,3.956064E1,8.342515E0],"tree_param":{"num_deleted":"0","num_feature":"1280","num_nodes":"61","size_leaf_vector":"1"}},{"base_weights":[-5.2946876E-3,4.2810512E-1,-6.920473E-1,1.2375855E-1,8.558343E-1,-8.3897144E-1,1.2787978E-1,4.850783E-1,-2.5115132E-1,-3.9189585E-2,9.7325677E-1,1.389537E-1,-9.4131565E-1,4.6692845E-1,-5.871949E-1,-1.8944383E-1,7.007581E-1,7.210834E-1,-3.815648E-1,4.702601E-1,-8.163323E-1,1.1459208E0,3.5858375E-1,7.26172E-1,-5.0771856E-1,-1.048606E0,-1.3400808E-1,7.447725E-1,-5.27512E-1,-7.814264E-1,1.0361024E-2,4.3037697E-3,-2.2153668E-2,2.0904055E-2,-8.566715E-3,2.6932577E-2,-6.664806E-3,8.110199E-3,-1.3726572E-2,1.9216826E-2,-6.5531596E-3,-2.4949834E-2,3.5039193E-3,3.0567806E-2,1.4811608E-3,-1.1299338E-2,1.7014964E-2,-1.2092674E-2,2.634439E-2,-1.9786315E-2,5.4814206E-3,-4.205896E-3,-2.7906876E-2,1.2577838E-2,-1.6775114E-2,2.6756007E-2,-1.7497697E-3,-2.040917E-2,5.03064E-3,-2.4456574E-2,4.875114E-3],"categories":[],"categories_nodes":[],"categories_segments":[],"categories_sizes":[],"default_left":[0,0,0,0,0,0,0,0,0,0,0,0,0,0,0,0,0,0,0,0,0,0,0,0,0,0,0,0,0,0,0,0,0,0,0,0,0,0,0,0,0,0,0,0,0,0,0,0,0,0,0,0,0,0,0,0,0,0,0,0,0],"id":5,"left_children":[1,3,5,7,9,11,13,15,17,19,21,23,25,27,29,31,33,35,37,39,41,43,45,47,49,51,53,55,57,59,-1,-1,-1,-1,-1,-1,-1,-1,-1,-1,-1,-1,-1,-1,-1,-1,-1,-1,-1,-1,-1,-1,-1,-1,-1,-1,-1,-1,-1,-1,-1],"loss_changes":[3.4081567E2,9.078398E1,5.398758E1,5.718025E1,3.0791962E1,3.843155E1,1.911297E1,3.1938099E1,2.800996E1,1.7760769E1,2.4949799E1,1.75732E1,2.8773285E1,1.670449E1,6.9174824E0,1.5304825E1,2.5945854E1,1.1291153E1,2.38557E1,7.2972116E0,4.019202E0,1.8141724E1,1.9068329E1,1.26336775E1,5.819632E0,1.9051117E1,1.8192562E1,1.2202311E1,4.147585E0,5.839472E0,0E0,0E0,0E0,0E0,0E0,0E0,0E0,0E0,0E0,0E0,0E0,0E0,0E0,0E0,0E0,0E0,0E0,0E0,0E0,0E0,0E0,0E0,0E0,0E0,0E0,0E0,0E0,0E0,0E0,0E0,0E0],"parents":[2147483647,0,0,1,1,2,2,3,3,4,4,5,5,6,6,7,7,8,8,9,9,10,10,11,11,12,12,13,13,14,14,15,15,16,16,17,17,18,18,19,19,20,20,21,21,22,22,23,23,24,24,25,25,26,26,27,27,28,28,29,29],"right_children":[2,4,6,8,10,12,14,16,18,20,22,24,26,28,30,32,34,36,38,40,42,44,46,48,50,52,54,56,58,60,-1,-1,-1,-1,-1,-1,-1,-1,-1,-1,-1,-1,-1,-1,-1,-1,-1,-1,-1,-1,-1,-1,-1,-1,-1,-1,-1,-1,-1,-1,-1],"split_conditions":[1.423532E-2,1.6059267E-3,6.64558E-2,3.213997E-2,4.276295E-2,-8.8985726E-2,3.244245E-2,1.0386497E-1,9.101559E-3,6.8606034E-2,-3.9883137E-2,2.0979725E-2,-1.5444926E-3,8.419978E-2,7.264797E-2,1.1654453E-1,5.036836E-2,-2.325193E-2,-8.9195676E-2,-1.4501559E-2,4.161035E-2,3.5399962E-2,-4.128069E-2,-6.389518E-2,4.8801333E-2,-3.7745042E-3,7.206603E-2,-3.6099035E-2,-2.7005823E-2,4.8312794E-2,1.0361024E-2,4.3037697E-3,-2.2153668E-2,2.0904055E-2,-8.566715E-3,2.6932577E-2,-6.664806E-3,8.110199E-3,-1.3726572E-2,1.9216826E-2,-6.5531596E-3,-2.4949834E-2,3.5039193E-3,3.0567806E-2,1.4811608E-3,-1.1299338E-2,1.7014964E-2,-1.2092674E-2,2.634439E-2,-1.9786315E-2,5.4814206E-3,-4.205896E-3,-2.7906876E-2,1.2577838E-2,-1.6775114E-2,2.6756007E-2,-1.7497697E-3,-2.040917E-2,5.03064E-3,-2.4456574E-2,4.875114E-3],"split_indices":[888,641,1047,423,1090,795,805,274,1198,603,774,27,333,675,678,748,1105,983,220,716,609,1127,621,139,448,30,933,447,644,549,0,0,0,0,0,0,0,0,0,0,0,0,0,0,0,0,0,0,0,0,0,0,0,0,0,0,0,0,0,0,0],"split_type":[0,0,0,0,0,0,0,0,0,0,0,0,0,0,0,0,0,0,0,0,0,0,0,0,0,0,0,0,0,0,0,0,0,0,0,0,0,0,0,0,0,0,0,0,0,0,0,0,0,0,0,0,0,0,0,0,0,0,0,0,0],"sum_hessian":[1.1335728E3,6.963104E2,4.3726227E2,4.1117166E2,2.8513876E2,3.707018E2,6.656048E1,2.0851884E2,2.0265282E2,3.3515175E1,2.5162358E2,3.492492E1,3.357769E2,4.6507854E1,2.0052624E1,5.0690094E1,1.5782875E2,2.088286E1,1.8176996E2,2.1618107E1,1.1897069E1,1.9255577E2,5.906781E1,1.7932762E1,1.6992157E1,2.9486768E2,4.090921E1,3.7481678E1,9.0261755E0,1.7877466E1,2.1751559E0,3.6302498E1,1.4387598E1,1.3997142E2,1.7857334E1,1.4854418E1,6.0284433E0,3.4446304E1,1.4732365E2,1.5061756E1,6.556351E0,9.691575E0,2.2054937E0,1.7768407E2,1.4871702E1,1.6289803E1,4.2778008E1,3.3215725E0,1.461119E1,1.176741E1,5.224747E0,2.5015284E1,2.698524E2,1.8917131E1,2.199208E1,2.5277025E1,1.2204654E1,5.90955E0,3.1166255E0,1.474919E1,3.1282763E0],"tree_param":{"num_deleted":"0","num_feature":"1280","num_nodes":"61","size_leaf_vector":"1"}},{"base_weights":[1.7750798E-3,-8.391974E-1,3.6637306E-1,-9.575764E-1,-9.920595E-2,1.5891807E-1,9.521283E-1,-1.0496426E0,-2.9041551E-2,-5.248659E-1,6.1795294E-1,5.768189E-1,-1.5592673E-2,1.0861742E0,2.7578354E-2,-1.0893685E0,3.324657E-1,6.1547494E-1,-5.508576E-1,-8.3195984E-1,2.3714639E-1,9.628846E-1,-3.769758E-1,7.6816773E-1,-1.3837756E-1,-1.6593571E-1,4.9695823E-1,2.2867428E-1,1.1936095E0,-5.2632606E-1,6.001969E-1,-2.7735598E-2,1.2408639E-2,-8.185916E-3,1.9232552E-2,-9.5872E-3,2.5173828E-2,-1.981663E-2,1.1026364E-2,-2.3400012E-2,6.013357E-3,-9.914736E-3,1.5304897E-2,3.208613E-2,-3.104417E-3,-1.318057E-2,2.7712493E-3,-8.628342E-3,2.3136564E-2,2.0986432E-2,-1.1894213E-2,4.680706E-3,-1.0780688E-2,-1.30845355E-2,1.8115247E-2,1.53634455E-2,-1.3811683E-2,3.1100241E-2,-6.9332058E-3,6.780578E-3,-1.7883493E-2,-1.1707065E-2,2.4709994E-2],"categories":[],"categories_nodes":[],"categories_segments":[],"categories_sizes":[],"default_left":[0,0,0,0,0,0,0,0,0,0,0,0,0,0,0,0,0,0,0,0,0,0,0,0,0,0,0,0,0,0,0,0,0,0,0,0,0,0,0,0,0,0,0,0,0,0,0,0,0,0,0,0,0,0,0,0,0,0,0,0,0,0,0],"id":6,"left_children":[1,3,5,7,9,11,13,15,17,19,21,23,25,27,29,31,33,35,37,39,41,43,45,47,49,51,53,55,57,59,61,-1,-1,-1,-1,-1,-1,-1,-1,-1,-1,-1,-1,-1,-1,-1,-1,-1,-1,-1,-1,-1,-1,-1,-1,-1,-1,-1,-1,-1,-1,-1,-1],"loss_changes":[3.4810507E2,2.9530334E1,9.5363434E1,2.5071625E1,1.8284729E1,4.3205734E1,2.5353638E1,1.6829895E1,1.2905178E1,9.762471E0,9.872674E0,2.4487759E1,3.3072994E1,1.4986313E1,1.1966346E1,1.513916E1,4.9679866E0,9.174145E0,7.234818E0,4.6091805E0,5.0644035E0,7.5680923E0,1.094094E0,2.7281471E1,1.633579E1,3.2037857E1,2.548315E1,1.03102045E1,1.6004395E1,4.14127E0,1.0523529E1,0E0,0E0,0E0,0E0,0E0,0E0,0E0,0E0,0E0,0E0,0E0,0E0,0E0,0E0,0E0,0E0,0E0,0E0,0E0,0E0,0E0,0E0,0E0,0E0,0E0,0E0,0E0,0E0,0E0,0E0,0E0,0E0],"parents":[2147483647,0,0,1,1,2,2,3,3,4,4,5,5,6,6,7,7,8,8,9,9,10,10,11,11,12,12,13,13,14,14,15,15,16,16,17,17,18,18,19,19,20,20,21,21,22,22,23,23,24,24,25,25,26,26,27,27,28,28,29,29,30,30],"right_children":[2,4,6,8,10,12,14,16,18,20,22,24,26,28,30,32,34,36,38,40,42,44,46,48,50,52,54,56,58,60,62,-1,-1,-1,-1,-1,-1,-1,-1,-1,-1,-1,-1,-1,-1,-1,-1,-1,-1,-1,-1,-1,-1,-1,-1,-1,-1,-1,-1,-1,-1,-1,-1],"split_conditions":[-9.563954E-3,2.9475909E-2,2.1634035E-2,-7.2987095E-2,1.6086448E-2,-4.7489382E-2,9.0793364E-2,2.0840473E-1,6.4737163E-3,-6.427864E-2,8.678994E-2,-2.7770896E-2,1.12225406E-1,-7.067753E-2,2.4335818E-2,3.8387474E-2,-4.5300527E-3,3.8328357E-2,1.1869665E-2,2.3376057E-1,1.6396407E-2,7.7916525E-2,2.4746705E-2,-7.530041E-2,-1.7041783E-1,1.3193085E-2,4.1252468E-2,-7.58932E-2,3.3394592E-3,-9.728139E-2,2.375205E-2,-2.7735598E-2,1.2408639E-2,-8.185916E-3,1.9232552E-2,-9.5872E-3,2.5173828E-2,-1.981663E-2,1.1026364E-2,-2.3400012E-2,6.013357E-3,-9.914736E-3,1.5304897E-2,3.208613E-2,-3.104417E-3,-1.318057E-2,2.7712493E-3,-8.628342E-3,2.3136564E-2,2.0986432E-2,-1.1894213E-2,4.680706E-3,-1.0780688E-2,-1.30845355E-2,1.8115247E-2,1.53634455E-2,-1.3811683E-2,3.1100241E-2,-6.9332058E-3,6.780578E-3,-1.7883493E-2,-1.1707065E-2,2.4709994E-2],"split_indices":[1182,483,641,1020,448,235,1257,1114,246,908,801,244,1017,140,703,1073,119,53,867,929,220,607,897,14,1121,1029,788,1264,835,6,1097,0,0,0,0,0,0,0,0,0,0,0,0,0,0,0,0,0,0,0,0,0,0,0,0,0,0,0,0,0,0,0,0],"split_type":[0,0,0,0,0,0,0,0,0,0,0,0,0,0,0,0,0,0,0,0,0,0,0,0,0,0,0,0,0,0,0,0,0,0,0,0,0,0,0,0,0,0,0,0,0,0,0,0,0,0,0,0,0,0,0,0,0,0,0,0,0,0,0],"sum_hessian":[1.123774E3,3.3759296E2,7.861811E2,2.89575E2,4.801794E1,5.859719E2,2.0020914E2,2.627696E2,2.6805407E1,3.1102116E1,1.6915825E1,1.6870221E2,4.1726974E2,1.7397801E2,2.623113E1,2.5661374E2,6.1558676E0,1.153018E1,1.5275227E1,2.1791382E1,9.310733E0,1.2698794E1,4.2170305E0,1.3275685E2,3.5945347E1,3.2564554E2,9.16242E1,2.137691E1,1.526011E2,1.3570138E1,1.2660993E1,2.5376021E2,2.8535185E0,3.0540023E0,3.1018655E0,3.3377635E0,8.192416E0,1.3139931E1,2.135296E0,2.0384077E1,1.4073052E0,3.3655958E0,5.9451375E0,8.907017E0,3.7917776E0,2.8234706E0,1.3935597E0,1.622169E1,1.1653517E2,7.055648E0,2.88897E1,1.410933E2,1.8455222E2,1.564432E1,7.597988E1,1.5090515E1,6.2863936E0,1.4745755E2,5.143549E0,2.1985247E0,1.13716135E1,3.1153464E0,9.545647E0],"tree_param":{"num_deleted":"0","num_feature":"1280","num_nodes":"63","size_leaf_vector":"1"}},{"base_weights":[1.1170336E-2,4.2164114E-1,-6.4733624E-1,9.8299783E-1,2.1249858E-1,6.2031186E-1,-7.3267233E-1,1.2209625E0,2.731615E-1,5.880193E-1,-8.2514696E-2,-4.8456943E-1,9.374962E-1,-8.104444E-1,4.4794068E-1,1.3792111E0,2.331771E-1,-4.3469366E-1,8.1455964E-1,7.216426E-1,-3.162647E-1,-2.9846197E-1,7.0980525E-1,-1.5579809E-2,2.2278163E-3,-2.809589E-1,1.2454362E0,-8.832589E-1,3.3839896E-1,8.216845E-1,-5.966506E-1,-6.5575517E-3,3.5810366E-2,-9.468501E-3,2.0450156E-2,-2.1529958E-2,9.643282E-3,-7.966851E-3,2.5733408E-2,2.040868E-2,-9.135634E-3,-1.4561612E-2,1.4147019E-2,-1.6349668E-3,-1.9562334E-2,2.3298338E-2,-1.9279294E-2,-1.2947016E-2,5.7419124E-3,3.5699856E-2,-1.3179322E-3,-2.55826E-2,-9.429569E-3,2.0199284E-2,-1.563709E-2,-4.6682074E-3,2.7934136E-2,-1.6369158E-2,-7.5193716E-4],"categories":[],"categories_nodes":[],"categories_segments":[],"categories_sizes":[],"default_left":[0,0,0,0,0,0,0,0,0,0,0,0,0,0,0,0,0,0,0,0,0,0,0,0,0,0,0,0,0,0,0,0,0,0,0,0,0,0,0,0,0,0,0,0,0,0,0,0,0,0,0,0,0,0,0,0,0,0,0],"id":7,"left_children":[1,3,5,7,9,11,13,15,17,19,21,23,25,27,29,31,33,35,37,39,41,43,45,-1,-1,47,49,51,53,55,57,-1,-1,-1,-1,-1,-1,-1,-1,-1,-1,-1,-1,-1,-1,-1,-1,-1,-1,-1,-1,-1,-1,-1,-1,-1,-1,-1,-1],"loss_changes":[3.1333295E2,8.262286E1,5.077333E1,3.0547592E1,5.8722374E1,1.3549437E1,4.0629425E1,2.03909E1,2.3377865E1,2.9445793E1,5.2634075E1,1.2107325E0,1.1846355E1,3.4833954E1,1.4399388E1,1.5016602E1,1.1472335E1,1.188785E1,1.040424E1,2.4260384E1,1.0080694E1,2.7073647E1,2.6726189E1,0E0,0E0,1.9282708E0,5.962845E0,2.5564575E1,1.5748604E1,8.674393E0,2.8355837E-1,0E0,0E0,0E0,0E0,0E0,0E0,0E0,0E0,0E0,0E0,0E0,0E0,0E0,0E0,0E0,0E0,0E0,0E0,0E0,0E0,0E0,0E0,0E0,0E0,0E0,0E0,0E0,0E0],"parents":[2147483647,0,0,1,1,2,2,3,3,4,4,5,5,6,6,7,7,8,8,9,9,10,10,11,11,12,12,13,13,14,14,15,15,16,16,17,17,18,18,19,19,20,20,21,21,22,22,25,25,26,26,27,27,28,28,29,29,30,30],"right_children":[2,4,6,8,10,12,14,16,18,20,22,24,26,28,30,32,34,36,38,40,42,44,46,-1,-1,48,50,52,54,56,58,-1,-1,-1,-1,-1,-1,-1,-1,-1,-1,-1,-1,-1,-1,-1,-1,-1,-1,-1,-1,-1,-1,-1,-1,-1,-1,-1,-1],"split_conditions":[1.274608E-2,-3.7594553E-2,-4.7929943E-2,7.088792E-2,1.6166244E-2,-4.124136E-3,1.21050775E-1,-5.640102E-2,5.0724065E-3,6.640652E-2,1.19659014E-1,1.627035E-2,-1.8469228E-1,9.05472E-2,2.5063485E-2,-1.6233195E-1,1.2146192E0,-9.0773925E-2,-8.906859E-2,-4.7431078E-2,3.970678E-2,8.034045E-2,2.545466E-1,-1.5579809E-2,2.2278163E-3,2.1219261E-2,1.4121702E-1,8.042343E-2,8.764511E-3,-7.863971E-2,4.286919E-2,-6.5575517E-3,3.5810366E-2,-9.468501E-3,2.0450156E-2,-2.1529958E-2,9.643282E-3,-7.966851E-3,2.5733408E-2,2.040868E-2,-9.135634E-3,-1.4561612E-2,1.4147019E-2,-1.6349668E-3,-1.9562334E-2,2.3298338E-2,-1.9279294E-2,-1.2947016E-2,5.7419124E-3,3.5699856E-2,-1.3179322E-3,-2.55826E-2,-9.429569E-3,2.0199284E-2,-1.563709E-2,-4.6682074E-3,2.7934136E-2,-1.6369158E-2,-7.5193716E-4],"split_indices":[888,37,875,858,423,842,1017,1205,750,493,833,493,296,1115,1250,902,736,159,104,90,81,972,237,0,0,97,1269,309,416,717,489,0,0,0,0,0,0,0,0,0,0,0,0,0,0,0,0,0,0,0,0,0,0,0,0,0,0,0,0],"split_type":[0,0,0,0,0,0,0,0,0,0,0,0,0,0,0,0,0,0,0,0,0,0,0,0,0,0,0,0,0,0,0,0,0,0,0,0,0,0,0,0,0,0,0,0,0,0,0,0,0,0,0,0,0,0,0,0,0,0,0],"sum_hessian":[1.1476378E3,7.082389E2,4.393989E2,1.8645776E2,5.217811E2,2.5436476E1,4.1396243E2,1.3653757E2,4.992019E1,2.270499E2,2.9473126E2,4.995499E0,2.0440977E1,3.900726E2,2.3889814E1,1.1571668E2,2.082089E1,2.212626E1,2.7793926E1,1.9883238E2,2.8217508E1,2.3442798E2,6.030329E1,3.5671806E0,1.4283184E0,4.2256455E0,1.621533E1,3.680753E2,2.1997318E1,1.8499872E1,5.389943E0,3.6757953E0,1.12040886E2,1.1206194E1,9.614696E0,1.4295653E1,7.830608E0,4.138998E0,2.3654928E1,1.8326544E2,1.5566936E1,2.3108175E1,5.1093335E0,1.6341174E2,7.101624E1,5.4085175E1,6.218117E0,2.801985E0,1.4236605E0,1.3570143E1,2.6451879E0,2.7978906E2,8.828624E1,1.5367946E1,6.6293716E0,4.7922835E0,1.3707588E1,3.9941401E0,1.3958032E0],"tree_param":{"num_deleted":"0","num_feature":"1280","num_nodes":"59","size_leaf_vector":"1"}},{"base_weights":[-2.143766E-2,-6.789994E-1,3.7924016E-1,-8.593959E-1,-2.5928602E-2,1.7328309E-1,9.06904E-1,4.3325067E-1,-9.192321E-1,7.967273E-1,-3.1088182E-1,-1.8997912E-1,3.7213877E-1,2.1169098E-1,1.1213806E0,7.623536E-1,-9.519063E-3,-9.682825E-1,4.1079593E-1,1.2641889E0,-1.7735332E-1,2.8152505E-1,-7.938469E-1,-3.441732E-1,6.233657E-1,-6.2215764E-2,6.7001724E-1,7.5717115E-1,-3.9846432E-1,1.1974688E0,-2.514696E-1,2.5747925E-2,-1.9898212E-3,1.7498652E-3,-2.5257682E-2,1.9491442E-2,-1.0453661E-2,3.66833E-2,-5.5503123E-3,1.0461603E-2,-1.5474863E-2,2.1167167E-2,-4.6786508E-3,1.2437873E-2,-2.3212755E-2,-1.1355686E-2,2.0066276E-2,2.3591658E-2,-8.471272E-3,-1.0770212E-2,8.386364E-3,2.0876447E-2,-1.1272816E-2,2.3778647E-2,-6.7621088E-3,8.8830525E-3,-1.9251063E-2,-3.5952264E-4,3.218173E-2,9.509275E-3,-1.6020361E-2],"categories":[],"categories_nodes":[],"categories_segments":[],"categories_sizes":[],"default_left":[0,0,0,0,0,0,0,0,0,0,0,0,0,0,0,0,0,0,0,0,0,0,0,0,0,0,0,0,0,0,0,0,0,0,0,0,0,0,0,0,0,0,0,0,0,0,0,0,0,0,0,0,0,0,0,0,0,0,0,0,0],"id":8,"left_children":[1,3,5,7,9,11,13,15,17,19,21,23,25,27,29,31,-1,33,35,37,39,41,43,45,47,49,51,53,55,57,59,-1,-1,-1,-1,-1,-1,-1,-1,-1,-1,-1,-1,-1,-1,-1,-1,-1,-1,-1,-1,-1,-1,-1,-1,-1,-1,-1,-1,-1,-1],"loss_changes":[3.0068292E2,5.0770584E1,7.618243E1,2.8464111E1,2.4739468E1,3.7776405E1,2.8122757E1,6.761862E0,2.3508118E1,1.3677698E1,2.360614E1,2.4665358E1,4.3746513E1,1.9620707E1,1.7383087E1,4.051402E0,0E0,1.6724152E1,6.77654E0,7.995474E0,5.224517E0,1.1484764E1,1.087088E1,2.3177916E1,1.1926762E1,2.1991611E1,4.075009E1,7.7962112E0,9.920818E0,1.7378311E1,4.585766E0,0E0,0E0,0E0,0E0,0E0,0E0,0E0,0E0,0E0,0E0,0E0,0E0,0E0,0E0,0E0,0E0,0E0,0E0,0E0,0E0,0E0,0E0,0E0,0E0,0E0,0E0,0E0,0E0,0E0,0E0],"parents":[2147483647,0,0,1,1,2,2,3,3,4,4,5,5,6,6,7,7,8,8,9,9,10,10,11,11,12,12,13,13,14,14,15,15,17,17,18,18,19,19,20,20,21,21,22,22,23,23,24,24,25,25,26,26,27,27,28,28,29,29,30,30],"right_children":[2,4,6,8,10,12,14,16,18,20,22,24,26,28,30,32,-1,34,36,38,40,42,44,46,48,50,52,54,56,58,60,-1,-1,-1,-1,-1,-1,-1,-1,-1,-1,-1,-1,-1,-1,-1,-1,-1,-1,-1,-1,-1,-1,-1,-1,-1,-1,-1,-1,-1,-1],"split_conditions":[7.5716384E-2,5.4464493E-2,2.1634035E-2,-7.235281E-2,-1.2189827E-1,-5.164352E-2,2.5201602E-2,8.6650446E-2,9.558129E-2,7.070121E-2,-1.7347468E-2,1.159117E-1,-5.5908584E-3,-3.0146828E-2,-2.0936534E-3,1.1476591E-2,-9.519063E-3,-9.586281E-2,6.312879E-2,-5.2454975E-2,1.5173328E-1,-6.200516E-2,-1.7435487E-1,9.4086275E-2,3.0395236E-2,5.3149736E-3,1.51483E-1,-1.130598E-2,-1.0420926E-1,-1.4748369E-2,-9.2669865E-3,2.5747925E-2,-1.9898212E-3,1.7498652E-3,-2.5257682E-2,1.9491442E-2,-1.0453661E-2,3.66833E-2,-5.5503123E-3,1.0461603E-2,-1.5474863E-2,2.1167167E-2,-4.6786508E-3,1.2437873E-2,-2.3212755E-2,-1.1355686E-2,2.0066276E-2,2.3591658E-2,-8.471272E-3,-1.0770212E-2,8.386364E-3,2.0876447E-2,-1.1272816E-2,2.3778647E-2,-6.7621088E-3,8.8830525E-3,-1.9251063E-2,-3.5952264E-4,3.218173E-2,9.509275E-3,-1.6020361E-2],"split_indices":[1230,1175,641,392,40,637,112,582,1115,182,1174,1017,26,966,835,508,0,1185,353,1040,154,1134,777,932,759,646,894,71,613,485,417,0,0,0,0,0,0,0,0,0,0,0,0,0,0,0,0,0,0,0,0,0,0,0,0,0,0,0,0,0,0],"split_type":[0,0,0,0,0,0,0,0,0,0,0,0,0,0,0,0,0,0,0,0,0,0,0,0,0,0,0,0,0,0,0,0,0,0,0,0,0,0,0,0,0,0,0,0,0,0,0,0,0,0,0,0,0,0,0,0,0,0,0,0,0],"sum_hessian":[1.1298503E3,4.262767E2,7.0357367E2,3.325871E2,9.3689606E1,5.1155548E2,1.9201822E2,1.3123941E1,3.1946313E2,2.1442022E1,7.224758E1,1.810596E2,3.3049588E2,4.7970318E1,1.440479E2,9.629543E0,3.4943979E0,3.096115E2,9.851644E0,1.3329653E1,8.112369E0,3.352639E1,3.8721195E1,1.5499767E2,2.6061926E1,1.3630226E2,1.9419362E2,2.459473E1,2.3375586E1,1.3718068E2,6.867217E0,6.250889E0,3.3786545E0,1.4050007E1,2.955615E2,7.014026E0,2.8376176E0,1.1682198E1,1.6474555E0,3.600154E0,4.512215E0,1.3010995E1,2.0515394E1,2.3797114E0,3.6341484E1,1.4426422E2,1.07334585E1,1.9518522E1,6.543405E0,7.040025E1,6.590201E1,1.6975714E2,2.4436483E1,2.0906801E1,3.6879299E0,7.8801117E0,1.5495474E1,1.0800293E1,1.2638039E2,2.6925683E0,4.174649E0],"tree_param":{"num_deleted":"0","num_feature":"1280","num_nodes":"61","size_leaf_vector":"1"}},{"base_weights":[2.0687984E-2,4.1364956E-1,-6.371463E-1,1.6840696E-1,8.5904723E-1,-1.8315569E-1,-8.656958E-1,3.931174E-1,-2.886636E-1,1.2727737E-1,1.0321674E0,-6.6556215E-1,9.17512E-2,-9.900948E-1,-1.1880891E-1,-2.0029886E-1,5.5525607E-1,-8.5040784E-1,-8.128299E-3,-7.703151E-1,5.198678E-1,-4.6814823E-1,1.0803032E0,1.3943046E-1,-1.0388091E0,1.0726608E0,-1.2104777E-1,-1.051783E0,1.7379367E-1,-4.535031E-1,7.072457E-1,1.5723063E-2,-1.1116672E-2,-7.1978443E-3,1.693502E-2,-2.6658738E-2,8.96676E-3,-1.2153795E-2,8.734552E-3,-2.2737565E-2,4.9588317E-3,2.3186345E-2,-9.603513E-3,-1.5081738E-2,1.963682E-3,2.885223E-2,5.0975564E-3,-6.6307606E-3,2.0452606E-2,5.0841104E-3,-2.8830377E-2,3.2097634E-2,-7.903548E-3,1.184391E-2,-1.1575357E-2,-2.7312089E-2,1.7510185E-3,-1.1529272E-2,2.1582223E-2,-1.7055782E-2,1.2856249E-2,2.4420828E-2,-9.173249E-3],"categories":[],"categories_nodes":[],"categories_segments":[],"categories_sizes":[],"default_left":[0,0,0,0,0,0,0,0,0,0,0,0,0,0,0,0,0,0,0,0,0,0,0,0,0,0,0,0,0,0,0,0,0,0,0,0,0,0,0,0,0,0,0,0,0,0,0,0,0,0,0,0,0,0,0,0,0,0,0,0,0,0,0],"id":9,"left_children":[1,3,5,7,9,11,13,15,17,19,21,23,25,27,29,31,33,35,37,39,41,43,45,47,49,51,53,55,57,59,61,-1,-1,-1,-1,-1,-1,-1,-1,-1,-1,-1,-1,-1,-1,-1,-1,-1,-1,-1,-1,-1,-1,-1,-1,-1,-1,-1,-1,-1,-1,-1,-1],"loss_changes":[2.9615622E2,7.748894E1,4.3548386E1,4.888401E1,3.1321152E1,2.034928E1,2.5660706E1,3.1165195E1,2.4873959E1,2.1692627E1,1.7642624E1,1.7490541E1,2.1854507E1,1.8443558E1,1.48470125E1,1.6580385E1,2.8130379E1,1.6523792E1,2.0298811E1,3.7583113E0,1.7772873E1,1.0694709E0,1.303862E1,7.5758004E0,7.282696E0,8.0985775E0,1.9534328E1,1.3167007E1,9.9446745E0,1.0457235E1,6.8138804E0,0E0,0E0,0E0,0E0,0E0,0E0,0E0,0E0,0E0,0E0,0E0,0E0,0E0,0E0,0E0,0E0,0E0,0E0,0E0,0E0,0E0,0E0,0E0,0E0,0E0,0E0,0E0,0E0,0E0,0E0,0E0,0E0],"parents":[2147483647,0,0,1,1,2,2,3,3,4,4,5,5,6,6,7,7,8,8,9,9,10,10,11,11,12,12,13,13,14,14,15,15,16,16,17,17,18,18,19,19,20,20,21,21,22,22,23,23,24,24,25,25,26,26,27,27,28,28,29,29,30,30],"right_children":[2,4,6,8,10,12,14,16,18,20,22,24,26,28,30,32,34,36,38,40,42,44,46,48,50,52,54,56,58,60,62,-1,-1,-1,-1,-1,-1,-1,-1,-1,-1,-1,-1,-1,-1,-1,-1,-1,-1,-1,-1,-1,-1,-1,-1,-1,-1,-1,-1,-1,-1,-1,-1],"split_conditions":[1.6727393E-2,9.909081E-3,8.295883E-2,-6.0364176E-2,-7.488864E-3,2.6394004E-2,2.6159834E-2,2.1489626E-3,-8.924204E-3,1.0590965E-2,-1.8119079E-1,4.2384353E-2,-1.1099652E-1,1.8779984E-1,1.8125921E-1,5.6222737E-2,1.835561E-2,-8.814125E-3,-1.3968293E-1,7.3145516E-3,5.3203516E-2,7.311599E-2,5.009202E-2,1.1917672E-2,-1.472882E-2,2.8631452E-1,4.8557248E-2,3.6668204E-2,1.0751143E-1,7.972102E-2,9.8895974E-2,1.5723063E-2,-1.1116672E-2,-7.1978443E-3,1.693502E-2,-2.6658738E-2,8.96676E-3,-1.2153795E-2,8.734552E-3,-2.2737565E-2,4.9588317E-3,2.3186345E-2,-9.603513E-3,-1.5081738E-2,1.963682E-3,2.885223E-2,5.0975564E-3,-6.6307606E-3,2.0452606E-2,5.0841104E-3,-2.8830377E-2,3.2097634E-2,-7.903548E-3,1.184391E-2,-1.1575357E-2,-2.7312089E-2,1.7510185E-3,-1.1529272E-2,2.1582223E-2,-1.7055782E-2,1.2856249E-2,2.4420828E-2,-9.173249E-3],"split_indices":[888,641,261,885,401,53,483,747,646,26,566,614,49,1114,784,1201,24,314,566,460,373,203,710,491,30,77,1184,1028,1224,215,141,0,0,0,0,0,0,0,0,0,0,0,0,0,0,0,0,0,0,0,0,0,0,0,0,0,0,0,0,0,0,0,0],"split_type":[0,0,0,0,0,0,0,0,0,0,0,0,0,0,0,0,0,0,0,0,0,0,0,0,0,0,0,0,0,0,0,0,0,0,0,0,0,0,0,0,0,0,0,0,0,0,0,0,0,0,0,0,0,0,0,0,0,0,0,0,0,0,0],"sum_hessian":[1.1340238E3,7.112763E2,4.2274747E2,4.6382507E2,2.4745123E2,1.4503194E2,2.777155E2,3.1149173E2,1.5233334E2,4.9253574E1,1.9819765E2,4.9675785E1,9.535615E1,2.3645653E2,4.1258995E1,6.65538E1,2.4493794E2,4.68401E1,1.0549324E2,1.3301074E1,3.59525E1,4.598897E0,1.9359875E2,1.6879501E1,3.2796284E1,1.28498335E1,8.250631E1,2.2508159E2,1.1374947E1,3.121093E1,1.0048065E1,1.3188509E1,5.336529E1,3.110311E1,2.1383484E2,4.0079742E1,6.7603536E0,4.4243656E1,6.1249584E1,1.1836541E1,1.4645327E0,2.4551035E1,1.1401464E1,3.1553407E0,1.4435562E0,1.7515375E2,1.8445011E1,1.2794884E1,4.0846186E0,2.613224E0,3.018306E1,1.1435849E1,1.4139845E0,2.9395401E1,5.3110912E1,2.1575453E2,9.327048E0,6.9317346E0,4.4432116E0,2.6512104E1,4.698826E0,8.386031E0,1.6620342E0],"tree_param":{"num_deleted":"0","num_feature":"1280","num_nodes":"63","size_leaf_vector":"1"}},{"base_weights":[1.5279269E-2,-7.066174E-1,3.6194947E-1,-7.8922737E-1,4.2259178E-1,1.1733428E-1,8.2817215E-1,4.1085434E-1,-8.447378E-1,9.78967E-1,-2.8197324E-1,4.7907123E-1,-1.6956381E-1,3.637656E-1,1.1290491E0,-1.2036163E-2,7.888341E-1,-9.024068E-1,1.5361221E-1,-2.8987823E-3,1.1980537E0,5.167131E-1,-2.0008536E-2,6.3683456E-1,-3.9186183E-1,6.0481274E-1,-3.2362783E-1,7.923318E-1,-1.5067628E-1,4.735467E-1,1.316005E0,2.549308E-2,-7.878739E-3,-6.7701344E-3,-2.5211098E-2,-1.3180763E-2,1.9600801E-2,3.3365004E-2,-1.0432512E-3,1.9026756E-2,-3.6462068E-3,2.0653246E-2,1.3524325E-3,4.3780073E-3,-2.5616864E-2,2.5323486E-2,-6.4907856E-3,-1.0774406E-2,1.3737784E-2,2.3604767E-2,-5.4049618E-3,-1.2022477E-2,1.1801841E-2,-6.3390955E-3,1.945393E-2,-7.0900214E-3,3.384086E-2],"categories":[],"categories_nodes":[],"categories_segments":[],"categories_sizes":[],"default_left":[0,0,0,0,0,0,0,0,0,0,0,0,0,0,0,0,0,0,0,0,0,0,0,0,0,0,0,0,0,0,0,0,0,0,0,0,0,0,0,0,0,0,0,0,0,0,0,0,0,0,0,0,0,0,0,0,0],"id":10,"left_children":[1,3,5,7,9,11,13,15,17,19,21,23,25,27,29,-1,31,33,35,-1,37,39,-1,41,43,45,47,49,51,53,55,-1,-1,-1,-1,-1,-1,-1,-1,-1,-1,-1,-1,-1,-1,-1,-1,-1,-1,-1,-1,-1,-1,-1,-1,-1,-1],"loss_changes":[2.8328674E2,3.618245E1,8.6634865E1,2.4932114E1,1.2875307E1,5.320658E1,3.426465E1,8.671123E0,1.9850632E1,4.977434E0,9.595171E0,3.252781E1,3.5445694E1,2.5284626E1,1.5570816E1,0E0,6.005974E0,2.087172E1,1.2440382E1,0E0,3.0548115E0,2.3626914E0,0E0,2.1813751E1,1.49835205E1,1.9462717E1,2.5042994E1,1.1124485E1,1.29448595E1,1.1047906E1,1.1354965E1,0E0,0E0,0E0,0E0,0E0,0E0,0E0,0E0,0E0,0E0,0E0,0E0,0E0,0E0,0E0,0E0,0E0,0E0,0E0,0E0,0E0,0E0,0E0,0E0,0E0,0E0],"parents":[2147483647,0,0,1,1,2,2,3,3,4,4,5,5,6,6,7,7,8,8,9,9,10,10,11,11,12,12,13,13,14,14,16,16,17,17,18,18,20,20,21,21,23,23,24,24,25,25,26,26,27,27,28,28,29,29,30,30],"right_children":[2,4,6,8,10,12,14,16,18,20,22,24,26,28,30,-1,32,34,36,-1,38,40,-1,42,44,46,48,50,52,54,56,-1,-1,-1,-1,-1,-1,-1,-1,-1,-1,-1,-1,-1,-1,-1,-1,-1,-1,-1,-1,-1,-1,-1,-1,-1,-1],"split_conditions":[3.2677492E-3,1.2556386E-1,1.1588675E-2,-2.7257105E-2,1.8050319E-2,-8.449238E-2,6.865772E-2,-4.706028E-2,1.8779984E-1,-3.958663E-2,-1.0269342E-1,5.60066E-2,-1.6545963E-1,-6.3423775E-2,7.6273784E-2,-1.2036163E-2,6.9638796E-2,-6.9896944E-2,1.14772104E-1,-2.8987823E-3,6.6889174E-2,-7.818306E-2,-2.0008536E-2,-6.274568E-2,-1.0202299E-1,-1.6046116E-2,6.587795E-2,1.0924753E-1,9.8557524E-2,-1.2992507E-1,-1.0900673E-1,2.549308E-2,-7.878739E-3,-6.7701344E-3,-2.5211098E-2,-1.3180763E-2,1.9600801E-2,3.3365004E-2,-1.0432512E-3,1.9026756E-2,-3.6462068E-3,2.0653246E-2,1.3524325E-3,4.3780073E-3,-2.5616864E-2,2.5323486E-2,-6.4907856E-3,-1.0774406E-2,1.3737784E-2,2.3604767E-2,-5.4049618E-3,-1.2022477E-2,1.1801841E-2,-6.3390955E-3,1.945393E-2,-7.0900214E-3,3.384086E-2],"split_indices":[1182,47,641,853,494,885,82,26,1114,45,893,404,441,71,541,0,246,49,879,0,429,6,0,1264,882,1174,1002,897,1033,1134,526,0,0,0,0,0,0,0,0,0,0,0,0,0,0,0,0,0,0,0,0,0,0,0,0,0,0],"split_type":[0,0,0,0,0,0,0,0,0,0,0,0,0,0,0,0,0,0,0,0,0,0,0,0,0,0,0,0,0,0,0,0,0,0,0,0,0,0,0,0,0,0,0,0,0,0,0,0,0,0,0,0,0,0,0,0,0],"sum_hessian":[1.1203229E3,3.6152094E2,7.5880194E2,3.3849194E2,2.3028984E1,5.024098E2,2.5639215E2,1.3334813E1,3.2515714E2,1.1614256E1,1.1414728E1,2.2051462E2,2.8189517E2,1.0580494E2,1.5058722E2,3.4718196E0,9.862994E0,3.0792368E2,1.7233461E1,2.3830402E0,9.231216E0,4.558758E0,6.8559704E0,1.8800674E2,3.2507874E1,4.3980877E1,2.3791429E2,5.6022713E1,4.978223E1,3.7933765E1,1.1265345E2,8.450217E0,1.4127761E0,5.0132885E1,2.577908E2,8.759196E0,8.474266E0,7.8190937E0,1.4121221E0,2.6600032E0,1.8987545E0,1.3887482E2,4.9131916E1,1.9438314E1,1.306956E1,2.9023405E1,1.4957471E1,2.1385066E2,2.406363E1,4.8688835E1,7.3338776E0,3.3322178E1,1.646005E1,1.163763E1,2.6296135E1,2.4494462E0,1.10204E2],"tree_param":{"num_deleted":"0","num_feature":"1280","num_nodes":"57","size_leaf_vector":"1"}},{"base_weights":[-2.7939714E-3,-6.3734466E-1,3.7593284E-1,-7.608755E-1,6.5508865E-2,1.367521E-1,8.223111E-1,-8.351948E-1,5.255212E-1,4.489863E-1,-5.6725174E-1,5.081031E-1,-1.031659E-1,9.1498893E-1,-3.65329E-1,2.0665681E-1,-8.976666E-1,8.7862027E-1,-2.7241206E-1,7.121256E-1,-4.7661102E-1,4.7608337E-1,-9.793381E-1,-4.6839905E-1,6.160036E-1,-5.7698256E-1,1.4649773E-1,6.870279E-2,1.0305599E0,5.2958095E-1,-7.4852985E-1,1.7772434E-2,-1.276964E-2,-2.3707883E-2,1.4437072E-3,2.8806034E-2,-4.7310386E-3,1.1235604E-2,-1.6279718E-2,-3.9226594E-3,2.3404714E-2,-1.8505553E-2,8.993316E-3,2.2270836E-2,-1.0117648E-2,2.796427E-3,-2.686687E-2,-2.0145081E-2,8.15179E-3,1.3558095E-3,2.0572644E-2,-2.242581E-2,4.677811E-3,1.2792375E-2,-8.171313E-3,-1.122101E-2,1.6668728E-2,-6.1257016E-3,2.682603E-2,-2.5511356E-3,1.7613644E-2,-2.3295656E-2,4.9735843E-3],"categories":[],"categories_nodes":[],"categories_segments":[],"categories_sizes":[],"default_left":[0,0,0,0,0,0,0,0,0,0,0,0,0,0,0,0,0,0,0,0,0,0,0,0,0,0,0,0,0,0,0,0,0,0,0,0,0,0,0,0,0,0,0,0,0,0,0,0,0,0,0,0,0,0,0,0,0,0,0,0,0,0,0],"id":11,"left_children":[1,3,5,7,9,11,13,15,17,19,21,23,25,27,29,31,33,35,37,39,41,43,45,47,49,51,53,55,57,59,61,-1,-1,-1,-1,-1,-1,-1,-1,-1,-1,-1,-1,-1,-1,-1,-1,-1,-1,-1,-1,-1,-1,-1,-1,-1,-1,-1,-1,-1,-1,-1,-1],"loss_changes":[2.7279904E2,3.7123596E1,7.525091E1,3.7070084E1,1.8142855E1,4.215667E1,2.909793E1,2.3444733E1,7.934622E0,1.3160273E1,1.4929431E1,2.11922E1,3.4814217E1,2.2150589E1,9.823107E0,1.0996111E1,1.8341125E1,6.559428E0,4.9224367E0,8.5330105E0,4.6384015E0,6.557638E0,3.2257137E0,7.483257E0,2.0015472E1,2.6336796E1,3.5167355E1,1.2398258E1,1.4660904E1,1.5572622E0,4.298045E0,0E0,0E0,0E0,0E0,0E0,0E0,0E0,0E0,0E0,0E0,0E0,0E0,0E0,0E0,0E0,0E0,0E0,0E0,0E0,0E0,0E0,0E0,0E0,0E0,0E0,0E0,0E0,0E0,0E0,0E0,0E0,0E0],"parents":[2147483647,0,0,1,1,2,2,3,3,4,4,5,5,6,6,7,7,8,8,9,9,10,10,11,11,12,12,13,13,14,14,15,15,16,16,17,17,18,18,19,19,20,20,21,21,22,22,23,23,24,24,25,25,26,26,27,27,28,28,29,29,30,30],"right_children":[2,4,6,8,10,12,14,16,18,20,22,24,26,28,30,32,34,36,38,40,42,44,46,48,50,52,54,56,58,60,62,-1,-1,-1,-1,-1,-1,-1,-1,-1,-1,-1,-1,-1,-1,-1,-1,-1,-1,-1,-1,-1,-1,-1,-1,-1,-1,-1,-1,-1,-1,-1,-1],"split_conditions":[7.9987556E-2,1.3081472E-1,1.3485005E-2,1.2338108E-1,1.0688988E-2,-7.825306E-3,7.091142E-2,-7.1683966E-2,3.155059E-2,1.9041108E-1,-8.365299E-3,4.5198783E-2,-4.2873625E-2,-4.0797446E-2,-1.0442647E-1,2.5378637E-2,8.128377E-2,9.3365684E-2,-6.8365954E-2,-9.23289E-2,4.540272E-2,-1.3046912E-2,9.0963155E-2,-1.9769756E-2,-2.5272563E-2,-4.800168E-2,9.232085E-2,1.086278E-2,-1.0900673E-1,1.3021639E-2,2.9519645E-2,1.7772434E-2,-1.276964E-2,-2.3707883E-2,1.4437072E-3,2.8806034E-2,-4.7310386E-3,1.1235604E-2,-1.6279718E-2,-3.9226594E-3,2.3404714E-2,-1.8505553E-2,8.993316E-3,2.2270836E-2,-1.0117648E-2,2.796427E-3,-2.686687E-2,-2.0145081E-2,8.15179E-3,1.3558095E-3,2.0572644E-2,-2.242581E-2,4.677811E-3,1.2792375E-2,-8.171313E-3,-1.122101E-2,1.6668728E-2,-6.1257016E-3,2.682603E-2,-2.5511356E-3,1.7613644E-2,-2.3295656E-2,4.9735843E-3],"split_indices":[1230,870,641,910,219,64,951,998,69,571,416,260,322,1106,1220,933,695,365,1252,511,337,596,698,1173,147,952,23,1255,526,1172,1251,0,0,0,0,0,0,0,0,0,0,0,0,0,0,0,0,0,0,0,0,0,0,0,0,0,0,0,0,0,0,0,0],"split_type":[0,0,0,0,0,0,0,0,0,0,0,0,0,0,0,0,0,0,0,0,0,0,0,0,0,0,0,0,0,0,0,0,0,0,0,0,0,0,0,0,0,0,0,0,0,0,0,0,0,0,0,0,0,0,0,0,0,0,0,0,0,0,0],"sum_hessian":[1.1236401E3,4.1850632E2,7.051338E2,3.555421E2,6.2964222E1,4.6402307E2,2.4111075E2,3.380331E2,1.7508991E1,4.0246284E1,2.271794E1,1.7959813E2,2.8442493E2,2.2488417E2,1.6226574E1,1.8370544E1,3.1966257E2,1.1734038E1,5.7749534E0,3.2371704E1,7.8745785E0,6.179059E0,1.6538881E1,1.5955588E1,1.6364253E2,9.5545425E1,1.8887952E2,2.8124216E1,1.9675996E2,4.205347E0,1.2021227E1,1.0787978E1,7.5825667E0,3.0139667E2,1.8265882E1,8.891006E0,2.8430321E0,1.6394948E0,4.1354585E0,7.1788197E0,2.5192886E1,6.4456882E0,1.4288902E0,4.1228104E0,2.0562487E0,1.3889995E0,1.5149881E1,1.1073157E1,4.882431E0,4.7039043E1,1.1660349E2,6.6222206E1,2.9323221E1,1.0609765E2,8.278187E1,1.5863133E1,1.2261083E1,6.663603E0,1.9009636E2,1.4828204E0,2.7225266E0,1.0062569E1,1.9586579E0],"tree_param":{"num_deleted":"0","num_feature":"1280","num_nodes":"63","size_leaf_vector":"1"}},{"base_weights":[-1.4574299E-2,3.7588537E-1,-6.302801E-1,1.1346844E-1,7.263011E-1,-8.151969E-1,-1.5243714E-1,3.7418428E-1,-2.5649938E-1,3.0628034E-1,9.364072E-1,-4.712755E-1,-1.0531179E0,-3.9603007E-1,7.9953045E-1,-4.622556E-1,5.279393E-1,2.6881608E-1,-4.762151E-1,-5.074963E-2,8.7434036E-1,1.0243154E0,-5.624282E-1,-5.674838E-1,5.3103644E-1,-1.0944773E0,1.48287555E-2,6.17925E-1,-6.262126E-1,-9.843569E-3,1.0099028E0,-1.9783983E-2,6.982466E-3,2.479809E-2,6.522442E-3,1.5716605E-2,-1.8661888E-2,1.4311386E-2,-1.5140151E-2,9.265517E-3,-1.3090462E-2,2.687989E-2,-6.316993E-3,-5.7464805E-3,2.6750633E-2,-2.0927066E-2,7.726838E-3,1.1301842E-3,-2.011236E-2,-8.606726E-3,2.6198845E-2,1.4809023E-3,-2.82713E-2,-1.2509418E-2,2.4476146E-2,-2.259436E-2,4.0179524E-3,-7.8080734E-3,2.992072E-2],"categories":[],"categories_nodes":[],"categories_segments":[],"categories_sizes":[],"default_left":[0,0,0,0,0,0,0,0,0,0,0,0,0,0,0,0,0,0,0,0,0,0,0,0,0,0,0,0,0,0,0,0,0,0,0,0,0,0,0,0,0,0,0,0,0,0,0,0,0,0,0,0,0,0,0,0,0,0,0],"id":12,"left_children":[1,3,5,7,9,11,13,15,17,19,21,23,25,27,29,31,33,35,37,39,41,43,45,47,49,51,-1,53,55,-1,57,-1,-1,-1,-1,-1,-1,-1,-1,-1,-1,-1,-1,-1,-1,-1,-1,-1,-1,-1,-1,-1,-1,-1,-1,-1,-1,-1,-1],"loss_changes":[2.7280466E2,6.3390755E1,3.8190613E1,3.951699E1,2.449913E1,2.3009354E1,3.195498E1,3.218241E1,2.0405752E1,2.2031227E1,2.8975342E1,1.52067375E1,1.6208008E1,2.727526E1,9.450857E0,1.1321151E1,2.408971E1,2.2827585E1,1.9281382E1,1.5574364E1,1.1446259E1,1.4035477E1,5.076452E0,1.9630428E1,9.12035E0,9.742035E0,0E0,1.2277761E1,2.1102615E1,0E0,8.878893E0,0E0,0E0,0E0,0E0,0E0,0E0,0E0,0E0,0E0,0E0,0E0,0E0,0E0,0E0,0E0,0E0,0E0,0E0,0E0,0E0,0E0,0E0,0E0,0E0,0E0,0E0,0E0,0E0],"parents":[2147483647,0,0,1,1,2,2,3,3,4,4,5,5,6,6,7,7,8,8,9,9,10,10,11,11,12,12,13,13,14,14,15,15,16,16,17,17,18,18,19,19,20,20,21,21,22,22,23,23,24,24,25,25,27,27,28,28,30,30],"right_children":[2,4,6,8,10,12,14,16,18,20,22,24,26,28,30,32,34,36,38,40,42,44,46,48,50,52,-1,54,56,-1,58,-1,-1,-1,-1,-1,-1,-1,-1,-1,-1,-1,-1,-1,-1,-1,-1,-1,-1,-1,-1,-1,-1,-1,-1,-1,-1,-1,-1],"split_conditions":[1.274608E-2,1.6059267E-3,-3.100165E-2,-5.0240003E-2,6.865772E-2,-1.5196658E-2,4.7016917E-3,-7.469173E-2,6.7388296E-2,1.3139649E-1,7.2095743E-3,1.4457753E-1,3.640467E-2,-6.473027E-2,-1.0144514E-1,7.7641234E-2,-7.2846025E-2,4.5668896E-2,-3.1008432E-2,-1.3866945E-2,2.2326952E-1,1.1294126E-2,-7.2666705E-3,-1.30175E-2,-9.354631E-2,2.8152173E-2,1.48287555E-2,3.954298E-2,3.573413E-2,-9.843569E-3,-7.999838E-2,-1.9783983E-2,6.982466E-3,2.479809E-2,6.522442E-3,1.5716605E-2,-1.8661888E-2,1.4311386E-2,-1.5140151E-2,9.265517E-3,-1.3090462E-2,2.687989E-2,-6.316993E-3,-5.7464805E-3,2.6750633E-2,-2.0927066E-2,7.726838E-3,1.1301842E-3,-2.011236E-2,-8.606726E-3,2.6198845E-2,1.4809023E-3,-2.82713E-2,-1.2509418E-2,2.4476146E-2,-2.259436E-2,4.0179524E-3,-7.8080734E-3,2.992072E-2],"split_indices":[888,641,147,344,82,511,1204,303,748,833,152,557,882,1086,65,676,1046,466,1029,966,154,880,1219,219,310,1102,0,115,679,0,557,0,0,0,0,0,0,0,0,0,0,0,0,0,0,0,0,0,0,0,0,0,0,0,0,0,0,0,0],"split_type":[0,0,0,0,0,0,0,0,0,0,0,0,0,0,0,0,0,0,0,0,0,0,0,0,0,0,0,0,0,0,0,0,0,0,0,0,0,0,0,0,0,0,0,0,0,0,0,0,0,0,0,0,0,0,0,0,0,0,0],"sum_hessian":[1.1233198E3,6.887692E2,4.3455054E2,3.98196E2,2.9057324E2,3.1037454E2,1.2417598E2,2.3354881E2,1.646472E2,1.0160741E2,1.8896584E2,1.3393582E2,1.7643872E2,1.0155376E2,2.2622221E1,3.4470356E1,1.9907846E2,4.8176193E1,1.1647101E2,6.561391E1,3.5993496E1,1.8021935E2,8.74649E0,1.24485695E2,9.450132E0,1.7402002E2,2.4187016E0,1.6993729E1,8.456003E1,2.6199934E0,2.0002228E1,2.347434E1,1.0996013E1,6.588349E1,1.3319498E2,3.710844E1,1.1067751E1,1.100285E1,1.05468155E2,3.5385757E1,3.022815E1,3.0564302E1,5.4291945E0,6.638637E0,1.735807E2,6.769262E0,1.9772278E0,3.668661E1,8.779908E1,4.267244E0,5.1828885E0,6.4686937E0,1.6755133E2,3.6783779E0,1.3315351E1,6.147406E1,2.3085966E1,2.130341E0,1.7871887E1],"tree_param":{"num_deleted":"0","num_feature":"1280","num_nodes":"59","size_leaf_vector":"1"}},{"base_weights":[-1.6238797E-2,-7.163619E-1,2.726936E-1,-8.058775E-1,3.2161844E-1,1.02042414E-1,7.582686E-1,-1.3869174E-1,-9.2943084E-1,-3.351661E-1,8.677541E-1,3.4715557E-1,-1.8851699E-1,2.1940985E-1,9.907898E-1,6.9177127E-1,-4.4194373E-1,-9.924747E-1,1.9379403E-1,-7.0523334E-1,1.2282219E-2,1.0712687E0,-7.677134E-3,4.6685025E-1,-4.455708E-1,-7.0728683E-1,-1.6077857E-2,5.948971E-1,-3.0957797E-1,-2.1764956E-1,1.0726577E0,-7.815739E-3,2.380853E-2,1.2950499E-2,-1.692694E-2,1.2165011E-2,-2.5346136E-2,-1.4654444E-2,1.7212767E-2,-2.1410257E-2,1.5920562E-3,-4.34014E-3,3.0988337E-2,1.4133806E-2,-1.08935E-2,-1.9920591E-2,6.7984597E-3,-2.3090553E-2,9.282484E-3,-4.932884E-3,1.9014146E-2,2.2038061E-2,-5.834066E-3,-1.5870139E-2,1.21977115E-2,1.3086735E-2,-1.6001241E-2,-6.397873E-3,2.7754089E-2],"categories":[],"categories_nodes":[],"categories_segments":[],"categories_sizes":[],"default_left":[0,0,0,0,0,0,0,0,0,0,0,0,0,0,0,0,0,0,0,0,0,0,0,0,0,0,0,0,0,0,0,0,0,0,0,0,0,0,0,0,0,0,0,0,0,0,0,0,0,0,0,0,0,0,0,0,0,0,0],"id":13,"left_children":[1,3,5,7,9,11,13,15,17,19,21,23,25,27,29,31,33,35,37,39,-1,41,-1,43,45,47,49,51,53,55,57,-1,-1,-1,-1,-1,-1,-1,-1,-1,-1,-1,-1,-1,-1,-1,-1,-1,-1,-1,-1,-1,-1,-1,-1,-1,-1,-1,-1],"loss_changes":[2.2968105E2,3.230844E1,6.6173706E1,2.4561447E1,1.2596655E1,4.3219097E1,2.48312E1,1.5544971E1,1.9376755E1,7.5347447E0,6.276683E0,3.235065E1,2.489178E1,1.4994397E1,1.5569717E1,6.295562E0,1.2153947E1,1.3488174E1,9.628645E0,2.116743E0,0E0,4.9881287E0,0E0,2.827982E1,1.3101365E1,1.879078E1,3.1663504E1,1.1674863E1,1.0516041E1,6.3890977E0,9.969269E0,0E0,0E0,0E0,0E0,0E0,0E0,0E0,0E0,0E0,0E0,0E0,0E0,0E0,0E0,0E0,0E0,0E0,0E0,0E0,0E0,0E0,0E0,0E0,0E0,0E0,0E0,0E0,0E0],"parents":[2147483647,0,0,1,1,2,2,3,3,4,4,5,5,6,6,7,7,8,8,9,9,10,10,11,11,12,12,13,13,14,14,15,15,16,16,17,17,18,18,19,19,21,21,23,23,24,24,25,25,26,26,27,27,28,28,29,29,30,30],"right_children":[2,4,6,8,10,12,14,16,18,20,22,24,26,28,30,32,34,36,38,40,-1,42,-1,44,46,48,50,52,54,56,58,-1,-1,-1,-1,-1,-1,-1,-1,-1,-1,-1,-1,-1,-1,-1,-1,-1,-1,-1,-1,-1,-1,-1,-1,-1,-1,-1,-1],"split_conditions":[-1.1302386E-2,1.5319145E-1,2.1634035E-2,-6.9896944E-2,1.0370951E-2,-5.0240003E-2,9.4176404E-2,9.928243E-3,2.6778936E-2,2.2989763E-2,8.6168304E-2,5.036836E-2,-1.6897477E-2,-3.4395587E-2,-9.050852E-2,3.0969107E-3,-1.2471541E-1,8.4932745E-2,2.7786633E-2,-2.5179818E-2,1.2282219E-2,-1.6683441E-1,-7.677134E-3,1.3706766E-1,5.9187494E-2,-2.5031738E-2,8.3838224E-2,4.2547718E-2,-7.429896E-2,1.4025788E-2,9.4126264E-4,-7.815739E-3,2.380853E-2,1.2950499E-2,-1.692694E-2,1.2165011E-2,-2.5346136E-2,-1.4654444E-2,1.7212767E-2,-2.1410257E-2,1.5920562E-3,-4.34014E-3,3.0988337E-2,1.4133806E-2,-1.08935E-2,-1.9920591E-2,6.7984597E-3,-2.3090553E-2,9.282484E-3,-4.932884E-3,1.9014146E-2,2.2038061E-2,-5.834066E-3,-1.5870139E-2,1.21977115E-2,1.3086735E-2,-1.6001241E-2,-6.397873E-3,2.7754089E-2],"split_indices":[1182,32,641,49,184,344,87,339,716,1030,339,1105,10,875,450,968,178,403,1161,449,0,510,0,554,721,629,1157,206,521,156,126,0,0,0,0,0,0,0,0,0,0,0,0,0,0,0,0,0,0,0,0,0,0,0,0,0,0,0,0],"split_type":[0,0,0,0,0,0,0,0,0,0,0,0,0,0,0,0,0,0,0,0,0,0,0,0,0,0,0,0,0,0,0,0,0,0,0,0,0,0,0,0,0,0,0,0,0,0,0,0,0,0,0,0,0,0,0,0,0,0,0],"sum_hessian":[1.1240925E3,3.258915E2,7.98201E2,3.012036E2,2.468789E1,5.9578705E2,2.0241393E2,4.8973442E1,2.5223018E2,1.2218686E1,1.2469203E1,3.225581E2,2.732289E2,6.438929E1,1.3802464E2,1.11257715E1,3.784767E1,2.3946034E2,1.276983E1,9.051326E0,3.16736E0,1.10731735E1,1.3960296E0,2.8230096E2,4.025715E1,6.3706757E1,2.0952217E2,3.7238747E1,2.7150543E1,8.151314E0,1.2987332E2,2.1251352E0,9.000637E0,6.2060165E0,3.1641655E1,2.8612514E0,2.3659909E2,4.5642643E0,8.205565E0,6.9298596E0,2.1214666E0,1.3940165E0,9.679157E0,2.5544032E2,2.6860643E1,2.645277E1,1.3804379E1,5.3463654E1,1.0243101E1,1.7333524E2,3.618693E1,2.7214962E1,1.0023786E1,2.0051004E1,7.0995374E0,2.4787283E0,5.6725855E0,3.456713E0,1.2641661E2],"tree_param":{"num_deleted":"0","num_feature":"1280","num_nodes":"59","size_leaf_vector":"1"}},{"base_weights":[1.0039755E-2,3.021433E-1,-7.085658E-1,1.2349163E-1,8.1311435E-1,-8.18967E-1,1.9253632E-1,5.502624E-1,-3.645702E-2,9.490172E-2,9.898913E-1,-8.9294416E-1,1.376613E-1,7.417401E-1,-3.9466643E-1,-9.844563E-2,8.5098225E-1,-3.088222E-1,2.6595432E-1,-5.4172564E-1,5.637097E-1,1.1077017E0,2.543064E-1,2.9288338E-2,-9.8434156E-1,-1.7605767E-2,6.017288E-1,9.9331725E-1,-1.1358213E-2,4.6798155E-1,-7.8469294E-1,2.302197E-2,-1.1737904E-2,-7.2818617E-3,2.3100635E-2,3.6397723E-3,-1.390313E-2,-4.6081585E-3,1.4713136E-2,8.464581E-3,-1.7762823E-2,2.1722589E-2,-1.36684785E-2,2.9104672E-2,-5.62856E-3,1.420549E-2,-1.6011873E-2,-1.7306335E-2,2.0947412E-2,-2.5596099E-2,8.2711E-3,-2.3655037E-3,2.5567506E-2,3.188943E-2,-8.588945E-3,1.9014344E-2,-6.4555854E-3,1.6331194E-3,-2.2833545E-2],"categories":[],"categories_nodes":[],"categories_segments":[],"categories_sizes":[],"default_left":[0,0,0,0,0,0,0,0,0,0,0,0,0,0,0,0,0,0,0,0,0,0,0,0,0,0,0,0,0,0,0,0,0,0,0,0,0,0,0,0,0,0,0,0,0,0,0,0,0,0,0,0,0,0,0,0,0,0,0],"id":14,"left_children":[1,3,5,7,9,11,13,15,17,19,21,23,25,27,29,31,33,35,37,39,41,43,45,47,49,-1,51,53,-1,55,57,-1,-1,-1,-1,-1,-1,-1,-1,-1,-1,-1,-1,-1,-1,-1,-1,-1,-1,-1,-1,-1,-1,-1,-1,-1,-1,-1,-1],"loss_changes":[2.3871692E2,7.3220406E1,3.360811E1,4.1468056E1,2.591803E1,2.15083E1,1.4759934E1,3.2769585E1,3.721249E1,1.5945583E1,1.28172E1,2.322696E1,1.2717558E1,9.544648E0,9.97193E0,2.467422E1,1.2001274E1,2.7673761E1,3.2320305E1,4.9601626E0,1.3275925E1,1.3924271E1,1.0856344E1,2.1320864E1,1.7528671E1,0E0,6.536426E0,1.0695274E1,0E0,3.5128148E0,2.4527655E0,0E0,0E0,0E0,0E0,0E0,0E0,0E0,0E0,0E0,0E0,0E0,0E0,0E0,0E0,0E0,0E0,0E0,0E0,0E0,0E0,0E0,0E0,0E0,0E0,0E0,0E0,0E0,0E0],"parents":[2147483647,0,0,1,1,2,2,3,3,4,4,5,5,6,6,7,7,8,8,9,9,10,10,11,11,12,12,13,13,14,14,15,15,16,16,17,17,18,18,19,19,20,20,21,21,22,22,23,23,24,24,26,26,27,27,29,29,30,30],"right_children":[2,4,6,8,10,12,14,16,18,20,22,24,26,28,30,32,34,36,38,40,42,44,46,48,50,-1,52,54,-1,56,58,-1,-1,-1,-1,-1,-1,-1,-1,-1,-1,-1,-1,-1,-1,-1,-1,-1,-1,-1,-1,-1,-1,-1,-1,-1,-1,-1,-1],"split_conditions":[7.497642E-2,2.1634035E-2,2.6778936E-2,-1.11354165E-1,-7.488864E-3,7.3063686E-3,-1.5544298E-2,2.640342E-3,-4.069865E-2,1.0283002E-1,-2.8321637E-2,-1.1839599E-1,-1.1045104E-2,1.118326E-1,-2.4706425E-2,-5.4724723E-2,-4.8712317E-2,6.2007427E-2,4.7333702E-2,-4.352725E-2,8.444925E-2,-2.0936534E-3,-3.810407E-2,1.11639954E-1,4.2425085E-2,-1.7605767E-2,-3.1217843E-2,2.1112496E-1,-1.1358213E-2,2.335473E-1,-9.094896E-2,2.302197E-2,-1.1737904E-2,-7.2818617E-3,2.3100635E-2,3.6397723E-3,-1.390313E-2,-4.6081585E-3,1.4713136E-2,8.464581E-3,-1.7762823E-2,2.1722589E-2,-1.36684785E-2,2.9104672E-2,-5.62856E-3,1.420549E-2,-1.6011873E-2,-1.7306335E-2,2.0947412E-2,-2.5596099E-2,8.2711E-3,-2.3655037E-3,2.5567506E-2,3.188943E-2,-8.588945E-3,1.9014344E-2,-6.4555854E-3,1.6331194E-3,-2.2833545E-2],"split_indices":[261,641,716,885,401,8,1217,306,322,942,492,359,1141,128,901,798,642,188,105,219,1116,835,897,1117,1059,0,85,732,0,297,573,0,0,0,0,0,0,0,0,0,0,0,0,0,0,0,0,0,0,0,0,0,0,0,0,0,0,0,0],"split_type":[0,0,0,0,0,0,0,0,0,0,0,0,0,0,0,0,0,0,0,0,0,0,0,0,0,0,0,0,0,0,0,0,0,0,0,0,0,0,0,0,0,0,0,0,0,0,0,0,0,0,0,0,0,0,0,0,0,0,0],"sum_hessian":[1.1256151E3,8.026761E2,3.2293903E2,6.000364E2,2.0263976E2,2.8815933E2,3.477968E1,1.5974728E2,4.4028906E2,4.1773533E1,1.6086621E2,2.678311E2,2.032825E1,1.718804E1,1.759164E1,5.182517E1,1.0792211E2,2.3158823E2,2.0870084E2,1.7335945E1,2.443759E1,1.3614723E2,2.4718985E1,2.4502842E1,2.4332823E2,6.1151333E0,1.4213119E1,1.5026849E1,2.1611917E0,5.1188006E0,1.2472838E1,1.1584593E1,4.0240574E1,6.059001E0,1.0186311E2,8.3248924E1,1.4833931E2,8.870003E1,1.2000082E2,1.9478292E0,1.5388116E1,2.0060287E1,4.3773026E0,1.3044864E2,5.698596E0,1.9806463E1,4.912521E0,1.3390942E1,1.11119E1,2.3609177E2,7.2364774E0,7.1194406E0,7.0936775E0,1.2528096E1,2.4987526E0,3.416308E0,1.7024927E0,2.123737E0,1.0349102E1],"tree_param":{"num_deleted":"0","num_feature":"1280","num_nodes":"59","size_leaf_vector":"1"}},{"base_weights":[6.080827E-3,3.5959348E-1,-5.9223616E-1,9.164826E-2,7.262725E-1,-2.2292593E-1,-8.197418E-1,-5.542376E-1,2.6097885E-1,-8.986325E-2,8.3659947E-1,6.2590253E-1,-3.9847946E-1,-1.8199772E-1,-9.618371E-1,-7.666304E-1,2.4424241E-1,4.4457737E-1,-1.9854915E-1,5.765896E-1,-4.6774352E-1,9.682458E-1,4.7013894E-2,-1.0928412E-1,1.0014142E0,2.64611E-1,-6.6719675E-1,5.029362E-1,-6.034974E-1,-1.9289503E-1,-1.0358409E0,-2.1640293E-2,1.51244225E-2,1.5777508E-2,-1.2752689E-2,1.3106855E-2,-1.6462192E-2,6.249787E-3,-1.4066991E-2,-5.673517E-3,2.158297E-2,-1.847422E-2,9.49646E-3,2.5864888E-2,-1.174047E-3,-1.4607022E-2,1.4236579E-2,-1.5303813E-2,1.0995302E-2,2.9650865E-2,-6.139278E-3,1.8408554E-2,-9.7332345E-3,9.279496E-3,-1.9136779E-2,-7.3501244E-3,2.3048585E-2,1.3099831E-2,-2.018787E-2,1.0652958E-2,-1.6720979E-2,-2.6661469E-2,2.792811E-3],"categories":[],"categories_nodes":[],"categories_segments":[],"categories_sizes":[],"default_left":[0,0,0,0,0,0,0,0,0,0,0,0,0,0,0,0,0,0,0,0,0,0,0,0,0,0,0,0,0,0,0,0,0,0,0,0,0,0,0,0,0,0,0,0,0,0,0,0,0,0,0,0,0,0,0,0,0,0,0,0,0,0,0],"id":15,"left_children":[1,3,5,7,9,11,13,15,17,19,21,23,25,27,29,31,33,35,37,39,41,43,45,47,49,51,53,55,57,59,61,-1,-1,-1,-1,-1,-1,-1,-1,-1,-1,-1,-1,-1,-1,-1,-1,-1,-1,-1,-1,-1,-1,-1,-1,-1,-1,-1,-1,-1,-1,-1,-1],"loss_changes":[2.3859845E2,6.927891E1,3.415074E1,4.635905E1,2.731311E1,2.6415733E1,2.229184E1,1.6054598E1,2.8663574E1,1.1816202E1,2.71315E1,9.179712E0,2.6393957E1,1.7324694E1,1.0737854E1,1.340551E1,8.6912155E0,2.4306545E1,1.7295647E1,5.2387376E0,8.515387E0,1.730545E1,1.6587885E1,5.9669023E0,6.800043E0,1.5850649E1,1.2830368E1,9.6544285E0,1.1042373E1,9.276877E0,9.132385E0,0E0,0E0,0E0,0E0,0E0,0E0,0E0,0E0,0E0,0E0,0E0,0E0,0E0,0E0,0E0,0E0,0E0,0E0,0E0,0E0,0E0,0E0,0E0,0E0,0E0,0E0,0E0,0E0,0E0,0E0,0E0,0E0],"parents":[2147483647,0,0,1,1,2,2,3,3,4,4,5,5,6,6,7,7,8,8,9,9,10,10,11,11,12,12,13,13,14,14,15,15,16,16,17,17,18,18,19,19,20,20,21,21,22,22,23,23,24,24,25,25,26,26,27,27,28,28,29,29,30,30],"right_children":[2,4,6,8,10,12,14,16,18,20,22,24,26,28,30,32,34,36,38,40,42,44,46,48,50,52,54,56,58,60,62,-1,-1,-1,-1,-1,-1,-1,-1,-1,-1,-1,-1,-1,-1,-1,-1,-1,-1,-1,-1,-1,-1,-1,-1,-1,-1,-1,-1,-1,-1,-1,-1],"split_conditions":[1.274608E-2,1.6059267E-3,8.817219E-2,9.6061416E-2,4.564019E-2,-1.2189827E-1,3.6006127E-3,1.1509032E-1,7.027992E-2,-1.893938E-2,3.430558E-2,-5.710406E-3,8.0106236E-2,1.0684202E-1,-1.3331015E-1,1.4095585E-1,1.2288468E-1,4.6631973E-2,1.7788358E-1,-7.760069E-2,1.10428594E-1,5.5926736E-2,4.5051005E-2,1.2306824E-2,-4.791337E-2,2.0400919E-2,-1.1216613E-1,9.598566E-2,-1.2043937E-1,5.2585155E-3,1.14919655E-1,-2.1640293E-2,1.51244225E-2,1.5777508E-2,-1.2752689E-2,1.3106855E-2,-1.6462192E-2,6.249787E-3,-1.4066991E-2,-5.673517E-3,2.158297E-2,-1.847422E-2,9.49646E-3,2.5864888E-2,-1.174047E-3,-1.4607022E-2,1.4236579E-2,-1.5303813E-2,1.0995302E-2,2.9650865E-2,-6.139278E-3,1.8408554E-2,-9.7332345E-3,9.279496E-3,-1.9136779E-2,-7.3501244E-3,2.3048585E-2,1.3099831E-2,-2.018787E-2,1.0652958E-2,-1.6720979E-2,-2.6661469E-2,2.792811E-3],"split_indices":[888,641,261,505,1090,40,1270,1261,858,914,1045,679,176,377,1173,47,506,1046,7,563,1182,913,248,995,106,96,379,531,291,1162,419,0,0,0,0,0,0,0,0,0,0,0,0,0,0,0,0,0,0,0,0,0,0,0,0,0,0,0,0,0,0,0,0],"split_type":[0,0,0,0,0,0,0,0,0,0,0,0,0,0,0,0,0,0,0,0,0,0,0,0,0,0,0,0,0,0,0,0,0,0,0,0,0,0,0,0,0,0,0,0,0,0,0,0,0,0,0,0,0,0,0,0,0,0,0,0,0,0,0],"sum_hessian":[1.1164984E3,7.0327185E2,4.1322656E2,4.1050272E2,2.9276913E2,1.6186873E2,2.5135782E2,8.254696E1,3.2795578E2,3.4991356E1,2.5777777E2,2.5208029E1,1.3666069E2,4.8193916E1,2.0316391E2,6.5384636E1,1.7162327E1,2.344655E2,9.349027E1,1.15652685E1,2.3426086E1,2.1982364E2,3.7954144E1,9.903101E0,1.5304928E1,3.9435966E1,9.7224724E1,1.7935692E1,3.0258224E1,1.9659878E1,1.8350403E2,6.268288E1,2.7017546E0,1.1929139E1,5.233187E0,2.2079701E2,1.3668484E1,4.2883675E1,5.06066E1,3.4272885E0,8.13798E0,1.8213394E1,5.2126927E0,2.0469539E2,1.5128249E1,1.6891647E1,2.1062498E1,4.8114796E0,5.0916214E0,1.3464093E1,1.8408346E0,2.2407043E1,1.7028925E1,7.4839315E0,8.974079E1,6.8473644E0,1.1088327E1,3.3765361E0,2.688169E1,8.841784E0,1.0818093E1,1.778631E2,5.640936E0],"tree_param":{"num_deleted":"0","num_feature":"1280","num_nodes":"63","size_leaf_vector":"1"}},{"base_weights":[-2.0211438E-2,-6.798251E-1,2.688948E-1,-8.33778E-1,-1.4322919E-1,5.4355685E-2,5.8851314E-1,-8.997275E-1,3.7533504E-1,-5.861518E-1,3.6755344E-1,2.5065783E-1,-3.7758052E-1,7.9369944E-1,1.7100689E-1,-9.39018E-1,4.8845667E-1,-2.1467918E-1,8.5483885E-1,4.2607757E-1,-7.870297E-1,7.5148076E-1,-4.5619968E-1,5.9292406E-1,1.2904131E-2,4.651048E-1,-6.007791E-1,-4.9874684E-1,8.5324377E-1,4.9458253E-1,-6.4831775E-1,-2.4989353E-2,-1.7905345E-3,-6.247554E-3,2.036405E-2,9.319207E-3,-1.2921628E-2,2.4891498E-2,-7.956332E-4,-7.470282E-3,1.9581549E-2,1.2019798E-2,-2.5196526E-2,2.7041312E-2,-6.888921E-3,8.104124E-3,-1.7207084E-2,3.3252783E-2,9.154538E-3,-1.3590905E-2,5.3536734E-3,-1.3252147E-2,1.8554304E-2,1.0739508E-2,-1.8194815E-2,6.4028474E-3,-1.85937E-2,2.2194024E-2,-1.2500436E-2,-1.0801942E-2,1.66898E-2,-2.0360721E-2,1.2536931E-2],"categories":[],"categories_nodes":[],"categories_segments":[],"categories_sizes":[],"default_left":[0,0,0,0,0,0,0,0,0,0,0,0,0,0,0,0,0,0,0,0,0,0,0,0,0,0,0,0,0,0,0,0,0,0,0,0,0,0,0,0,0,0,0,0,0,0,0,0,0,0,0,0,0,0,0,0,0,0,0,0,0,0,0],"id":16,"left_children":[1,3,5,7,9,11,13,15,17,19,21,23,25,27,29,31,33,35,37,39,41,43,45,47,49,51,53,55,57,59,61,-1,-1,-1,-1,-1,-1,-1,-1,-1,-1,-1,-1,-1,-1,-1,-1,-1,-1,-1,-1,-1,-1,-1,-1,-1,-1,-1,-1,-1,-1,-1,-1],"loss_changes":[2.1457808E2,2.7634521E1,5.348039E1,2.3093338E1,2.010658E1,4.0789303E1,2.6095657E1,1.6451584E1,6.0877895E0,1.1464029E1,1.5342301E1,2.6792547E1,2.9936033E1,1.8518372E1,3.1201666E1,1.4261734E1,3.837473E0,3.399722E0,1.6292973E0,4.40617E0,1.4791174E1,1.254434E1,4.467968E0,1.9754826E1,2.3489697E1,1.2129405E1,1.8493397E1,3.5485928E0,1.39118805E1,1.53783245E1,9.118049E0,0E0,0E0,0E0,0E0,0E0,0E0,0E0,0E0,0E0,0E0,0E0,0E0,0E0,0E0,0E0,0E0,0E0,0E0,0E0,0E0,0E0,0E0,0E0,0E0,0E0,0E0,0E0,0E0,0E0,0E0,0E0,0E0],"parents":[2147483647,0,0,1,1,2,2,3,3,4,4,5,5,6,6,7,7,8,8,9,9,10,10,11,11,12,12,13,13,14,14,15,15,16,16,17,17,18,18,19,19,20,20,21,21,22,22,23,23,24,24,25,25,26,26,27,27,28,28,29,29,30,30],"right_children":[2,4,6,8,10,12,14,16,18,20,22,24,26,28,30,32,34,36,38,40,42,44,46,48,50,52,54,56,58,60,62,-1,-1,-1,-1,-1,-1,-1,-1,-1,-1,-1,-1,-1,-1,-1,-1,-1,-1,-1,-1,-1,-1,-1,-1,-1,-1,-1,-1,-1,-1,-1,-1],"split_conditions":[-2.6486835E-3,1.1245513E-1,1.6059267E-3,-5.8469363E-2,-1.0450756E-1,-3.1919967E-2,4.4089768E-2,1.5688887E-1,-2.4933789E-2,-2.3422725E-1,-9.887366E-3,7.4418865E-2,-1.0145943E-1,-1.7933749E-1,-6.202946E-2,6.4531714E-3,-6.950651E-2,-1.2088656E-2,3.0218238E-2,-1.504967E-1,-1.14657596E-1,5.2309033E-2,-1.3197711E-1,-1.1330309E-1,-8.387754E-2,-1.4616018E-3,-2.6004864E-2,-6.818292E-2,1.6198754E-3,-7.245319E-2,-3.6836445E-2,-2.4989353E-2,-1.7905345E-3,-6.247554E-3,2.036405E-2,9.319207E-3,-1.2921628E-2,2.4891498E-2,-7.956332E-4,-7.470282E-3,1.9581549E-2,1.2019798E-2,-2.5196526E-2,2.7041312E-2,-6.888921E-3,8.104124E-3,-1.7207084E-2,3.3252783E-2,9.154538E-3,-1.3590905E-2,5.3536734E-3,-1.3252147E-2,1.8554304E-2,1.0739508E-2,-1.8194815E-2,6.4028474E-3,-1.85937E-2,2.2194024E-2,-1.2500436E-2,-1.0801942E-2,1.66898E-2,-2.0360721E-2,1.2536931E-2],"split_indices":[1182,942,641,1020,908,344,1238,1202,513,1163,707,339,1265,566,414,8,1016,945,1253,978,1134,482,673,344,1107,178,1029,245,1228,526,813,0,0,0,0,0,0,0,0,0,0,0,0,0,0,0,0,0,0,0,0,0,0,0,0,0,0,0,0,0,0,0,0],"split_type":[0,0,0,0,0,0,0,0,0,0,0,0,0,0,0,0,0,0,0,0,0,0,0,0,0,0,0,0,0,0,0,0,0,0,0,0,0,0,0,0,0,0,0,0,0,0,0,0,0,0,0,0,0,0,0,0,0,0,0,0,0,0,0],"sum_hessian":[1.1139408E3,3.3708234E2,7.768584E2,2.5945343E2,7.76289E1,4.6887344E2,3.0798495E2,2.4743143E2,1.2021987E1,4.1121067E1,3.6507835E1,3.240292E2,1.4484425E2,2.030196E2,1.04965355E2,2.4243341E2,4.9980173E0,6.816114E0,5.2058735E0,5.7399564E0,3.538111E1,2.524652E1,1.1261316E1,1.292945E2,1.947347E2,2.9023495E1,1.1582076E2,7.070239E0,1.9594937E2,7.6884384E1,2.8080965E1,2.2387761E2,1.8555813E1,1.9811509E0,3.0168662E0,1.8814124E0,4.9347014E0,3.8118224E0,1.3940511E0,2.239961E0,3.4999952E0,4.408518E0,3.0972591E1,1.8742067E1,6.504452E0,2.116044E0,9.145273E0,2.3187138E1,1.0610736E2,4.913876E1,1.4559593E2,5.272069E0,2.3751427E1,1.1685854E1,1.041349E2,1.7172294E0,5.3530097E0,1.9206226E2,3.8871186E0,1.1022514E1,6.586187E1,2.5877056E1,2.2039094E0],"tree_param":{"num_deleted":"0","num_feature":"1280","num_nodes":"63","size_leaf_vector":"1"}},{"base_weights":[1.5845617E-2,-6.590385E-1,2.8175366E-1,-1.5679102E-1,-8.5075665E-1,8.3343107E-1,1.4175496E-1,3.6783722E-1,-4.998398E-1,-9.056318E-1,3.9408305E-1,8.544333E-2,9.7584426E-1,4.6166146E-1,-1.1890231E-1,8.552569E-1,-4.8400936E-1,-9.44149E-1,5.4454543E-2,-9.792408E-1,5.8115326E-2,7.173612E-1,-9.53248E-3,4.7453627E-1,-6.5044487E-1,-7.244503E-2,1.0917746E0,-5.859548E-1,5.5047125E-1,-2.756146E-1,6.117832E-1,-9.282014E-3,2.6403284E-2,1.0498034E-2,-1.8085683E-2,5.1573245E-3,-2.6411356E-2,-6.9785123E-3,1.6964875E-2,-2.5486942E-2,3.4719158E-3,-1.4864708E-2,1.6831066E-2,2.202539E-2,-1.8566983E-3,2.2358343E-2,-6.4570094E-3,-2.0249832E-2,3.4984553E-3,-1.5985195E-2,1.125017E-2,1.4009257E-2,3.3962827E-2,-2.0136261E-2,1.3337985E-2,8.122096E-4,1.798345E-2,-1.9840239E-2,-1.8305418E-3,-1.4968882E-2,2.1897748E-2],"categories":[],"categories_nodes":[],"categories_segments":[],"categories_sizes":[],"default_left":[0,0,0,0,0,0,0,0,0,0,0,0,0,0,0,0,0,0,0,0,0,0,0,0,0,0,0,0,0,0,0,0,0,0,0,0,0,0,0,0,0,0,0,0,0,0,0,0,0,0,0,0,0,0,0,0,0,0,0,0,0],"id":17,"left_children":[1,3,5,7,9,11,13,15,17,19,21,23,25,27,29,31,33,35,37,39,41,43,-1,45,47,49,51,53,55,57,59,-1,-1,-1,-1,-1,-1,-1,-1,-1,-1,-1,-1,-1,-1,-1,-1,-1,-1,-1,-1,-1,-1,-1,-1,-1,-1,-1,-1,-1,-1],"loss_changes":[2.0083461E2,2.9693237E1,6.1305344E1,1.8058968E1,1.7606903E1,1.6698112E1,5.427245E1,1.926812E1,1.4963139E1,1.5919708E1,5.01587E0,1.0970626E1,1.685199E1,2.8996754E1,4.2323463E1,9.473488E0,5.8830485E0,5.9041862E0,7.8575163E0,1.1830566E1,1.0916557E1,1.9536152E0,0E0,8.979362E0,2.4386082E0,7.3480153E0,1.3348419E1,9.001109E0,2.4410118E1,3.1533861E1,2.4646284E1,0E0,0E0,0E0,0E0,0E0,0E0,0E0,0E0,0E0,0E0,0E0,0E0,0E0,0E0,0E0,0E0,0E0,0E0,0E0,0E0,0E0,0E0,0E0,0E0,0E0,0E0,0E0,0E0,0E0,0E0],"parents":[2147483647,0,0,1,1,2,2,3,3,4,4,5,5,6,6,7,7,8,8,9,9,10,10,11,11,12,12,13,13,14,14,15,15,16,16,17,17,18,18,19,19,20,20,21,21,23,23,24,24,25,25,26,26,27,27,28,28,29,29,30,30],"right_children":[2,4,6,8,10,12,14,16,18,20,22,24,26,28,30,32,34,36,38,40,42,44,-1,46,48,50,52,54,56,58,60,-1,-1,-1,-1,-1,-1,-1,-1,-1,-1,-1,-1,-1,-1,-1,-1,-1,-1,-1,-1,-1,-1,-1,-1,-1,-1,-1,-1,-1,-1],"split_conditions":[-9.563954E-3,1.083053E-1,-4.5491148E-2,-1.229116E-1,4.4724632E-2,1.721255E-2,1.6166244E-2,6.2443648E-2,-4.6780366E-2,3.376227E-2,6.247562E-2,1.2064899E-1,-1.0726917E-1,5.5342405E-3,1.2554513E-1,-8.736677E-2,-9.773184E-2,-1.8260401E-1,-4.0060997E-2,2.7037298E-2,-7.37908E-2,-7.533936E-2,-9.53248E-3,-2.1748995E-2,-1.3379791E-1,-1.3298576E-2,-2.0929801E-1,6.339046E-2,-5.7282474E-2,-1.7009916E-2,-7.917289E-2,-9.282014E-3,2.6403284E-2,1.0498034E-2,-1.8085683E-2,5.1573245E-3,-2.6411356E-2,-6.9785123E-3,1.6964875E-2,-2.5486942E-2,3.4719158E-3,-1.4864708E-2,1.6831066E-2,2.202539E-2,-1.8566983E-3,2.2358343E-2,-6.4570094E-3,-2.0249832E-2,3.4984553E-3,-1.5985195E-2,1.125017E-2,1.4009257E-2,3.3962827E-2,-2.0136261E-2,1.3337985E-2,8.122096E-4,1.798345E-2,-1.9840239E-2,-1.8305418E-3,-1.4968882E-2,2.1897748E-2],"split_indices":[1182,701,37,40,1028,1268,423,202,290,1187,84,1188,1140,598,833,1099,334,902,1173,396,207,193,0,562,556,1173,629,539,67,646,941,0,0,0,0,0,0,0,0,0,0,0,0,0,0,0,0,0,0,0,0,0,0,0,0,0,0,0,0,0,0],"split_type":[0,0,0,0,0,0,0,0,0,0,0,0,0,0,0,0,0,0,0,0,0,0,0,0,0,0,0,0,0,0,0,0,0,0,0,0,0,0,0,0,0,0,0,0,0,0,0,0,0,0,0,0,0,0,0,0,0,0,0,0,0],"sum_hessian":[1.1074033E3,3.1059256E2,7.968107E2,8.869837E1,2.218942E2,1.5550395E2,6.4130676E2,3.4903645E1,5.3794727E1,2.1402888E2,7.8653126E0,2.6345716E1,1.2915823E2,2.8593503E2,3.5537177E2,2.2185959E1,1.2717685E1,2.761114E1,2.618359E1,1.9875574E2,1.527315E1,5.87581E0,1.9895024E0,1.8571749E1,7.7739677E0,1.3076426E1,1.160818E2,1.9825588E1,2.6610944E2,2.9556775E2,5.9804016E1,2.5621753E0,1.9623783E1,1.8133903E0,1.0904294E1,2.21716E0,2.539398E1,1.9152126E1,7.031464E0,1.9102412E2,7.7316136E0,7.5109015E0,7.762249E0,4.2636237E0,1.6121867E0,1.0924157E1,7.647592E0,6.278713E0,1.4952545E0,5.6431613E0,7.433264E0,4.6033978E1,7.004783E1,1.7841097E1,1.9844912E0,6.8774506E1,1.9733492E2,7.743373E1,2.1813403E2,9.611807E0,5.0192207E1],"tree_param":{"num_deleted":"0","num_feature":"1280","num_nodes":"61","size_leaf_vector":"1"}},{"base_weights":[3.180677E-5,-6.874759E-1,2.7297318E-1,-7.730902E-1,2.6717043E-1,8.329445E-1,1.3208564E-1,-8.5213274E-1,9.140094E-2,-6.101767E-1,7.9649967E-1,9.474689E-3,9.764212E-1,4.1458064E-1,-9.4464734E-2,-9.1596913E-1,1.0092418E-1,-4.28484E-1,9.8893714E-1,5.124018E-3,-1.955084E-2,-7.790236E-3,9.627944E-1,6.29E-1,-6.207217E-1,1.1080291E0,5.4968003E-2,-6.325335E-1,5.020305E-1,-2.604419E-1,5.979122E-1,-6.842459E-3,-2.5080016E-2,-1.1880886E-2,1.6536178E-2,-1.6911501E-2,1.3652747E-2,2.9273072E-2,-2.2124269E-4,2.8440414E-2,-6.027043E-3,2.3582224E-2,-6.6416464E-3,-2.0396248E-2,8.037153E-3,2.3893176E-3,3.0978143E-2,-1.7357642E-2,1.8440261E-2,4.7494126E-3,-2.2290684E-2,-3.133292E-3,1.6018573E-2,-1.8878879E-2,-2.3046324E-3,-9.943612E-3,2.1898627E-2],"categories":[],"categories_nodes":[],"categories_segments":[],"categories_sizes":[],"default_left":[0,0,0,0,0,0,0,0,0,0,0,0,0,0,0,0,0,0,0,0,0,0,0,0,0,0,0,0,0,0,0,0,0,0,0,0,0,0,0,0,0,0,0,0,0,0,0,0,0,0,0,0,0,0,0,0,0],"id":18,"left_children":[1,3,5,7,9,11,13,15,17,19,21,23,25,27,29,31,33,35,37,-1,-1,-1,39,41,43,45,47,49,51,53,55,-1,-1,-1,-1,-1,-1,-1,-1,-1,-1,-1,-1,-1,-1,-1,-1,-1,-1,-1,-1,-1,-1,-1,-1,-1,-1],"loss_changes":[2.1198746E2,2.742868E1,6.316394E1,2.0681412E1,1.7057716E1,1.9024475E1,4.201382E1,1.7071747E1,1.644239E1,3.0895162E0,5.73903E0,1.3874024E1,1.6318604E1,2.8536652E1,4.307729E1,1.3913712E1,9.136534E0,7.864968E0,2.4898567E0,0E0,0E0,0E0,6.0847416E0,6.6197357E0,4.8938932E0,1.6375778E1,1.5065937E1,6.4754047E0,2.5052994E1,2.4757912E1,2.2719511E1,0E0,0E0,0E0,0E0,0E0,0E0,0E0,0E0,0E0,0E0,0E0,0E0,0E0,0E0,0E0,0E0,0E0,0E0,0E0,0E0,0E0,0E0,0E0,0E0,0E0,0E0],"parents":[2147483647,0,0,1,1,2,2,3,3,4,4,5,5,6,6,7,7,8,8,9,9,10,10,11,11,12,12,13,13,14,14,15,15,16,16,17,17,18,18,22,22,23,23,24,24,25,25,26,26,27,27,28,28,29,29,30,30],"right_children":[2,4,6,8,10,12,14,16,18,20,22,24,26,28,30,32,34,36,38,-1,-1,-1,40,42,44,46,48,50,52,54,56,-1,-1,-1,-1,-1,-1,-1,-1,-1,-1,-1,-1,-1,-1,-1,-1,-1,-1,-1,-1,-1,-1,-1,-1,-1,-1],"split_conditions":[-9.563954E-3,1.5319145E-1,-4.5491148E-2,6.4531714E-3,-9.642175E-2,-1.4258518E-4,1.6166244E-2,9.330005E-2,-6.488559E-2,-4.850763E-2,-1.6607809E-1,-7.174219E-2,8.161159E-2,5.5342405E-3,1.17083594E-1,-7.100174E-2,-1.444184E-1,9.175138E-2,4.0280662E-2,5.124018E-3,-1.955084E-2,-7.790236E-3,5.5714846E-2,1.2132802E-1,3.6081303E-2,-5.6667812E-2,4.5275137E-2,-8.65818E-2,-1.2831463E-1,-1.8407607E-2,-9.100378E-2,-6.842459E-3,-2.5080016E-2,-1.1880886E-2,1.6536178E-2,-1.6911501E-2,1.3652747E-2,2.9273072E-2,-2.2124269E-4,2.8440414E-2,-6.027043E-3,2.3582224E-2,-6.6416464E-3,-2.0396248E-2,8.037153E-3,2.3893176E-3,3.0978143E-2,-1.7357642E-2,1.8440261E-2,4.7494126E-3,-2.2290684E-2,-3.133292E-3,1.6018573E-2,-1.8878879E-2,-2.3046324E-3,-9.943612E-3,2.1898627E-2],"split_indices":[1182,32,37,8,463,844,423,1027,882,402,789,4,530,598,833,49,1075,51,994,0,0,0,840,849,80,710,1116,344,952,646,1101,0,0,0,0,0,0,0,0,0,0,0,0,0,0,0,0,0,0,0,0,0,0,0,0,0,0],"split_type":[0,0,0,0,0,0,0,0,0,0,0,0,0,0,0,0,0,0,0,0,0,0,0,0,0,0,0,0,0,0,0,0,0,0,0,0,0,0,0,0,0,0,0,0,0,0,0,0,0,0,0,0,0,0,0,0,0],"sum_hessian":[1.11818E3,3.152795E2,8.029006E2,2.9033704E2,2.4942478E1,1.5571251E2,6.4718805E2,2.660901E2,2.424693E1,9.054755E0,1.5887724E1,2.401591E1,1.316966E2,2.859031E2,3.6128494E2,2.4959612E2,1.6493977E1,1.7259655E1,6.987274E0,1.4532616E0,7.6014934E0,1.4029284E0,1.4484796E1,1.2116001E1,1.1899909E1,1.14217094E2,1.7479504E1,1.9269562E1,2.6663354E2,2.943229E2,6.696204E1,3.5140003E1,2.1445612E2,8.580781E0,7.913195E0,1.5101946E1,2.1577082E0,4.9827027E0,2.0045717E0,1.2817128E1,1.6676675E0,8.663672E0,3.4523292E0,1.0424736E1,1.4751723E0,1.5121757E1,9.909534E1,8.292952E0,9.186553E0,5.0956106E0,1.4173952E1,4.974057E1,2.1689297E2,6.869916E1,2.2562375E2,1.4335995E1,5.262605E1],"tree_param":{"num_deleted":"0","num_feature":"1280","num_nodes":"57","size_leaf_vector":"1"}},{"base_weights":[-5.924952E-3,-6.3571346E-1,2.840211E-1,-7.325374E-1,2.1731448E-1,8.2938755E-1,1.4009471E-1,3.2196844E-1,-8.06308E-1,8.1743026E-1,-5.898726E-1,9.6357465E-1,-7.4130945E-2,7.4382305E-1,1.9992398E-2,8.400171E-1,-3.2222456E-1,-8.70938E-1,-5.1730152E-2,-7.283351E-3,9.951595E-1,-8.069763E-1,9.674475E-3,1.0675538E0,-1.7704706E-1,5.075349E-1,-7.3009133E-1,8.9103407E-1,-5.0967586E-1,-1.4427476E-1,3.8461468E-1,2.8277015E-2,-7.222625E-3,9.80563E-3,-1.4413934E-2,-2.3269018E-2,-1.5764541E-3,-1.7069964E-2,1.1120016E-2,2.9899064E-2,-4.4622556E-3,2.6072125E-4,-2.2310602E-2,-5.514649E-3,2.8161004E-2,-1.6254054E-2,1.352682E-2,1.9718617E-2,-8.168381E-3,-2.2536611E-2,4.2590746E-3,-9.474532E-3,2.5822828E-2,-2.0446043E-2,1.1266288E-2,-7.581833E-3,9.415576E-3,1.5887681E-2,-3.9735488E-3],"categories":[],"categories_nodes":[],"categories_segments":[],"categories_sizes":[],"default_left":[0,0,0,0,0,0,0,0,0,0,0,0,0,0,0,0,0,0,0,0,0,0,0,0,0,0,0,0,0,0,0,0,0,0,0,0,0,0,0,0,0,0,0,0,0,0,0,0,0,0,0,0,0,0,0,0,0,0,0],"id":19,"left_children":[1,3,5,7,9,11,13,15,17,19,21,23,25,27,29,31,33,35,37,-1,39,41,-1,43,45,47,49,51,53,55,57,-1,-1,-1,-1,-1,-1,-1,-1,-1,-1,-1,-1,-1,-1,-1,-1,-1,-1,-1,-1,-1,-1,-1,-1,-1,-1,-1,-1],"loss_changes":[2.0423993E2,3.0038086E1,5.945309E1,2.6230011E1,2.2339102E1,1.9660103E1,4.4359356E1,9.870657E0,1.4313217E1,6.733103E0,6.187453E0,1.753218E1,1.2008247E1,2.1354053E1,3.1295797E1,7.133233E0,4.156484E0,1.452034E1,1.1224011E1,0E0,7.0128403E0,1.4664078E0,0E0,1.2593796E1,7.7635612E0,5.621126E0,3.233531E0,2.001912E1,6.5004296E0,3.1150742E1,2.3191595E1,0E0,0E0,0E0,0E0,0E0,0E0,0E0,0E0,0E0,0E0,0E0,0E0,0E0,0E0,0E0,0E0,0E0,0E0,0E0,0E0,0E0,0E0,0E0,0E0,0E0,0E0,0E0,0E0],"parents":[2147483647,0,0,1,1,2,2,3,3,4,4,5,5,6,6,7,7,8,8,9,9,10,10,11,11,12,12,13,13,14,14,15,15,16,16,17,17,18,18,20,20,21,21,23,23,24,24,25,25,26,26,27,27,28,28,29,29,30,30],"right_children":[2,4,6,8,10,12,14,16,18,20,22,24,26,28,30,32,34,36,38,-1,40,42,-1,44,46,48,50,52,54,56,58,-1,-1,-1,-1,-1,-1,-1,-1,-1,-1,-1,-1,-1,-1,-1,-1,-1,-1,-1,-1,-1,-1,-1,-1,-1,-1,-1,-1],"split_conditions":[5.77839E-3,4.9223803E-2,-4.5491148E-2,4.56606E-2,9.534495E-2,8.161159E-2,-1.3565615E-1,-1.7888431E-1,7.3063686E-3,-1.1822967E-1,4.848921E-3,1.253505E-1,-8.546841E-2,4.3232474E-2,1.12225406E-1,-4.3780062E-2,-7.2640195E-2,8.1137575E-2,-6.732952E-2,-7.283351E-3,4.6461884E-2,-1.9795265E-2,9.674475E-3,-4.4503786E-2,-6.2440276E-2,-1.584762E-2,3.0498004E-2,-9.183215E-2,-1.4572658E-1,1.489265E-2,-2.8500918E-2,2.8277015E-2,-7.222625E-3,9.80563E-3,-1.4413934E-2,-2.3269018E-2,-1.5764541E-3,-1.7069964E-2,1.1120016E-2,2.9899064E-2,-4.4622556E-3,2.6072125E-4,-2.2310602E-2,-5.514649E-3,2.8161004E-2,-1.6254054E-2,1.352682E-2,1.9718617E-2,-8.168381E-3,-2.2536611E-2,4.2590746E-3,-9.474532E-3,2.5822828E-2,-2.0446043E-2,1.1266288E-2,-7.581833E-3,9.415576E-3,1.5887681E-2,-3.9735488E-3],"split_indices":[1182,773,37,701,318,530,885,390,8,164,1099,506,1121,1072,1017,6,519,865,204,0,477,536,0,190,367,884,1117,144,1031,949,581,0,0,0,0,0,0,0,0,0,0,0,0,0,0,0,0,0,0,0,0,0,0,0,0,0,0,0,0],"split_type":[0,0,0,0,0,0,0,0,0,0,0,0,0,0,0,0,0,0,0,0,0,0,0,0,0,0,0,0,0,0,0,0,0,0,0,0,0,0,0,0,0,0,0,0,0,0,0,0,0,0,0,0,0,0,0,0,0,0,0],"sum_hessian":[1.107026E3,3.4682422E2,7.602017E2,3.1220108E2,3.4623146E1,1.530045E2,6.0719727E2,1.9145727E1,2.9305536E2,1.9816883E1,1.4806262E1,1.3288594E2,2.011856E1,9.5786514E1,5.1141074E2,9.64138E0,9.504348E0,2.6911713E2,2.3938242E1,2.2151968E0,1.7601686E1,1.2952431E1,1.853832E0,1.2212225E2,1.0763691E1,1.135391E1,8.764649E0,8.72101E1,8.576411E0,3.54972E2,1.5643875E2,7.5869102E0,2.0544698E0,1.7140231E0,7.7903247E0,2.4764409E2,2.1473036E1,9.57918E0,1.4359063E1,1.4807679E1,2.7940063E0,1.8319471E0,1.1120483E1,5.4199023E0,1.1670235E2,6.798616E0,3.965075E0,8.667331E0,2.6865792E0,7.2824273E0,1.4822224E0,8.243627E0,7.896648E1,7.095948E0,1.4804628E0,2.732194E2,8.175261E1,1.05769E2,5.0669754E1],"tree_param":{"num_deleted":"0","num_feature":"1280","num_nodes":"59","size_leaf_vector":"1"}},{"base_weights":[-1.2778856E-2,-6.649331E-1,2.4257831E-1,-7.3874766E-1,2.9621625E-1,8.780302E-2,6.7762786E-1,3.197927E-1,-8.1952226E-1,8.363553E-1,-3.5816982E-1,6.892478E-1,-2.5640367E-2,-6.765172E-2,8.260032E-1,6.0507303E-1,-1.3866453E-2,3.8993287E-1,-8.777772E-1,2.8801888E-2,-5.219341E-2,-1.801099E-2,3.6386338E-1,9.707033E-1,-2.0543936E-1,2.4570589E-1,-2.3090725E-1,5.9870595E-1,-4.8783028E-1,-3.8223457E-1,8.868825E-1,2.2203064E-2,-8.76173E-3,2.0864673E-2,-1.0140119E-2,-2.2696061E-2,1.0852075E-2,8.833443E-3,-1.013593E-2,1.41275795E-2,-2.8329669E-3,-1.0514238E-2,2.7010076E-2,-1.9895446E-2,1.1274582E-2,-1.2386281E-2,1.03174E-2,6.22035E-3,-1.0905523E-2,-6.162428E-3,2.1252232E-2,-1.8598575E-2,1.0311062E-2,5.540403E-3,-1.7633442E-2,-6.641848E-3,2.3607977E-2],"categories":[],"categories_nodes":[],"categories_segments":[],"categories_sizes":[],"default_left":[0,0,0,0,0,0,0,0,0,0,0,0,0,0,0,0,0,0,0,0,0,0,0,0,0,0,0,0,0,0,0,0,0,0,0,0,0,0,0,0,0,0,0,0,0,0,0,0,0,0,0,0,0,0,0,0,0],"id":20,"left_children":[1,3,5,7,9,11,13,15,17,19,21,23,25,27,29,31,-1,33,35,-1,37,-1,39,41,43,45,47,49,51,53,55,-1,-1,-1,-1,-1,-1,-1,-1,-1,-1,-1,-1,-1,-1,-1,-1,-1,-1,-1,-1,-1,-1,-1,-1,-1,-1],"loss_changes":[1.8581389E2,2.3532822E1,5.366216E1,2.6578186E1,1.1092531E1,4.0916252E1,2.3500015E1,8.197259E0,2.1278015E1,5.0340147E0,5.774872E0,2.5104153E1,2.866716E1,1.2916774E1,1.4842552E1,7.816166E0,0E0,7.9528275E0,1.5126419E1,0E0,2.272097E0,0E0,1.2828331E0,1.4731064E1,1.2931144E1,2.9328175E1,3.004615E1,5.1806517E0,8.366267E0,3.387291E0,1.4057983E1,0E0,0E0,0E0,0E0,0E0,0E0,0E0,0E0,0E0,0E0,0E0,0E0,0E0,0E0,0E0,0E0,0E0,0E0,0E0,0E0,0E0,0E0,0E0,0E0,0E0,0E0],"parents":[2147483647,0,0,1,1,2,2,3,3,4,4,5,5,6,6,7,7,8,8,9,9,10,10,11,11,12,12,13,13,14,14,15,15,17,17,18,18,20,20,22,22,23,23,24,24,25,25,26,26,27,27,28,28,29,29,30,30],"right_children":[2,4,6,8,10,12,14,16,18,20,22,24,26,28,30,32,-1,34,36,-1,38,-1,40,42,44,46,48,50,52,54,56,-1,-1,-1,-1,-1,-1,-1,-1,-1,-1,-1,-1,-1,-1,-1,-1,-1,-1,-1,-1,-1,-1,-1,-1,-1,-1],"split_conditions":[-1.1302386E-2,9.330005E-2,2.1634035E-2,-2.5760196E-2,7.639576E-2,-1.3565615E-1,-3.801022E-2,5.436174E-2,-4.9052704E-2,1.6239388E-1,1.3267162E-1,2.3332496E-1,-1.3440916E-1,-2.8140778E-2,4.475644E-3,1.6648467E-1,-1.3866453E-2,5.442174E-2,1.5510187E-1,2.8801888E-2,9.97669E-2,-1.801099E-2,-1.4277403E-1,-2.460486E-1,-7.6273344E-2,-5.5045774E-3,-1.1588495E-2,-1.636177E-1,1.3347413E-1,3.6317925E-3,-1.0900673E-1,2.2203064E-2,-8.76173E-3,2.0864673E-2,-1.0140119E-2,-2.2696061E-2,1.0852075E-2,8.833443E-3,-1.013593E-2,1.41275795E-2,-2.8329669E-3,-1.0514238E-2,2.7010076E-2,-1.9895446E-2,1.1274582E-2,-1.2386281E-2,1.03174E-2,6.22035E-3,-1.0905523E-2,-6.162428E-3,2.1252232E-2,-1.8598575E-2,1.0311062E-2,5.540403E-3,-1.7633442E-2,-6.641848E-3,2.3607977E-2],"split_indices":[1182,1027,641,801,633,885,1106,357,995,1198,273,1196,457,219,126,537,0,1270,1202,0,377,0,503,271,326,10,599,441,723,178,526,0,0,0,0,0,0,0,0,0,0,0,0,0,0,0,0,0,0,0,0,0,0,0,0,0,0],"split_type":[0,0,0,0,0,0,0,0,0,0,0,0,0,0,0,0,0,0,0,0,0,0,0,0,0,0,0,0,0,0,0,0,0,0,0,0,0,0,0,0,0,0,0,0,0,0,0,0,0,0,0,0,0,0,0,0,0],"sum_hessian":[1.1044443E3,3.0817096E2,7.962734E2,2.8742966E2,2.0741299E1,5.9243005E2,2.038433E2,1.916967E1,2.6825998E2,1.0485078E1,1.0256221E1,8.937158E1,5.0305844E2,3.436481E1,1.694785E2,1.5825496E1,3.3441744E0,1.0820327E1,2.5743967E2,6.3865366E0,4.098541E0,6.7740664E0,3.4821546E0,6.761234E1,2.1759241E1,2.1616759E2,2.8689087E2,1.2342941E1,2.202187E1,6.671368E0,1.6280713E2,1.2442107E1,3.3833883E0,6.719742E0,4.1005845E0,2.5209349E2,5.346173E0,1.9125117E0,2.1860292E0,1.6649902E0,1.8171644E0,4.1103015E0,6.350204E1,1.0777384E1,1.0981858E1,3.8123386E1,1.780442E2,8.63711E1,2.0051976E2,2.9305313E0,9.412411E0,1.7833858E1,4.18801E0,2.9951031E0,3.6762652E0,7.678883E0,1.5512825E2],"tree_param":{"num_deleted":"0","num_feature":"1280","num_nodes":"57","size_leaf_vector":"1"}},{"base_weights":[2.209984E-3,-5.559324E-1,3.083443E-1,1.3887896E-1,-6.628381E-1,8.114683E-2,6.193928E-1,9.175283E-1,-2.8898233E-1,-7.532886E-1,3.758932E-2,3.951425E-1,-2.4074696E-1,6.223627E-2,7.6736665E-1,1.1325363E0,-6.0118E-3,-6.6053474E-1,4.4111547E-1,-8.281595E-1,1.8775928E-1,5.9671926E-1,-5.674275E-1,-5.441421E-1,5.295556E-1,5.225354E-1,-4.4934016E-1,6.7539704E-1,-2.916499E-1,8.7075937E-1,-1.0898474E-1,-3.5525842E-3,3.2939203E-2,-2.266505E-2,1.0296503E-2,2.182147E-2,-9.439351E-3,-2.1530699E-2,1.1701059E-2,-1.902393E-2,1.9286297E-2,-9.57451E-3,2.5633724E-2,1.3709053E-2,-2.1251652E-2,-2.5849584E-2,7.915295E-3,-1.0207926E-2,1.5901448E-2,-1.0953514E-2,2.2415658E-2,-1.3971682E-2,6.9901906E-3,-7.798004E-3,2.3781551E-2,1.8109357E-2,-1.2214523E-2,2.3395425E-2,-2.2342177E-3,1.40633825E-2,-1.6793068E-2],"categories":[],"categories_nodes":[],"categories_segments":[],"categories_sizes":[],"default_left":[0,0,0,0,0,0,0,0,0,0,0,0,0,0,0,0,0,0,0,0,0,0,0,0,0,0,0,0,0,0,0,0,0,0,0,0,0,0,0,0,0,0,0,0,0,0,0,0,0,0,0,0,0,0,0,0,0,0,0,0,0],"id":21,"left_children":[1,3,5,7,9,11,13,15,17,19,21,23,25,27,29,31,-1,33,35,37,39,41,43,45,47,49,51,53,55,57,59,-1,-1,-1,-1,-1,-1,-1,-1,-1,-1,-1,-1,-1,-1,-1,-1,-1,-1,-1,-1,-1,-1,-1,-1,-1,-1,-1,-1,-1,-1],"loss_changes":[1.8955824E2,2.9719376E1,5.0338783E1,2.0571121E1,2.1802444E1,4.3063034E1,2.458471E1,6.979965E0,1.2873953E1,2.2228134E1,1.702069E1,2.8818008E1,3.4992283E1,1.6225319E1,2.2088501E1,5.8951454E0,0E0,1.0255382E1,8.185806E0,1.6879105E1,1.8634916E1,1.3431904E1,1.0612359E1,1.47063055E1,2.1549786E1,1.993118E1,1.4979881E1,9.3549E0,1.1935135E1,1.5295441E1,1.3804454E1,0E0,0E0,0E0,0E0,0E0,0E0,0E0,0E0,0E0,0E0,0E0,0E0,0E0,0E0,0E0,0E0,0E0,0E0,0E0,0E0,0E0,0E0,0E0,0E0,0E0,0E0,0E0,0E0,0E0,0E0],"parents":[2147483647,0,0,1,1,2,2,3,3,4,4,5,5,6,6,7,7,8,8,9,9,10,10,11,11,12,12,13,13,14,14,15,15,17,17,18,18,19,19,20,20,21,21,22,22,23,23,24,24,25,25,26,26,27,27,28,28,29,29,30,30],"right_children":[2,4,6,8,10,12,14,16,18,20,22,24,26,28,30,32,-1,34,36,38,40,42,44,46,48,50,52,54,56,58,60,-1,-1,-1,-1,-1,-1,-1,-1,-1,-1,-1,-1,-1,-1,-1,-1,-1,-1,-1,-1,-1,-1,-1,-1,-1,-1,-1,-1,-1,-1],"split_conditions":[7.5716384E-2,-6.468639E-2,1.6059267E-3,2.0487925E-2,1.2724635E-2,-8.16859E-2,-7.488864E-3,1.6896904E-1,-8.62981E-2,1.15888596E-1,1.0122096E-3,-8.4438816E-2,-1.6152248E-1,7.805146E-2,-1.4645678E-2,-3.446518E-2,-6.0118E-3,6.6797603E-3,-9.031109E-3,-4.674281E-2,-1.2265106E-3,1.086278E-2,-7.3262505E-2,-8.094892E-2,-1.0301372E-1,3.992228E-2,4.184045E-2,2.1867279E-2,-1.6683413E-2,-3.5373305E-3,-1.5851067E-1,-3.5525842E-3,3.2939203E-2,-2.266505E-2,1.0296503E-2,2.182147E-2,-9.439351E-3,-2.1530699E-2,1.1701059E-2,-1.902393E-2,1.9286297E-2,-9.57451E-3,2.5633724E-2,1.3709053E-2,-2.1251652E-2,-2.5849584E-2,7.915295E-3,-1.0207926E-2,1.5901448E-2,-1.0953514E-2,2.2415658E-2,-1.3971682E-2,6.9901906E-3,-7.798004E-3,2.3781551E-2,1.8109357E-2,-1.2214523E-2,2.3395425E-2,-2.2342177E-3,1.40633825E-2,-1.6793068E-2],"split_indices":[1230,75,641,979,8,885,401,680,125,117,354,527,441,298,835,963,0,889,416,1020,1036,1255,478,1069,1193,1036,1071,886,307,983,969,0,0,0,0,0,0,0,0,0,0,0,0,0,0,0,0,0,0,0,0,0,0,0,0,0,0,0,0,0,0],"split_type":[0,0,0,0,0,0,0,0,0,0,0,0,0,0,0,0,0,0,0,0,0,0,0,0,0,0,0,0,0,0,0,0,0,0,0,0,0,0,0,0,0,0,0,0,0,0,0,0,0,0,0,0,0,0,0,0,0,0,0,0,0],"sum_hessian":[1.0978551E3,3.8720502E2,7.1065E2,5.1402496E1,3.3580255E2,4.1487656E2,2.9577347E2,1.5891029E1,3.5511467E1,2.9701276E2,3.8789787E1,2.0935129E2,2.0552525E2,6.3786118E1,2.3198735E2,1.3520316E1,2.3707132E0,2.3898256E1,1.1613209E1,2.757636E2,2.124913E1,2.0200432E1,1.8589355E1,2.4010073E1,1.8534122E2,4.2251183E1,1.6327408E2,2.142724E1,4.2358875E1,2.0753853E2,2.444883E1,1.9973127E0,1.1523004E1,2.0049095E1,3.8491611E0,7.307212E0,4.3059974E0,2.6945108E2,6.3125544E0,7.4527035E0,1.3796426E1,6.418625E0,1.3781807E1,2.73797E0,1.5851385E1,1.4471754E1,9.538319E0,1.7974709E1,1.6736652E2,1.1708504E1,3.0542679E1,1.4242392E2,2.0850153E1,4.625886E0,1.6801355E1,4.460787E0,3.7898087E1,1.9312367E2,1.4414845E1,1.116829E1,1.32805395E1],"tree_param":{"num_deleted":"0","num_feature":"1280","num_nodes":"61","size_leaf_vector":"1"}},{"base_weights":[1.8038884E-2,-5.9455144E-1,2.7013388E-1,-6.7225945E-1,4.0925568E-1,7.255765E-1,1.2443941E-1,-7.4556124E-1,4.2052123E-1,8.030536E-1,-4.5859239E-1,-9.507334E-2,8.7405264E-1,5.545693E-1,-2.8034989E-3,-8.069668E-1,2.0248422E-1,-2.4616815E-1,8.40442E-1,1.0313913E0,-1.4896028E-1,-1.6500795E-2,5.3966637E-3,4.9994534E-1,-5.913006E-1,9.41413E-1,-3.9717868E-1,7.387263E-1,-3.7685007E-1,-2.4624823E-1,2.221388E-1,-2.1340348E-2,2.7385307E-3,-1.19015E-2,2.1318935E-2,-1.528743E-2,8.073374E-3,2.7720641E-2,-6.423448E-3,3.0105153E-2,-2.98744E-3,-9.433776E-3,5.330633E-3,-9.934209E-3,2.1272799E-2,9.0849E-3,-2.1373566E-2,2.490413E-2,-1.1070564E-2,8.178222E-3,-1.6744396E-2,2.4715832E-2,-3.0998706E-3,-1.8642027E-2,1.5209087E-2,1.1036712E-3,-1.8350232E-2,-1.2256866E-2,8.992667E-3],"categories":[],"categories_nodes":[],"categories_segments":[],"categories_sizes":[],"default_left":[0,0,0,0,0,0,0,0,0,0,0,0,0,0,0,0,0,0,0,0,0,0,0,0,0,0,0,0,0,0,0,0,0,0,0,0,0,0,0,0,0,0,0,0,0,0,0,0,0,0,0,0,0,0,0,0,0,0,0],"id":22,"left_children":[1,3,5,7,9,11,13,15,17,19,21,23,25,27,29,31,33,35,37,39,41,-1,-1,43,45,47,49,51,53,55,57,-1,-1,-1,-1,-1,-1,-1,-1,-1,-1,-1,-1,-1,-1,-1,-1,-1,-1,-1,-1,-1,-1,-1,-1,-1,-1,-1,-1],"loss_changes":[1.710786E2,2.6782036E1,5.153863E1,2.5996658E1,1.12769375E1,2.3502007E1,3.2921394E1,1.7537735E1,7.537371E0,5.3459663E0,2.51277E0,1.1784148E1,1.5903336E1,2.515614E1,2.6041685E1,1.3671341E1,1.2208423E1,3.9498787E0,6.297057E0,4.4650726E0,1.2281799E0,0E0,0E0,7.9799047E0,7.3165784E0,1.5932907E1,3.7303548E0,2.6646301E1,1.2471749E1,3.294615E1,2.5876278E1,0E0,0E0,0E0,0E0,0E0,0E0,0E0,0E0,0E0,0E0,0E0,0E0,0E0,0E0,0E0,0E0,0E0,0E0,0E0,0E0,0E0,0E0,0E0,0E0,0E0,0E0,0E0,0E0],"parents":[2147483647,0,0,1,1,2,2,3,3,4,4,5,5,6,6,7,7,8,8,9,9,10,10,11,11,12,12,13,13,14,14,15,15,16,16,17,17,18,18,19,19,20,20,23,23,24,24,25,25,26,26,27,27,28,28,29,29,30,30],"right_children":[2,4,6,8,10,12,14,16,18,20,22,24,26,28,30,32,34,36,38,40,42,-1,-1,44,46,48,50,52,54,56,58,-1,-1,-1,-1,-1,-1,-1,-1,-1,-1,-1,-1,-1,-1,-1,-1,-1,-1,-1,-1,-1,-1,-1,-1,-1,-1,-1,-1],"split_conditions":[-2.6486835E-3,8.3536565E-2,-3.7594553E-2,1.471621E-1,1.0014658E-1,-1.4258518E-4,-1.2374859E-1,1.5094797E-1,-4.169643E-2,4.401058E-4,1.0085464E-1,-8.2966335E-2,5.8375385E-2,4.6209466E-2,3.0204058E-2,9.330005E-2,1.1606598E-1,-5.3622045E-2,-1.4958837E-2,5.2463446E-2,3.7949607E-2,-1.6500795E-2,5.3966637E-3,-4.6596214E-2,2.6411617E-2,9.734104E-2,-8.747578E-2,9.108607E-2,1.1358939E-1,1.24322265E-1,-4.7398485E-2,-2.1340348E-2,2.7385307E-3,-1.19015E-2,2.1318935E-2,-1.528743E-2,8.073374E-3,2.7720641E-2,-6.423448E-3,3.0105153E-2,-2.98744E-3,-9.433776E-3,5.330633E-3,-9.934209E-3,2.1272799E-2,9.0849E-3,-2.1373566E-2,2.490413E-2,-1.1070564E-2,8.178222E-3,-1.6744396E-2,2.4715832E-2,-3.0998706E-3,-1.8642027E-2,1.5209087E-2,1.1036712E-3,-1.8350232E-2,-1.2256866E-2,8.992667E-3],"split_indices":[1182,1115,37,799,1251,844,885,919,621,443,1042,220,482,951,1164,1027,194,26,973,759,1209,0,0,351,1266,985,931,96,1114,748,1247,0,0,0,0,0,0,0,0,0,0,0,0,0,0,0,0,0,0,0,0,0,0,0,0,0,0,0,0],"split_type":[0,0,0,0,0,0,0,0,0,0,0,0,0,0,0,0,0,0,0,0,0,0,0,0,0,0,0,0,0,0,0,0,0,0,0,0,0,0,0,0,0,0,0,0,0,0,0,0,0,0,0,0,0,0,0,0,0,0,0],"sum_hessian":[1.0960496E3,3.1726697E2,7.787826E2,2.962368E2,2.1030209E1,1.8319325E2,5.9558936E2,2.7932996E2,1.6906803E1,1.4761855E1,6.2683525E0,2.8383749E1,1.5480951E2,1.3155136E2,4.64038E2,2.6314313E2,1.618683E1,7.4546685E0,9.452134E0,1.1518844E1,3.2430115E0,4.8736167E0,1.3947358E0,1.2887446E1,1.5496302E1,1.4843842E2,6.37109E0,1.10830055E2,2.0721312E1,2.2259167E2,2.4144632E2,2.4905724E2,1.4085898E1,8.701868E0,7.4849615E0,4.2523026E0,3.2023656E0,7.475077E0,1.977057E0,9.680371E0,1.8384728E0,1.8236362E0,1.4193753E0,3.4662616E0,9.421185E0,2.960362E0,1.253594E1,1.4357474E2,4.8636713E0,1.4639065E0,4.907183E0,8.469459E1,2.613547E1,1.6039742E1,4.68157E0,1.4335866E2,7.923302E1,3.7180042E1,2.0426627E2],"tree_param":{"num_deleted":"0","num_feature":"1280","num_nodes":"59","size_leaf_vector":"1"}},{"base_weights":[-3.7217725E-3,2.7319667E-1,-5.0280344E-1,-3.3946988E-1,3.6884236E-1,-5.610681E-1,8.0494726E-1,1.6537973E-1,-8.429719E-1,5.887199E-1,7.611503E-2,-1.0373057E-1,-7.6356316E-1,-5.9548845E-3,1.0332414E0,-3.5814363E-1,7.34291E-1,2.0747268E-1,-1.0335484E0,6.861336E-1,-1.0852951E-1,7.4898016E-1,-1.0787645E-1,6.2949E-1,-4.679651E-1,-8.265985E-1,3.4964907E-1,1.2163852E0,-4.700653E-3,-2.0142963E-2,7.1865725E-3,-4.8023993E-3,2.9206902E-2,-9.010603E-3,1.4770365E-2,7.0199873E-3,-2.830469E-2,9.025914E-3,2.4002107E-2,-1.1092617E-2,1.1502226E-2,-3.68107E-3,2.4387918E-2,-6.57329E-3,1.1381079E-2,-6.2572192E-3,2.2009471E-2,7.566356E-3,-1.8826013E-2,-2.1276174E-2,1.2400805E-2,-1.164663E-2,2.0376809E-2,3.3037044E-2,2.4642092E-3],"categories":[],"categories_nodes":[],"categories_segments":[],"categories_sizes":[],"default_left":[0,0,0,0,0,0,0,0,0,0,0,0,0,0,0,0,0,0,0,0,0,0,0,0,0,0,0,0,0,0,0,0,0,0,0,0,0,0,0,0,0,0,0,0,0,0,0,0,0,0,0,0,0,0,0],"id":23,"left_children":[1,3,5,7,9,11,13,15,17,19,21,23,25,-1,27,29,31,33,35,37,39,41,43,45,47,49,51,53,-1,-1,-1,-1,-1,-1,-1,-1,-1,-1,-1,-1,-1,-1,-1,-1,-1,-1,-1,-1,-1,-1,-1,-1,-1,-1,-1],"loss_changes":[1.5379466E2,4.2663063E1,3.2858063E1,2.6132975E1,3.9767128E1,3.506375E1,6.0334196E0,1.7768684E1,1.14119E1,2.4490883E1,3.430713E1,3.491214E1,2.0255783E1,0E0,5.1181602E0,1.0846998E1,1.2837663E1,4.0352464E0,8.075916E0,2.6229813E1,1.0570182E1,1.3319275E1,2.025303E1,1.1223921E1,2.075694E1,1.2845184E1,9.27017E0,1.2334785E0,0E0,0E0,0E0,0E0,0E0,0E0,0E0,0E0,0E0,0E0,0E0,0E0,0E0,0E0,0E0,0E0,0E0,0E0,0E0,0E0,0E0,0E0,0E0,0E0,0E0,0E0,0E0],"parents":[2147483647,0,0,1,1,2,2,3,3,4,4,5,5,6,6,7,7,8,8,9,9,10,10,11,11,12,12,14,14,15,15,16,16,17,17,18,18,19,19,20,20,21,21,22,22,23,23,24,24,25,25,26,26,27,27],"right_children":[2,4,6,8,10,12,14,16,18,20,22,24,26,-1,28,30,32,34,36,38,40,42,44,46,48,50,52,54,-1,-1,-1,-1,-1,-1,-1,-1,-1,-1,-1,-1,-1,-1,-1,-1,-1,-1,-1,-1,-1,-1,-1,-1,-1,-1,-1],"split_conditions":[1.6727393E-2,-8.490283E-2,2.484343E-2,1.3679084E-1,3.2761246E-2,6.1446764E-2,-5.116727E-2,-5.952087E-2,-4.025483E-2,1.0249794E-1,1.3291488E-2,1.1791092E-2,1.21050775E-1,-5.9548845E-3,5.4758452E-2,1.0131509E-1,-9.1002226E-2,-5.0540518E-2,-7.693401E-2,1.8288294E-2,2.6485419E-2,-3.3241533E-2,5.0393757E-3,9.751461E-3,-2.1910505E-2,6.1518025E-2,-6.306773E-2,4.9035892E-2,-4.700653E-3,-2.0142963E-2,7.1865725E-3,-4.8023993E-3,2.9206902E-2,-9.010603E-3,1.4770365E-2,7.0199873E-3,-2.830469E-2,9.025914E-3,2.4002107E-2,-1.1092617E-2,1.1502226E-2,-3.68107E-3,2.4387918E-2,-6.57329E-3,1.1381079E-2,-6.2572192E-3,2.2009471E-2,